~o
<STREAMINFO> 1 25
<VECSIZE> 25<NULLD><MFCC_D_N_Z_0><DIAGC>
~s "silst"
<MEAN> 25
 -5.508099e+000 -2.792571e+000 2.106771e-001 3.379708e+000 5.668707e+000 1.142740e+000 2.924519e+000 3.824153e+000 1.725243e+000 -8.680155e-001 1.559362e+000 2.820343e+000 -1.805420e-002 1.418764e-002 -2.857703e-003 1.540481e-002 -5.969132e-002 1.114472e-002 -2.595935e-002 -6.604735e-002 -2.658645e-002 -1.271687e-002 9.712828e-003 -3.276254e-002 -1.219193e-001
<VARIANCE> 25
 1.703001e+001 1.173976e+001 1.675689e+001 1.810844e+001 2.421059e+001 2.673918e+001 2.514032e+001 3.113439e+001 2.623326e+001 2.702361e+001 3.156725e+001 1.964824e+001 7.094404e-001 7.019957e-001 9.636273e-001 1.063262e+000 1.610191e+000 1.801830e+000 1.812442e+000 2.073129e+000 1.853902e+000 1.937798e+000 1.770982e+000 1.541580e+000 5.519024e-001
<GCONST> 8.649450e+001
~h "C"
<BEGINHMM>
<NUMSTATES> 5
<STATE> 2
<MEAN> 25
 -6.520065e+000 2.831703e+000 4.666046e+000 2.682113e+000 2.406322e+000 2.156147e+000 5.000449e-001 7.115860e-001 3.163415e+000 4.163117e-001 2.704624e+000 1.406828e+000 -4.166851e+000 1.854030e-001 -3.010676e-001 -1.127542e+000 8.390572e-001 6.526220e-001 2.735027e-001 -2.563099e-001 7.400489e-001 -4.178620e-001 1.347046e+000 3.114032e-001 7.944954e-001
<VARIANCE> 25
 5.834551e+001 2.604915e+001 2.607174e+001 2.831037e+001 2.945376e+001 2.903237e+001 3.778656e+001 4.045856e+001 3.183697e+001 3.036551e+001 3.448016e+001 2.197770e+001 3.452464e+000 3.741065e+000 2.684969e+000 3.584720e+000 4.149545e+000 3.416531e+000 3.948972e+000 3.800858e+000 3.784353e+000 3.858670e+000 3.753412e+000 2.170460e+000 5.649880e+000
<GCONST> 1.041587e+002
<STATE> 3
<MEAN> 25
 -2.151226e+001 4.075096e+000 3.452745e+000 -2.558489e+000 4.002283e+000 2.704283e+000 2.348986e+000 -1.805668e-001 5.389865e+000 -3.324799e+000 5.642810e+000 3.069602e+000 -5.305477e-001 -2.493778e-001 -1.430472e-001 -4.984308e-002 -3.949163e-002 -4.620712e-001 4.939949e-001 3.902940e-001 -1.541193e-001 -6.639096e-001 -3.758406e-002 1.143986e-001 5.747687e-001
<VARIANCE> 25
 1.330478e+001 3.262081e+001 1.709816e+001 1.704739e+001 2.276973e+001 3.155681e+001 4.818943e+001 4.287590e+001 3.016774e+001 3.101546e+001 4.661811e+001 1.789030e+001 6.056159e+000 2.066283e+000 1.543239e+000 1.981868e+000 2.039330e+000 2.277046e+000 2.953886e+000 2.829421e+000 2.531284e+000 2.217619e+000 2.078457e+000 1.687158e+000 1.721287e+000
<GCONST> 9.629949e+001
<STATE> 4
<MEAN> 25
 -1.054648e+001 1.486122e+000 3.478714e+000 6.807005e-001 1.975626e+000 -2.136364e+000 1.521569e+000 8.032595e-001 2.655874e+000 -4.542066e+000 1.324733e+000 1.297101e+000 5.174962e+000 -8.620759e-001 -1.712066e-001 3.664086e-001 -1.384130e+000 -1.413011e+000 -1.408026e+000 -6.552552e-002 -5.650151e-001 1.361308e-002 -1.669046e+000 -9.305080e-001 2.451786e-001
<VARIANCE> 25
 7.404285e+001 2.420103e+001 1.983924e+001 2.251632e+001 3.195935e+001 4.568181e+001 3.537458e+001 3.599675e+001 3.481440e+001 3.883207e+001 4.442919e+001 2.021825e+001 3.220407e+000 2.964979e+000 2.386635e+000 2.262671e+000 4.159965e+000 3.872386e+000 4.377616e+000 4.131376e+000 3.899067e+000 3.334477e+000 4.625400e+000 2.276468e+000 1.490201e+000
<GCONST> 1.029207e+002
<TRANSP> 5
 0.000000e+000 1.000000e+000 0.000000e+000 0.000000e+000 0.000000e+000
 0.000000e+000 7.616539e-001 2.383461e-001 0.000000e+000 0.000000e+000
 0.000000e+000 0.000000e+000 7.122298e-001 2.877702e-001 0.000000e+000
 0.000000e+000 0.000000e+000 0.000000e+000 7.005734e-001 2.994266e-001
 0.000000e+000 0.000000e+000 0.000000e+000 0.000000e+000 0.000000e+000
<ENDHMM>
~h "L"
<BEGINHMM>
<NUMSTATES> 5
<STATE> 2
<MEAN> 25
 5.297696e-001 1.939287e+000 6.789021e+000 3.715971e+000 -3.223766e-001 -5.319953e+000 -2.968155e+000 1.112315e+000 -2.314274e+000 -3.669052e+000 -1.044244e+000 1.071301e+000 1.351176e+000 -3.277031e-001 1.382207e+000 4.540956e-003 -1.271617e+000 -1.701235e+000 -8.994641e-001 6.910179e-001 -6.298865e-001 -9.776102e-001 -3.764562e-001 5.828542e-001 1.260224e+000
<VARIANCE> 25
 2.952996e+001 2.333790e+001 2.971748e+001 3.807645e+001 4.298747e+001 4.500291e+001 3.294418e+001 2.729285e+001 3.420820e+001 2.876400e+001 2.751215e+001 2.100358e+001 4.225552e+000 3.121454e+000 3.295974e+000 4.355942e+000 3.505584e+000 4.074384e+000 5.766322e+000 4.341586e+000 3.925862e+000 4.236616e+000 3.577495e+000 3.061084e+000 2.051262e+000
<GCONST> 1.041800e+002
<STATE> 3
<MEAN> 25
 3.220059e+000 -7.867262e-001 7.592441e+000 1.914657e+000 -3.668101e+000 -9.183098e+000 -5.254782e+000 2.568794e+000 -3.274220e+000 -3.634113e+000 -1.116546e+000 3.256772e+000 2.589579e-001 -1.090296e+000 -4.887732e-001 -9.601183e-001 -7.900519e-001 -6.374055e-001 -6.397625e-001 4.342683e-001 4.088237e-001 9.667920e-001 -1.807386e-001 5.742422e-001 1.055905e+000
<VARIANCE> 25
 7.210244e+000 1.637966e+001 2.211471e+001 5.173449e+001 3.367237e+001 2.346878e+001 3.283213e+001 2.129947e+001 3.161512e+001 3.193710e+001 2.853396e+001 2.370687e+001 1.903508e+000 2.080950e+000 3.163031e+000 2.641505e+000 3.432853e+000 3.096195e+000 5.640042e+000 5.248403e+000 3.674884e+000 4.236932e+000 3.082988e+000 2.085507e+000 1.019174e+000
<GCONST> 9.829359e+001
<STATE> 4
<MEAN> 25
 3.137108e+000 -2.511078e+000 3.993036e+000 -3.725110e-002 -4.340137e+000 -8.308446e+000 -5.138356e+000 4.403539e-001 -1.012207e+000 -9.860052e-001 -1.338784e+000 4.020369e+000 9.048119e-002 -6.315764e-001 -1.353738e+000 -9.131722e-001 4.774060e-002 8.577228e-001 3.983341e-001 -4.091861e-001 7.431702e-001 1.277603e+000 2.823963e-001 -6.338011e-001 5.252482e-001
<VARIANCE> 25
 9.605802e+000 1.838679e+001 2.597446e+001 4.403605e+001 3.028903e+001 2.345569e+001 5.983703e+001 7.710239e+001 3.399949e+001 4.314100e+001 3.727157e+001 3.332118e+001 7.211427e-001 2.223438e+000 2.748855e+000 2.108615e+000 2.999775e+000 2.235846e+000 5.162219e+000 6.364185e+000 3.707637e+000 3.864397e+000 3.434862e+000 2.857916e+000 7.325967e-001
<GCONST> 9.984062e+001
<TRANSP> 5
 0.000000e+000 1.000000e+000 0.000000e+000 0.000000e+000 0.000000e+000
 0.000000e+000 4.500577e-001 5.499423e-001 0.000000e+000 0.000000e+000
 0.000000e+000 0.000000e+000 4.178792e-001 5.821208e-001 0.000000e+000
 0.000000e+000 0.000000e+000 0.000000e+000 4.918751e-001 5.081249e-001
 0.000000e+000 0.000000e+000 0.000000e+000 0.000000e+000 0.000000e+000
<ENDHMM>
~h "N"
<BEGINHMM>
<NUMSTATES> 5
<STATE> 2
<MEAN> 25
 4.526166e+000 3.298300e+000 4.353473e+000 -2.248902e+000 -1.598264e+000 -3.988314e-001 -5.782592e-001 -1.755622e+000 -5.373372e+000 -3.533474e+000 -1.653249e-001 2.077971e-001 7.517208e-001 8.312466e-001 -2.367845e-002 -5.038101e-001 1.529178e-001 5.620523e-001 -4.745116e-001 -6.131810e-001 -8.534821e-001 -7.306509e-002 3.301977e-001 4.349524e-002 -3.166562e-001
<VARIANCE> 25
 1.715374e+001 1.946827e+001 2.077434e+001 3.142661e+001 3.330420e+001 2.642296e+001 3.348489e+001 4.084266e+001 3.521342e+001 3.588351e+001 3.146737e+001 2.992015e+001 2.121772e+000 2.456735e+000 2.130720e+000 3.038439e+000 4.217939e+000 3.083652e+000 3.597530e+000 4.498000e+000 3.194340e+000 2.753884e+000 2.971725e+000 2.366239e+000 2.093301e+000
<GCONST> 9.996104e+001
<STATE> 3
<MEAN> 25
 3.626002e+000 3.085151e+000 5.711575e+000 -4.009762e+000 -3.288473e+000 -6.447828e-001 8.783967e-001 -2.278049e-001 -5.422080e+000 -3.495732e+000 7.182744e-001 1.189494e+000 -6.321455e-001 -1.075786e+000 3.075486e-001 -1.315440e-001 -8.200182e-001 -6.336174e-001 7.322547e-001 1.270926e+000 5.414106e-001 5.493436e-002 -1.393842e-001 2.230128e-001 9.481488e-001
<VARIANCE> 25
 1.410067e+001 1.968269e+001 2.333298e+001 2.774747e+001 3.863473e+001 2.984971e+001 4.473008e+001 4.569352e+001 3.538172e+001 2.749199e+001 2.472969e+001 2.669218e+001 1.371390e+000 2.211352e+000 1.575101e+000 2.136985e+000 3.519282e+000 2.697878e+000 3.825557e+000 3.564960e+000 2.632362e+000 2.352772e+000 2.516866e+000 1.950604e+000 1.093279e+000
<GCONST> 9.678183e+001
<STATE> 4
<MEAN> 25
 1.666396e-001 -5.591066e-001 4.178695e+000 -1.064390e+000 -1.107036e+000 -8.123684e-001 3.183752e+000 3.511672e+000 -1.757855e+000 -2.967742e+000 -2.186123e-001 1.647708e+000 -1.947742e-001 -7.255123e-001 -5.144969e-001 4.774117e-001 2.224883e-001 -3.427108e-001 1.229624e-001 6.311536e-001 7.569863e-001 1.089353e-001 -4.807185e-001 -1.604198e-001 2.177753e-001
<VARIANCE> 25
 3.015601e+001 2.536634e+001 2.979345e+001 3.368296e+001 6.329165e+001 3.690465e+001 4.818394e+001 5.237477e+001 4.128254e+001 3.469423e+001 2.619146e+001 2.380317e+001 1.055185e+000 2.145525e+000 2.116877e+000 1.851519e+000 3.237224e+000 2.048433e+000 2.492953e+000 2.572484e+000 3.024075e+000 2.332854e+000 2.379378e+000 1.972413e+000 7.806301e-001
<GCONST> 9.797514e+001
<TRANSP> 5
 0.000000e+000 1.000000e+000 0.000000e+000 0.000000e+000 0.000000e+000
 0.000000e+000 6.087529e-001 3.912470e-001 0.000000e+000 0.000000e+000
 0.000000e+000 0.000000e+000 6.555513e-001 3.444486e-001 0.000000e+000
 0.000000e+000 0.000000e+000 0.000000e+000 3.692135e-001 6.307865e-001
 0.000000e+000 0.000000e+000 0.000000e+000 0.000000e+000 0.000000e+000
<ENDHMM>
~h "S"
<BEGINHMM>
<NUMSTATES> 5
<STATE> 2
<MEAN> 25
 -8.910592e+000 4.148099e+000 8.756406e+000 4.522926e+000 2.475899e+000 -2.499664e+000 2.504530e+000 1.739099e-001 2.550199e+000 -3.777777e+000 2.085454e+000 7.839770e-001 -5.012513e+000 7.656337e-001 5.909612e-002 1.098833e+000 2.929020e+000 1.220150e+000 1.541978e+000 1.230481e+000 1.783134e+000 -3.798479e-001 1.404216e+000 1.017808e+000 2.259857e-001
<VARIANCE> 25
 5.564598e+001 2.683292e+001 3.064199e+001 3.938283e+001 5.595682e+001 4.071976e+001 3.472301e+001 4.496978e+001 4.025261e+001 3.781868e+001 4.139331e+001 2.271487e+001 1.600850e+000 4.801573e+000 3.425291e+000 3.890436e+000 4.893294e+000 4.062991e+000 4.120904e+000 3.936795e+000 3.327097e+000 4.250552e+000 5.636645e+000 2.552772e+000 6.838632e-001
<GCONST> 1.049511e+002
<STATE> 3
<MEAN> 25
 -2.292639e+001 2.340055e+000 5.424873e+000 6.663338e-001 5.604745e+000 2.881952e-001 3.543573e+000 1.661066e+000 5.742702e+000 -4.598740e+000 5.666520e+000 3.369668e+000 -4.309472e-001 -4.464702e-001 -6.081029e-001 -6.242425e-001 -8.079328e-002 -5.802362e-003 -2.877776e-001 -5.770184e-002 9.098043e-002 -1.837257e-001 -1.104656e-001 1.234523e-001 -3.172976e-001
<VARIANCE> 25
 1.151083e+001 4.475626e+001 1.613075e+001 2.921659e+001 2.087553e+001 4.678781e+001 3.519586e+001 4.045309e+001 3.068318e+001 3.379137e+001 5.995789e+001 2.255903e+001 3.871174e+000 1.088857e+000 1.423830e+000 1.792159e+000 1.584464e+000 1.905568e+000 2.141789e+000 2.656187e+000 2.198702e+000 2.043069e+000 2.021904e+000 1.656819e+000 3.684495e-001
<GCONST> 9.357771e+001
<STATE> 4
<MEAN> 25
 -1.178568e+001 6.932315e-001 2.569490e+000 9.857279e-001 3.627101e+000 -9.569362e-001 6.437269e-001 1.326959e+000 4.275735e+000 -4.344383e+000 1.656736e+000 1.475573e+000 4.420725e+000 -1.979552e-001 -5.598693e-001 -3.507021e-001 -1.405049e+000 -7.196873e-001 -9.575168e-001 -5.581289e-001 -8.113803e-001 2.592719e-001 -9.720886e-001 -9.544338e-001 -3.132371e-001
<VARIANCE> 25
 6.956087e+001 2.953623e+001 2.038768e+001 2.464293e+001 3.722066e+001 4.525434e+001 3.616778e+001 4.407561e+001 3.569408e+001 4.213209e+001 4.996659e+001 2.373017e+001 5.759722e+000 2.672427e+000 2.549601e+000 3.324221e+000 3.847252e+000 4.119321e+000 3.900852e+000 4.074045e+000 4.104600e+000 3.393123e+000 5.202931e+000 2.557656e+000 2.171207e+000
<GCONST> 1.053887e+002
<TRANSP> 5
 0.000000e+000 1.000000e+000 0.000000e+000 0.000000e+000 0.000000e+000
 0.000000e+000 6.791345e-001 3.208655e-001 0.000000e+000 0.000000e+000
 0.000000e+000 0.000000e+000 8.217423e-001 1.782577e-001 0.000000e+000
 0.000000e+000 0.000000e+000 0.000000e+000 7.175122e-001 2.824878e-001
 0.000000e+000 0.000000e+000 0.000000e+000 0.000000e+000 0.000000e+000
<ENDHMM>
~h "Z"
<BEGINHMM>
<NUMSTATES> 5
<STATE> 2
<MEAN> 25
 -2.919682e+000 3.302486e+000 4.833132e+000 1.510719e+000 1.066483e+000 -7.233444e+000 -1.589228e+000 -3.327095e+000 5.494172e+000 -3.447014e+000 5.839831e-001 1.481754e+000 -3.939674e+000 2.616015e+000 1.856155e+000 5.596414e-001 2.027935e+000 3.517309e-001 1.053131e+000 3.363897e-001 1.279756e+000 -1.432604e+000 8.910923e-001 3.335450e-001 2.906660e-001
<VARIANCE> 25
 3.420050e+001 2.984808e+001 3.625958e+001 2.668412e+001 4.432592e+001 2.706689e+001 3.349478e+001 3.732106e+001 3.631170e+001 4.867588e+001 4.222901e+001 2.581161e+001 2.488756e+000 3.309000e+000 2.781625e+000 2.548719e+000 3.467082e+000 5.345061e+000 3.324912e+000 3.775351e+000 3.574114e+000 3.870811e+000 3.694066e+000 3.467607e+000 6.414222e-001
<GCONST> 1.026919e+002
<STATE> 3
<MEAN> 25
 -1.505623e+001 8.761948e+000 1.030761e+001 1.501534e+000 5.282555e+000 -9.330711e-001 1.816008e+000 -1.766235e+000 7.566290e+000 -5.508982e+000 3.847344e+000 2.270023e+000 -1.808419e+000 2.170329e-001 2.704023e-001 -3.387169e-001 8.350738e-001 1.138807e+000 3.724234e-001 4.658415e-001 3.370017e-001 -4.121486e-001 1.385558e-001 2.699543e-001 -1.668530e-001
<VARIANCE> 25
 2.975424e+001 3.346857e+001 2.204234e+001 2.712358e+001 2.982127e+001 4.643309e+001 4.089975e+001 3.223059e+001 2.930253e+001 5.207695e+001 4.387486e+001 2.720727e+001 4.245592e+000 1.654450e+000 1.783908e+000 1.287563e+000 2.500687e+000 2.658756e+000 1.980039e+000 2.113283e+000 2.551905e+000 1.888924e+000 2.445132e+000 1.615595e+000 4.787810e-001
<GCONST> 9.639320e+001
<STATE> 4
<MEAN> 25
 -1.009305e+001 5.301268e+000 6.702504e+000 5.551982e-002 2.940709e+000 -1.703546e+000 -3.285677e-001 -6.830198e-001 5.900302e+000 -6.243211e+000 2.452763e+000 1.778241e+000 3.637671e+000 -1.714585e+000 -1.331993e+000 -1.850596e-001 -1.943689e+000 -7.877258e-001 -6.009893e-001 9.754318e-002 -9.469128e-001 5.907977e-001 -9.790309e-001 -4.123841e-001 -2.842023e-001
<VARIANCE> 25
 6.940897e+001 3.531893e+001 2.417109e+001 2.166731e+001 3.505026e+001 5.433095e+001 3.707616e+001 3.546738e+001 3.620230e+001 4.130386e+001 4.668196e+001 2.243849e+001 3.985514e+000 3.459879e+000 2.584235e+000 1.662251e+000 3.070028e+000 3.590429e+000 3.382820e+000 3.380098e+000 3.738648e+000 3.538672e+000 3.240674e+000 2.063620e+000 1.139121e+000
<GCONST> 1.025411e+002
<TRANSP> 5
 0.000000e+000 1.000000e+000 0.000000e+000 0.000000e+000 0.000000e+000
 0.000000e+000 6.378536e-001 3.621465e-001 0.000000e+000 0.000000e+000
 0.000000e+000 0.000000e+000 6.506927e-001 3.493073e-001 0.000000e+000
 0.000000e+000 0.000000e+000 0.000000e+000 7.250345e-001 2.749656e-001
 0.000000e+000 0.000000e+000 0.000000e+000 0.000000e+000 0.000000e+000
<ENDHMM>
~h "a"
<BEGINHMM>
<NUMSTATES> 5
<STATE> 2
<MEAN> 25
 3.837782e+000 -7.613389e+000 -6.886773e+000 -3.920151e+000 3.114015e+000 -1.149329e+000 7.288164e-002 2.894363e+000 4.182525e+000 -5.679614e-001 -6.237935e+000 -3.402524e+000 1.520745e-001 -1.597243e+000 -1.389962e+000 -1.045197e+000 1.505811e+000 5.535780e-001 7.044960e-001 5.257065e-001 3.777042e-001 -3.746200e-001 -1.204167e+000 -7.656160e-001 1.061629e+000
<VARIANCE> 25
 1.243746e+001 2.200312e+001 2.832844e+001 3.333239e+001 4.509819e+001 5.923638e+001 5.538415e+001 4.872430e+001 4.907281e+001 4.107513e+001 4.519145e+001 3.706365e+001 1.546323e+000 2.132445e+000 2.509254e+000 3.071099e+000 4.184641e+000 4.531728e+000 4.151855e+000 5.068323e+000 4.644345e+000 3.333706e+000 3.751144e+000 3.068176e+000 1.735517e+000
<GCONST> 1.041908e+002
<STATE> 3
<MEAN> 25
 3.597563e+000 -9.868301e+000 -9.492625e+000 -5.213384e+000 7.221305e+000 1.645079e+000 1.423171e+000 1.025683e+000 3.385854e+000 -9.046324e-001 -7.869677e+000 -4.748020e+000 3.865635e-002 4.770921e-001 2.055975e-001 2.723936e-001 -1.154770e-001 -2.778115e-001 -8.374464e-002 -4.014605e-002 1.908769e-002 5.128908e-002 6.867636e-002 2.300984e-001 -3.489351e-001
<VARIANCE> 25
 9.945817e+000 1.948986e+001 2.935028e+001 3.620859e+001 4.922177e+001 5.984853e+001 6.279419e+001 4.492347e+001 5.627271e+001 3.974968e+001 4.166152e+001 4.119151e+001 4.929463e-001 1.354740e+000 1.390524e+000 1.755500e+000 2.932029e+000 3.258550e+000 2.511266e+000 2.997264e+000 2.328611e+000 2.336215e+000 2.332753e+000 1.892966e+000 5.796052e-001
<GCONST> 9.667391e+001
<STATE> 4
<MEAN> 25
 2.862420e+000 -4.556620e+000 -4.466910e+000 -8.643423e-001 4.432231e+000 -7.672232e-001 6.737229e-001 3.172715e+000 3.745875e+000 -2.582952e-001 -4.991278e+000 -1.333148e+000 -1.670166e-001 1.618047e+000 1.583175e+000 1.118627e+000 -6.810444e-001 2.094464e-001 -9.151127e-002 -3.080602e-001 -4.559892e-001 2.552143e-001 1.160132e+000 5.692653e-001 -1.857799e+000
<VARIANCE> 25
 2.298454e+001 2.193544e+001 3.201395e+001 3.886408e+001 4.895452e+001 6.919464e+001 5.043114e+001 4.859552e+001 4.211610e+001 4.465625e+001 4.559288e+001 3.456227e+001 1.290546e+000 2.676158e+000 2.919973e+000 3.333517e+000 3.856513e+000 3.963307e+000 3.596197e+000 3.920725e+000 4.061011e+000 3.190178e+000 3.560417e+000 2.830637e+000 2.267348e+000
<GCONST> 1.047085e+002
<TRANSP> 5
 0.000000e+000 1.000000e+000 0.000000e+000 0.000000e+000 0.000000e+000
 0.000000e+000 5.287537e-001 4.712462e-001 0.000000e+000 0.000000e+000
 0.000000e+000 0.000000e+000 6.759716e-001 3.240284e-001 0.000000e+000
 0.000000e+000 0.000000e+000 0.000000e+000 5.897149e-001 4.102851e-001
 0.000000e+000 0.000000e+000 0.000000e+000 0.000000e+000 0.000000e+000
<ENDHMM>
~h "b"
<BEGINHMM>
<NUMSTATES> 5
<STATE> 2
<MEAN> 25
 7.747385e+000 4.366469e+000 2.957449e+000 2.482747e+000 1.804081e+000 2.814140e+000 -2.265622e+000 -3.189092e+000 -1.268834e+000 -3.275341e-001 -1.567988e+000 -3.584708e+000 1.813055e-002 1.542469e+000 1.675634e+000 2.110381e+000 7.640858e-001 6.349896e-001 1.055540e+000 1.659869e-001 -3.192865e-001 -4.915959e-001 -1.123010e-001 -4.926250e-001 -1.969050e+000
<VARIANCE> 25
 7.285783e+000 1.385319e+001 2.637005e+001 2.372899e+001 1.955223e+001 2.408694e+001 2.572485e+001 2.443417e+001 2.795978e+001 2.933514e+001 2.325451e+001 2.448423e+001 1.028988e+000 1.769799e+000 2.502516e+000 4.041474e+000 2.760834e+000 3.224428e+000 2.802692e+000 2.665825e+000 3.096986e+000 3.274308e+000 2.837243e+000 2.310168e+000 1.695909e+000
<GCONST> 9.448821e+001
<STATE> 3
<MEAN> 25
 6.634896e+000 6.188736e+000 5.574790e+000 5.194302e+000 2.685578e+000 3.017413e+000 -3.747385e-002 -1.482974e+000 -8.097816e-001 -9.215789e-001 -6.290398e-001 -2.485536e+000 -6.605089e-001 -4.346317e-001 6.964879e-002 4.715429e-001 -8.658240e-002 -6.234996e-001 8.881953e-002 2.880634e-001 -1.522442e-001 -9.223746e-003 4.102110e-001 4.587694e-001 3.293365e-001
<VARIANCE> 25
 8.868494e+000 9.945405e+000 2.144532e+001 1.834513e+001 1.893992e+001 1.841140e+001 2.163131e+001 2.033233e+001 2.090738e+001 2.807394e+001 1.962306e+001 2.259884e+001 8.526441e-001 1.100009e+000 1.404469e+000 1.672853e+000 1.780932e+000 2.055051e+000 1.902274e+000 1.815788e+000 2.050970e+000 1.901706e+000 1.719576e+000 1.721011e+000 1.247034e+000
<GCONST> 8.680548e+001
<STATE> 4
<MEAN> 25
 4.108542e+000 2.548284e+000 4.195537e+000 5.544198e+000 4.460392e-001 -6.967106e-001 -1.771363e+000 -1.049951e+000 -2.188524e+000 -8.517220e-001 8.167129e-001 -6.415673e-001 -6.640261e-001 -2.180466e+000 -4.297833e-001 -1.035202e+000 -2.634495e+000 -1.963754e+000 -1.085667e+000 7.776742e-002 -8.976318e-001 5.879021e-001 7.482671e-001 5.913972e-001 2.926353e+000
<VARIANCE> 25
 1.296232e+001 1.838745e+001 2.622279e+001 2.902046e+001 3.420985e+001 4.247996e+001 3.120537e+001 2.285283e+001 2.947944e+001 2.488305e+001 2.196386e+001 2.509080e+001 1.494549e+000 1.764316e+000 4.727348e+000 5.650017e+000 4.486696e+000 4.689842e+000 4.357739e+000 4.601821e+000 5.301207e+000 6.674193e+000 3.055384e+000 3.036021e+000 1.210358e+000
<GCONST> 1.011003e+002
<TRANSP> 5
 0.000000e+000 1.000000e+000 0.000000e+000 0.000000e+000 0.000000e+000
 0.000000e+000 5.564092e-001 4.435908e-001 0.000000e+000 0.000000e+000
 0.000000e+000 0.000000e+000 5.512699e-001 4.487300e-001 0.000000e+000
 0.000000e+000 0.000000e+000 0.000000e+000 4.821087e-001 5.178913e-001
 0.000000e+000 0.000000e+000 0.000000e+000 0.000000e+000 0.000000e+000
<ENDHMM>
~h "c"
<BEGINHMM>
<NUMSTATES> 5
<STATE> 2
<MEAN> 25
 -4.525570e+000 4.933723e+000 -1.805429e+000 6.642677e+000 8.029204e-001 1.507566e+000 9.510695e-001 1.723396e+000 3.116342e+000 2.240174e+000 2.059200e+000 9.196784e-001 -2.733765e+000 7.680489e-001 -1.772303e+000 6.461117e-001 -3.589624e-001 7.442719e-001 4.028671e-001 -3.979772e-002 2.206266e-001 5.539270e-002 8.932326e-001 2.591960e-001 -2.693486e-001
<VARIANCE> 25
 2.853150e+001 2.407894e+001 3.391466e+001 2.361809e+001 3.441674e+001 3.263150e+001 3.083597e+001 2.863499e+001 3.413627e+001 2.777775e+001 2.673633e+001 1.920507e+001 2.065274e+000 2.928148e+000 3.676025e+000 2.697427e+000 3.040182e+000 3.919246e+000 3.285406e+000 3.197992e+000 3.353967e+000 2.935247e+000 2.919820e+000 2.133460e+000 3.665704e+000
<GCONST> 1.004069e+002
<STATE> 3
<MEAN> 25
 -1.629373e+001 8.736937e+000 -1.043538e+001 7.930533e+000 1.426263e-001 9.235770e-001 3.529511e+000 -9.910203e-002 3.256511e+000 -3.825410e-001 2.458902e+000 3.401890e+000 -1.291875e+000 -2.827836e-001 -5.328132e-001 -4.863487e-001 2.327832e-001 -4.798234e-001 1.019206e+000 -2.088841e-001 -1.052199e-001 -4.805723e-001 1.908941e-001 4.684289e-001 1.110759e+000
<VARIANCE> 25
 1.089360e+001 1.320145e+001 1.721642e+001 2.403621e+001 2.512362e+001 2.600495e+001 2.907523e+001 2.816967e+001 3.528123e+001 2.163794e+001 3.497467e+001 2.175370e+001 2.481883e+000 1.767239e+000 3.212218e+000 1.658363e+000 1.415120e+000 2.172757e+000 2.489984e+000 2.432277e+000 2.146097e+000 1.865319e+000 2.103667e+000 1.684232e+000 6.259246e-001
<GCONST> 9.166238e+001
<STATE> 4
<MEAN> 25
 -1.198904e+001 5.687096e+000 -4.122534e+000 4.273848e+000 -1.023458e-001 -3.719698e+000 4.950366e+000 -9.827748e-001 1.593736e-001 -9.170262e-001 1.030218e+000 3.317950e+000 4.013432e+000 -8.083215e-001 3.399922e+000 -8.861294e-001 -1.453072e+000 -2.031991e+000 -1.534356e+000 -7.190641e-001 -1.359687e+000 3.330103e-002 -1.449306e+000 -8.720980e-001 9.797949e-001
<VARIANCE> 25
 5.024250e+001 1.113882e+001 3.528145e+001 2.400491e+001 3.236953e+001 3.829544e+001 3.600963e+001 3.209668e+001 3.223117e+001 2.084565e+001 4.385277e+001 2.234577e+001 2.740741e+000 2.106116e+000 2.762874e+000 3.959220e+000 3.220290e+000 3.903243e+000 4.210318e+000 3.241663e+000 4.157399e+000 3.340218e+000 5.489036e+000 3.065290e+000 1.239782e+000
<GCONST> 1.015475e+002
<TRANSP> 5
 0.000000e+000 1.000000e+000 0.000000e+000 0.000000e+000 0.000000e+000
 0.000000e+000 7.811347e-001 2.188653e-001 0.000000e+000 0.000000e+000
 0.000000e+000 0.000000e+000 7.429544e-001 2.570455e-001 0.000000e+000
 0.000000e+000 0.000000e+000 0.000000e+000 6.815271e-001 3.184729e-001
 0.000000e+000 0.000000e+000 0.000000e+000 0.000000e+000 0.000000e+000
<ENDHMM>
~h "d"
<BEGINHMM>
<NUMSTATES> 5
<STATE> 2
<MEAN> 25
 4.930166e+000 2.857995e+000 3.104503e+000 2.296019e+000 1.936244e+000 -2.318833e+000 -3.671914e+000 -7.965447e-001 1.166419e+000 7.643822e-001 -4.075106e+000 -3.034708e+000 3.974501e-001 1.548718e+000 1.691590e+000 1.619090e+000 5.913949e-001 1.258444e+000 7.710992e-001 -6.328610e-002 -5.309148e-001 -6.584073e-001 -1.542851e-001 -3.407300e-001 -2.081979e+000
<VARIANCE> 25
 1.397779e+001 1.702991e+001 3.219946e+001 3.109151e+001 3.564857e+001 3.937086e+001 4.624725e+001 2.952937e+001 3.875454e+001 3.289422e+001 3.119777e+001 2.763013e+001 1.474218e+000 2.026226e+000 3.228720e+000 3.366511e+000 3.850173e+000 4.119536e+000 5.477225e+000 4.010273e+000 4.381410e+000 3.411846e+000 4.011243e+000 2.678993e+000 2.901843e+000
<GCONST> 1.021823e+002
<STATE> 3
<MEAN> 25
 5.173207e+000 5.461325e+000 5.921522e+000 4.918666e+000 2.682528e+000 4.238961e-001 -9.865056e-001 -1.613145e-001 6.780941e-001 -6.490884e-002 -2.854492e+000 -2.884715e+000 -7.191676e-001 3.133201e-001 6.575212e-002 2.934252e-001 3.209268e-001 2.050279e-001 2.995854e-001 -1.483524e-001 -7.142613e-002 -2.482075e-001 4.903467e-001 4.353953e-001 5.286330e-002
<VARIANCE> 25
 1.408929e+001 1.131807e+001 2.284684e+001 2.197494e+001 2.964045e+001 2.281574e+001 2.696928e+001 2.388831e+001 2.503812e+001 2.839969e+001 2.770127e+001 2.088158e+001 2.241366e+000 1.529246e+000 2.363786e+000 2.462555e+000 2.957326e+000 3.736545e+000 3.487557e+000 3.072824e+000 2.954241e+000 2.261574e+000 2.555454e+000 2.030534e+000 2.823982e+000
<GCONST> 9.550081e+001
<STATE> 4
<MEAN> 25
 1.200521e+000 3.879259e+000 2.968081e+000 3.317585e+000 3.060969e+000 -1.724661e+000 -2.114993e+000 -5.618186e-001 9.423422e-001 -2.786622e-001 -1.331656e+000 -5.560203e-001 -5.850685e-001 -1.257390e+000 -1.335861e+000 -1.501413e+000 -9.544364e-001 -1.114978e+000 -8.789315e-001 -1.286443e-001 3.720222e-001 2.831877e-001 2.704291e-001 6.324283e-001 2.312804e+000
<VARIANCE> 25
 2.161428e+001 1.951870e+001 2.948025e+001 2.924616e+001 3.819124e+001 3.626778e+001 3.941102e+001 3.587881e+001 3.401872e+001 2.930308e+001 3.148794e+001 2.423208e+001 2.535286e+000 2.736653e+000 3.915702e+000 3.412996e+000 3.943931e+000 4.294800e+000 4.988004e+000 5.221406e+000 4.494418e+000 3.299949e+000 3.906752e+000 2.870732e+000 3.373455e+000
<GCONST> 1.037297e+002
<TRANSP> 5
 0.000000e+000 1.000000e+000 0.000000e+000 0.000000e+000 0.000000e+000
 0.000000e+000 3.863523e-001 6.136477e-001 0.000000e+000 0.000000e+000
 0.000000e+000 0.000000e+000 4.033877e-001 5.966123e-001 0.000000e+000
 0.000000e+000 0.000000e+000 0.000000e+000 4.806281e-001 5.193720e-001
 0.000000e+000 0.000000e+000 0.000000e+000 0.000000e+000 0.000000e+000
<ENDHMM>
~h "e"
<BEGINHMM>
<NUMSTATES> 5
<STATE> 2
<MEAN> 25
 2.175906e+000 -4.630108e+000 2.753924e+000 -1.063147e+000 -7.413607e+000 -8.688756e+000 -1.024591e+000 4.857009e+000 -3.404094e-001 -1.748333e+000 -4.271892e-001 5.329434e-001 4.774450e-001 -6.961297e-001 1.289805e-002 -3.959351e-001 -4.642346e-001 -4.889742e-001 2.695665e-002 8.442963e-001 1.230127e-001 1.353045e-001 -1.316981e-001 -6.605620e-002 5.447550e-001
<VARIANCE> 25
 1.001664e+001 2.204723e+001 2.581936e+001 2.950460e+001 3.272770e+001 2.661553e+001 5.606771e+001 3.818637e+001 4.078236e+001 3.234896e+001 3.220041e+001 2.367210e+001 2.706744e+000 2.109292e+000 2.187890e+000 2.467729e+000 3.866396e+000 2.981916e+000 4.960271e+000 3.708193e+000 3.680857e+000 3.301139e+000 3.232675e+000 2.461767e+000 1.632649e+000
<GCONST> 1.000869e+002
<STATE> 3
<MEAN> 25
 2.077109e+000 -4.862074e+000 3.317005e+000 -1.552541e+000 -7.717313e+000 -8.178798e+000 3.434308e-001 4.420022e+000 -5.762236e-001 -6.906829e-001 -7.366415e-001 9.173909e-002 3.185774e-001 9.182723e-001 1.554265e-003 7.130207e-001 7.084139e-001 5.861120e-001 -1.912371e-001 -7.584268e-001 1.400100e-001 9.281948e-002 -2.333518e-001 -9.701098e-002 -9.463198e-001
<VARIANCE> 25
 9.546968e+000 2.033435e+001 2.785366e+001 3.239518e+001 3.447989e+001 2.761910e+001 6.540750e+001 4.634760e+001 4.817804e+001 3.564030e+001 3.311665e+001 2.710184e+001 8.215099e-001 1.479817e+000 1.798225e+000 2.027351e+000 2.589186e+000 2.287004e+000 3.254537e+000 2.613305e+000 2.656912e+000 2.486469e+000 2.161966e+000 1.914419e+000 1.209740e+000
<GCONST> 9.605110e+001
<STATE> 4
<MEAN> 25
 2.775616e+000 -2.510396e-001 3.432843e+000 2.547272e+000 -3.473883e+000 -5.118555e+000 -7.810525e-001 2.037178e+000 7.640979e-001 -8.434262e-001 -8.469900e-001 5.260987e-001 -8.659226e-002 1.536953e+000 2.777362e-001 1.138046e+000 1.487479e+000 1.860154e+000 1.952589e-001 -1.089771e+000 6.989981e-003 3.978429e-001 3.335108e-001 -1.964354e-001 -2.072976e+000
<VARIANCE> 25
 1.567080e+001 2.573838e+001 3.254132e+001 3.176015e+001 4.000394e+001 3.838985e+001 5.162543e+001 3.942278e+001 4.276555e+001 3.348402e+001 3.615205e+001 2.949689e+001 1.708486e+000 2.560127e+000 2.745487e+000 3.245114e+000 3.334419e+000 3.314342e+000 4.879625e+000 4.534241e+000 3.927247e+000 3.493235e+000 3.441088e+000 2.562046e+000 1.954762e+000
<GCONST> 1.027091e+002
<TRANSP> 5
 0.000000e+000 1.000000e+000 0.000000e+000 0.000000e+000 0.000000e+000
 0.000000e+000 3.813611e-001 6.186389e-001 0.000000e+000 0.000000e+000
 0.000000e+000 0.000000e+000 4.992333e-001 5.007668e-001 0.000000e+000
 0.000000e+000 0.000000e+000 0.000000e+000 3.911645e-001 6.088355e-001
 0.000000e+000 0.000000e+000 0.000000e+000 0.000000e+000 0.000000e+000
<ENDHMM>
~h "f"
<BEGINHMM>
<NUMSTATES> 5
<STATE> 2
<MEAN> 25
 -9.901085e+000 1.916987e+000 -2.713785e+000 6.567514e+000 5.065660e+000 3.007343e+000 -4.731939e-001 3.709417e+000 1.379402e+000 3.006130e+000 1.473703e+000 3.493467e+000 -1.046387e+000 -6.033424e-001 -8.817566e-001 1.200015e-001 7.935126e-003 3.407247e-001 4.767609e-002 -3.956843e-001 5.158861e-003 -1.933161e-001 5.185031e-001 3.091111e-001 5.486850e-002
<VARIANCE> 25
 2.430539e+001 1.339103e+001 1.877338e+001 2.040036e+001 2.841138e+001 2.250007e+001 2.615393e+001 1.348918e+001 2.024501e+001 2.213347e+001 2.374876e+001 2.176549e+001 5.822215e+000 1.512387e+000 2.769824e+000 2.388596e+000 2.590204e+000 4.324633e+000 2.803732e+000 2.029406e+000 2.345757e+000 2.069748e+000 3.293358e+000 2.423205e+000 1.746062e+000
<GCONST> 9.479327e+001
<STATE> 3
<MEAN> 25
 -8.232147e+000 -3.038852e-001 -6.772361e+000 6.889457e+000 4.417452e+000 3.084341e+000 -2.333192e-001 -6.600820e-001 6.755953e-001 7.605250e-001 2.326718e+000 5.789832e-001 3.196348e+000 6.808963e-002 -5.001573e-001 -9.656695e-002 -1.414041e+000 -4.875242e-001 -9.011632e-001 -1.787437e+000 -2.818008e-001 -3.024372e-001 -2.664475e-001 -2.054200e+000 1.154668e+000
<VARIANCE> 25
 5.658281e+001 1.960142e+001 1.835073e+001 1.296140e+001 2.287435e+001 1.658220e+001 1.360688e+001 2.715903e+001 1.613067e+001 7.184813e+000 1.817434e+001 2.456333e+001 4.791340e+000 3.701912e+000 2.122491e+000 1.509885e+000 3.752211e+000 1.503200e+000 1.693496e+000 1.692043e+000 9.979317e-001 1.206368e+000 4.945740e+000 1.819418e+000 1.264236e+000
<GCONST> 9.057448e+001
<STATE> 4
<MEAN> 25
 2.632451e+000 1.280078e+000 -7.203430e+000 5.621045e+000 -3.174276e-001 2.851174e-001 -3.849205e+000 -3.844268e+000 -4.654673e-001 5.205737e-001 1.279782e+000 -5.501656e+000 3.499656e+000 -6.940919e-001 -4.109801e-001 -6.054671e-001 -2.369398e+000 -1.342259e+000 -8.577076e-001 -6.824057e-001 5.186360e-001 -5.661098e-001 1.186966e+000 -1.114422e+000 1.451726e+000
<VARIANCE> 25
 1.461140e+001 1.095447e+001 2.655887e+001 2.470502e+001 1.842663e+001 2.127389e+001 2.799659e+001 3.227508e+001 1.190910e+001 1.701480e+001 4.969995e+001 1.399960e+001 3.451289e+000 6.154128e+000 1.670496e+000 5.913268e+000 5.381635e+000 1.706136e+000 3.443243e+000 4.459940e+000 2.584529e+000 4.069613e+000 2.031251e+000 2.124863e+000 2.183974e+000
<GCONST> 9.703448e+001
<TRANSP> 5
 0.000000e+000 1.000000e+000 0.000000e+000 0.000000e+000 0.000000e+000
 0.000000e+000 8.412640e-001 1.587360e-001 0.000000e+000 0.000000e+000
 0.000000e+000 0.000000e+000 5.996758e-001 4.003242e-001 0.000000e+000
 0.000000e+000 0.000000e+000 0.000000e+000 3.972623e-001 6.027377e-001
 0.000000e+000 0.000000e+000 0.000000e+000 0.000000e+000 0.000000e+000
<ENDHMM>
~h "g"
<BEGINHMM>
<NUMSTATES> 5
<STATE> 2
<MEAN> 25
 7.301491e+000 6.896891e+000 1.384295e+000 -3.539599e+000 -5.221309e+000 1.626822e+000 3.670495e-001 1.268265e+000 -3.136726e+000 -3.104532e+000 -1.160030e+000 -3.207838e+000 1.105573e-001 2.179917e-001 1.136249e+000 2.099118e+000 9.904031e-001 -4.099673e-001 3.693279e-001 3.637304e-001 8.920162e-001 -5.448847e-002 -6.730998e-001 -4.339954e-001 -1.325207e+000
<VARIANCE> 25
 1.095500e+001 1.509865e+001 2.969950e+001 6.207814e+001 4.599940e+001 3.030546e+001 3.245731e+001 3.414128e+001 4.810563e+001 3.958449e+001 3.699918e+001 3.196199e+001 8.778823e-001 1.143859e+000 2.344040e+000 4.123356e+000 3.652016e+000 3.251364e+000 2.758459e+000 3.682615e+000 4.479503e+000 4.164801e+000 3.445544e+000 3.048179e+000 1.163188e+000
<GCONST> 9.994685e+001
<STATE> 3
<MEAN> 25
 6.707080e+000 6.638571e+000 3.614799e+000 2.028481e+000 -1.462123e+000 1.750212e+000 1.402898e+000 4.451843e-001 -2.048073e+000 -2.421937e+000 -7.307056e-001 -1.803078e+000 -7.106906e-001 -3.364086e-001 -4.414141e-001 6.543174e-001 9.738796e-001 3.614872e-001 1.845136e-001 -3.489396e-001 -2.189575e-001 -4.199111e-003 5.421758e-001 8.311027e-001 4.641649e-002
<VARIANCE> 25
 9.672321e+000 1.234002e+001 2.344037e+001 3.731138e+001 2.811892e+001 2.577744e+001 2.907290e+001 2.358067e+001 3.258189e+001 2.911658e+001 2.811480e+001 2.549833e+001 1.062605e+000 1.273194e+000 2.805176e+000 5.101554e+000 3.952567e+000 3.133601e+000 2.682270e+000 3.305050e+000 4.440040e+000 2.963637e+000 3.332025e+000 2.470135e+000 1.581075e+000
<GCONST> 9.685391e+001
<STATE> 4
<MEAN> 25
 4.218113e+000 4.171216e+000 -3.894973e-001 7.946392e-001 7.301275e-001 3.131125e+000 6.884589e-001 -1.913568e+000 -4.466333e+000 -1.663903e+000 3.365912e+000 1.089809e+000 -7.673699e-001 -1.301336e+000 -1.454928e+000 -9.971520e-001 -9.781634e-003 -2.868528e-001 -7.577152e-001 -6.454364e-001 1.835450e-003 1.083730e+000 1.242687e+000 5.131779e-001 1.716132e+000
<VARIANCE> 25
 1.504572e+001 2.112552e+001 3.759615e+001 6.372264e+001 4.557146e+001 4.613404e+001 3.983151e+001 4.176597e+001 4.608319e+001 4.429074e+001 5.502146e+001 3.286343e+001 1.437205e+000 2.130712e+000 4.114238e+000 5.228793e+000 4.945091e+000 5.052168e+000 5.523505e+000 4.726569e+000 6.288645e+000 5.402443e+000 5.864667e+000 3.769652e+000 1.673595e+000
<GCONST> 1.074835e+002
<TRANSP> 5
 0.000000e+000 1.000000e+000 0.000000e+000 0.000000e+000 0.000000e+000
 0.000000e+000 4.682755e-001 5.317245e-001 0.000000e+000 0.000000e+000
 0.000000e+000 0.000000e+000 4.239055e-001 5.760944e-001 0.000000e+000
 0.000000e+000 0.000000e+000 0.000000e+000 4.210277e-001 5.789723e-001
 0.000000e+000 0.000000e+000 0.000000e+000 0.000000e+000 0.000000e+000
<ENDHMM>
~h "h"
<BEGINHMM>
<NUMSTATES> 5
<STATE> 2
<MEAN> 25
 2.094006e-001 6.956664e+000 2.651901e+000 7.032057e-001 2.787901e+000 3.901660e+000 6.414871e+000 1.805560e+000 -1.481730e+000 8.156554e-001 5.352930e-001 1.110139e+000 -1.966503e+000 -1.283861e+000 -1.548353e+000 1.354077e+000 3.947154e+000 1.104748e+000 1.012844e+000 3.542752e-001 2.066601e-001 1.047646e+000 7.300813e-001 1.391341e+000 -6.138480e-001
<VARIANCE> 25
 3.566856e+001 2.151209e+001 5.517383e+001 5.305594e+001 5.466564e+001 3.965614e+001 3.640821e+001 3.972566e+001 5.032674e+001 3.219560e+001 2.660324e+001 2.544908e+001 2.375478e+000 2.337073e+000 2.582848e+000 3.932204e+000 7.137677e+000 3.536560e+000 4.228953e+000 5.659415e+000 5.911673e+000 3.951377e+000 3.440725e+000 3.044508e+000 8.491963e-001
<GCONST> 1.052106e+002
<STATE> 3
<MEAN> 25
 -5.747331e+000 9.925522e-003 -3.555312e+000 1.232126e+000 8.578185e+000 4.319446e+000 5.107671e+000 1.376181e+000 -1.249502e+000 3.072720e+000 1.349693e+000 3.591270e+000 -6.300126e-001 -1.339921e+000 -1.380531e+000 -3.326636e-001 8.112025e-001 -2.639849e-001 -8.770400e-001 -4.309831e-001 1.921344e-001 6.104229e-001 1.689270e-002 -2.184765e-001 2.094047e-001
<VARIANCE> 25
 3.527112e+001 2.530091e+001 6.671093e+001 4.015913e+001 4.712659e+001 6.622216e+001 4.524830e+001 4.626461e+001 4.530767e+001 2.583354e+001 3.691830e+001 2.689017e+001 2.370763e+000 2.058926e+000 2.942341e+000 2.147823e+000 4.459240e+000 2.847929e+000 3.560031e+000 4.411534e+000 3.757151e+000 3.662343e+000 2.639675e+000 2.740862e+000 1.065258e+000
<GCONST> 1.036806e+002
<STATE> 4
<MEAN> 25
 -2.318899e+000 -1.671375e+000 -5.493726e+000 7.102282e-002 1.026063e+001 3.045046e+000 2.004622e+000 -2.535377e-001 3.616897e-002 4.340566e+000 -3.963515e-001 -1.265066e+000 1.489046e+000 1.032889e-001 7.215732e-001 -8.420616e-002 -1.554050e+000 -1.500412e+000 -3.833244e-001 -1.290368e-002 9.344440e-001 -7.088482e-001 -1.075112e+000 -1.295860e+000 7.295812e-001
<VARIANCE> 25
 3.423135e+001 2.833930e+001 5.509531e+001 3.494686e+001 5.416821e+001 5.278009e+001 5.845149e+001 4.792106e+001 3.521493e+001 3.755481e+001 5.499434e+001 4.011524e+001 3.120719e+000 2.912423e+000 3.643058e+000 3.145756e+000 4.373456e+000 5.332448e+000 5.198337e+000 4.330465e+000 5.603617e+000 4.641059e+000 4.778228e+000 4.190884e+000 1.802938e+000
<GCONST> 1.089235e+002
<TRANSP> 5
 0.000000e+000 1.000000e+000 0.000000e+000 0.000000e+000 0.000000e+000
 0.000000e+000 5.096318e-001 4.903682e-001 0.000000e+000 0.000000e+000
 0.000000e+000 0.000000e+000 5.810700e-001 4.189301e-001 0.000000e+000
 0.000000e+000 0.000000e+000 0.000000e+000 6.197356e-001 3.802644e-001
 0.000000e+000 0.000000e+000 0.000000e+000 0.000000e+000 0.000000e+000
<ENDHMM>
~h "i"
<BEGINHMM>
<NUMSTATES> 5
<STATE> 2
<MEAN> 25
 8.904490e-001 1.304432e+000 8.282521e+000 1.050833e+000 -8.080205e+000 -4.640827e+000 -1.596595e+000 -2.001238e+000 -5.600183e+000 -2.671977e-001 5.659909e-001 -6.534133e-001 3.374380e-001 -1.818501e-001 1.789206e+000 -9.609746e-001 -2.254019e+000 -3.880534e-001 -4.936344e-001 -2.782037e-001 -1.275459e+000 4.169009e-001 1.871442e-001 -4.632303e-001 1.173596e+000
<VARIANCE> 25
 1.325308e+001 2.590833e+001 2.590849e+001 3.804441e+001 4.020227e+001 3.802809e+001 3.741135e+001 4.068924e+001 3.458763e+001 3.520971e+001 3.153204e+001 2.692685e+001 3.662678e+000 2.297142e+000 2.536802e+000 4.004243e+000 4.403453e+000 3.621543e+000 4.278002e+000 4.083251e+000 3.700992e+000 4.427563e+000 4.568454e+000 2.828288e+000 1.664016e+000
<GCONST> 1.031305e+002
<STATE> 3
<MEAN> 25
 2.950449e-002 1.093171e+000 1.102367e+001 -2.141618e+000 -1.156176e+001 -2.487774e+000 -2.333354e+000 -3.174310e+000 -6.544512e+000 1.683728e+000 2.754688e-002 -2.230680e+000 2.977461e-002 1.458790e-001 1.429863e-001 -4.072452e-002 -7.081033e-002 1.970700e-001 6.151767e-002 -7.166019e-002 3.163647e-002 2.293522e-001 -1.082890e-001 -4.129827e-002 -1.061902e-001
<VARIANCE> 25
 1.113310e+001 1.947677e+001 2.403420e+001 4.774258e+001 3.577879e+001 3.965749e+001 3.731627e+001 3.680742e+001 3.272033e+001 4.976172e+001 4.533086e+001 3.279128e+001 8.183021e-001 1.295941e+000 1.345339e+000 2.030976e+000 2.175877e+000 2.103284e+000 2.058376e+000 2.175469e+000 2.076992e+000 2.105888e+000 1.926643e+000 1.465062e+000 7.331819e-001
<GCONST> 9.384047e+001
<STATE> 4
<MEAN> 25
 1.421376e+000 2.325555e+000 8.937330e+000 2.091624e+000 -7.262134e+000 -3.356170e+000 -6.447992e-001 -1.591024e+000 -4.851078e+000 8.021812e-001 7.551050e-001 -3.976128e-001 1.423252e-001 5.388551e-001 -9.835493e-001 1.025909e+000 1.896044e+000 5.629838e-001 3.683704e-001 2.973856e-001 1.071342e+000 -1.631380e-001 4.658901e-002 3.316694e-001 -1.433079e+000
<VARIANCE> 25
 1.281326e+001 2.134672e+001 2.587991e+001 4.231348e+001 4.584295e+001 4.120875e+001 3.689565e+001 4.073889e+001 3.404746e+001 3.458725e+001 3.063466e+001 2.528595e+001 1.581466e+000 2.138595e+000 2.512215e+000 3.254944e+000 3.962140e+000 3.927917e+000 3.982340e+000 3.352605e+000 3.127261e+000 3.688015e+000 3.421202e+000 2.380968e+000 2.052639e+000
<GCONST> 1.010579e+002
<TRANSP> 5
 0.000000e+000 1.000000e+000 0.000000e+000 0.000000e+000 0.000000e+000
 0.000000e+000 4.580269e-001 5.419731e-001 0.000000e+000 0.000000e+000
 0.000000e+000 0.000000e+000 6.086202e-001 3.913799e-001 0.000000e+000
 0.000000e+000 0.000000e+000 0.000000e+000 5.611937e-001 4.388063e-001
 0.000000e+000 0.000000e+000 0.000000e+000 0.000000e+000 0.000000e+000
<ENDHMM>
~h "j"
<BEGINHMM>
<NUMSTATES> 5
<STATE> 2
<MEAN> 25
 1.210006e+000 7.334718e-001 8.508597e+000 -6.974322e-001 -7.612416e+000 -3.103029e+000 -1.622294e+000 -7.735108e-001 -4.295739e+000 -2.679678e-001 2.980337e-001 -4.390273e-001 -2.727402e-001 -5.507076e-001 1.043998e+000 -8.404688e-001 -1.652285e+000 -6.336663e-001 -2.058465e-001 3.152622e-001 -4.147324e-001 2.807516e-001 3.262736e-001 2.573216e-001 1.100734e+000
<VARIANCE> 25
 1.211903e+001 3.117349e+001 3.734927e+001 4.535840e+001 4.260161e+001 4.247439e+001 4.212916e+001 4.819681e+001 3.525840e+001 4.212218e+001 3.108772e+001 2.772852e+001 2.240325e+000 2.530420e+000 2.644711e+000 3.561586e+000 3.571323e+000 3.213863e+000 3.909745e+000 3.483967e+000 3.293377e+000 3.430942e+000 2.852021e+000 2.126084e+000 1.690834e+000
<GCONST> 1.022777e+002
<STATE> 3
<MEAN> 25
 3.685600e-001 -1.514615e+000 8.938057e+000 -4.005730e+000 -1.048864e+001 -4.900558e+000 1.101234e-001 -6.752962e-001 -4.019894e+000 2.255009e+000 1.332677e+000 -2.600264e-001 4.112169e-003 -7.813889e-001 -5.511683e-001 7.847728e-002 -2.936865e-001 -7.543585e-001 4.816095e-001 9.504170e-001 3.642711e-001 2.825492e-002 3.254793e-001 1.503245e-001 4.195760e-001
<VARIANCE> 25
 9.335032e+000 2.175831e+001 2.972894e+001 4.678407e+001 3.409174e+001 3.583782e+001 4.827804e+001 4.579346e+001 3.706636e+001 5.065807e+001 3.537624e+001 2.485998e+001 5.402749e-001 1.503093e+000 1.593068e+000 1.619013e+000 1.727384e+000 2.060920e+000 2.786833e+000 2.521469e+000 2.160252e+000 2.027393e+000 1.815443e+000 1.379876e+000 5.678570e-001
<GCONST> 9.341290e+001
<STATE> 4
<MEAN> 25
 9.153417e-001 -3.686419e+000 5.502318e+000 -1.381407e+000 -9.440966e+000 -7.000945e+000 -7.544289e-002 3.839409e+000 -2.654537e+000 1.099801e-001 1.538118e+000 2.193785e-001 3.748933e-001 -3.553860e-001 -1.617420e+000 4.404240e-001 1.229366e+000 -4.938509e-001 -3.335376e-001 8.090699e-001 9.651840e-001 -5.085412e-001 -4.209744e-001 5.418812e-002 -4.523021e-002
<VARIANCE> 25
 1.057776e+001 2.108351e+001 2.791472e+001 4.478207e+001 3.740929e+001 2.864538e+001 7.369622e+001 4.051861e+001 3.843341e+001 4.398344e+001 3.349509e+001 2.703541e+001 4.951655e-001 1.593977e+000 2.902149e+000 1.865274e+000 2.430693e+000 2.432150e+000 3.682035e+000 3.615300e+000 2.942901e+000 3.142278e+000 2.537272e+000 2.072319e+000 6.483962e-001
<GCONST> 9.697372e+001
<TRANSP> 5
 0.000000e+000 1.000000e+000 0.000000e+000 0.000000e+000 0.000000e+000
 0.000000e+000 4.566160e-001 5.433839e-001 0.000000e+000 0.000000e+000
 0.000000e+000 0.000000e+000 5.275329e-001 4.724672e-001 0.000000e+000
 0.000000e+000 0.000000e+000 0.000000e+000 4.335481e-001 5.664519e-001
 0.000000e+000 0.000000e+000 0.000000e+000 0.000000e+000 0.000000e+000
<ENDHMM>
~h "k"
<BEGINHMM>
<NUMSTATES> 5
<STATE> 2
<MEAN> 25
 -1.643302e+000 -1.005283e-001 6.813483e-001 4.935916e+000 2.697354e+000 2.319962e+000 2.106130e+000 3.113188e+000 2.577490e+000 2.838753e+000 2.852100e+000 1.477598e+000 -1.042612e+000 -8.304864e-001 -7.902589e-001 -1.041537e-001 1.841933e-001 3.169943e-001 1.045652e-002 2.370163e-001 3.553132e-001 2.308036e-001 3.887165e-001 5.720568e-001 -7.555754e-001
<VARIANCE> 25
 1.910735e+001 1.504094e+001 2.521525e+001 2.588033e+001 3.025421e+001 3.303104e+001 3.021988e+001 3.148590e+001 2.557039e+001 2.791572e+001 3.073655e+001 2.311930e+001 2.513178e+000 2.091600e+000 4.124691e+000 3.341793e+000 4.227094e+000 5.254741e+000 3.794547e+000 3.646498e+000 3.498231e+000 3.334432e+000 3.714080e+000 2.640224e+000 4.946762e+000
<GCONST> 1.013398e+002
<STATE> 3
<MEAN> 25
 -5.618980e+000 -3.827176e+000 -5.594426e+000 1.669316e+000 5.483765e+000 1.269298e+000 1.093656e+000 2.793975e+000 1.005715e+000 3.613777e+000 1.163858e+000 3.025407e+000 -8.942128e-001 -3.236330e-001 -1.587982e+000 -1.002292e+000 7.585349e-001 -7.545023e-002 -1.570107e-001 -1.237253e-001 -5.926771e-001 -3.833781e-002 -5.575268e-001 1.022038e-001 1.649744e+000
<VARIANCE> 25
 2.283888e+001 2.082041e+001 4.925345e+001 4.055031e+001 4.729220e+001 5.143340e+001 4.218037e+001 3.825922e+001 3.959187e+001 3.231017e+001 3.610119e+001 2.296065e+001 2.893121e+000 2.240170e+000 6.058282e+000 3.781966e+000 4.521040e+000 4.583155e+000 3.874066e+000 3.760162e+000 3.681427e+000 3.049466e+000 3.245502e+000 2.642661e+000 2.893187e+000
<GCONST> 1.051081e+002
<STATE> 4
<MEAN> 25
 -4.526784e+000 -1.513833e-001 -4.903112e+000 -3.268013e-001 5.353703e+000 1.658600e+000 8.884911e-001 1.127231e+000 -1.214190e+000 2.037058e+000 1.242788e-001 1.159764e+000 2.338390e+000 1.496153e+000 1.678520e+000 -8.255665e-001 -1.599835e+000 -6.473259e-001 -5.563862e-001 -1.349637e+000 -1.149653e+000 -8.531310e-001 -5.155664e-001 -1.160985e+000 1.433485e+000
<VARIANCE> 25
 3.784304e+001 2.640047e+001 6.460630e+001 4.164009e+001 4.324238e+001 5.361794e+001 4.182697e+001 4.226252e+001 4.214061e+001 3.531841e+001 4.294699e+001 2.498568e+001 2.876031e+000 2.380628e+000 4.435445e+000 4.244994e+000 4.399432e+000 4.050598e+000 5.025558e+000 4.048680e+000 4.287499e+000 4.078368e+000 5.847262e+000 3.078989e+000 1.824873e+000
<GCONST> 1.073669e+002
<TRANSP> 5
 0.000000e+000 1.000000e+000 0.000000e+000 0.000000e+000 0.000000e+000
 0.000000e+000 6.575462e-001 3.424538e-001 0.000000e+000 0.000000e+000
 0.000000e+000 0.000000e+000 5.962659e-001 4.037340e-001 0.000000e+000
 0.000000e+000 0.000000e+000 0.000000e+000 5.759263e-001 4.240737e-001
 0.000000e+000 0.000000e+000 0.000000e+000 0.000000e+000 0.000000e+000
<ENDHMM>
~h "l"
<BEGINHMM>
<NUMSTATES> 5
<STATE> 2
<MEAN> 25
 5.906651e+000 -1.886174e+000 -3.476751e+000 -5.065455e+000 -1.810133e+000 3.350049e+000 -1.067615e+000 -7.054700e+000 -6.510713e-001 3.421905e+000 9.262817e-001 -6.515568e-001 1.130424e+000 -3.689589e-001 -5.499383e-001 -2.093719e+000 -3.711826e-001 1.179015e+000 -2.148904e-001 -1.412499e+000 -3.610227e-001 1.090408e+000 -8.257420e-002 -2.487860e-001 7.411999e-001
<VARIANCE> 25
 1.607848e+001 2.888019e+001 3.557272e+001 5.877052e+001 5.369408e+001 6.191140e+001 6.524730e+001 5.850867e+001 5.450403e+001 4.299683e+001 4.807766e+001 3.409319e+001 2.699792e+000 3.248412e+000 3.941418e+000 6.588935e+000 5.968241e+000 5.612335e+000 5.565047e+000 6.779986e+000 7.083395e+000 4.388916e+000 5.244636e+000 4.027256e+000 3.230071e+000
<GCONST> 1.114803e+002
<STATE> 3
<MEAN> 25
 6.897346e+000 -3.283486e+000 -5.063827e+000 -9.379407e+000 -9.357008e-001 6.612113e+000 -8.586129e-002 -7.587941e+000 -7.584305e-001 4.965928e+000 1.996730e-001 -1.133463e+000 -2.446663e-002 -2.849769e-001 -5.138162e-001 -6.754901e-001 7.201880e-001 3.006729e-001 1.932968e-001 4.227827e-001 -6.066926e-002 -8.252873e-002 -3.990408e-001 -2.683556e-001 2.493198e-001
<VARIANCE> 25
 1.153796e+001 2.122656e+001 3.999189e+001 6.894427e+001 5.975331e+001 6.058789e+001 7.263065e+001 6.504948e+001 5.973337e+001 3.895706e+001 4.273961e+001 3.039275e+001 9.990413e-001 2.682274e+000 3.095858e+000 3.611006e+000 6.507971e+000 4.222726e+000 3.984869e+000 4.381878e+000 5.016259e+000 3.288197e+000 3.931200e+000 3.863281e+000 1.239900e+000
<GCONST> 1.062581e+002
<STATE> 4
<MEAN> 25
 6.312278e+000 -3.219085e+000 -5.716437e+000 -9.075856e+000 1.217408e+000 5.540894e+000 -7.734280e-001 -5.559304e+000 -1.271233e+000 3.366238e+000 -1.068566e+000 -1.990118e+000 -1.895695e-001 1.221131e-001 3.767283e-001 5.876555e-001 -1.041150e-001 -9.634266e-001 5.054631e-002 8.871201e-001 -2.913902e-001 -5.802938e-001 -1.207762e-001 3.159629e-002 -6.486828e-002
<VARIANCE> 25
 1.211943e+001 2.286697e+001 4.480677e+001 6.463718e+001 6.300343e+001 6.544422e+001 6.825532e+001 5.111729e+001 6.293264e+001 4.375063e+001 4.839046e+001 3.403417e+001 7.757083e-001 1.723289e+000 2.682388e+000 3.653068e+000 4.970598e+000 4.561957e+000 3.357968e+000 4.565340e+000 4.423283e+000 4.108444e+000 3.521125e+000 2.755160e+000 8.851829e-001
<GCONST> 1.048255e+002
<TRANSP> 5
 0.000000e+000 1.000000e+000 0.000000e+000 0.000000e+000 0.000000e+000
 0.000000e+000 4.541777e-001 5.458223e-001 0.000000e+000 0.000000e+000
 0.000000e+000 0.000000e+000 3.769999e-001 6.230001e-001 0.000000e+000
 0.000000e+000 0.000000e+000 0.000000e+000 4.834786e-001 5.165215e-001
 0.000000e+000 0.000000e+000 0.000000e+000 0.000000e+000 0.000000e+000
<ENDHMM>
~h "m"
<BEGINHMM>
<NUMSTATES> 5
<STATE> 2
<MEAN> 25
 7.340800e+000 8.734787e-001 1.866336e+000 1.655836e+000 -1.611750e+000 1.372718e+000 -1.711481e+000 -5.401296e+000 -6.488901e+000 5.129179e-001 8.672132e-001 -4.362414e+000 3.216712e-001 1.016925e+000 1.265123e+000 1.002837e+000 1.304625e-001 6.307701e-001 2.540724e-001 -1.777125e+000 -1.663858e+000 2.692740e-001 7.591509e-001 -7.102218e-001 -9.840848e-001
<VARIANCE> 25
 7.194263e+000 1.574399e+001 2.224572e+001 2.638995e+001 2.553539e+001 3.039364e+001 3.297824e+001 4.130958e+001 3.580705e+001 2.794659e+001 4.041198e+001 2.317278e+001 8.235582e-001 1.721417e+000 2.646879e+000 2.578090e+000 3.148937e+000 3.385643e+000 3.564721e+000 3.872485e+000 4.159424e+000 3.855741e+000 3.371483e+000 2.658932e+000 1.034773e+000
<GCONST> 9.693703e+001
<STATE> 3
<MEAN> 25
 7.393122e+000 2.127472e+000 3.679271e+000 2.293285e+000 -1.893123e+000 2.178750e+000 -1.079035e+000 -6.282340e+000 -7.181489e+000 4.849940e-002 1.208516e+000 -3.698107e+000 -1.049279e-001 9.254684e-002 2.544948e-001 1.117212e-001 -1.677315e-002 2.618137e-002 9.380426e-002 1.289007e-001 2.151430e-001 -1.798085e-001 -4.678992e-002 3.019710e-001 -1.188341e-001
<VARIANCE> 25
 5.678211e+000 1.239410e+001 1.629618e+001 2.406124e+001 2.407439e+001 3.046679e+001 3.542138e+001 3.600468e+001 2.971558e+001 3.373927e+001 3.992163e+001 2.204995e+001 3.575433e-001 8.970978e-001 1.035096e+000 1.320255e+000 1.579000e+000 1.448574e+000 1.627734e+000 1.989521e+000 1.702057e+000 1.978157e+000 1.870700e+000 1.555653e+000 6.250186e-001
<GCONST> 8.660155e+001
<STATE> 4
<MEAN> 25
 6.453548e+000 1.428831e+000 3.110452e+000 2.373261e+000 -1.387264e+000 1.705465e+000 -1.083384e+000 -4.899898e+000 -5.390110e+000 -2.859582e-001 1.255035e+000 -2.659906e+000 -7.097685e-001 -7.607466e-001 -5.533136e-001 -9.865902e-001 -2.093170e-001 -3.281089e-001 1.377918e-001 1.865795e+000 1.648548e+000 -4.713237e-001 -5.763425e-001 9.837602e-001 7.148744e-001
<VARIANCE> 25
 1.007329e+001 1.736316e+001 2.332333e+001 3.046555e+001 3.052731e+001 3.459602e+001 3.662685e+001 4.500011e+001 3.508556e+001 3.449416e+001 3.692719e+001 2.361406e+001 9.521012e-001 1.695220e+000 4.572651e+000 3.449968e+000 4.339869e+000 3.716978e+000 3.447438e+000 3.708093e+000 3.844878e+000 3.795609e+000 2.853933e+000 2.298627e+000 1.640147e+000
<GCONST> 9.953886e+001
<TRANSP> 5
 0.000000e+000 1.000000e+000 0.000000e+000 0.000000e+000 0.000000e+000
 0.000000e+000 4.611918e-001 5.388082e-001 0.000000e+000 0.000000e+000
 0.000000e+000 0.000000e+000 6.296449e-001 3.703550e-001 0.000000e+000
 0.000000e+000 0.000000e+000 0.000000e+000 4.266103e-001 5.733898e-001
 0.000000e+000 0.000000e+000 0.000000e+000 0.000000e+000 0.000000e+000
<ENDHMM>
~h "n"
<BEGINHMM>
<NUMSTATES> 5
<STATE> 2
<MEAN> 25
 5.834399e+000 1.239273e+000 3.088361e+000 1.755690e+000 -2.862496e+000 9.381969e-002 -9.788547e-001 -4.423516e+000 -3.033899e+000 -7.211820e-001 -3.841666e+000 -1.517701e+000 8.062481e-001 5.922899e-001 6.875947e-001 1.629288e-001 -7.151496e-001 2.717172e-001 1.746898e-001 -1.526471e+000 -7.609795e-001 8.976285e-002 -3.975051e-001 -5.736148e-002 -2.435618e-001
<VARIANCE> 25
 1.199601e+001 1.850873e+001 2.384948e+001 2.484585e+001 3.111889e+001 3.136980e+001 3.552449e+001 3.884444e+001 3.199430e+001 3.148326e+001 3.612380e+001 2.313835e+001 1.406274e+000 1.731283e+000 2.810989e+000 2.249132e+000 3.218417e+000 3.268987e+000 3.464507e+000 4.658565e+000 3.841590e+000 3.173764e+000 3.684328e+000 2.459282e+000 2.224124e+000
<GCONST> 9.886376e+001
<STATE> 3
<MEAN> 25
 6.887180e+000 1.485040e+000 3.893258e+000 1.305734e+000 -3.864980e+000 7.104999e-001 -4.439174e-001 -5.940810e+000 -3.343272e+000 -3.766752e-001 -3.642596e+000 -1.278275e+000 -1.007466e-001 -3.386654e-001 -3.416481e-001 -2.114203e-001 9.458620e-002 -2.888516e-001 -1.301579e-001 3.232299e-001 2.258208e-001 4.910870e-002 -4.316701e-002 3.930017e-002 5.032346e-001
<VARIANCE> 25
 6.781190e+000 1.629380e+001 2.246479e+001 2.140797e+001 2.545281e+001 2.827224e+001 3.323553e+001 3.621107e+001 2.817877e+001 2.979498e+001 3.685328e+001 2.366305e+001 6.726375e-001 1.273458e+000 1.634931e+000 1.489963e+000 2.005115e+000 2.340638e+000 2.140650e+000 2.794749e+000 2.660292e+000 2.167233e+000 2.292153e+000 1.552164e+000 1.064096e+000
<GCONST> 9.115671e+001
<STATE> 4
<MEAN> 25
 5.083757e+000 -6.851956e-001 1.311273e+000 9.442511e-001 -1.727510e+000 -1.472009e+000 -1.859054e+000 -2.569987e+000 -1.215502e+000 -6.977053e-001 -4.354797e+000 -1.274629e+000 -7.549395e-001 -1.025321e+000 -1.343013e+000 -8.576999e-001 1.042850e+000 -5.339199e-001 -3.881461e-001 2.152198e+000 9.846805e-001 -3.839156e-001 1.264088e-001 5.540238e-002 1.275789e+000
<VARIANCE> 25
 1.203924e+001 2.180780e+001 2.705375e+001 2.682887e+001 3.680373e+001 3.694321e+001 3.821474e+001 4.828794e+001 4.075612e+001 3.280561e+001 3.797192e+001 2.697636e+001 9.440475e-001 1.988064e+000 3.303627e+000 2.510324e+000 3.827669e+000 4.679830e+000 3.903148e+000 5.712813e+000 4.721950e+000 3.784646e+000 3.572181e+000 2.341963e+000 1.233927e+000
<GCONST> 1.009226e+002
<TRANSP> 5
 0.000000e+000 1.000000e+000 0.000000e+000 0.000000e+000 0.000000e+000
 0.000000e+000 3.703408e-001 6.296593e-001 0.000000e+000 0.000000e+000
 0.000000e+000 0.000000e+000 4.571218e-001 5.428783e-001 0.000000e+000
 0.000000e+000 0.000000e+000 0.000000e+000 4.128020e-001 5.871980e-001
 0.000000e+000 0.000000e+000 0.000000e+000 0.000000e+000 0.000000e+000
<ENDHMM>
~h "o"
<BEGINHMM>
<NUMSTATES> 5
<STATE> 2
<MEAN> 25
 6.014938e+000 5.161737e-001 -5.473236e+000 -9.198379e+000 -1.221766e+000 4.901407e+000 -2.710551e+000 -2.792579e+000 -1.256520e+000 3.458576e-001 1.742332e+000 -9.133524e-001 1.007046e+000 9.050233e-002 -8.008100e-001 -2.726065e+000 -8.296179e-001 1.497429e+000 5.734234e-002 -4.208584e-001 -1.748017e-001 -1.613256e-001 7.653839e-001 -1.101876e-002 9.601306e-001
<VARIANCE> 25
 1.438062e+001 2.908516e+001 2.580044e+001 5.646694e+001 5.557901e+001 4.573008e+001 6.203046e+001 3.685509e+001 5.075906e+001 4.993601e+001 5.227994e+001 2.832811e+001 2.384053e+000 2.095632e+000 2.900421e+000 5.108903e+000 5.763430e+000 4.519707e+000 4.830385e+000 4.669919e+000 4.726045e+000 4.875803e+000 4.492044e+000 2.816545e+000 2.044187e+000
<GCONST> 1.070513e+002
<STATE> 3
<MEAN> 25
 6.724010e+000 8.589006e-001 -6.420307e+000 -1.537829e+001 -2.883075e+000 9.533305e+000 5.338549e-002 -3.156182e+000 -1.872229e+000 -1.560129e+000 3.122478e+000 4.128273e-001 1.057362e-003 -2.889887e-002 -3.802038e-003 9.547355e-002 3.764448e-001 7.978417e-002 -1.241805e-001 -2.778308e-001 -9.829918e-002 4.175576e-001 1.791876e-001 -1.237149e-001 -4.999668e-002
<VARIANCE> 25
 9.383538e+000 1.920458e+001 2.536478e+001 5.331121e+001 5.782602e+001 4.385301e+001 5.659916e+001 3.866118e+001 4.566539e+001 5.607131e+001 4.821666e+001 2.950826e+001 4.999406e-001 1.557156e+000 1.422296e+000 3.062270e+000 3.014100e+000 2.369473e+000 3.389124e+000 2.561168e+000 3.035575e+000 3.700933e+000 2.759482e+000 2.224299e+000 8.449550e-001
<GCONST> 9.840102e+001
<STATE> 4
<MEAN> 25
 5.927505e+000 -1.498170e-001 -4.811608e+000 -7.513697e+000 1.983977e+000 4.245512e+000 -4.291859e+000 -3.582693e+000 -7.741708e-001 3.602674e+000 1.762216e+000 -2.301238e+000 -4.800877e-001 4.060330e-001 1.632446e+000 2.926306e+000 7.286552e-001 -1.701218e+000 -7.772562e-002 7.325192e-001 4.541023e-001 1.811602e-001 -9.444442e-001 -1.444258e-001 -1.123061e+000
<VARIANCE> 25
 1.071906e+001 2.332578e+001 2.852167e+001 5.369930e+001 4.007172e+001 5.344584e+001 6.257604e+001 3.972516e+001 4.653247e+001 5.154790e+001 6.115553e+001 3.603167e+001 1.356613e+000 2.567947e+000 2.524498e+000 4.205812e+000 4.831601e+000 4.572990e+000 4.976585e+000 4.005826e+000 5.116405e+000 5.352716e+000 5.010707e+000 3.436657e+000 2.066233e+000
<GCONST> 1.063511e+002
<TRANSP> 5
 0.000000e+000 1.000000e+000 0.000000e+000 0.000000e+000 0.000000e+000
 0.000000e+000 4.801962e-001 5.198038e-001 0.000000e+000 0.000000e+000
 0.000000e+000 0.000000e+000 6.636889e-001 3.363112e-001 0.000000e+000
 0.000000e+000 0.000000e+000 0.000000e+000 5.830559e-001 4.169441e-001
 0.000000e+000 0.000000e+000 0.000000e+000 0.000000e+000 0.000000e+000
<ENDHMM>
~h "p"
<BEGINHMM>
<NUMSTATES> 5
<STATE> 2
<MEAN> 25
 1.242766e+000 2.457295e+000 3.699664e+000 5.050538e+000 3.180847e+000 4.065651e+000 2.693343e+000 1.934529e+000 2.032921e+000 1.679072e+000 3.037106e+000 8.959988e-001 -1.337959e+000 -7.403702e-001 -2.594205e-001 3.126557e-001 -1.296310e-001 -1.569712e-001 1.961318e-001 5.266941e-001 7.629302e-001 4.591509e-001 7.599104e-001 5.909414e-001 -1.369536e+000
<VARIANCE> 25
 1.628488e+001 1.553434e+001 3.559600e+001 2.703863e+001 2.402269e+001 2.456060e+001 2.494465e+001 2.342093e+001 2.316976e+001 2.370960e+001 2.779152e+001 2.208059e+001 1.375022e+000 1.486534e+000 2.774255e+000 2.882403e+000 2.227452e+000 2.662786e+000 2.387570e+000 2.496810e+000 2.276821e+000 2.069767e+000 2.312358e+000 1.878683e+000 1.981575e+000
<GCONST> 9.389070e+001
<STATE> 3
<MEAN> 25
 -1.978274e+000 -6.935504e-001 9.921056e-001 3.142130e+000 1.090854e+000 1.760152e+000 1.179926e+000 1.380535e+000 2.170641e+000 1.724053e+000 3.310007e+000 1.531780e+000 -5.149983e-001 -3.906052e-001 -8.046489e-001 -3.219034e-001 -3.851429e-002 -5.018709e-001 -3.304703e-001 -2.236362e-001 -1.749766e-001 -3.037217e-001 -4.056680e-001 -5.975172e-002 8.490123e-001
<VARIANCE> 25
 8.145860e+000 8.484853e+000 1.899701e+001 2.097724e+001 1.837814e+001 2.149084e+001 2.241011e+001 2.007840e+001 2.261368e+001 1.960545e+001 2.537175e+001 1.798196e+001 1.224500e+000 1.137175e+000 1.928858e+000 1.691856e+000 1.714316e+000 2.042445e+000 2.059346e+000 2.017922e+000 1.936828e+000 1.948652e+000 1.791269e+000 1.613184e+000 2.399288e+000
<GCONST> 8.793170e+001
<STATE> 4
<MEAN> 25
 -1.512816e+000 -2.062978e-001 -2.544180e+000 2.042861e+000 2.776562e+000 9.158750e-001 5.787163e-001 3.870818e-001 1.128999e+000 5.473998e-001 9.744911e-001 6.936759e-001 2.149423e+000 4.017085e-001 -9.330296e-001 -1.800631e+000 -9.084498e-001 -2.254882e-001 -4.248129e-001 -7.469264e-001 -6.292621e-001 -6.431183e-001 -8.623168e-001 -8.056321e-001 3.263933e+000
<VARIANCE> 25
 2.420601e+001 1.625115e+001 2.315092e+001 2.825159e+001 2.453616e+001 2.805180e+001 2.420365e+001 2.444963e+001 2.755880e+001 2.510314e+001 3.157101e+001 2.095028e+001 3.023149e+000 3.527643e+000 4.060330e+000 7.882016e+000 5.036267e+000 5.075309e+000 4.765502e+000 3.932971e+000 4.951686e+000 3.629378e+000 4.505590e+000 2.844003e+000 2.379502e+000
<GCONST> 1.026667e+002
<TRANSP> 5
 0.000000e+000 1.000000e+000 0.000000e+000 0.000000e+000 0.000000e+000
 0.000000e+000 6.084463e-001 3.915537e-001 0.000000e+000 0.000000e+000
 0.000000e+000 0.000000e+000 7.052127e-001 2.947873e-001 0.000000e+000
 0.000000e+000 0.000000e+000 0.000000e+000 5.464445e-001 4.535556e-001
 0.000000e+000 0.000000e+000 0.000000e+000 0.000000e+000 0.000000e+000
<ENDHMM>
~h "r"
<BEGINHMM>
<NUMSTATES> 5
<STATE> 2
<MEAN> 25
 3.176756e+000 -2.243645e+000 -1.902117e+000 4.174306e+000 -2.127245e+000 -5.718834e+000 -2.193034e+000 -4.282576e-001 3.148072e+000 6.123699e-001 -1.717899e+000 -8.091453e-001 1.311340e+000 -1.104795e+000 3.928231e-001 6.472430e-001 -1.604113e+000 -8.037019e-001 -6.098042e-001 -5.504528e-002 3.872420e-001 -5.847840e-002 -4.448870e-001 2.955887e-002 5.875016e-001
<VARIANCE> 25
 1.716803e+001 1.957697e+001 3.839549e+001 3.566589e+001 3.636940e+001 3.588070e+001 4.066438e+001 4.443235e+001 3.597618e+001 3.425574e+001 3.765189e+001 3.019108e+001 2.696908e+000 2.453806e+000 3.458421e+000 6.099154e+000 4.059654e+000 4.487064e+000 4.188108e+000 4.868068e+000 4.311114e+000 4.584978e+000 4.310077e+000 2.917901e+000 2.883352e+000
<GCONST> 1.052431e+002
<STATE> 3
<MEAN> 25
 4.693600e+000 -4.785284e+000 -9.590297e-001 5.371328e+000 -4.975326e+000 -5.752938e+000 -3.049147e+000 1.514008e-001 3.802163e+000 6.324747e-001 -2.037493e+000 -2.974322e-001 6.642535e-001 -1.323574e+000 2.913883e-001 -2.815973e-002 -1.130944e+000 2.413407e-001 -2.615666e-001 3.813513e-001 2.439998e-002 -7.211105e-003 -9.799783e-002 1.661917e-002 2.990748e-001
<VARIANCE> 25
 1.335727e+001 2.074747e+001 3.525174e+001 3.305840e+001 4.079919e+001 3.230342e+001 3.552063e+001 4.458385e+001 3.624198e+001 3.455079e+001 3.543533e+001 2.637904e+001 1.336756e+000 2.417389e+000 3.123148e+000 4.304130e+000 3.768044e+000 3.497092e+000 3.475267e+000 4.033206e+000 4.087337e+000 4.119441e+000 3.625531e+000 2.708835e+000 1.813305e+000
<GCONST> 1.018498e+002
<STATE> 4
<MEAN> 25
 5.482287e+000 -7.167610e+000 -1.067613e+000 3.665595e+000 -6.176054e+000 -4.475696e+000 -3.377330e+000 1.245573e+000 3.232526e+000 4.661918e-001 -2.199139e+000 -7.720861e-001 1.331729e-001 -5.379134e-001 -1.786143e-003 -1.236266e+000 1.558543e-001 5.829498e-001 3.567126e-001 4.670022e-001 -6.939627e-001 1.104910e-001 -1.451876e-002 -3.344296e-001 2.898994e-001
<VARIANCE> 25
 1.651850e+001 2.916966e+001 4.505547e+001 3.384700e+001 4.206538e+001 3.657656e+001 4.282547e+001 5.236871e+001 4.600805e+001 4.309330e+001 4.749234e+001 2.940700e+001 1.198508e+000 2.926085e+000 2.740408e+000 3.594908e+000 4.569807e+000 3.624468e+000 3.440980e+000 4.178096e+000 4.073029e+000 3.914111e+000 3.619111e+000 2.850694e+000 1.660232e+000
<GCONST> 1.039672e+002
<TRANSP> 5
 0.000000e+000 1.000000e+000 0.000000e+000 0.000000e+000 0.000000e+000
 0.000000e+000 2.810689e-001 7.189311e-001 0.000000e+000 0.000000e+000
 0.000000e+000 0.000000e+000 3.164530e-001 6.835471e-001 0.000000e+000
 0.000000e+000 0.000000e+000 0.000000e+000 3.008644e-001 6.991355e-001
 0.000000e+000 0.000000e+000 0.000000e+000 0.000000e+000 0.000000e+000
<ENDHMM>
~h "s"
<BEGINHMM>
<NUMSTATES> 5
<STATE> 2
<MEAN> 25
 -6.524772e+000 9.357674e+000 -9.095121e-001 6.489222e+000 5.311821e+000 -1.518023e+000 2.880469e+000 1.607495e+000 1.367096e+000 5.014006e-001 -4.207025e-001 1.538754e+000 -4.321471e+000 1.892865e+000 -1.366613e+000 1.995821e+000 1.493567e+000 1.177293e+000 1.548025e+000 1.101443e+000 5.114801e-001 -1.084985e-001 1.140466e+000 1.182117e+000 -5.032014e-001
<VARIANCE> 25
 3.929861e+001 2.281060e+001 2.606702e+001 3.256124e+001 5.741286e+001 3.759118e+001 4.677184e+001 3.861927e+001 3.170509e+001 3.555798e+001 3.120895e+001 2.343548e+001 1.511286e+000 3.603680e+000 3.290582e+000 4.316641e+000 4.473366e+000 4.835287e+000 4.481654e+000 4.857443e+000 3.730820e+000 3.297982e+000 4.533875e+000 2.951066e+000 1.034208e+000
<GCONST> 1.039282e+002
<STATE> 3
<MEAN> 25
 -1.721630e+001 8.915045e+000 -8.122496e+000 7.550804e+000 3.942189e+000 7.759604e-001 3.486045e+000 1.991019e+000 2.319494e+000 4.139111e-001 2.719931e+000 4.084365e+000 -6.777261e-001 -6.064150e-001 -6.518394e-001 -3.207915e-001 -4.795631e-001 1.477991e-002 -3.875909e-001 -2.230273e-001 -1.589319e-002 -5.682749e-002 8.986375e-002 1.787590e-002 -4.194882e-001
<VARIANCE> 25
 1.045831e+001 1.847791e+001 2.181654e+001 3.325733e+001 3.758184e+001 3.334954e+001 3.756258e+001 3.093086e+001 3.122178e+001 2.389203e+001 2.988477e+001 1.949963e+001 1.930266e+000 1.384288e+000 2.203608e+000 1.472102e+000 2.234010e+000 2.089431e+000 2.487218e+000 2.350524e+000 2.093450e+000 2.136620e+000 1.910439e+000 1.640284e+000 8.891640e-001
<GCONST> 9.296047e+001
<STATE> 4
<MEAN> 25
 -1.242392e+001 4.892372e+000 -5.107677e+000 5.093511e+000 2.551329e+000 -4.845139e-001 1.235492e+000 8.305771e-001 1.088412e+000 8.761889e-001 1.284181e+000 2.360990e+000 3.339527e+000 -1.029649e+000 1.696434e+000 -8.746929e-001 -1.019365e+000 -6.148602e-001 -9.396955e-001 -7.550303e-001 -6.968129e-001 1.349360e-001 -5.519899e-001 -8.520079e-001 -1.284907e-001
<VARIANCE> 25
 3.547847e+001 2.068151e+001 2.829164e+001 3.117092e+001 4.271778e+001 3.894392e+001 4.582198e+001 3.160890e+001 3.214997e+001 2.846071e+001 3.455862e+001 2.192020e+001 3.837285e+000 2.607545e+000 2.866500e+000 3.096053e+000 3.357697e+000 4.378936e+000 4.212152e+000 3.560962e+000 3.505067e+000 2.772539e+000 3.754181e+000 2.465677e+000 3.093898e+000
<GCONST> 1.029823e+002
<TRANSP> 5
 0.000000e+000 1.000000e+000 0.000000e+000 0.000000e+000 0.000000e+000
 0.000000e+000 6.387728e-001 3.612273e-001 0.000000e+000 0.000000e+000
 0.000000e+000 0.000000e+000 7.919853e-001 2.080147e-001 0.000000e+000
 0.000000e+000 0.000000e+000 0.000000e+000 6.802142e-001 3.197857e-001
 0.000000e+000 0.000000e+000 0.000000e+000 0.000000e+000 0.000000e+000
<ENDHMM>
~h "t"
<BEGINHMM>
<NUMSTATES> 5
<STATE> 2
<MEAN> 25
 -1.881327e-001 3.390054e+000 4.061577e+000 5.909797e+000 1.506201e+000 7.111652e-001 1.321420e+000 1.610367e+000 2.582467e+000 2.115739e+000 1.867928e+000 8.524075e-001 -8.350563e-001 -6.810519e-001 6.384216e-002 1.342611e-001 2.928453e-001 1.146520e+000 6.137148e-001 4.702963e-001 2.888777e-001 4.366841e-001 1.084530e+000 4.105546e-001 -2.037298e+000
<VARIANCE> 25
 1.906111e+001 1.581628e+001 3.256314e+001 2.388413e+001 3.133779e+001 2.910972e+001 2.943870e+001 2.653259e+001 2.892495e+001 2.637564e+001 3.088894e+001 2.107541e+001 1.764568e+000 2.356065e+000 3.247673e+000 3.019742e+000 3.137883e+000 3.675095e+000 4.086781e+000 2.696274e+000 2.841271e+000 2.627691e+000 3.148196e+000 2.273447e+000 3.145767e+000
<GCONST> 9.858155e+001
<STATE> 3
<MEAN> 25
 -3.782598e+000 2.434441e-002 1.040166e+000 3.382496e+000 1.115925e+000 9.377069e-001 1.334854e+000 1.690549e+000 2.091375e+000 2.113402e+000 3.387846e+000 2.105771e+000 -1.234683e+000 -4.211931e-001 -1.120734e+000 -7.546594e-001 3.360365e-001 -4.793816e-001 7.677304e-002 -2.852879e-001 -2.409761e-001 -4.070168e-001 -1.154466e-001 2.339879e-001 1.072164e+000
<VARIANCE> 25
 1.753780e+001 1.278160e+001 2.506278e+001 2.299131e+001 2.637986e+001 2.460181e+001 2.451765e+001 2.554223e+001 2.726138e+001 2.322804e+001 2.608697e+001 1.832260e+001 2.169915e+000 1.451421e+000 2.596785e+000 2.059238e+000 2.424084e+000 2.389609e+000 2.814056e+000 2.646748e+000 2.237093e+000 2.237204e+000 2.082051e+000 1.943332e+000 3.122912e+000
<GCONST> 9.398665e+001
<STATE> 4
<MEAN> 25
 -7.013359e+000 9.209152e-001 -2.218104e+000 1.107840e+000 2.934556e+000 -1.988558e+000 1.219984e+000 2.247932e-001 6.229669e-001 3.521805e-001 6.978135e-001 2.041052e+000 1.266951e+000 1.861061e-001 -4.957872e-002 -8.028528e-001 -7.094653e-001 -1.281806e+000 -8.918005e-001 -7.450319e-001 -5.098133e-001 -4.114857e-001 -1.163041e+000 -8.002012e-001 2.745543e+000
<VARIANCE> 25
 2.617665e+001 2.200032e+001 2.825372e+001 2.821418e+001 3.429037e+001 3.316245e+001 3.735521e+001 3.511861e+001 2.999534e+001 2.625510e+001 3.692359e+001 2.085652e+001 6.515616e+000 2.868912e+000 5.658127e+000 3.746546e+000 4.860020e+000 4.722972e+000 5.162048e+000 4.871948e+000 5.516562e+000 3.700875e+000 4.955889e+000 3.229641e+000 2.739515e+000
<GCONST> 1.056522e+002
<TRANSP> 5
 0.000000e+000 1.000000e+000 0.000000e+000 0.000000e+000 0.000000e+000
 0.000000e+000 5.419865e-001 4.580135e-001 0.000000e+000 0.000000e+000
 0.000000e+000 0.000000e+000 6.199772e-001 3.800228e-001 0.000000e+000
 0.000000e+000 0.000000e+000 0.000000e+000 5.781957e-001 4.218042e-001
 0.000000e+000 0.000000e+000 0.000000e+000 0.000000e+000 0.000000e+000
<ENDHMM>
~h "u"
<BEGINHMM>
<NUMSTATES> 5
<STATE> 2
<MEAN> 25
 5.105618e+000 3.231679e+000 -2.834708e+000 -3.149158e+000 -1.657184e+000 1.021659e+000 -6.324550e+000 -5.311608e+000 -3.000876e+000 7.105557e-001 2.041485e+000 -8.206666e-001 1.616721e+000 1.295574e+000 -8.613893e-001 -2.452513e+000 -1.035313e+000 1.572817e+000 1.987572e-001 -1.462604e+000 -1.269132e+000 -3.282824e-001 8.604879e-001 3.018452e-001 2.422573e-001
<VARIANCE> 25
 1.453515e+001 2.238765e+001 2.572667e+001 5.119875e+001 4.556934e+001 4.328002e+001 5.850675e+001 4.895508e+001 4.082125e+001 5.209224e+001 5.243748e+001 2.829553e+001 3.287032e+000 1.999679e+000 2.962526e+000 3.608279e+000 6.882118e+000 4.930572e+000 6.062441e+000 5.572847e+000 4.642470e+000 5.487348e+000 4.863635e+000 3.173803e+000 1.743371e+000
<GCONST> 1.072536e+002
<STATE> 3
<MEAN> 25
 7.298175e+000 5.929237e+000 -3.005873e+000 -8.965194e+000 -6.293050e+000 4.875653e+000 -1.780396e+000 -5.067521e+000 -4.930841e+000 -2.867376e+000 2.060860e+000 1.056422e+000 6.366655e-002 1.555629e-001 1.812830e-001 -1.162521e-001 -4.147530e-002 3.088579e-001 2.769954e-001 9.288242e-002 -5.109227e-002 -1.157954e-001 -1.431825e-001 8.361991e-002 -1.036521e-001
<VARIANCE> 25
 7.989550e+000 1.864876e+001 2.379169e+001 3.864694e+001 4.603766e+001 3.807678e+001 5.685011e+001 5.031657e+001 4.252866e+001 5.592777e+001 5.067060e+001 2.913603e+001 5.265466e-001 1.406279e+000 1.328829e+000 2.839223e+000 3.583108e+000 2.285348e+000 4.230388e+000 3.662978e+000 2.852092e+000 4.320074e+000 3.637137e+000 2.339177e+000 8.484880e-001
<GCONST> 9.863272e+001
<STATE> 4
<MEAN> 25
 5.813741e+000 4.076056e+000 -1.466833e+000 -3.652094e+000 -6.498170e-001 3.322464e+000 -4.682066e+000 -5.171340e+000 -2.921267e+000 9.371875e-001 1.912097e+000 -1.246179e-001 -8.426276e-001 -1.870037e-001 1.212909e+000 2.337221e+000 1.250311e+000 -9.643660e-001 2.317140e-001 1.039035e+000 1.171896e+000 4.965740e-001 -8.230469e-001 -4.250315e-001 -8.420601e-001
<VARIANCE> 25
 1.243703e+001 2.121053e+001 3.078558e+001 5.214843e+001 4.788225e+001 3.729638e+001 7.560891e+001 4.771449e+001 3.894372e+001 5.178756e+001 4.570862e+001 3.039894e+001 1.527522e+000 2.153181e+000 2.573368e+000 4.073969e+000 4.545828e+000 3.727104e+000 5.869775e+000 4.795203e+000 3.933123e+000 5.266912e+000 4.633179e+000 3.170538e+000 1.889781e+000
<GCONST> 1.054898e+002
<TRANSP> 5
 0.000000e+000 1.000000e+000 0.000000e+000 0.000000e+000 0.000000e+000
 0.000000e+000 5.198702e-001 4.801298e-001 0.000000e+000 0.000000e+000
 0.000000e+000 0.000000e+000 6.673527e-001 3.326474e-001 0.000000e+000
 0.000000e+000 0.000000e+000 0.000000e+000 5.643525e-001 4.356475e-001
 0.000000e+000 0.000000e+000 0.000000e+000 0.000000e+000 0.000000e+000
<ENDHMM>
~h "v"
<BEGINHMM>
<NUMSTATES> 5
<STATE> 2
<MEAN> 25
 5.779689e+000 -2.531042e-001 -7.775785e-001 1.616327e+000 4.462036e-001 -1.481061e-001 -4.438797e+000 -1.849208e+000 5.540946e-002 2.272605e+000 3.352999e-001 -2.082868e+000 5.676080e-001 3.614928e-001 1.812957e-001 5.903155e-001 2.112204e-001 1.696905e-001 -4.950337e-001 -6.249620e-001 -5.619886e-002 2.370957e-001 1.641227e-001 -3.138994e-001 -5.360134e-001
<VARIANCE> 25
 1.283399e+001 2.833701e+001 3.093179e+001 3.964832e+001 2.844852e+001 4.393472e+001 3.720271e+001 3.504385e+001 2.780488e+001 3.192231e+001 3.006870e+001 2.203579e+001 1.945021e+000 2.938643e+000 3.371267e+000 4.928096e+000 4.109899e+000 5.171416e+000 3.881474e+000 4.096663e+000 3.911429e+000 3.450854e+000 3.299807e+000 2.457334e+000 2.444122e+000
<GCONST> 1.025090e+002
<STATE> 3
<MEAN> 25
 5.969598e+000 -1.657517e-001 -3.797824e-001 1.834142e+000 3.044824e-001 -5.729127e-002 -4.207608e+000 -2.249765e+000 -1.563692e-002 2.313210e+000 6.136364e-001 -2.016012e+000 1.153941e-002 -4.118614e-001 2.764840e-001 -2.229934e-001 -6.176385e-001 -4.204337e-001 2.843931e-001 2.223780e-001 -1.061723e-001 -7.555226e-002 1.001787e-002 1.183857e-001 3.889068e-001
<VARIANCE> 25
 1.064872e+001 2.599566e+001 3.179998e+001 3.848160e+001 2.694888e+001 4.331969e+001 3.533465e+001 3.118324e+001 2.814655e+001 3.095500e+001 2.765483e+001 2.372687e+001 1.098840e+000 2.611501e+000 2.843200e+000 4.481079e+000 2.903225e+000 4.496863e+000 3.131831e+000 3.578585e+000 3.234366e+000 2.930158e+000 2.938828e+000 2.106225e+000 1.933704e+000
<GCONST> 9.931960e+001
<STATE> 4
<MEAN> 25
 5.581055e+000 -1.344619e+000 -1.126709e-001 1.265599e+000 -1.045742e+000 -1.507379e+000 -3.214255e+000 -8.058943e-001 1.064271e-001 1.930478e+000 6.855649e-001 -1.166502e+000 -3.536189e-001 -8.550630e-001 3.218392e-001 -8.650479e-001 -1.158368e+000 -7.091594e-001 7.232655e-001 6.183241e-001 -2.071714e-001 -1.838576e-001 -1.680405e-001 2.550978e-001 1.093326e+000
<VARIANCE> 25
 1.260934e+001 2.645582e+001 3.687937e+001 4.763964e+001 3.002262e+001 5.995092e+001 3.869854e+001 3.619201e+001 3.151152e+001 3.119542e+001 2.939985e+001 2.688807e+001 8.259099e-001 2.138494e+000 3.564224e+000 3.986714e+000 3.322979e+000 3.847837e+000 3.263997e+000 3.267649e+000 3.554891e+000 2.770993e+000 2.804765e+000 2.214852e+000 1.680145e+000
<GCONST> 1.003026e+002
<TRANSP> 5
 0.000000e+000 1.000000e+000 0.000000e+000 0.000000e+000 0.000000e+000
 0.000000e+000 1.743552e-001 8.256448e-001 0.000000e+000 0.000000e+000
 0.000000e+000 0.000000e+000 1.358553e-001 8.641447e-001 0.000000e+000
 0.000000e+000 0.000000e+000 0.000000e+000 1.899399e-001 8.100601e-001
 0.000000e+000 0.000000e+000 0.000000e+000 0.000000e+000 0.000000e+000
<ENDHMM>
~h "z"
<BEGINHMM>
<NUMSTATES> 5
<STATE> 2
<MEAN> 25
 -1.494865e+000 1.076030e+001 -3.061301e+000 5.759599e+000 2.434949e+000 -4.874329e+000 -2.977589e+000 -3.314628e+000 2.250806e+000 1.375377e+000 -2.756743e+000 7.447923e-001 -2.370422e+000 3.067086e+000 -4.880199e-001 2.534346e+000 7.365978e-001 5.437828e-001 1.390773e+000 1.200974e-001 5.586546e-001 -7.654498e-001 7.145831e-001 5.088074e-001 -7.639157e-001
<VARIANCE> 25
 2.236040e+001 3.458869e+001 2.732325e+001 3.687382e+001 4.327266e+001 3.295543e+001 3.723842e+001 3.114836e+001 3.633423e+001 4.822308e+001 2.915478e+001 1.844290e+001 2.303523e+000 3.052935e+000 2.136111e+000 2.729546e+000 2.804659e+000 4.212475e+000 4.141336e+000 4.874113e+000 3.930873e+000 3.284510e+000 3.639900e+000 2.705420e+000 9.148676e-001
<GCONST> 1.015319e+002
<STATE> 3
<MEAN> 25
 -9.733598e+000 1.464847e+001 -3.701808e+000 1.110223e+001 4.087754e+000 -5.638103e-001 1.377111e+000 -2.851511e-001 2.938089e+000 7.112160e-003 1.234840e+000 2.477466e+000 -4.421147e-001 -8.260921e-001 -2.366606e-001 -1.801895e-001 -6.609946e-002 4.201730e-001 3.770111e-002 3.549658e-001 1.696812e-001 9.115045e-002 2.114978e-001 1.403922e-001 -1.793116e-001
<VARIANCE> 25
 2.607670e+001 2.270971e+001 2.071772e+001 2.716887e+001 3.912222e+001 3.274163e+001 3.548591e+001 3.404028e+001 2.930249e+001 3.783416e+001 2.392637e+001 1.895423e+001 3.450312e+000 2.540958e+000 1.677698e+000 2.119056e+000 1.814176e+000 3.440696e+000 2.626480e+000 2.456825e+000 2.340037e+000 1.959512e+000 2.059745e+000 1.624565e+000 1.100277e+000
<GCONST> 9.600520e+001
<STATE> 4
<MEAN> 25
 -3.372590e+000 7.434535e+000 -4.433374e+000 5.298043e+000 2.044884e+000 -3.372568e+000 -2.354966e+000 -1.008230e+000 4.384586e+000 1.423889e+000 -1.805773e+000 1.139410e+000 2.847015e+000 -3.458729e+000 1.372334e-001 -2.731995e+000 -6.682435e-001 -7.560571e-001 -8.786736e-001 3.932569e-001 2.537302e-001 5.128618e-001 -1.314734e+000 -8.383495e-001 1.156367e+000
<VARIANCE> 25
 3.883773e+001 3.743443e+001 2.577269e+001 3.670444e+001 3.491122e+001 4.052900e+001 3.703006e+001 3.367278e+001 3.536161e+001 3.690052e+001 3.067404e+001 2.090459e+001 2.774704e+000 4.068003e+000 2.583472e+000 3.605665e+000 3.056525e+000 5.611222e+000 4.950331e+000 5.116724e+000 4.689898e+000 3.057914e+000 4.184613e+000 2.963927e+000 2.246606e+000
<GCONST> 1.048214e+002
<TRANSP> 5
 0.000000e+000 1.000000e+000 0.000000e+000 0.000000e+000 0.000000e+000
 0.000000e+000 6.864477e-001 3.135523e-001 0.000000e+000 0.000000e+000
 0.000000e+000 0.000000e+000 6.767156e-001 3.232844e-001 0.000000e+000
 0.000000e+000 0.000000e+000 0.000000e+000 6.169526e-001 3.830474e-001
 0.000000e+000 0.000000e+000 0.000000e+000 0.000000e+000 0.000000e+000
<ENDHMM>
~h "cc"
<BEGINHMM>
<NUMSTATES> 5
<STATE> 2
<MEAN> 25
 -6.450831e+000 2.984805e+000 5.002157e+000 2.201978e+000 2.425926e+000 1.264603e+000 -5.073654e-001 1.812550e+000 3.202584e+000 9.420120e-001 3.537019e+000 1.532567e+000 -3.631642e+000 3.535493e-001 -3.418910e-001 -1.120531e+000 8.126833e-001 1.091119e+000 3.944472e-001 -1.887833e-001 6.795202e-001 8.042032e-002 1.246644e+000 4.445544e-001 2.914034e-001
<VARIANCE> 25
 5.334379e+001 2.790022e+001 2.386953e+001 2.993087e+001 2.667792e+001 3.673396e+001 3.198272e+001 3.151430e+001 3.354486e+001 3.384961e+001 2.827624e+001 2.478576e+001 3.860136e+000 3.738458e+000 2.831126e+000 3.823187e+000 3.432692e+000 3.550454e+000 4.144176e+000 3.607769e+000 3.642199e+000 4.728559e+000 3.058905e+000 2.024591e+000 6.783583e+000
<GCONST> 1.040546e+002
<STATE> 3
<MEAN> 25
 -2.173395e+001 4.883614e+000 3.593249e+000 -2.926855e+000 3.068684e+000 2.850152e+000 1.512759e+000 3.538504e-001 4.636504e+000 -2.004651e+000 6.899344e+000 2.728705e+000 -1.037007e+000 -3.200834e-001 9.295049e-002 4.375073e-002 -5.172035e-001 -5.517355e-001 1.017725e+000 4.356003e-002 -2.105870e-001 -9.784181e-001 2.618655e-002 6.779624e-002 1.010721e+000
<VARIANCE> 25
 1.606754e+001 2.647080e+001 1.966813e+001 1.407384e+001 2.041960e+001 3.059243e+001 3.559393e+001 3.700277e+001 2.846493e+001 2.607223e+001 4.188623e+001 1.922762e+001 7.074372e+000 2.540999e+000 1.816654e+000 1.929175e+000 2.090341e+000 2.580805e+000 2.430282e+000 2.754582e+000 2.324040e+000 2.388272e+000 2.071684e+000 1.727597e+000 1.649304e+000
<GCONST> 9.576350e+001
<STATE> 4
<MEAN> 25
 -1.192796e+001 1.796210e+000 5.449418e+000 1.053638e+000 -1.073984e+000 -3.403033e+000 2.198588e+000 2.645014e-001 7.720148e-001 -4.521918e+000 2.861328e+000 1.329001e+000 5.329842e+000 -7.000349e-001 3.558589e-001 7.140213e-001 -1.945412e+000 -2.249771e+000 -1.801192e+000 -1.509026e-001 -1.131904e+000 -2.660480e-001 -1.484639e+000 -7.280553e-001 3.939790e-001
<VARIANCE> 25
 7.273096e+001 2.062508e+001 1.870497e+001 1.842880e+001 2.761199e+001 4.128093e+001 3.773778e+001 2.851378e+001 2.980034e+001 2.903271e+001 3.941626e+001 2.038967e+001 3.443470e+000 2.426239e+000 2.250609e+000 2.274785e+000 3.581666e+000 3.058798e+000 3.929588e+000 3.362317e+000 3.617525e+000 3.050643e+000 4.684884e+000 2.206221e+000 1.010690e+000
<GCONST> 1.000531e+002
<TRANSP> 5
 0.000000e+000 1.000000e+000 0.000000e+000 0.000000e+000 0.000000e+000
 0.000000e+000 7.233332e-001 2.766668e-001 0.000000e+000 0.000000e+000
 0.000000e+000 0.000000e+000 6.844034e-001 3.155966e-001 0.000000e+000
 0.000000e+000 0.000000e+000 0.000000e+000 6.885262e-001 3.114739e-001
 0.000000e+000 0.000000e+000 0.000000e+000 0.000000e+000 0.000000e+000
<ENDHMM>
~h "dz"
<BEGINHMM>
<NUMSTATES> 5
<STATE> 2
<MEAN> 25
 4.199373e+000 5.620533e+000 5.803918e+000 4.279738e+000 -1.494294e+000 1.152416e+000 -2.459455e+000 4.427568e-001 -1.423565e-001 -5.644824e+000 -4.725904e+000 1.172697e-001 -2.158233e+000 1.646891e+000 9.439701e-001 1.490278e+000 1.343124e+000 1.633882e+000 1.737551e+000 -1.400318e+000 2.564372e-001 2.642291e-001 9.672472e-001 -3.831412e-001 -8.852021e-001
<VARIANCE> 25
 1.433309e+001 2.302480e+001 2.108986e+001 2.277467e+001 2.137628e+001 2.722603e+001 3.204105e+001 3.403335e+001 3.749522e+001 2.033834e+001 2.989271e+001 1.887504e+001 4.720556e+000 2.054122e+000 1.404746e+000 2.390979e+000 2.440771e+000 3.159901e+000 2.629008e+000 3.281312e+000 4.252612e+000 4.248646e+000 4.702773e+000 1.994146e+000 3.084192e+000
<GCONST> 9.819333e+001
<STATE> 3
<MEAN> 25
 -9.221706e+000 6.219887e+000 7.244906e+000 6.198456e+000 6.373534e-001 2.684598e+000 2.674031e+000 -3.398362e+000 4.082223e+000 -4.772596e+000 2.070534e-001 1.157963e+000 -2.140469e+000 -4.624613e-001 -5.092366e-001 -3.019150e-001 -2.582740e-001 -1.647191e+000 -3.748508e-001 -7.345452e-001 1.324320e+000 -2.872162e-001 5.318514e-001 4.226455e-001 1.880069e+000
<VARIANCE> 25
 4.697938e+001 2.545187e+001 1.467369e+001 2.648892e+001 2.449949e+001 3.618703e+001 3.707380e+001 1.892659e+001 2.656171e+001 2.996665e+001 2.413727e+001 2.474456e+001 9.850783e+000 2.729384e+000 1.959896e+000 4.141555e+000 1.696023e+000 4.118699e+000 4.832501e+000 2.421201e+000 3.396726e+000 2.208979e+000 2.391587e+000 1.945704e+000 1.532682e+000
<GCONST> 9.917794e+001
<STATE> 4
<MEAN> 25
 -1.674512e+000 2.066049e+000 2.300632e+000 4.171081e+000 -2.454556e+000 -5.480099e+000 -6.147887e+000 -5.341505e+000 6.199572e+000 -4.109280e+000 -1.618090e+000 2.526107e-001 3.878485e+000 -2.525695e+000 -1.393236e+000 -1.396399e+000 -7.934764e-001 -5.940147e-001 -3.353567e+000 -2.755609e-001 -3.797131e-003 1.648250e+000 -1.341594e-001 -4.118677e-001 4.406979e-001
<VARIANCE> 25
 3.817973e+001 2.481985e+001 2.518672e+001 2.661354e+001 2.358863e+001 3.320926e+001 4.287754e+001 3.455679e+001 2.255142e+001 1.927213e+001 1.410450e+001 2.756581e+001 2.929048e+000 1.343457e+000 1.414954e+000 1.864421e+000 2.556655e+000 4.953318e+000 4.242723e+000 4.314548e+000 2.265251e+000 3.930068e+000 4.370022e+000 2.188735e+000 4.617707e-001
<GCONST> 9.676836e+001
<TRANSP> 5
 0.000000e+000 1.000000e+000 0.000000e+000 0.000000e+000 0.000000e+000
 0.000000e+000 6.683871e-001 3.316129e-001 0.000000e+000 0.000000e+000
 0.000000e+000 0.000000e+000 6.676357e-001 3.323643e-001 0.000000e+000
 0.000000e+000 0.000000e+000 0.000000e+000 6.418219e-001 3.581782e-001
 0.000000e+000 0.000000e+000 0.000000e+000 0.000000e+000 0.000000e+000
<ENDHMM>
~h "sp"
<BEGINHMM>
<NUMSTATES> 3
<STATE> 2
~s "silst"
<TRANSP> 3
 0.000000e+000 1.638881e-001 8.361118e-001
 0.000000e+000 9.483870e-001 5.161296e-002
 0.000000e+000 0.000000e+000 0.000000e+000
<ENDHMM>
~h "sil"
<BEGINHMM>
<NUMSTATES> 5
<STATE> 2
<MEAN> 25
 -4.501854e+000 -2.321222e+000 1.030502e+000 4.386018e+000 3.253523e+000 1.996975e+000 3.206836e+000 2.716680e+000 1.230749e+000 -3.457587e-001 2.670994e+000 1.618174e+000 5.536588e-003 -5.804477e-003 3.464404e-004 1.115283e-002 -3.034580e-002 1.432982e-002 1.120666e-003 -4.631292e-002 -1.612494e-002 7.001894e-003 2.104139e-002 1.810689e-002 -2.990488e-002
<VARIANCE> 25
 1.242879e+001 8.943080e+000 1.578136e+001 1.955262e+001 2.126043e+001 2.211763e+001 2.204924e+001 2.615792e+001 2.115692e+001 2.022316e+001 2.894158e+001 1.613854e+001 1.956450e-001 3.563992e-001 5.782169e-001 7.691401e-001 1.060021e+000 1.156243e+000 1.417467e+000 1.449394e+000 1.493028e+000 1.431147e+000 1.338190e+000 1.238240e+000 1.103040e-001
<GCONST> 7.761551e+001
<STATE> 3
<MEAN> 25
 -5.705248e+000 -2.808969e+000 5.435898e-001 3.351213e+000 5.065453e+000 1.034918e+000 3.517302e+000 3.034228e+000 1.505702e+000 -9.749557e-001 2.000907e+000 2.592113e+000 1.377489e-001 1.575332e-001 1.331888e-002 5.321743e-002 -2.270070e-003 9.083761e-002 6.656028e-002 -1.188149e-001 5.151171e-003 8.027954e-002 1.052984e-002 -5.803983e-002 -1.360234e-001
<VARIANCE> 25
 1.468961e+001 1.240246e+001 1.683422e+001 1.735486e+001 2.475962e+001 2.514465e+001 2.314657e+001 2.856240e+001 2.612864e+001 2.323502e+001 3.239631e+001 1.767725e+001 9.182032e-001 8.271834e-001 1.215452e+000 1.181239e+000 1.857555e+000 1.836299e+000 1.903758e+000 2.298474e+000 2.060767e+000 2.051040e+000 1.883897e+000 1.541449e+000 9.755918e-001
<GCONST> 8.778854e+001
<STATE> 4
<MEAN> 25
 -9.727469e+000 2.080220e+000 -1.054121e+000 3.034975e+000 1.714458e+000 7.751338e+000 5.616645e+000 1.048686e+000 1.953268e+000 4.565388e-001 6.468369e-001 4.714051e+000 -1.243496e-003 4.376644e-002 9.100189e-002 -1.266901e-002 -8.412161e-002 -1.638916e-001 -5.144915e-002 9.745711e-003 -8.292466e-002 -7.027197e-002 -1.362631e-002 -1.328676e-002 1.306047e-001
<VARIANCE> 25
 8.509844e+001 3.646850e+001 2.663560e+001 2.170112e+001 3.042310e+001 8.071460e+001 2.349078e+001 2.395261e+001 2.183418e+001 1.982914e+001 2.995357e+001 2.512305e+001 8.564041e-001 9.553066e-001 1.005575e+000 1.097023e+000 1.404599e+000 1.581707e+000 1.906243e+000 1.807263e+000 1.826745e+000 1.513437e+000 1.510560e+000 1.253716e+000 8.706186e-001
<GCONST> 9.062926e+001
<TRANSP> 5
 0.000000e+000 1.000000e+000 0.000000e+000 0.000000e+000 0.000000e+000
 0.000000e+000 9.244773e-001 7.552266e-002 0.000000e+000 0.000000e+000
 0.000000e+000 0.000000e+000 8.572502e-001 1.427498e-001 0.000000e+000
 0.000000e+000 0.000000e+000 0.000000e+000 8.040314e-001 1.959686e-001
 0.000000e+000 0.000000e+000 0.000000e+000 0.000000e+000 0.000000e+000
<ENDHMM>
