~o
<STREAMINFO> 1 25
<VECSIZE> 25<NULLD><MFCC_D_N_Z_0><DIAGC>
~s "silst"
<MEAN> 25
 -5.558249e+000 -2.832099e+000 4.915166e-002 3.280071e+000 5.871353e+000 1.173458e+000 2.873000e+000 3.944852e+000 1.817484e+000 -8.921998e-001 1.347943e+000 2.764601e+000 -4.331580e-002 -7.969993e-003 -9.944065e-003 1.219764e-002 -6.201730e-002 -2.484653e-003 -3.298904e-002 -5.951624e-002 -3.423147e-002 -2.034004e-002 1.553474e-002 -1.868643e-002 -1.280480e-001
<VARIANCE> 25
 1.792308e+001 1.247622e+001 1.743705e+001 1.904271e+001 2.451889e+001 2.776290e+001 2.624189e+001 3.238527e+001 2.686409e+001 2.850887e+001 3.277592e+001 2.019782e+001 7.372169e-001 7.572793e-001 9.949279e-001 1.099301e+000 1.656975e+000 1.871993e+000 1.856112e+000 2.129880e+000 1.901246e+000 2.014454e+000 1.826747e+000 1.581689e+000 5.603666e-001
<GCONST> 8.740456e+001
~h "C"
<BEGINHMM>
<NUMSTATES> 5
<STATE> 2
<MEAN> 25
 -6.541635e+000 2.737231e+000 4.677135e+000 2.701591e+000 2.410104e+000 2.088223e+000 6.111894e-001 6.624146e-001 3.146732e+000 4.694457e-001 2.621090e+000 1.498630e+000 -4.111855e+000 1.159198e-001 -3.369289e-001 -1.121405e+000 7.896840e-001 6.076639e-001 2.592500e-001 -2.670795e-001 7.295823e-001 -4.135867e-001 1.267652e+000 2.925123e-001 7.817219e-001
<VARIANCE> 25
 5.515799e+001 2.559003e+001 2.615368e+001 2.800269e+001 2.945140e+001 2.973717e+001 3.773156e+001 4.093488e+001 3.080806e+001 3.020341e+001 3.377905e+001 2.182443e+001 3.585626e+000 3.616554e+000 2.612879e+000 3.486163e+000 4.138236e+000 3.447536e+000 3.951332e+000 3.742016e+000 3.750710e+000 3.845263e+000 3.731874e+000 2.114377e+000 5.680594e+000
<GCONST> 1.039467e+002
<STATE> 3
<MEAN> 25
 -2.185932e+001 4.113686e+000 3.459576e+000 -2.538505e+000 3.971031e+000 2.607879e+000 2.346351e+000 -1.370566e-002 5.435431e+000 -3.447841e+000 5.712935e+000 3.031354e+000 -3.937403e-001 -2.556256e-001 -1.426965e-001 -5.246540e-004 -4.104272e-002 -4.805449e-001 4.960601e-001 4.417678e-001 -1.635327e-001 -6.309531e-001 -2.774332e-002 1.088546e-001 5.250970e-001
<VARIANCE> 25
 1.005995e+001 3.281784e+001 1.727472e+001 1.748350e+001 2.346152e+001 3.279559e+001 4.860480e+001 4.271570e+001 3.016478e+001 3.085422e+001 4.737047e+001 1.804021e+001 5.771434e+000 2.128531e+000 1.572012e+000 2.004500e+000 2.031722e+000 2.341912e+000 2.889967e+000 2.800854e+000 2.549534e+000 2.198676e+000 2.136646e+000 1.716053e+000 1.604219e+000
<GCONST> 9.613025e+001
<STATE> 4
<MEAN> 25
 -1.038970e+001 1.576287e+000 3.524868e+000 6.576422e-001 2.078409e+000 -1.957456e+000 1.549080e+000 8.042575e-001 2.464442e+000 -4.539895e+000 1.378270e+000 1.197263e+000 5.322758e+000 -8.211656e-001 -1.284332e-001 3.516304e-001 -1.423997e+000 -1.391589e+000 -1.429841e+000 -8.705937e-002 -5.831258e-001 1.074470e-002 -1.693574e+000 -9.539686e-001 2.433218e-001
<VARIANCE> 25
 6.946942e+001 2.403327e+001 1.958545e+001 2.255971e+001 3.094624e+001 4.569457e+001 3.428115e+001 3.590355e+001 3.599030e+001 3.890538e+001 4.347758e+001 2.019491e+001 2.687824e+000 2.995207e+000 2.392882e+000 2.303341e+000 4.229129e+000 3.966946e+000 4.383103e+000 4.047508e+000 3.892354e+000 3.364463e+000 4.631346e+000 2.293468e+000 1.571122e+000
<GCONST> 1.027254e+002
<TRANSP> 5
 0.000000e+000 1.000000e+000 0.000000e+000 0.000000e+000 0.000000e+000
 0.000000e+000 7.690142e-001 2.309857e-001 0.000000e+000 0.000000e+000
 0.000000e+000 0.000000e+000 7.139606e-001 2.860393e-001 0.000000e+000
 0.000000e+000 0.000000e+000 0.000000e+000 6.860549e-001 3.139451e-001
 0.000000e+000 0.000000e+000 0.000000e+000 0.000000e+000 0.000000e+000
<ENDHMM>
~h "L"
<BEGINHMM>
<NUMSTATES> 5
<STATE> 2
<MEAN> 25
 -2.311246e-001 1.981245e+000 6.825416e+000 3.730692e+000 9.387867e-003 -4.701745e+000 -2.791140e+000 1.130969e+000 -2.120868e+000 -3.470231e+000 -7.015020e-001 1.011721e+000 1.420672e+000 -1.735235e-001 1.492142e+000 1.965310e-002 -1.218677e+000 -1.581576e+000 -8.701315e-001 6.233526e-001 -6.955167e-001 -1.003525e+000 -4.284534e-001 4.680970e-001 1.243413e+000
<VARIANCE> 25
 3.408068e+001 2.336324e+001 2.792276e+001 3.475835e+001 4.384307e+001 4.914122e+001 3.304165e+001 2.796159e+001 3.395494e+001 2.825220e+001 2.928000e+001 2.035986e+001 4.199124e+000 3.235642e+000 3.308491e+000 4.484741e+000 3.540303e+000 4.204502e+000 5.618403e+000 4.238173e+000 3.957932e+000 4.047089e+000 3.548391e+000 3.052850e+000 2.179760e+000
<GCONST> 1.043776e+002
<STATE> 3
<MEAN> 25
 3.177814e+000 -5.612299e-001 7.794635e+000 1.634446e+000 -3.567737e+000 -9.099848e+000 -4.875074e+000 2.586374e+000 -3.423305e+000 -3.520414e+000 -9.056168e-001 3.043588e+000 2.966454e-001 -1.143377e+000 -4.163546e-001 -9.413862e-001 -7.740924e-001 -7.516999e-001 -5.924071e-001 5.394676e-001 4.239530e-001 9.590987e-001 -2.531070e-001 5.854298e-001 1.093184e+000
<VARIANCE> 25
 7.117613e+000 1.649105e+001 2.271768e+001 5.130392e+001 3.379383e+001 2.317781e+001 3.171114e+001 1.997460e+001 3.120518e+001 3.215396e+001 2.811787e+001 2.321964e+001 2.047971e+000 1.972014e+000 3.002070e+000 2.593360e+000 3.452317e+000 3.140491e+000 5.697686e+000 4.555924e+000 3.541388e+000 4.110208e+000 3.001223e+000 1.998481e+000 9.827192e-001
<GCONST> 9.782040e+001
<STATE> 4
<MEAN> 25
 3.018900e+000 -2.745415e+000 4.182831e+000 3.058531e-001 -4.432012e+000 -8.643618e+000 -5.205429e+000 1.242681e+000 -6.480463e-001 -1.166315e+000 -1.785545e+000 3.747422e+000 1.319862e-001 -7.239330e-001 -1.457180e+000 -9.244270e-001 -3.681792e-002 8.935308e-001 2.416832e-001 -3.818910e-001 7.631092e-001 1.364313e+000 2.406808e-001 -6.615908e-001 6.026680e-001
<VARIANCE> 25
 9.851531e+000 1.935484e+001 2.308552e+001 4.962629e+001 3.027125e+001 2.318439e+001 6.372184e+001 6.259452e+001 3.428299e+001 4.304726e+001 3.821019e+001 3.002567e+001 8.518282e-001 2.271631e+000 2.871825e+000 2.032890e+000 3.272643e+000 2.174598e+000 5.468248e+000 6.904613e+000 3.962041e+000 4.000986e+000 3.605680e+000 2.931234e+000 7.184538e-001
<GCONST> 1.002369e+002
<TRANSP> 5
 0.000000e+000 1.000000e+000 0.000000e+000 0.000000e+000 0.000000e+000
 0.000000e+000 4.501733e-001 5.498267e-001 0.000000e+000 0.000000e+000
 0.000000e+000 0.000000e+000 4.369965e-001 5.630035e-001 0.000000e+000
 0.000000e+000 0.000000e+000 0.000000e+000 4.459206e-001 5.540795e-001
 0.000000e+000 0.000000e+000 0.000000e+000 0.000000e+000 0.000000e+000
<ENDHMM>
~h "N"
<BEGINHMM>
<NUMSTATES> 5
<STATE> 2
<MEAN> 25
 4.593781e+000 3.508083e+000 4.322984e+000 -2.139138e+000 -1.088624e+000 1.105253e-001 -8.565000e-001 -2.191897e+000 -5.608036e+000 -3.304646e+000 3.380437e-001 1.921139e-001 8.375680e-001 8.430877e-001 -8.985192e-002 -3.494512e-001 1.868715e-001 5.380889e-001 -4.904799e-001 -5.953504e-001 -8.067146e-001 -4.957891e-002 2.262473e-001 -3.543949e-002 -3.438129e-001
<VARIANCE> 25
 1.846254e+001 1.809419e+001 2.164261e+001 3.090373e+001 3.253315e+001 2.514509e+001 3.337172e+001 3.873948e+001 3.345110e+001 3.802248e+001 3.164723e+001 3.062498e+001 2.071507e+000 2.092044e+000 2.064938e+000 3.193814e+000 4.312628e+000 2.913798e+000 3.347387e+000 3.888825e+000 3.016067e+000 2.730470e+000 2.987634e+000 2.309085e+000 1.955490e+000
<GCONST> 9.932045e+001
<STATE> 3
<MEAN> 25
 3.733427e+000 3.502103e+000 5.507509e+000 -4.317202e+000 -3.248824e+000 -6.495146e-001 3.469632e-001 -5.941955e-001 -5.898453e+000 -3.457325e+000 6.561115e-001 1.149910e+000 -7.256508e-001 -1.071909e+000 4.979078e-001 -3.914232e-001 -1.095332e+000 -7.623802e-001 7.835671e-001 1.358571e+000 4.551331e-001 2.680491e-002 -7.411238e-002 3.290766e-001 1.137063e+000
<VARIANCE> 25
 1.337250e+001 1.833501e+001 2.484232e+001 2.624011e+001 3.737028e+001 2.994939e+001 3.860389e+001 4.501350e+001 3.424297e+001 2.683271e+001 2.466445e+001 2.830235e+001 1.462022e+000 2.175734e+000 1.517531e+000 2.116204e+000 3.377275e+000 2.776700e+000 4.059643e+000 3.646667e+000 2.692903e+000 2.423988e+000 2.560107e+000 1.922603e+000 8.986507e-001
<GCONST> 9.640092e+001
<STATE> 4
<MEAN> 25
 1.647695e+000 -6.588156e-001 5.502849e+000 -2.233952e+000 -4.072394e+000 -2.183419e+000 2.701099e+000 4.030165e+000 -2.526698e+000 -3.490917e+000 -7.281148e-001 1.690618e+000 -1.584407e-001 -1.139656e+000 -7.523505e-001 7.606674e-001 2.294686e-001 -4.384134e-001 2.965313e-001 8.779106e-001 1.073157e+000 1.892631e-001 -7.241802e-001 -2.949352e-001 4.286349e-001
<VARIANCE> 25
 1.514004e+001 2.733883e+001 2.912972e+001 3.310653e+001 5.894922e+001 3.527219e+001 5.136850e+001 5.453130e+001 4.386202e+001 3.332958e+001 2.766978e+001 2.542404e+001 1.106269e+000 2.270080e+000 2.660743e+000 1.867717e+000 4.244666e+000 2.072020e+000 2.987160e+000 2.687271e+000 3.413077e+000 2.501950e+000 2.911090e+000 2.274566e+000 7.487407e-001
<GCONST> 9.879198e+001
<TRANSP> 5
 0.000000e+000 1.000000e+000 0.000000e+000 0.000000e+000 0.000000e+000
 0.000000e+000 6.103297e-001 3.896702e-001 0.000000e+000 0.000000e+000
 0.000000e+000 0.000000e+000 6.345274e-001 3.654726e-001 0.000000e+000
 0.000000e+000 0.000000e+000 0.000000e+000 3.400700e-001 6.599299e-001
 0.000000e+000 0.000000e+000 0.000000e+000 0.000000e+000 0.000000e+000
<ENDHMM>
~h "S"
<BEGINHMM>
<NUMSTATES> 5
<STATE> 2
<MEAN> 25
 -9.113099e+000 4.179097e+000 8.769851e+000 4.648677e+000 2.725741e+000 -2.426186e+000 2.636065e+000 2.359715e-001 2.623627e+000 -3.781155e+000 2.064383e+000 8.627971e-001 -5.078551e+000 7.445185e-001 3.487016e-002 1.064019e+000 2.891681e+000 1.228789e+000 1.499549e+000 1.208919e+000 1.759727e+000 -3.682496e-001 1.427039e+000 1.003876e+000 2.464337e-001
<VARIANCE> 25
 5.269436e+001 2.694033e+001 3.061236e+001 3.967652e+001 5.548597e+001 4.020417e+001 3.539971e+001 4.618977e+001 3.946291e+001 3.807021e+001 4.030721e+001 2.251731e+001 1.472857e+000 4.822126e+000 3.296159e+000 3.841139e+000 4.982859e+000 4.032690e+000 4.177722e+000 4.002578e+000 3.282912e+000 4.216347e+000 5.593952e+000 2.495486e+000 6.805462e-001
<GCONST> 1.047375e+002
<STATE> 3
<MEAN> 25
 -2.300487e+001 2.386930e+000 5.428113e+000 6.415486e-001 5.558987e+000 2.681797e-001 3.530604e+000 1.616178e+000 5.650570e+000 -4.605293e+000 5.697863e+000 3.361150e+000 -4.283907e-001 -4.447160e-001 -6.055469e-001 -6.239734e-001 -7.571778e-002 7.199939e-003 -2.858570e-001 -5.751267e-002 1.003167e-001 -1.705881e-001 -1.172057e-001 1.287373e-001 -3.164034e-001
<VARIANCE> 25
 1.086875e+001 4.478004e+001 1.613176e+001 2.879689e+001 2.097429e+001 4.678553e+001 3.508133e+001 4.044759e+001 3.060581e+001 3.391032e+001 5.996058e+001 2.258205e+001 3.694269e+000 1.093478e+000 1.438390e+000 1.778933e+000 1.593338e+000 1.911983e+000 2.175989e+000 2.705654e+000 2.217553e+000 2.045705e+000 2.024140e+000 1.660201e+000 3.518732e-001
<GCONST> 9.348016e+001
<STATE> 4
<MEAN> 25
 -1.206702e+001 7.203982e-001 2.608492e+000 8.583312e-001 3.705446e+000 -8.374878e-001 7.102144e-001 1.353274e+000 4.213064e+000 -4.263705e+000 1.859304e+000 1.584087e+000 4.583808e+000 -1.914670e-001 -5.788174e-001 -3.491797e-001 -1.436305e+000 -7.353297e-001 -9.835256e-001 -5.562676e-001 -8.268284e-001 2.618421e-001 -9.931692e-001 -9.976513e-001 -3.729770e-001
<VARIANCE> 25
 6.120134e+001 2.955504e+001 2.028681e+001 2.551626e+001 3.624025e+001 4.620125e+001 3.570198e+001 4.228125e+001 3.654942e+001 4.243967e+001 5.064246e+001 2.354844e+001 4.708937e+000 2.696819e+000 2.510347e+000 3.474740e+000 3.826147e+000 4.170568e+000 3.793033e+000 3.896281e+000 4.132739e+000 3.384948e+000 5.250978e+000 2.534779e+000 2.222441e+000
<GCONST> 1.050659e+002
<TRANSP> 5
 0.000000e+000 1.000000e+000 0.000000e+000 0.000000e+000 0.000000e+000
 0.000000e+000 6.722240e-001 3.277759e-001 0.000000e+000 0.000000e+000
 0.000000e+000 0.000000e+000 8.217157e-001 1.782843e-001 0.000000e+000
 0.000000e+000 0.000000e+000 0.000000e+000 7.070212e-001 2.929788e-001
 0.000000e+000 0.000000e+000 0.000000e+000 0.000000e+000 0.000000e+000
<ENDHMM>
~h "Z"
<BEGINHMM>
<NUMSTATES> 5
<STATE> 2
<MEAN> 25
 -2.899885e+000 3.256456e+000 4.739086e+000 1.698234e+000 1.251438e+000 -7.367708e+000 -1.494861e+000 -3.319862e+000 5.583684e+000 -3.308840e+000 5.011640e-001 1.588859e+000 -3.950124e+000 2.623701e+000 1.882713e+000 5.420672e-001 2.044151e+000 3.659944e-001 1.087840e+000 3.318936e-001 1.250457e+000 -1.399948e+000 8.893275e-001 3.305489e-001 2.855538e-001
<VARIANCE> 25
 3.297632e+001 2.912796e+001 3.515366e+001 2.705524e+001 4.553517e+001 2.591330e+001 3.370767e+001 3.694884e+001 3.598336e+001 4.918066e+001 4.145043e+001 2.601760e+001 2.467733e+000 3.345516e+000 2.782835e+000 2.549472e+000 3.477618e+000 5.270523e+000 3.316293e+000 3.806158e+000 3.577926e+000 3.921544e+000 3.640735e+000 3.444722e+000 6.601070e-001
<GCONST> 1.026035e+002
<STATE> 3
<MEAN> 25
 -1.533676e+001 8.566737e+000 1.020989e+001 1.339020e+000 5.134997e+000 -7.811069e-001 1.847171e+000 -1.646113e+000 7.473067e+000 -5.583835e+000 3.963481e+000 2.167915e+000 -1.676381e+000 1.719856e-001 2.089900e-001 -3.542442e-001 7.633326e-001 1.063337e+000 3.013555e-001 4.114099e-001 2.930237e-001 -4.308301e-001 8.051279e-002 2.380224e-001 -1.651052e-001
<VARIANCE> 25
 3.045010e+001 3.609279e+001 2.199724e+001 2.668902e+001 2.929894e+001 4.722170e+001 4.085833e+001 3.264482e+001 2.943116e+001 5.145086e+001 4.483010e+001 2.683747e+001 4.437433e+000 1.653878e+000 1.751916e+000 1.301459e+000 2.521785e+000 2.686399e+000 1.973403e+000 2.126064e+000 2.623889e+000 1.864054e+000 2.532087e+000 1.630620e+000 4.644835e-001
<GCONST> 9.657102e+001
<STATE> 4
<MEAN> 25
 -9.567979e+000 5.286197e+000 6.610159e+000 2.548434e-002 2.853753e+000 -1.819405e+000 -5.269885e-001 -6.897902e-001 5.791003e+000 -6.322346e+000 2.223638e+000 1.736225e+000 3.827523e+000 -1.771772e+000 -1.375316e+000 -1.542142e-001 -2.045237e+000 -8.189274e-001 -6.218777e-001 1.242030e-001 -9.607739e-001 6.381165e-001 -9.975778e-001 -4.209880e-001 -2.760095e-001
<VARIANCE> 25
 6.616018e+001 3.377109e+001 2.435129e+001 2.127132e+001 3.548966e+001 5.378666e+001 3.665023e+001 3.573966e+001 3.662613e+001 4.051913e+001 4.678368e+001 2.253035e+001 3.444462e+000 3.561187e+000 2.625281e+000 1.652304e+000 3.013680e+000 3.685004e+000 3.475045e+000 3.464367e+000 3.802863e+000 3.573394e+000 3.234868e+000 2.110346e+000 1.181279e+000
<GCONST> 1.024699e+002
<TRANSP> 5
 0.000000e+000 1.000000e+000 0.000000e+000 0.000000e+000 0.000000e+000
 0.000000e+000 6.309720e-001 3.690280e-001 0.000000e+000 0.000000e+000
 0.000000e+000 0.000000e+000 6.758791e-001 3.241209e-001 0.000000e+000
 0.000000e+000 0.000000e+000 0.000000e+000 7.092902e-001 2.907098e-001
 0.000000e+000 0.000000e+000 0.000000e+000 0.000000e+000 0.000000e+000
<ENDHMM>
~h "a"
<BEGINHMM>
<NUMSTATES> 5
<STATE> 2
<MEAN> 25
 3.929970e+000 -7.348743e+000 -6.814103e+000 -3.947831e+000 2.873821e+000 -1.142444e+000 1.020991e-002 2.766776e+000 4.225804e+000 -3.772986e-001 -5.977149e+000 -3.294089e+000 2.246777e-001 -1.709437e+000 -1.425026e+000 -1.162145e+000 1.444741e+000 5.712661e-001 7.496195e-001 5.760880e-001 4.067549e-001 -3.833857e-001 -1.252498e+000 -8.447446e-001 1.177835e+000
<VARIANCE> 25
 1.218785e+001 2.201416e+001 2.774889e+001 3.431230e+001 4.443576e+001 6.068211e+001 5.526673e+001 5.010586e+001 4.855832e+001 4.152012e+001 4.665819e+001 3.618985e+001 1.725205e+000 2.120918e+000 2.550879e+000 3.232532e+000 4.310546e+000 4.574134e+000 4.252529e+000 4.934821e+000 4.765130e+000 3.369340e+000 3.821122e+000 3.130582e+000 1.778157e+000
<GCONST> 1.045299e+002
<STATE> 3
<MEAN> 25
 3.579775e+000 -9.944411e+000 -9.464446e+000 -5.415326e+000 7.343820e+000 2.028715e+000 1.450957e+000 9.786943e-001 3.201973e+000 -9.800594e-001 -7.662704e+000 -4.640213e+000 2.904733e-002 3.609758e-001 1.089098e-001 1.859720e-001 -5.628086e-002 -2.259071e-001 -3.570839e-002 -7.070883e-002 2.732610e-002 3.797600e-002 1.115111e-002 1.668482e-001 -2.747816e-001
<VARIANCE> 25
 1.001926e+001 1.899476e+001 2.899812e+001 3.845138e+001 4.901065e+001 6.057849e+001 6.309768e+001 4.514671e+001 5.646093e+001 3.940269e+001 4.154145e+001 4.119815e+001 4.677825e-001 1.210986e+000 1.252583e+000 1.649218e+000 2.972475e+000 3.164603e+000 2.442897e+000 2.900283e+000 2.237163e+000 2.279967e+000 2.276944e+000 1.803534e+000 4.290182e-001
<GCONST> 9.586758e+001
<STATE> 4
<MEAN> 25
 3.877776e+000 -4.434967e+000 -4.749256e+000 -1.295549e+000 3.743484e+000 -1.265709e+000 4.434092e-001 2.626869e+000 3.913993e+000 -3.706386e-003 -5.237992e+000 -1.919399e+000 -1.350402e-001 1.919374e+000 1.833897e+000 1.374156e+000 -6.667375e-001 2.881556e-001 -1.144764e-001 -3.501318e-001 -5.145048e-001 3.096024e-001 1.274161e+000 6.598179e-001 -2.117224e+000
<VARIANCE> 25
 1.394787e+001 2.322344e+001 3.562938e+001 4.141053e+001 5.019349e+001 7.225716e+001 5.440049e+001 4.890271e+001 4.477885e+001 4.464198e+001 4.803909e+001 3.527500e+001 1.363773e+000 2.376606e+000 2.695471e+000 3.337085e+000 4.195450e+000 4.334135e+000 3.981617e+000 4.278749e+000 4.378451e+000 3.383998e+000 3.642332e+000 2.973616e+000 1.907367e+000
<GCONST> 1.049744e+002
<TRANSP> 5
 0.000000e+000 1.000000e+000 0.000000e+000 0.000000e+000 0.000000e+000
 0.000000e+000 5.123939e-001 4.876061e-001 0.000000e+000 0.000000e+000
 0.000000e+000 0.000000e+000 6.884153e-001 3.115847e-001 0.000000e+000
 0.000000e+000 0.000000e+000 0.000000e+000 5.901043e-001 4.098956e-001
 0.000000e+000 0.000000e+000 0.000000e+000 0.000000e+000 0.000000e+000
<ENDHMM>
~h "b"
<BEGINHMM>
<NUMSTATES> 5
<STATE> 2
<MEAN> 25
 7.754619e+000 4.364682e+000 3.015919e+000 2.397658e+000 1.814396e+000 2.885342e+000 -2.322698e+000 -3.303669e+000 -1.634103e+000 -3.284884e-001 -1.503859e+000 -3.521015e+000 3.591980e-002 1.591623e+000 1.763844e+000 2.218949e+000 8.161181e-001 6.492715e-001 1.128684e+000 1.956353e-001 -2.860387e-001 -5.212833e-001 -1.980829e-001 -5.586194e-001 -2.056822e+000
<VARIANCE> 25
 7.419570e+000 1.270563e+001 2.546544e+001 2.264019e+001 1.963053e+001 2.501903e+001 2.571189e+001 2.490446e+001 2.758358e+001 2.855507e+001 2.312575e+001 2.483544e+001 1.065279e+000 1.668932e+000 2.467848e+000 4.244794e+000 2.937684e+000 3.374327e+000 2.850316e+000 2.733120e+000 3.207976e+000 3.439381e+000 2.960521e+000 2.356133e+000 1.508525e+000
<GCONST> 9.455674e+001
<STATE> 3
<MEAN> 25
 6.741456e+000 6.129241e+000 5.436615e+000 5.113587e+000 2.603016e+000 3.025312e+000 -7.224809e-002 -1.453814e+000 -6.305425e-001 -9.658715e-001 -7.153283e-001 -2.595255e+000 -6.310053e-001 -2.971321e-001 1.312703e-001 5.312167e-001 4.422937e-002 -4.851650e-001 1.727742e-001 2.950563e-001 -1.067588e-001 -1.696900e-002 3.797377e-001 4.062014e-001 1.419081e-001
<VARIANCE> 25
 8.697920e+000 9.934622e+000 2.163969e+001 1.814600e+001 1.929494e+001 1.837457e+001 2.153305e+001 2.073050e+001 2.118168e+001 2.826889e+001 2.003497e+001 2.235274e+001 8.156357e-001 9.452652e-001 1.237412e+000 1.393954e+000 1.508777e+000 1.820255e+000 1.724742e+000 1.733925e+000 1.905166e+000 1.740996e+000 1.604210e+000 1.670729e+000 9.871063e-001
<GCONST> 8.541312e+001
<STATE> 4
<MEAN> 25
 4.231200e+000 2.830518e+000 4.301915e+000 5.699556e+000 6.321366e-001 -5.224378e-001 -1.666118e+000 -1.115705e+000 -2.168377e+000 -9.129077e-001 7.018950e-001 -7.384443e-001 -6.779558e-001 -2.178673e+000 -4.013194e-001 -9.332558e-001 -2.626784e+000 -1.994774e+000 -1.084821e+000 8.195921e-002 -8.980322e-001 5.217917e-001 7.747803e-001 6.212142e-001 2.909814e+000
<VARIANCE> 25
 1.297589e+001 1.850533e+001 2.569150e+001 2.750722e+001 3.359126e+001 4.045047e+001 3.099289e+001 2.232175e+001 2.874481e+001 2.468085e+001 2.176975e+001 2.561830e+001 1.476987e+000 1.732463e+000 4.500372e+000 5.477674e+000 4.363307e+000 4.543064e+000 4.255455e+000 4.512057e+000 5.076287e+000 6.597868e+000 2.998437e+000 2.948737e+000 1.148202e+000
<GCONST> 1.005458e+002
<TRANSP> 5
 0.000000e+000 1.000000e+000 0.000000e+000 0.000000e+000 0.000000e+000
 0.000000e+000 5.021026e-001 4.978974e-001 0.000000e+000 0.000000e+000
 0.000000e+000 0.000000e+000 5.653489e-001 4.346510e-001 0.000000e+000
 0.000000e+000 0.000000e+000 0.000000e+000 4.987313e-001 5.012687e-001
 0.000000e+000 0.000000e+000 0.000000e+000 0.000000e+000 0.000000e+000
<ENDHMM>
~h "c"
<BEGINHMM>
<NUMSTATES> 5
<STATE> 2
<MEAN> 25
 -4.510987e+000 4.669171e+000 -1.641221e+000 6.431748e+000 8.444140e-001 1.830071e+000 9.733334e-001 1.930865e+000 3.124287e+000 2.156441e+000 2.091835e+000 8.608570e-001 -2.679958e+000 6.631404e-001 -1.737455e+000 5.008622e-001 -3.957559e-001 6.852442e-001 2.973861e-001 -4.020039e-002 1.667483e-001 1.007788e-001 8.337614e-001 2.159905e-001 -2.323402e-001
<VARIANCE> 25
 2.853884e+001 2.502031e+001 3.338384e+001 2.506631e+001 3.373004e+001 3.215697e+001 3.101439e+001 2.806926e+001 3.414022e+001 2.737485e+001 2.602533e+001 1.882178e+001 2.103480e+000 2.922553e+000 3.565992e+000 2.684152e+000 2.884804e+000 3.846734e+000 3.182633e+000 3.062044e+000 3.244070e+000 2.926859e+000 2.786560e+000 2.089644e+000 3.536792e+000
<GCONST> 1.000739e+002
<STATE> 3
<MEAN> 25
 -1.647848e+001 8.708903e+000 -1.049591e+001 7.785845e+000 1.581138e-001 8.124691e-001 3.670723e+000 -1.243423e-001 3.249588e+000 -4.302922e-001 2.447983e+000 3.496268e+000 -1.164600e+000 -3.147616e-001 -3.904390e-001 -5.029154e-001 2.430520e-001 -4.836789e-001 1.033213e+000 -1.859140e-001 -1.177208e-001 -4.631639e-001 1.834980e-001 4.473060e-001 1.072895e+000
<VARIANCE> 25
 1.054345e+001 1.277569e+001 1.669996e+001 2.463067e+001 2.519692e+001 2.603500e+001 2.959724e+001 2.800469e+001 3.457487e+001 2.152118e+001 3.523714e+001 2.201792e+001 2.555780e+000 1.752070e+000 3.251374e+000 1.658007e+000 1.393285e+000 2.205660e+000 2.423709e+000 2.431323e+000 2.194845e+000 1.867779e+000 2.123954e+000 1.718383e+000 6.285086e-001
<GCONST> 9.166311e+001
<STATE> 4
<MEAN> 25
 -1.167828e+001 5.603018e+000 -3.891261e+000 4.305319e+000 -1.371162e-001 -3.772282e+000 4.806926e+000 -9.959025e-001 7.221899e-002 -9.420708e-001 9.911639e-001 3.176032e+000 4.162315e+000 -8.099357e-001 3.476250e+000 -8.688480e-001 -1.529127e+000 -2.044959e+000 -1.650200e+000 -7.583338e-001 -1.393247e+000 4.461840e-002 -1.495305e+000 -9.114498e-001 1.010864e+000
<VARIANCE> 25
 5.026735e+001 1.119509e+001 3.472975e+001 2.393967e+001 3.242125e+001 3.899792e+001 3.685255e+001 3.247649e+001 3.230577e+001 2.098235e+001 4.403975e+001 2.223406e+001 2.358401e+000 2.157393e+000 2.720096e+000 4.085486e+000 3.220227e+000 3.945575e+000 4.088071e+000 3.262565e+000 4.226948e+000 3.382221e+000 5.611150e+000 3.127162e+000 1.270477e+000
<GCONST> 1.015702e+002
<TRANSP> 5
 0.000000e+000 1.000000e+000 0.000000e+000 0.000000e+000 0.000000e+000
 0.000000e+000 7.914400e-001 2.085600e-001 0.000000e+000 0.000000e+000
 0.000000e+000 0.000000e+000 7.487206e-001 2.512794e-001 0.000000e+000
 0.000000e+000 0.000000e+000 0.000000e+000 6.640840e-001 3.359160e-001
 0.000000e+000 0.000000e+000 0.000000e+000 0.000000e+000 0.000000e+000
<ENDHMM>
~h "d"
<BEGINHMM>
<NUMSTATES> 5
<STATE> 2
<MEAN> 25
 4.925030e+000 3.050461e+000 3.336877e+000 2.416356e+000 1.845030e+000 -2.172544e+000 -3.616501e+000 -9.131152e-001 7.062908e-001 6.281245e-001 -4.054365e+000 -3.149956e+000 4.381328e-001 1.566556e+000 1.681212e+000 1.643120e+000 5.766532e-001 1.430010e+000 9.171267e-001 -8.307040e-002 -5.333260e-001 -7.178011e-001 -1.826638e-001 -4.252117e-001 -2.173022e+000
<VARIANCE> 25
 1.427714e+001 1.518950e+001 2.937716e+001 3.050438e+001 3.608532e+001 3.810292e+001 4.498154e+001 2.932000e+001 3.834821e+001 3.276474e+001 3.010229e+001 2.759040e+001 1.339617e+000 1.878151e+000 3.097520e+000 3.243838e+000 4.033398e+000 4.013813e+000 5.353467e+000 4.124681e+000 4.389032e+000 3.504852e+000 4.088704e+000 2.616081e+000 2.467859e+000
<GCONST> 1.015087e+002
<STATE> 3
<MEAN> 25
 5.280168e+000 5.621393e+000 6.184028e+000 5.017255e+000 2.552996e+000 7.005684e-001 -6.780880e-001 -1.539602e-001 6.658397e-001 -1.010748e-001 -2.672705e+000 -2.714049e+000 -7.240238e-001 2.827311e-001 1.434551e-002 2.650860e-001 3.429045e-001 1.589152e-001 3.134629e-001 -1.610025e-001 -2.004362e-002 -2.173071e-001 4.516512e-001 4.477016e-001 6.945708e-002
<VARIANCE> 25
 1.363677e+001 1.084541e+001 2.238787e+001 2.165722e+001 2.970075e+001 2.144250e+001 2.543543e+001 2.386945e+001 2.440169e+001 2.783768e+001 2.761422e+001 2.052715e+001 2.115695e+000 1.263783e+000 1.974538e+000 2.123798e+000 2.875399e+000 3.212293e+000 3.000830e+000 2.889253e+000 2.755006e+000 2.114883e+000 2.386884e+000 1.873284e+000 2.174337e+000
<GCONST> 9.369063e+001
<STATE> 4
<MEAN> 25
 9.598579e-001 3.856321e+000 2.812044e+000 3.289016e+000 2.956876e+000 -1.778013e+000 -2.123696e+000 -8.840792e-001 7.745629e-001 -3.163920e-001 -1.253742e+000 -5.030989e-001 -5.577701e-001 -1.311081e+000 -1.400650e+000 -1.584760e+000 -1.002267e+000 -1.263085e+000 -1.017407e+000 -1.149207e-001 4.397282e-001 3.431713e-001 2.271085e-001 6.512328e-001 2.453329e+000
<VARIANCE> 25
 2.216161e+001 1.868737e+001 2.862950e+001 2.991531e+001 3.913728e+001 3.655852e+001 3.990466e+001 3.660617e+001 3.420364e+001 2.950934e+001 3.226420e+001 2.466405e+001 2.617569e+000 2.622954e+000 3.871049e+000 3.376863e+000 4.068287e+000 4.080060e+000 4.978996e+000 5.333705e+000 4.530761e+000 3.356380e+000 4.048561e+000 2.945982e+000 3.213323e+000
<GCONST> 1.038285e+002
<TRANSP> 5
 0.000000e+000 1.000000e+000 0.000000e+000 0.000000e+000 0.000000e+000
 0.000000e+000 3.697637e-001 6.302363e-001 0.000000e+000 0.000000e+000
 0.000000e+000 0.000000e+000 4.710391e-001 5.289609e-001 0.000000e+000
 0.000000e+000 0.000000e+000 0.000000e+000 4.665588e-001 5.334411e-001
 0.000000e+000 0.000000e+000 0.000000e+000 0.000000e+000 0.000000e+000
<ENDHMM>
~h "e"
<BEGINHMM>
<NUMSTATES> 5
<STATE> 2
<MEAN> 25
 2.202250e+000 -4.645748e+000 2.742982e+000 -9.632143e-001 -7.412900e+000 -8.613177e+000 -1.189045e+000 4.893087e+000 -1.724131e-001 -1.776453e+000 -3.183452e-001 5.537472e-001 4.748777e-001 -7.514228e-001 2.678153e-003 -4.617396e-001 -4.918381e-001 -4.859506e-001 3.594814e-002 9.064629e-001 9.676785e-002 1.717821e-001 -1.241792e-001 -8.670928e-002 5.910451e-001
<VARIANCE> 25
 9.944250e+000 2.218554e+001 2.616910e+001 2.920333e+001 3.245340e+001 2.667519e+001 5.564480e+001 3.777158e+001 4.084440e+001 3.244023e+001 3.245313e+001 2.362312e+001 2.769970e+000 2.001530e+000 2.199689e+000 2.424712e+000 3.774428e+000 2.859069e+000 4.916284e+000 3.587386e+000 3.732371e+000 3.332815e+000 3.301613e+000 2.445980e+000 1.461800e+000
<GCONST> 9.985239e+001
<STATE> 3
<MEAN> 25
 1.902997e+000 -4.947483e+000 3.385786e+000 -1.784171e+000 -7.793827e+000 -8.056650e+000 7.077130e-001 4.426596e+000 -7.153019e-001 -5.813642e-001 -6.980330e-001 6.214432e-002 3.043536e-001 8.646465e-001 -5.993003e-002 6.604877e-001 6.574400e-001 4.718306e-001 -1.890349e-001 -7.389917e-001 1.410559e-001 5.857657e-002 -2.585755e-001 -7.259657e-002 -8.515424e-001
<VARIANCE> 25
 9.608599e+000 2.031373e+001 2.818242e+001 3.235961e+001 3.467599e+001 2.728868e+001 6.538004e+001 4.662789e+001 4.787526e+001 3.581878e+001 3.298256e+001 2.714702e+001 7.939081e-001 1.332124e+000 1.646528e+000 1.896829e+000 2.435954e+000 2.092526e+000 3.063735e+000 2.500796e+000 2.492435e+000 2.383236e+000 2.035654e+000 1.833704e+000 9.801962e-001
<GCONST> 9.509441e+001
<STATE> 4
<MEAN> 25
 3.078168e+000 -3.729434e-001 3.218807e+000 2.433904e+000 -3.727672e+000 -5.690049e+000 -1.261146e+000 1.997846e+000 7.836816e-001 -9.965919e-001 -1.101326e+000 4.049768e-001 -4.526033e-002 1.730497e+000 3.764331e-001 1.291661e+000 1.627777e+000 2.029717e+000 2.375752e-001 -1.130308e+000 -8.262605e-003 4.323893e-001 3.398108e-001 -2.276182e-001 -2.236845e+000
<VARIANCE> 25
 1.365883e+001 2.682343e+001 3.368323e+001 3.239172e+001 3.754058e+001 3.819567e+001 5.186180e+001 3.984327e+001 4.402592e+001 3.275194e+001 3.557441e+001 2.927169e+001 1.795845e+000 2.371481e+000 2.901427e+000 3.305902e+000 3.370391e+000 3.148111e+000 5.199737e+000 4.670349e+000 4.145815e+000 3.642218e+000 3.544627e+000 2.651967e+000 1.846803e+000
<GCONST> 1.027996e+002
<TRANSP> 5
 0.000000e+000 1.000000e+000 0.000000e+000 0.000000e+000 0.000000e+000
 0.000000e+000 3.650084e-001 6.349916e-001 0.000000e+000 0.000000e+000
 0.000000e+000 0.000000e+000 5.223945e-001 4.776054e-001 0.000000e+000
 0.000000e+000 0.000000e+000 0.000000e+000 3.678608e-001 6.321392e-001
 0.000000e+000 0.000000e+000 0.000000e+000 0.000000e+000 0.000000e+000
<ENDHMM>
~h "f"
<BEGINHMM>
<NUMSTATES> 5
<STATE> 2
<MEAN> 25
 -1.032182e+001 1.845582e+000 -2.555406e+000 6.646977e+000 5.068845e+000 2.948417e+000 -5.877638e-001 4.070993e+000 1.500552e+000 3.079433e+000 1.643705e+000 3.672498e+000 -1.180045e+000 -7.140200e-001 -9.841904e-001 9.340851e-003 2.089716e-002 2.636183e-001 2.653860e-002 -3.402153e-001 2.078159e-002 -1.800918e-001 4.251678e-001 3.859839e-001 5.656360e-002
<VARIANCE> 25
 2.108028e+001 1.346661e+001 1.906441e+001 2.078278e+001 2.826504e+001 2.258435e+001 2.654803e+001 1.188346e+001 1.998635e+001 2.104561e+001 2.340715e+001 2.122853e+001 4.546558e+000 1.308688e+000 2.492553e+000 2.029251e+000 2.522174e+000 4.029917e+000 2.911076e+000 1.821346e+000 2.435833e+000 1.959689e+000 3.262924e+000 2.230432e+000 1.736511e+000
<GCONST> 9.353165e+001
<STATE> 3
<MEAN> 25
 -9.005113e+000 -4.133137e-001 -6.770190e+000 6.450714e+000 5.180840e+000 3.194727e+000 -1.954403e-001 -4.167474e-001 3.808616e-001 5.221840e-001 1.836098e+000 9.027573e-001 3.361977e+000 2.859573e-001 -3.768376e-001 6.390322e-002 -1.245581e+000 -3.815137e-001 -7.876485e-001 -1.939373e+000 -3.115228e-001 -3.332033e-001 -2.359454e-001 -2.051088e+000 1.009150e+000
<VARIANCE> 25
 5.412451e+001 1.665273e+001 1.552319e+001 1.367822e+001 2.402276e+001 1.571348e+001 1.369614e+001 2.595000e+001 1.651470e+001 1.075922e+001 1.712056e+001 2.337239e+001 4.355637e+000 3.690562e+000 2.071334e+000 1.645393e+000 3.035071e+000 1.481719e+000 1.437500e+000 1.315774e+000 9.078584e-001 1.403170e+000 4.703335e+000 1.923621e+000 1.215610e+000
<GCONST> 8.987157e+001
<STATE> 4
<MEAN> 25
 2.889542e+000 1.501586e+000 -6.599463e+000 5.885274e+000 -3.082292e-001 -2.475760e-001 -3.826782e+000 -3.522438e+000 -2.666192e-001 6.063721e-001 1.633526e+000 -5.433265e+000 3.458486e+000 -8.716283e-001 -3.678099e-001 -4.865010e-001 -2.657439e+000 -1.453777e+000 -1.039637e+000 -5.195902e-001 6.814585e-001 -5.606014e-001 1.388979e+000 -1.128570e+000 1.563614e+000
<VARIANCE> 25
 1.041110e+001 1.478057e+001 3.051084e+001 2.377610e+001 1.807241e+001 1.990852e+001 2.740839e+001 2.881697e+001 1.120678e+001 1.632201e+001 4.629871e+001 1.399509e+001 3.426856e+000 5.586950e+000 1.843629e+000 5.382230e+000 5.312044e+000 1.610152e+000 3.513735e+000 4.642174e+000 2.917381e+000 3.564072e+000 1.685671e+000 2.035172e+000 2.444788e+000
<GCONST> 9.646346e+001
<TRANSP> 5
 0.000000e+000 1.000000e+000 0.000000e+000 0.000000e+000 0.000000e+000
 0.000000e+000 8.366583e-001 1.633417e-001 0.000000e+000 0.000000e+000
 0.000000e+000 0.000000e+000 6.260090e-001 3.739910e-001 0.000000e+000
 0.000000e+000 0.000000e+000 0.000000e+000 4.357332e-001 5.642668e-001
 0.000000e+000 0.000000e+000 0.000000e+000 0.000000e+000 0.000000e+000
<ENDHMM>
~h "g"
<BEGINHMM>
<NUMSTATES> 5
<STATE> 2
<MEAN> 25
 7.389145e+000 6.736455e+000 1.375462e+000 -3.181160e+000 -4.845190e+000 1.552047e+000 3.556537e-001 1.385625e+000 -3.087681e+000 -2.919473e+000 -1.361430e+000 -3.316343e+000 8.111502e-002 1.542875e-001 1.238411e+000 2.318589e+000 1.133779e+000 -4.470636e-001 4.107032e-001 3.339084e-001 9.766124e-001 3.087503e-003 -6.880866e-001 -4.316685e-001 -1.440515e+000
<VARIANCE> 25
 1.165975e+001 1.468876e+001 2.853568e+001 5.852935e+001 4.409557e+001 2.991354e+001 3.226512e+001 3.391912e+001 4.509970e+001 3.725840e+001 3.838418e+001 3.201362e+001 8.723987e-001 1.168653e+000 2.273764e+000 3.902788e+000 3.601816e+000 3.281944e+000 2.801488e+000 3.807896e+000 4.584073e+000 4.430190e+000 3.418191e+000 3.006667e+000 9.154878e-001
<GCONST> 9.952628e+001
<STATE> 3
<MEAN> 25
 6.598151e+000 6.523033e+000 3.974044e+000 2.696348e+000 -1.103948e+000 1.589604e+000 1.297465e+000 4.037600e-001 -1.778821e+000 -2.089203e+000 -6.300067e-001 -1.803143e+000 -7.490443e-001 -2.833750e-001 -5.453036e-001 5.871211e-001 9.595237e-001 3.928740e-001 2.581654e-001 -2.529161e-001 -2.613265e-001 -5.368500e-002 4.741799e-001 8.459094e-001 4.540385e-002
<VARIANCE> 25
 1.033269e+001 1.202541e+001 2.248821e+001 3.330086e+001 2.595498e+001 2.367347e+001 2.810349e+001 2.299483e+001 3.116788e+001 2.752699e+001 2.674850e+001 2.405953e+001 1.102113e+000 1.312083e+000 2.758476e+000 4.605270e+000 3.605610e+000 3.095776e+000 2.566849e+000 3.147199e+000 4.165086e+000 2.687413e+000 2.971307e+000 2.317843e+000 1.346478e+000
<GCONST> 9.555618e+001
<STATE> 4
<MEAN> 25
 3.731772e+000 4.091225e+000 -6.210119e-001 1.367416e+000 1.334692e+000 3.065548e+000 1.090748e+000 -1.474606e+000 -4.465837e+000 -1.564669e+000 3.039814e+000 1.258828e+000 -7.374142e-001 -1.194836e+000 -1.503693e+000 -1.081917e+000 -1.018244e-001 -3.817011e-001 -7.520622e-001 -6.574672e-001 -1.198816e-001 1.003485e+000 1.226275e+000 5.829491e-001 1.786244e+000
<VARIANCE> 25
 1.886084e+001 2.200634e+001 3.895702e+001 6.179683e+001 4.459781e+001 4.916315e+001 3.944786e+001 4.063866e+001 4.373540e+001 4.396459e+001 4.960024e+001 3.265225e+001 1.596661e+000 2.339127e+000 4.039855e+000 5.250494e+000 4.999599e+000 5.158256e+000 5.438442e+000 4.686374e+000 5.992838e+000 5.603630e+000 5.841043e+000 3.633739e+000 1.620600e+000
<GCONST> 1.076979e+002
<TRANSP> 5
 0.000000e+000 1.000000e+000 0.000000e+000 0.000000e+000 0.000000e+000
 0.000000e+000 4.407203e-001 5.592797e-001 0.000000e+000 0.000000e+000
 0.000000e+000 0.000000e+000 4.234427e-001 5.765573e-001 0.000000e+000
 0.000000e+000 0.000000e+000 0.000000e+000 4.325947e-001 5.674053e-001
 0.000000e+000 0.000000e+000 0.000000e+000 0.000000e+000 0.000000e+000
<ENDHMM>
~h "h"
<BEGINHMM>
<NUMSTATES> 5
<STATE> 2
<MEAN> 25
 7.265013e-001 7.193651e+000 2.384122e+000 5.297683e-001 2.649514e+000 3.883624e+000 6.028426e+000 1.736766e+000 -2.158373e+000 5.784867e-001 5.266075e-001 9.864453e-001 -2.040203e+000 -1.255974e+000 -1.542605e+000 1.519374e+000 4.175303e+000 1.227961e+000 1.060138e+000 2.101816e-001 2.396852e-001 1.096456e+000 7.430696e-001 1.357931e+000 -6.379032e-001
<VARIANCE> 25
 3.118406e+001 1.946515e+001 5.935728e+001 5.405407e+001 5.661076e+001 4.215135e+001 3.696693e+001 4.042527e+001 4.812560e+001 3.291868e+001 2.695753e+001 2.541599e+001 2.281334e+000 2.453662e+000 2.618030e+000 3.926636e+000 6.615728e+000 3.358100e+000 4.199896e+000 5.572547e+000 5.983187e+000 4.142345e+000 3.532250e+000 2.997917e+000 8.030564e-001
<GCONST> 1.050705e+002
<STATE> 3
<MEAN> 25
 -6.207532e+000 -7.764953e-002 -3.162906e+000 1.341233e+000 8.180869e+000 3.917444e+000 5.198708e+000 1.202470e+000 -9.467676e-001 3.282540e+000 1.368519e+000 3.522812e+000 -6.520600e-001 -1.324609e+000 -1.367103e+000 -3.577940e-001 7.324980e-001 -3.060974e-001 -8.725246e-001 -4.065345e-001 2.089213e-001 5.694697e-001 3.727701e-002 -1.823998e-001 1.455219e-001
<VARIANCE> 25
 3.420446e+001 2.472412e+001 6.914787e+001 3.904856e+001 5.046579e+001 6.388035e+001 4.752554e+001 4.767493e+001 4.449907e+001 2.683424e+001 3.626083e+001 2.720603e+001 2.258042e+000 1.975847e+000 2.722014e+000 2.071680e+000 4.196265e+000 2.775300e+000 3.614774e+000 4.556595e+000 3.627579e+000 3.531899e+000 2.643340e+000 2.747607e+000 1.103483e+000
<GCONST> 1.034849e+002
<STATE> 4
<MEAN> 25
 -2.428272e+000 -1.618991e+000 -5.157359e+000 1.622373e-001 1.016925e+001 2.961673e+000 1.878716e+000 -3.090049e-001 -5.321762e-002 4.139215e+000 -4.494780e-001 -1.252842e+000 1.596479e+000 2.200536e-001 8.912746e-001 -8.155802e-002 -1.528803e+000 -1.404332e+000 -3.256246e-001 4.725305e-002 9.130338e-001 -7.539114e-001 -1.065250e+000 -1.291630e+000 6.274051e-001
<VARIANCE> 25
 3.455024e+001 2.908365e+001 5.518602e+001 3.333606e+001 5.456707e+001 5.232005e+001 5.704648e+001 4.760981e+001 3.481562e+001 3.704010e+001 5.364896e+001 3.952590e+001 2.877729e+000 2.844578e+000 3.446085e+000 3.107015e+000 4.469178e+000 5.434906e+000 5.208596e+000 4.186034e+000 5.625970e+000 4.606438e+000 4.871381e+000 4.200995e+000 2.100708e+000
<GCONST> 1.088233e+002
<TRANSP> 5
 0.000000e+000 1.000000e+000 0.000000e+000 0.000000e+000 0.000000e+000
 0.000000e+000 4.841937e-001 5.158064e-001 0.000000e+000 0.000000e+000
 0.000000e+000 0.000000e+000 6.225711e-001 3.774289e-001 0.000000e+000
 0.000000e+000 0.000000e+000 0.000000e+000 6.088997e-001 3.911003e-001
 0.000000e+000 0.000000e+000 0.000000e+000 0.000000e+000 0.000000e+000
<ENDHMM>
~h "i"
<BEGINHMM>
<NUMSTATES> 5
<STATE> 2
<MEAN> 25
 8.294799e-001 1.336898e+000 8.280765e+000 1.146964e+000 -8.056634e+000 -4.669302e+000 -1.588518e+000 -2.030558e+000 -5.517396e+000 -3.033689e-001 5.711419e-001 -5.987715e-001 3.906716e-001 -2.121325e-001 1.807415e+000 -9.688576e-001 -2.303631e+000 -4.239570e-001 -5.300530e-001 -2.677144e-001 -1.278092e+000 3.896547e-001 1.729413e-001 -4.584465e-001 1.221780e+000
<VARIANCE> 25
 1.305275e+001 2.598296e+001 2.604678e+001 3.818950e+001 3.952193e+001 3.804241e+001 3.700270e+001 4.035248e+001 3.445712e+001 3.476614e+001 3.123984e+001 2.647940e+001 3.776098e+000 2.345825e+000 2.612279e+000 4.113922e+000 4.385333e+000 3.660955e+000 4.305839e+000 4.107669e+000 3.813349e+000 4.504783e+000 4.684074e+000 2.862380e+000 1.649489e+000
<GCONST> 1.032511e+002
<STATE> 3
<MEAN> 25
 -7.080218e-002 1.184800e+000 1.100845e+001 -2.096224e+000 -1.151610e+001 -2.261665e+000 -2.339552e+000 -3.221355e+000 -6.335648e+000 1.597445e+000 6.274185e-002 -2.198511e+000 4.983421e-003 1.223837e-001 1.308154e-001 -4.624199e-002 -1.012194e-001 1.562339e-001 5.622744e-002 -6.184404e-002 5.984930e-003 2.301518e-001 -1.005053e-001 -3.501795e-002 -7.288603e-002
<VARIANCE> 25
 1.133991e+001 2.045450e+001 2.440121e+001 4.738488e+001 3.673980e+001 3.997752e+001 3.798078e+001 3.688660e+001 3.351853e+001 4.914772e+001 4.514243e+001 3.277178e+001 7.619264e-001 1.215290e+000 1.320049e+000 1.913853e+000 1.936088e+000 2.018757e+000 1.969619e+000 2.139466e+000 2.018909e+000 2.025427e+000 1.863416e+000 1.437225e+000 5.927489e-001
<GCONST> 9.321171e+001
<STATE> 4
<MEAN> 25
 1.533404e+000 2.049921e+000 8.782144e+000 2.012006e+000 -7.585279e+000 -3.905459e+000 -7.931760e-001 -1.396163e+000 -5.141619e+000 7.964550e-001 7.353122e-001 -3.990306e-001 1.867557e-001 6.469646e-001 -9.738037e-001 1.092755e+000 2.008225e+000 6.073938e-001 4.039199e-001 2.823281e-001 1.103472e+000 -1.550181e-001 1.945312e-002 3.033834e-001 -1.496421e+000
<VARIANCE> 25
 1.223810e+001 2.141326e+001 2.620183e+001 4.222760e+001 4.396839e+001 4.037574e+001 3.697134e+001 4.086148e+001 3.413150e+001 3.609666e+001 3.116999e+001 2.553168e+001 1.660347e+000 2.164668e+000 2.702123e+000 3.370130e+000 4.018448e+000 4.001163e+000 4.194665e+000 3.474423e+000 3.253834e+000 3.889790e+000 3.582303e+000 2.510781e+000 2.022940e+000
<GCONST> 1.015066e+002
<TRANSP> 5
 0.000000e+000 1.000000e+000 0.000000e+000 0.000000e+000 0.000000e+000
 0.000000e+000 4.401900e-001 5.598100e-001 0.000000e+000 0.000000e+000
 0.000000e+000 0.000000e+000 6.236305e-001 3.763696e-001 0.000000e+000
 0.000000e+000 0.000000e+000 0.000000e+000 5.353257e-001 4.646743e-001
 0.000000e+000 0.000000e+000 0.000000e+000 0.000000e+000 0.000000e+000
<ENDHMM>
~h "j"
<BEGINHMM>
<NUMSTATES> 5
<STATE> 2
<MEAN> 25
 1.195440e+000 7.908569e-001 8.533476e+000 -3.623661e-001 -7.629663e+000 -2.969109e+000 -1.738093e+000 -5.990562e-001 -4.354872e+000 -3.985192e-001 3.561616e-001 -3.141041e-001 -2.399807e-001 -5.536484e-001 1.069264e+000 -8.364537e-001 -1.643431e+000 -6.229206e-001 -2.629169e-001 2.883325e-001 -4.172964e-001 2.560054e-001 2.986937e-001 2.436254e-001 1.114107e+000
<VARIANCE> 25
 1.210002e+001 3.067117e+001 3.715221e+001 4.450127e+001 4.315384e+001 4.290730e+001 4.113905e+001 4.853932e+001 3.469260e+001 4.178050e+001 3.044518e+001 2.810885e+001 2.418003e+000 2.563216e+000 2.699696e+000 3.745266e+000 3.749836e+000 3.307814e+000 3.921421e+000 3.561700e+000 3.383086e+000 3.491525e+000 2.913346e+000 2.172782e+000 1.745146e+000
<GCONST> 1.025919e+002
<STATE> 3
<MEAN> 25
 3.552217e-001 -1.577511e+000 8.842530e+000 -4.221123e+000 -1.039136e+001 -5.021081e+000 4.825614e-001 -8.756984e-001 -3.914677e+000 2.461994e+000 1.266834e+000 -3.088973e-001 2.082453e-004 -8.010783e-001 -5.797873e-001 5.967853e-002 -2.583869e-001 -7.503712e-001 5.244938e-001 9.630498e-001 3.837802e-001 3.447380e-003 3.064996e-001 1.420971e-001 4.303088e-001
<VARIANCE> 25
 9.450468e+000 2.173186e+001 2.909037e+001 4.591087e+001 3.397527e+001 3.447894e+001 4.830305e+001 4.593068e+001 3.689235e+001 4.997421e+001 3.530559e+001 2.383692e+001 5.470847e-001 1.418979e+000 1.540332e+000 1.621738e+000 1.665693e+000 2.027201e+000 2.742526e+000 2.492003e+000 2.086152e+000 2.036198e+000 1.784881e+000 1.344537e+000 5.433670e-001
<GCONST> 9.300726e+001
<STATE> 4
<MEAN> 25
 1.001099e+000 -3.620952e+000 5.348353e+000 -9.421176e-001 -9.370601e+000 -6.969450e+000 -5.542948e-001 3.990542e+000 -2.633652e+000 -1.642542e-001 1.579423e+000 2.607427e-001 3.866912e-001 -3.834130e-001 -1.701554e+000 3.746083e-001 1.319203e+000 -5.148986e-001 -4.058456e-001 8.214138e-001 1.038912e+000 -4.700208e-001 -4.358095e-001 2.951314e-002 -2.112279e-002
<VARIANCE> 25
 1.072925e+001 2.145564e+001 2.897797e+001 4.491917e+001 3.807563e+001 2.822227e+001 7.342728e+001 3.989421e+001 3.929377e+001 4.374171e+001 3.420710e+001 2.794435e+001 5.216432e-001 1.642798e+000 3.095174e+000 1.976151e+000 2.498479e+000 2.547482e+000 3.777382e+000 3.808206e+000 3.070868e+000 3.290602e+000 2.680727e+000 2.186239e+000 6.620175e-001
<GCONST> 9.767396e+001
<TRANSP> 5
 0.000000e+000 1.000000e+000 0.000000e+000 0.000000e+000 0.000000e+000
 0.000000e+000 4.514101e-001 5.485899e-001 0.000000e+000 0.000000e+000
 0.000000e+000 0.000000e+000 5.425473e-001 4.574526e-001 0.000000e+000
 0.000000e+000 0.000000e+000 0.000000e+000 3.730957e-001 6.269043e-001
 0.000000e+000 0.000000e+000 0.000000e+000 0.000000e+000 0.000000e+000
<ENDHMM>
~h "k"
<BEGINHMM>
<NUMSTATES> 5
<STATE> 2
<MEAN> 25
 -1.348306e+000 5.386222e-002 1.051886e+000 4.590015e+000 2.271392e+000 2.542961e+000 2.148879e+000 3.014855e+000 2.411850e+000 2.826611e+000 2.893030e+000 1.363160e+000 -1.008911e+000 -8.673170e-001 -7.688707e-001 -1.893853e-001 6.362376e-002 2.473160e-001 -5.816027e-002 1.365191e-001 3.234600e-001 1.186442e-001 3.507159e-001 5.037243e-001 -7.983223e-001
<VARIANCE> 25
 1.596624e+001 1.422587e+001 2.420676e+001 2.534737e+001 2.842626e+001 3.058610e+001 2.831972e+001 3.052283e+001 2.480486e+001 2.644670e+001 2.915766e+001 2.177621e+001 2.376360e+000 1.877012e+000 3.654797e+000 3.195074e+000 4.072423e+000 4.863491e+000 3.647475e+000 3.586167e+000 3.467187e+000 3.205694e+000 3.543287e+000 2.485848e+000 4.275676e+000
<GCONST> 9.980827e+001
<STATE> 3
<MEAN> 25
 -5.710694e+000 -4.049997e+000 -6.060486e+000 1.553983e+000 5.690522e+000 1.295748e+000 9.979208e-001 2.663094e+000 7.326868e-001 3.508548e+000 1.038931e+000 3.070899e+000 -9.477409e-001 -3.328457e-001 -1.715872e+000 -9.173985e-001 9.337466e-001 -9.718566e-002 -1.431231e-001 -4.695798e-002 -5.446992e-001 2.699588e-002 -5.508016e-001 1.381687e-001 1.829382e+000
<VARIANCE> 25
 2.260606e+001 2.164952e+001 5.086867e+001 4.392443e+001 4.858167e+001 5.298586e+001 4.322587e+001 3.806606e+001 4.171731e+001 3.252358e+001 3.768576e+001 2.348044e+001 2.727459e+000 2.314143e+000 5.931152e+000 4.000059e+000 4.498696e+000 4.703082e+000 3.990687e+000 3.833531e+000 3.808620e+000 3.050592e+000 3.381671e+000 2.721244e+000 2.508028e+000
<GCONST> 1.054895e+002
<STATE> 4
<MEAN> 25
 -4.540616e+000 -2.210722e-002 -4.741055e+000 -1.102466e-001 5.519699e+000 1.661434e+000 1.026314e+000 1.123032e+000 -9.781855e-001 2.038677e+000 1.691419e-001 1.183614e+000 2.425515e+000 1.584825e+000 1.851496e+000 -8.054182e-001 -1.701910e+000 -7.033047e-001 -5.355390e-001 -1.354555e+000 -1.143725e+000 -8.505892e-001 -5.064979e-001 -1.201857e+000 1.356955e+000
<VARIANCE> 25
 3.791161e+001 2.571644e+001 6.154666e+001 4.055639e+001 4.325200e+001 5.278365e+001 4.144358e+001 4.285513e+001 4.194619e+001 3.543980e+001 4.270388e+001 2.485069e+001 2.530218e+000 2.233528e+000 3.754961e+000 4.178932e+000 4.001572e+000 3.952457e+000 4.995173e+000 4.003824e+000 4.304572e+000 4.111685e+000 5.843894e+000 3.020750e+000 1.822569e+000
<GCONST> 1.067250e+002
<TRANSP> 5
 0.000000e+000 1.000000e+000 0.000000e+000 0.000000e+000 0.000000e+000
 0.000000e+000 6.830679e-001 3.169321e-001 0.000000e+000 0.000000e+000
 0.000000e+000 0.000000e+000 6.084213e-001 3.915787e-001 0.000000e+000
 0.000000e+000 0.000000e+000 0.000000e+000 5.666810e-001 4.333190e-001
 0.000000e+000 0.000000e+000 0.000000e+000 0.000000e+000 0.000000e+000
<ENDHMM>
~h "l"
<BEGINHMM>
<NUMSTATES> 5
<STATE> 2
<MEAN> 25
 6.013517e+000 -1.668071e+000 -2.957768e+000 -4.410647e+000 -2.401669e+000 3.012356e+000 -1.058545e+000 -7.248284e+000 -5.701585e-001 3.426219e+000 1.170896e+000 -3.612812e-001 1.284924e+000 -2.500530e-001 -2.697553e-001 -1.940510e+000 -6.366413e-001 1.001262e+000 -2.475617e-001 -1.525108e+000 -5.353117e-001 1.183301e+000 5.586980e-002 -8.075350e-002 6.028266e-001
<VARIANCE> 25
 1.627965e+001 2.897158e+001 3.311135e+001 5.862635e+001 4.649241e+001 6.201778e+001 6.788927e+001 5.908607e+001 5.396664e+001 4.292796e+001 4.770942e+001 3.281081e+001 2.630701e+000 3.187232e+000 4.064902e+000 7.072853e+000 5.999469e+000 6.027060e+000 5.657171e+000 6.571870e+000 7.106766e+000 4.404889e+000 5.140113e+000 4.011383e+000 3.260854e+000
<GCONST> 1.113822e+002
<STATE> 3
<MEAN> 25
 7.264142e+000 -2.674763e+000 -3.823912e+000 -8.546730e+000 -2.239034e+000 5.857868e+000 -3.445850e-001 -8.042227e+000 -1.289490e+000 5.280079e+000 7.294533e-001 -3.847733e-001 1.467552e-002 -2.219369e-001 -4.768794e-001 -8.208515e-001 6.439179e-001 2.370868e-001 1.204361e-001 4.337615e-001 -8.009160e-002 5.198299e-002 -3.299196e-001 -2.674782e-001 2.909140e-001
<VARIANCE> 25
 1.130267e+001 2.125463e+001 3.603620e+001 6.997290e+001 5.292852e+001 6.285772e+001 7.156929e+001 6.633801e+001 5.949826e+001 3.961938e+001 4.358009e+001 2.853577e+001 1.052587e+000 2.865954e+000 3.506626e+000 4.123507e+000 6.346169e+000 4.780134e+000 4.040718e+000 4.424227e+000 5.478714e+000 3.258538e+000 4.177259e+000 3.836633e+000 1.461259e+000
<GCONST> 1.068345e+002
<STATE> 4
<MEAN> 25
 6.543964e+000 -2.523302e+000 -4.488556e+000 -7.971831e+000 -9.578913e-002 4.142926e+000 -1.045893e+000 -5.725691e+000 -1.518365e+000 3.859531e+000 -5.140145e-001 -1.287869e+000 -3.354528e-001 -3.127353e-002 1.135478e-001 4.275822e-001 2.073448e-001 -8.457238e-001 1.555611e-001 1.152659e+000 -1.771998e-001 -7.568868e-001 -1.798815e-001 -1.026351e-001 1.248695e-001
<VARIANCE> 25
 1.245793e+001 2.113782e+001 4.399590e+001 6.635059e+001 5.343012e+001 6.762167e+001 6.660152e+001 5.358782e+001 6.133421e+001 4.045561e+001 4.674641e+001 3.055070e+001 7.907178e-001 2.030827e+000 2.870588e+000 4.174181e+000 5.031372e+000 5.204127e+000 3.584408e+000 4.870720e+000 4.735678e+000 3.896044e+000 3.753601e+000 3.088995e+000 9.351150e-001
<GCONST> 1.053330e+002
<TRANSP> 5
 0.000000e+000 1.000000e+000 0.000000e+000 0.000000e+000 0.000000e+000
 0.000000e+000 3.970618e-001 6.029382e-001 0.000000e+000 0.000000e+000
 0.000000e+000 0.000000e+000 3.109018e-001 6.890982e-001 0.000000e+000
 0.000000e+000 0.000000e+000 0.000000e+000 3.908981e-001 6.091019e-001
 0.000000e+000 0.000000e+000 0.000000e+000 0.000000e+000 0.000000e+000
<ENDHMM>
~h "m"
<BEGINHMM>
<NUMSTATES> 5
<STATE> 2
<MEAN> 25
 7.383867e+000 6.964464e-001 1.766316e+000 1.792867e+000 -1.462017e+000 1.295454e+000 -1.861195e+000 -5.373475e+000 -6.382203e+000 5.007693e-001 8.501543e-001 -4.322144e+000 3.545361e-001 1.080325e+000 1.291889e+000 1.003255e+000 1.403276e-001 6.920452e-001 2.539732e-001 -1.904516e+000 -1.758284e+000 2.965441e-001 7.974719e-001 -7.572957e-001 -1.029324e+000
<VARIANCE> 25
 7.267365e+000 1.632351e+001 2.251305e+001 2.617243e+001 2.519773e+001 3.045434e+001 3.284381e+001 4.137777e+001 3.663463e+001 2.822839e+001 4.050839e+001 2.274654e+001 8.763955e-001 1.776494e+000 2.739782e+000 2.743741e+000 3.318292e+000 3.612007e+000 3.790617e+000 3.887680e+000 4.185380e+000 3.955003e+000 3.430187e+000 2.719721e+000 1.119884e+000
<GCONST> 9.751337e+001
<STATE> 3
<MEAN> 25
 7.414835e+000 1.974117e+000 3.621589e+000 2.114516e+000 -1.875033e+000 2.145233e+000 -1.137795e+000 -6.270735e+000 -7.213083e+000 1.001490e-001 1.186396e+000 -3.712365e+000 -8.027416e-002 1.139580e-001 2.719896e-001 1.227627e-001 -4.079640e-002 3.458371e-002 7.740127e-002 7.462227e-002 1.572630e-001 -1.567466e-001 -9.394887e-003 2.512815e-001 -1.272877e-001
<VARIANCE> 25
 5.562634e+000 1.205124e+001 1.653134e+001 2.402164e+001 2.432917e+001 3.151880e+001 3.604351e+001 3.603399e+001 3.013213e+001 3.430342e+001 4.003846e+001 2.247189e+001 3.116006e-001 8.858660e-001 9.976220e-001 1.281033e+000 1.503762e+000 1.386492e+000 1.574026e+000 1.841140e+000 1.625975e+000 1.907444e+000 1.815676e+000 1.497508e+000 5.634593e-001
<GCONST> 8.600607e+001
<STATE> 4
<MEAN> 25
 6.708945e+000 1.402138e+000 3.008791e+000 2.522115e+000 -1.387219e+000 1.562564e+000 -1.288594e+000 -5.176707e+000 -5.700223e+000 -9.467097e-002 1.302815e+000 -2.880201e+000 -6.943839e-001 -7.240155e-001 -5.082366e-001 -9.297342e-001 -1.984935e-001 -3.316879e-001 1.981111e-001 1.924121e+000 1.660321e+000 -5.335236e-001 -5.948027e-001 1.016877e+000 7.028914e-001
<VARIANCE> 25
 8.868353e+000 1.673158e+001 2.212426e+001 2.857987e+001 2.881655e+001 3.435688e+001 3.626385e+001 4.400187e+001 3.435433e+001 3.439013e+001 3.782778e+001 2.357295e+001 9.230635e-001 1.780793e+000 4.664225e+000 3.637143e+000 4.432940e+000 3.864550e+000 3.547689e+000 3.724038e+000 3.801607e+000 3.902613e+000 2.966887e+000 2.363485e+000 1.735394e+000
<GCONST> 9.948263e+001
<TRANSP> 5
 0.000000e+000 1.000000e+000 0.000000e+000 0.000000e+000 0.000000e+000
 0.000000e+000 4.310803e-001 5.689198e-001 0.000000e+000 0.000000e+000
 0.000000e+000 0.000000e+000 6.336731e-001 3.663269e-001 0.000000e+000
 0.000000e+000 0.000000e+000 0.000000e+000 4.116784e-001 5.883217e-001
 0.000000e+000 0.000000e+000 0.000000e+000 0.000000e+000 0.000000e+000
<ENDHMM>
~h "n"
<BEGINHMM>
<NUMSTATES> 5
<STATE> 2
<MEAN> 25
 5.858340e+000 1.314486e+000 3.174561e+000 1.876516e+000 -2.992895e+000 -4.814533e-002 -1.048881e+000 -4.513618e+000 -3.108207e+000 -7.541860e-001 -3.888107e+000 -1.544155e+000 8.851368e-001 6.211091e-001 6.923016e-001 1.265135e-001 -7.526657e-001 2.593576e-001 1.858193e-001 -1.586504e+000 -8.187240e-001 8.500794e-002 -4.343048e-001 -8.597919e-002 -1.991525e-001
<VARIANCE> 25
 1.143467e+001 1.865459e+001 2.364125e+001 2.500389e+001 3.097137e+001 3.096849e+001 3.474652e+001 3.830858e+001 3.222868e+001 3.160374e+001 3.534235e+001 2.351528e+001 1.538844e+000 1.803193e+000 2.903416e+000 2.398172e+000 3.369928e+000 3.512948e+000 3.649116e+000 4.738607e+000 3.953194e+000 3.271570e+000 3.823783e+000 2.552419e+000 2.495157e+000
<GCONST> 9.943553e+001
<STATE> 3
<MEAN> 25
 6.984908e+000 1.452727e+000 3.927920e+000 1.291772e+000 -3.864269e+000 7.658581e-001 -3.482092e-001 -5.874514e+000 -3.385687e+000 -4.018328e-001 -3.451565e+000 -1.216120e+000 -1.005465e-001 -3.087403e-001 -3.151587e-001 -1.999143e-001 9.251768e-002 -2.458534e-001 -1.191503e-001 2.856883e-001 2.108377e-001 7.736491e-002 -6.533897e-003 1.722245e-002 4.585925e-001
<VARIANCE> 25
 6.168793e+000 1.620167e+001 2.219676e+001 2.101469e+001 2.524375e+001 2.806416e+001 3.356968e+001 3.633029e+001 2.760536e+001 2.959210e+001 3.708667e+001 2.319342e+001 6.287284e-001 1.203519e+000 1.550933e+000 1.462217e+000 1.910551e+000 2.196996e+000 1.999113e+000 2.508738e+000 2.484651e+000 2.062670e+000 2.151623e+000 1.484649e+000 1.002743e+000
<GCONST> 9.021394e+001
<STATE> 4
<MEAN> 25
 5.362359e+000 -7.255902e-001 1.210537e+000 7.251815e-001 -2.149782e+000 -1.915213e+000 -2.194311e+000 -2.638799e+000 -1.329152e+000 -7.811960e-001 -4.604151e+000 -1.464767e+000 -8.140582e-001 -1.155578e+000 -1.440665e+000 -9.589610e-001 1.141934e+000 -6.153196e-001 -4.083738e-001 2.389801e+000 1.077796e+000 -5.029921e-001 9.944522e-002 9.741553e-002 1.409338e+000
<VARIANCE> 25
 9.044191e+000 2.146598e+001 2.775337e+001 2.620897e+001 3.208525e+001 3.798233e+001 3.706853e+001 4.799075e+001 4.180817e+001 3.317834e+001 3.673623e+001 2.710327e+001 9.178972e-001 1.984850e+000 3.400155e+000 2.558987e+000 3.990178e+000 5.023397e+000 4.217820e+000 5.534861e+000 4.944541e+000 3.994230e+000 3.792654e+000 2.447493e+000 1.101273e+000
<GCONST> 1.007520e+002
<TRANSP> 5
 0.000000e+000 1.000000e+000 0.000000e+000 0.000000e+000 0.000000e+000
 0.000000e+000 3.343984e-001 6.656016e-001 0.000000e+000 0.000000e+000
 0.000000e+000 0.000000e+000 4.789429e-001 5.210571e-001 0.000000e+000
 0.000000e+000 0.000000e+000 0.000000e+000 4.060675e-001 5.939325e-001
 0.000000e+000 0.000000e+000 0.000000e+000 0.000000e+000 0.000000e+000
<ENDHMM>
~h "o"
<BEGINHMM>
<NUMSTATES> 5
<STATE> 2
<MEAN> 25
 6.031384e+000 5.458190e-001 -5.379133e+000 -8.910675e+000 -1.188182e+000 4.600709e+000 -2.789398e+000 -2.839662e+000 -1.208274e+000 4.497417e-001 1.742321e+000 -9.454058e-001 1.096577e+000 9.149411e-002 -8.032005e-001 -2.813480e+000 -8.889447e-001 1.492101e+000 4.036855e-002 -4.435216e-001 -1.427613e-001 -1.495521e-001 7.466954e-001 -4.500214e-002 1.024923e+000
<VARIANCE> 25
 1.409652e+001 2.948438e+001 2.521985e+001 5.492641e+001 5.284171e+001 4.546360e+001 6.165866e+001 3.674848e+001 5.147460e+001 5.026842e+001 5.291876e+001 2.834032e+001 2.516857e+000 2.149459e+000 2.945665e+000 5.181143e+000 5.981805e+000 4.696953e+000 4.975463e+000 4.749746e+000 4.841513e+000 5.042069e+000 4.651421e+000 2.882482e+000 2.045876e+000
<GCONST> 1.073103e+002
<STATE> 3
<MEAN> 25
 6.711910e+000 8.668565e-001 -6.373302e+000 -1.542258e+001 -2.966552e+000 9.489810e+000 4.944520e-002 -3.126359e+000 -1.848191e+000 -1.555809e+000 3.060554e+000 4.263875e-001 -1.269797e-002 -5.703329e-002 -4.560136e-002 6.884044e-002 3.934740e-001 9.637231e-002 -1.449399e-001 -2.684726e-001 -8.887713e-002 4.237474e-001 1.725814e-001 -1.289832e-001 -2.394787e-002
<VARIANCE> 25
 9.463341e+000 1.958965e+001 2.564630e+001 5.255915e+001 5.874409e+001 4.352052e+001 5.568071e+001 3.889346e+001 4.536147e+001 5.602589e+001 4.801226e+001 2.932165e+001 4.866758e-001 1.526837e+000 1.390066e+000 3.117655e+000 2.984826e+000 2.400028e+000 3.356371e+000 2.528248e+000 2.960660e+000 3.700926e+000 2.703234e+000 2.209758e+000 7.934111e-001
<GCONST> 9.821963e+001
<STATE> 4
<MEAN> 25
 5.916409e+000 -2.818438e-001 -4.945665e+000 -7.501553e+000 1.994152e+000 3.984210e+000 -4.553138e+000 -3.519788e+000 -6.827261e-001 3.666250e+000 1.556998e+000 -2.387074e+000 -4.595711e-001 4.636576e-001 1.679699e+000 2.937885e+000 7.126224e-001 -1.685969e+000 -2.775495e-002 7.419540e-001 4.111938e-001 1.069788e-001 -9.411300e-001 -1.059411e-001 -1.145469e+000
<VARIANCE> 25
 1.075866e+001 2.350158e+001 2.782386e+001 5.189058e+001 3.974636e+001 5.489822e+001 6.207735e+001 3.981625e+001 4.749147e+001 5.175584e+001 6.295293e+001 3.620358e+001 1.382407e+000 2.561910e+000 2.487992e+000 4.230546e+000 4.866674e+000 4.684885e+000 4.986289e+000 4.039896e+000 5.221404e+000 5.355337e+000 5.101870e+000 3.465059e+000 2.033232e+000
<GCONST> 1.064549e+002
<TRANSP> 5
 0.000000e+000 1.000000e+000 0.000000e+000 0.000000e+000 0.000000e+000
 0.000000e+000 4.581451e-001 5.418549e-001 0.000000e+000 0.000000e+000
 0.000000e+000 0.000000e+000 6.752809e-001 3.247191e-001 0.000000e+000
 0.000000e+000 0.000000e+000 0.000000e+000 5.731002e-001 4.268998e-001
 0.000000e+000 0.000000e+000 0.000000e+000 0.000000e+000 0.000000e+000
<ENDHMM>
~h "p"
<BEGINHMM>
<NUMSTATES> 5
<STATE> 2
<MEAN> 25
 1.800469e+000 2.990466e+000 4.129315e+000 5.369424e+000 3.475900e+000 4.378443e+000 2.987088e+000 1.942755e+000 1.818361e+000 1.660360e+000 2.866492e+000 8.149137e-001 -1.523502e+000 -8.585341e-001 -3.119346e-001 3.419326e-001 -1.225692e-001 -1.668396e-001 2.097614e-001 6.281294e-001 9.261546e-001 5.294862e-001 8.627819e-001 6.833668e-001 -1.541584e+000
<VARIANCE> 25
 1.313096e+001 1.536353e+001 3.643296e+001 2.614569e+001 2.320835e+001 2.423806e+001 2.554764e+001 2.269855e+001 2.451247e+001 2.382255e+001 2.729881e+001 2.263005e+001 1.138836e+000 1.403417e+000 2.807678e+000 3.050694e+000 2.369011e+000 2.894411e+000 2.434342e+000 2.526453e+000 2.315971e+000 2.083553e+000 2.307759e+000 1.871279e+000 1.705777e+000
<GCONST> 9.353349e+001
<STATE> 3
<MEAN> 25
 -1.798025e+000 -6.863114e-001 1.128815e+000 3.019077e+000 8.618872e-001 1.773543e+000 1.074965e+000 1.278645e+000 2.142742e+000 1.626359e+000 3.323096e+000 1.448988e+000 -5.561649e-001 -3.924223e-001 -7.700521e-001 -2.906865e-001 -4.273409e-002 -4.746815e-001 -2.957703e-001 -2.056098e-001 -1.613106e-001 -2.860966e-001 -3.572184e-001 -3.751513e-002 7.018439e-001
<VARIANCE> 25
 7.310497e+000 8.172869e+000 1.929024e+001 2.143836e+001 1.800035e+001 2.152665e+001 2.233447e+001 2.023591e+001 2.283077e+001 1.965069e+001 2.545243e+001 1.826725e+001 1.054369e+000 1.055790e+000 1.811427e+000 1.620637e+000 1.671564e+000 2.017112e+000 2.037970e+000 1.994581e+000 1.879596e+000 1.915486e+000 1.728781e+000 1.580962e+000 2.172259e+000
<GCONST> 8.724748e+001
<STATE> 4
<MEAN> 25
 -1.957494e+000 -4.679890e-001 -2.649982e+000 2.335155e+000 3.013520e+000 9.292198e-001 6.218311e-001 5.499980e-001 1.309460e+000 6.717749e-001 1.064876e+000 7.877630e-001 2.088094e+000 3.792495e-001 -9.243264e-001 -1.689605e+000 -8.083466e-001 -2.554562e-001 -4.120581e-001 -7.301229e-001 -5.975096e-001 -5.921950e-001 -8.552262e-001 -8.149302e-001 3.345350e+000
<VARIANCE> 25
 2.306261e+001 1.559786e+001 2.180037e+001 2.524977e+001 2.291839e+001 2.724387e+001 2.364633e+001 2.457607e+001 2.737842e+001 2.449590e+001 3.166401e+001 2.066796e+001 2.921364e+000 3.419690e+000 3.906941e+000 7.614774e+000 4.843263e+000 4.990463e+000 4.682226e+000 3.921477e+000 4.879211e+000 3.618336e+000 4.480386e+000 2.758130e+000 2.186506e+000
<GCONST> 1.018942e+002
<TRANSP> 5
 0.000000e+000 1.000000e+000 0.000000e+000 0.000000e+000 0.000000e+000
 0.000000e+000 5.794175e-001 4.205825e-001 0.000000e+000 0.000000e+000
 0.000000e+000 0.000000e+000 7.296215e-001 2.703786e-001 0.000000e+000
 0.000000e+000 0.000000e+000 0.000000e+000 5.414157e-001 4.585843e-001
 0.000000e+000 0.000000e+000 0.000000e+000 0.000000e+000 0.000000e+000
<ENDHMM>
~h "r"
<BEGINHMM>
<NUMSTATES> 5
<STATE> 2
<MEAN> 25
 3.096584e+000 -1.976716e+000 -1.781064e+000 4.140760e+000 -1.949621e+000 -5.579308e+000 -2.152347e+000 -4.370277e-001 3.079006e+000 5.495572e-001 -1.732076e+000 -9.284540e-001 1.355726e+000 -1.013509e+000 4.473801e-001 6.951707e-001 -1.567120e+000 -7.916909e-001 -6.118178e-001 -1.174976e-001 3.443987e-001 -7.674662e-002 -4.337289e-001 6.802216e-003 5.437582e-001
<VARIANCE> 25
 1.750064e+001 1.996630e+001 3.927514e+001 3.479148e+001 3.604326e+001 3.729482e+001 4.086951e+001 4.528279e+001 3.578640e+001 3.399342e+001 3.727047e+001 2.996359e+001 2.838625e+000 2.419411e+000 3.353527e+000 5.816959e+000 4.178564e+000 4.335846e+000 4.228189e+000 4.840975e+000 4.310772e+000 4.467038e+000 4.381939e+000 2.899999e+000 2.846422e+000
<GCONST> 1.052315e+002
<STATE> 3
<MEAN> 25
 4.496944e+000 -4.352854e+000 -8.475458e-001 5.624428e+000 -4.657498e+000 -5.734662e+000 -2.873413e+000 8.425120e-002 3.707102e+000 5.253530e-001 -1.924204e+000 -2.119446e-001 6.901253e-001 -1.316551e+000 3.048889e-001 7.293274e-002 -1.172425e+000 2.801619e-001 -3.098587e-001 2.968249e-001 5.870390e-002 -2.167474e-002 -7.253886e-002 3.668999e-002 2.630194e-001
<VARIANCE> 25
 1.365156e+001 1.972330e+001 3.440471e+001 3.241830e+001 4.043359e+001 3.259333e+001 3.454119e+001 4.378991e+001 3.528019e+001 3.425192e+001 3.478854e+001 2.597500e+001 1.339493e+000 2.327127e+000 3.040494e+000 3.937492e+000 3.675563e+000 3.463123e+000 3.343372e+000 3.845889e+000 4.022410e+000 3.944604e+000 3.549235e+000 2.636008e+000 1.731830e+000
<GCONST> 1.012351e+002
<STATE> 4
<MEAN> 25
 5.472208e+000 -6.963503e+000 -9.992640e-001 3.972977e+000 -6.290252e+000 -4.381990e+000 -3.484603e+000 9.613785e-001 3.256871e+000 4.493480e-001 -2.015152e+000 -5.664053e-001 1.868751e-001 -7.092947e-001 -2.013997e-002 -1.309308e+000 -3.322163e-002 5.401022e-001 2.927270e-001 5.428102e-001 -6.462986e-001 1.319490e-001 -7.377277e-003 -2.876634e-001 4.019397e-001
<VARIANCE> 25
 1.719862e+001 2.908452e+001 4.538755e+001 3.202482e+001 4.237722e+001 3.634942e+001 4.084973e+001 5.106007e+001 4.449717e+001 4.228402e+001 4.721729e+001 2.914148e+001 1.299384e+000 2.930512e+000 2.850721e+000 3.517272e+000 4.616817e+000 3.786712e+000 3.496408e+000 4.236608e+000 4.129995e+000 4.024378e+000 3.664963e+000 2.937336e+000 1.658275e+000
<GCONST> 1.040849e+002
<TRANSP> 5
 0.000000e+000 1.000000e+000 0.000000e+000 0.000000e+000 0.000000e+000
 0.000000e+000 2.329061e-001 7.670940e-001 0.000000e+000 0.000000e+000
 0.000000e+000 0.000000e+000 3.325983e-001 6.674017e-001 0.000000e+000
 0.000000e+000 0.000000e+000 0.000000e+000 2.572468e-001 7.427533e-001
 0.000000e+000 0.000000e+000 0.000000e+000 0.000000e+000 0.000000e+000
<ENDHMM>
~h "s"
<BEGINHMM>
<NUMSTATES> 5
<STATE> 2
<MEAN> 25
 -6.568601e+000 9.409077e+000 -8.281899e-001 6.518548e+000 5.377133e+000 -1.455593e+000 2.830488e+000 1.603009e+000 1.303508e+000 5.410535e-001 -3.671213e-001 1.537351e+000 -4.360788e+000 1.873153e+000 -1.377434e+000 1.997297e+000 1.510284e+000 1.162389e+000 1.551072e+000 1.129559e+000 5.079104e-001 -1.097614e-001 1.113345e+000 1.180721e+000 -4.803821e-001
<VARIANCE> 25
 3.810843e+001 2.257814e+001 2.565668e+001 3.285528e+001 5.720029e+001 3.698808e+001 4.754551e+001 3.856234e+001 3.128596e+001 3.530117e+001 3.042005e+001 2.335675e+001 1.464151e+000 3.519224e+000 3.251538e+000 4.302758e+000 4.401293e+000 4.840694e+000 4.460510e+000 4.880054e+000 3.720338e+000 3.270126e+000 4.531953e+000 2.946628e+000 1.046894e+000
<GCONST> 1.037390e+002
<STATE> 3
<MEAN> 25
 -1.726196e+001 8.853661e+000 -8.091796e+000 7.468525e+000 3.949861e+000 7.979674e-001 3.424150e+000 2.014833e+000 2.256698e+000 4.157624e-001 2.692436e+000 4.056015e+000 -6.500083e-001 -6.166984e-001 -6.291167e-001 -3.338468e-001 -4.645841e-001 8.566418e-003 -3.851201e-001 -2.220213e-001 -1.274950e-002 -5.086425e-002 8.452535e-002 1.577160e-002 -4.084053e-001
<VARIANCE> 25
 1.044758e+001 1.857940e+001 2.188624e+001 3.365963e+001 3.764988e+001 3.331828e+001 3.808795e+001 3.103915e+001 3.136405e+001 2.382635e+001 3.012104e+001 1.951132e+001 1.937830e+000 1.395402e+000 2.251247e+000 1.493004e+000 2.246743e+000 2.102480e+000 2.509175e+000 2.355852e+000 2.119650e+000 2.147751e+000 1.928821e+000 1.653937e+000 8.815917e-001
<GCONST> 9.310596e+001
<STATE> 4
<MEAN> 25
 -1.226073e+001 4.831028e+000 -5.075545e+000 5.107278e+000 2.572597e+000 -5.388449e-001 1.246679e+000 7.922046e-001 1.125416e+000 9.319498e-001 1.312027e+000 2.360415e+000 3.440917e+000 -1.004660e+000 1.736528e+000 -8.573213e-001 -1.061450e+000 -6.141714e-001 -9.534008e-001 -7.828618e-001 -7.207134e-001 1.355690e-001 -5.576908e-001 -8.738078e-001 -1.694300e-001
<VARIANCE> 25
 3.422807e+001 2.123954e+001 2.812014e+001 3.088597e+001 4.285279e+001 3.882014e+001 4.594447e+001 3.163083e+001 3.229361e+001 2.897489e+001 3.451752e+001 2.214099e+001 3.625381e+000 2.664756e+000 2.838311e+000 3.151019e+000 3.339010e+000 4.497013e+000 4.251063e+000 3.605846e+000 3.538615e+000 2.791893e+000 3.822171e+000 2.492709e+000 3.222032e+000
<GCONST> 1.030936e+002
<TRANSP> 5
 0.000000e+000 1.000000e+000 0.000000e+000 0.000000e+000 0.000000e+000
 0.000000e+000 6.296881e-001 3.703120e-001 0.000000e+000 0.000000e+000
 0.000000e+000 0.000000e+000 7.971854e-001 2.028147e-001 0.000000e+000
 0.000000e+000 0.000000e+000 0.000000e+000 6.662117e-001 3.337884e-001
 0.000000e+000 0.000000e+000 0.000000e+000 0.000000e+000 0.000000e+000
<ENDHMM>
~h "t"
<BEGINHMM>
<NUMSTATES> 5
<STATE> 2
<MEAN> 25
 -1.773998e-001 3.732719e+000 4.382867e+000 6.121038e+000 1.806287e+000 9.016228e-001 1.612811e+000 1.681808e+000 2.511549e+000 2.102488e+000 1.889263e+000 7.997531e-001 -7.907436e-001 -7.175102e-001 1.388750e-001 1.801652e-001 2.826334e-001 1.265982e+000 6.299493e-001 4.959699e-001 3.253471e-001 4.897915e-001 1.158349e+000 4.046999e-001 -2.241830e+000
<VARIANCE> 25
 1.975265e+001 1.574906e+001 3.397437e+001 2.361603e+001 3.139982e+001 2.843861e+001 2.865928e+001 2.768645e+001 2.910926e+001 2.622304e+001 3.043498e+001 2.127284e+001 1.806336e+000 2.256255e+000 3.008970e+000 3.009899e+000 3.197834e+000 3.496703e+000 4.221458e+000 2.796608e+000 2.826195e+000 2.612282e+000 3.093732e+000 2.319422e+000 2.661446e+000
<GCONST> 9.839633e+001
<STATE> 3
<MEAN> 25
 -3.231880e+000 1.152562e-001 1.462567e+000 3.350452e+000 6.534361e-001 8.252645e-001 1.097840e+000 1.348295e+000 1.956058e+000 2.221398e+000 3.319158e+000 1.952958e+000 -1.312227e+000 -4.988551e-001 -1.203254e+000 -7.978728e-001 3.542157e-001 -4.697053e-001 5.200822e-002 -2.716380e-001 -2.297143e-001 -4.133572e-001 -9.894255e-002 2.606836e-001 1.015344e+000
<VARIANCE> 25
 1.541135e+001 1.168004e+001 2.452006e+001 2.359207e+001 2.649660e+001 2.453985e+001 2.331292e+001 2.420360e+001 2.798659e+001 2.198218e+001 2.568239e+001 1.794357e+001 2.102915e+000 1.402147e+000 2.539153e+000 2.057653e+000 2.502971e+000 2.319307e+000 2.830721e+000 2.673165e+000 2.247738e+000 2.207545e+000 2.084360e+000 1.934361e+000 3.157024e+000
<GCONST> 9.353107e+001
<STATE> 4
<MEAN> 25
 -7.478545e+000 9.118451e-001 -2.437436e+000 1.172566e+000 3.153551e+000 -1.887389e+000 1.479936e+000 2.963545e-001 6.866543e-001 2.675021e-001 8.144081e-001 2.198074e+000 1.290546e+000 2.497294e-001 -4.664766e-003 -7.446873e-001 -7.076832e-001 -1.307620e+000 -8.487178e-001 -7.269782e-001 -4.821322e-001 -4.080544e-001 -1.177035e+000 -7.912645e-001 2.771882e+000
<VARIANCE> 25
 2.434436e+001 2.237864e+001 2.778780e+001 2.810684e+001 3.338568e+001 3.327444e+001 3.720655e+001 3.489638e+001 2.933182e+001 2.600732e+001 3.775833e+001 2.094275e+001 6.186839e+000 2.799133e+000 5.555891e+000 3.743629e+000 4.743455e+000 4.696352e+000 5.151844e+000 4.755592e+000 5.471036e+000 3.654652e+000 4.833925e+000 3.186769e+000 2.663229e+000
<GCONST> 1.052983e+002
<TRANSP> 5
 0.000000e+000 1.000000e+000 0.000000e+000 0.000000e+000 0.000000e+000
 0.000000e+000 5.043601e-001 4.956399e-001 0.000000e+000 0.000000e+000
 0.000000e+000 0.000000e+000 6.490486e-001 3.509515e-001 0.000000e+000
 0.000000e+000 0.000000e+000 0.000000e+000 5.646359e-001 4.353640e-001
 0.000000e+000 0.000000e+000 0.000000e+000 0.000000e+000 0.000000e+000
<ENDHMM>
~h "u"
<BEGINHMM>
<NUMSTATES> 5
<STATE> 2
<MEAN> 25
 5.072151e+000 3.197606e+000 -2.821342e+000 -3.098722e+000 -1.510999e+000 1.024007e+000 -6.371329e+000 -5.434539e+000 -3.087397e+000 7.895626e-001 2.115475e+000 -7.344087e-001 1.647604e+000 1.324041e+000 -8.530552e-001 -2.496356e+000 -1.065047e+000 1.575473e+000 2.486500e-001 -1.471325e+000 -1.283026e+000 -3.460581e-001 8.535948e-001 3.202868e-001 2.357506e-001
<VARIANCE> 25
 1.443755e+001 2.187655e+001 2.562957e+001 5.050072e+001 4.385856e+001 4.260965e+001 5.765469e+001 4.818672e+001 4.041461e+001 5.207014e+001 5.324963e+001 2.840086e+001 3.271558e+000 1.962542e+000 2.955914e+000 3.575386e+000 6.842951e+000 4.956029e+000 6.096912e+000 5.594422e+000 4.596509e+000 5.493663e+000 4.859979e+000 3.145327e+000 1.755294e+000
<GCONST> 1.070929e+002
<STATE> 3
<MEAN> 25
 7.348664e+000 6.061996e+000 -2.812476e+000 -8.941534e+000 -6.555582e+000 4.771733e+000 -1.471402e+000 -4.811455e+000 -4.726114e+000 -3.060208e+000 1.826804e+000 1.038061e+000 5.897044e-002 1.283245e-001 1.832363e-001 -9.755075e-002 -2.486818e-002 3.063698e-001 2.796637e-001 8.972609e-002 -5.425183e-002 -1.132120e-001 -1.494495e-001 8.066662e-002 -9.835228e-002
<VARIANCE> 25
 7.881549e+000 1.877250e+001 2.425626e+001 3.850249e+001 4.568875e+001 3.822726e+001 5.538748e+001 4.985246e+001 4.325096e+001 5.335545e+001 4.986530e+001 2.967370e+001 4.836907e-001 1.352122e+000 1.306269e+000 2.708313e+000 3.461926e+000 2.210151e+000 3.965179e+000 3.585666e+000 2.757241e+000 4.085719e+000 3.599679e+000 2.263190e+000 8.258443e-001
<GCONST> 9.807189e+001
<STATE> 4
<MEAN> 25
 5.775302e+000 3.806584e+000 -1.721299e+000 -3.717367e+000 -4.006061e-001 3.318671e+000 -5.130070e+000 -5.533881e+000 -2.989256e+000 1.201660e+000 2.018871e+000 -1.183033e-001 -8.385432e-001 -1.795216e-001 1.230694e+000 2.387092e+000 1.304029e+000 -9.908276e-001 1.630384e-001 1.028652e+000 1.201244e+000 5.180850e-001 -8.511671e-001 -4.681005e-001 -8.255618e-001
<VARIANCE> 25
 1.205110e+001 2.102042e+001 3.142536e+001 5.236890e+001 4.499964e+001 3.818979e+001 7.544536e+001 4.931690e+001 3.933294e+001 5.303746e+001 4.750027e+001 3.102317e+001 1.507809e+000 2.205445e+000 2.628709e+000 4.049973e+000 4.555190e+000 3.803864e+000 6.087822e+000 4.924166e+000 4.053019e+000 5.463619e+000 4.671293e+000 3.279320e+000 1.940354e+000
<GCONST> 1.058060e+002
<TRANSP> 5
 0.000000e+000 1.000000e+000 0.000000e+000 0.000000e+000 0.000000e+000
 0.000000e+000 5.163902e-001 4.836098e-001 0.000000e+000 0.000000e+000
 0.000000e+000 0.000000e+000 6.810573e-001 3.189427e-001 0.000000e+000
 0.000000e+000 0.000000e+000 0.000000e+000 5.496815e-001 4.503185e-001
 0.000000e+000 0.000000e+000 0.000000e+000 0.000000e+000 0.000000e+000
<ENDHMM>
~h "v"
<BEGINHMM>
<NUMSTATES> 5
<STATE> 2
<MEAN> 25
 5.749619e+000 -9.356037e-002 -6.753487e-001 1.725554e+000 5.979249e-001 -4.218353e-002 -4.341545e+000 -1.904665e+000 8.638476e-003 2.186251e+000 3.416086e-001 -2.017882e+000 6.033918e-001 3.957440e-001 1.776046e-001 5.559956e-001 2.522808e-001 2.136577e-001 -5.152754e-001 -6.871828e-001 -7.216144e-002 2.655035e-001 1.485645e-001 -3.498233e-001 -5.400031e-001
<VARIANCE> 25
 1.280803e+001 2.846618e+001 2.990606e+001 3.799557e+001 2.803779e+001 4.236583e+001 3.643258e+001 3.455190e+001 2.811921e+001 3.199849e+001 3.056928e+001 2.135202e+001 2.093052e+000 2.801113e+000 3.220830e+000 4.957719e+000 4.045231e+000 5.153743e+000 3.921175e+000 3.933776e+000 3.953080e+000 3.428315e+000 3.309608e+000 2.397853e+000 2.341933e+000
<GCONST> 1.022238e+002
<STATE> 3
<MEAN> 25
 5.985585e+000 -6.204326e-002 -5.147033e-001 1.681759e+000 4.984905e-001 2.730202e-001 -4.191401e+000 -2.177243e+000 9.751852e-002 2.170997e+000 5.715292e-001 -2.320328e+000 4.368676e-002 -3.671331e-001 2.366470e-001 -2.137705e-001 -5.835574e-001 -3.760577e-001 2.256044e-001 1.539655e-001 -9.406701e-002 -3.178141e-002 1.124459e-002 7.064673e-002 3.730809e-001
<VARIANCE> 25
 9.947839e+000 2.680828e+001 3.212859e+001 4.027117e+001 2.697651e+001 4.082250e+001 3.406253e+001 3.027953e+001 2.871823e+001 3.112984e+001 2.809298e+001 2.628849e+001 1.203361e+000 2.416134e+000 2.723925e+000 4.377124e+000 2.692815e+000 4.338856e+000 2.959481e+000 3.403400e+000 3.156150e+000 2.933210e+000 2.918607e+000 2.005350e+000 1.774698e+000
<GCONST> 9.892134e+001
<STATE> 4
<MEAN> 25
 5.700308e+000 -1.322259e+000 -2.035455e-001 1.202722e+000 -9.780623e-001 -1.562412e+000 -3.498992e+000 -9.108968e-001 5.126305e-002 2.070755e+000 6.056584e-001 -1.251971e+000 -3.631786e-001 -9.582707e-001 3.041619e-001 -9.197122e-001 -1.249329e+000 -8.224664e-001 6.921706e-001 6.881736e-001 -1.855144e-001 -1.628711e-001 -1.692389e-001 2.935169e-001 1.199525e+000
<VARIANCE> 25
 1.071902e+001 2.570977e+001 3.643639e+001 4.566457e+001 2.883653e+001 5.843676e+001 3.731021e+001 3.582718e+001 3.106464e+001 3.099622e+001 3.008096e+001 2.710806e+001 8.430336e-001 2.242766e+000 3.691380e+000 4.146900e+000 3.402526e+000 4.153183e+000 3.371095e+000 3.516758e+000 3.679867e+000 2.874426e+000 2.964191e+000 2.247230e+000 1.713586e+000
<GCONST> 1.004640e+002
<TRANSP> 5
 0.000000e+000 1.000000e+000 0.000000e+000 0.000000e+000 0.000000e+000
 0.000000e+000 1.759266e-001 8.240734e-001 0.000000e+000 0.000000e+000
 0.000000e+000 0.000000e+000 1.581187e-001 8.418813e-001 0.000000e+000
 0.000000e+000 0.000000e+000 0.000000e+000 1.842197e-001 8.157803e-001
 0.000000e+000 0.000000e+000 0.000000e+000 0.000000e+000 0.000000e+000
<ENDHMM>
~h "z"
<BEGINHMM>
<NUMSTATES> 5
<STATE> 2
<MEAN> 25
 -1.445731e+000 1.076384e+001 -3.018178e+000 5.803748e+000 2.320739e+000 -4.837656e+000 -2.997292e+000 -3.400328e+000 2.153739e+000 1.266892e+000 -2.751039e+000 7.054670e-001 -2.352143e+000 3.106194e+000 -5.047358e-001 2.520073e+000 7.371013e-001 5.120309e-001 1.367019e+000 1.112992e-001 5.649161e-001 -7.896767e-001 6.629525e-001 4.800916e-001 -6.952205e-001
<VARIANCE> 25
 2.056611e+001 3.243691e+001 2.703838e+001 3.597926e+001 4.285616e+001 3.238858e+001 3.691779e+001 2.991066e+001 3.578500e+001 4.858155e+001 2.846152e+001 1.806833e+001 2.522063e+000 2.909044e+000 2.174328e+000 2.820008e+000 2.775235e+000 4.315558e+000 4.407817e+000 4.838540e+000 3.905970e+000 3.263104e+000 3.747729e+000 2.737589e+000 1.151511e+000
<GCONST> 1.016399e+002
<STATE> 3
<MEAN> 25
 -9.773831e+000 1.473150e+001 -3.578941e+000 1.094221e+001 4.241325e+000 -5.660055e-001 1.344986e+000 -2.067669e-001 2.898613e+000 1.643627e-001 1.235949e+000 2.455512e+000 -5.164168e-001 -7.797946e-001 -2.313056e-001 -1.201934e-001 -3.502494e-002 4.733441e-001 1.076992e-001 3.732868e-001 1.523047e-001 7.367663e-002 2.550178e-001 1.592046e-001 -2.321222e-001
<VARIANCE> 25
 2.563700e+001 2.255616e+001 2.107431e+001 2.784170e+001 3.985920e+001 3.278030e+001 3.514440e+001 3.445933e+001 2.978907e+001 3.740012e+001 2.433243e+001 1.936247e+001 3.460178e+000 2.426741e+000 1.699094e+000 2.080114e+000 1.838172e+000 3.332837e+000 2.618637e+000 2.502821e+000 2.330773e+000 1.945482e+000 2.024637e+000 1.644321e+000 1.039970e+000
<GCONST> 9.596362e+001
<STATE> 4
<MEAN> 25
 -3.699095e+000 7.980587e+000 -4.468945e+000 5.740179e+000 2.020557e+000 -3.271086e+000 -2.337957e+000 -1.177776e+000 4.156910e+000 1.206220e+000 -1.601954e+000 1.249984e+000 2.977139e+000 -3.502269e+000 1.564303e-001 -2.734518e+000 -7.653399e-001 -8.444973e-001 -9.939618e-001 3.494528e-001 2.979940e-001 5.701202e-001 -1.307017e+000 -8.179581e-001 1.142504e+000
<VARIANCE> 25
 3.738019e+001 3.376617e+001 2.541562e+001 3.457409e+001 3.530086e+001 3.997815e+001 3.611501e+001 3.274295e+001 3.301089e+001 3.722923e+001 2.982390e+001 2.006519e+001 2.520831e+000 3.772590e+000 2.557708e+000 3.464715e+000 2.892371e+000 5.548428e+000 4.502116e+000 5.135610e+000 4.646503e+000 2.974933e+000 4.149117e+000 3.032162e+000 2.384057e+000
<GCONST> 1.040796e+002
<TRANSP> 5
 0.000000e+000 1.000000e+000 0.000000e+000 0.000000e+000 0.000000e+000
 0.000000e+000 6.735685e-001 3.264315e-001 0.000000e+000 0.000000e+000
 0.000000e+000 0.000000e+000 6.838845e-001 3.161155e-001 0.000000e+000
 0.000000e+000 0.000000e+000 0.000000e+000 5.953893e-001 4.046107e-001
 0.000000e+000 0.000000e+000 0.000000e+000 0.000000e+000 0.000000e+000
<ENDHMM>
~h "cc"
<BEGINHMM>
<NUMSTATES> 5
<STATE> 2
<MEAN> 25
 -6.646057e+000 2.968865e+000 4.992007e+000 2.254013e+000 2.430748e+000 1.380643e+000 -3.531626e-001 1.677757e+000 3.271204e+000 1.031191e+000 3.587945e+000 1.611683e+000 -3.657720e+000 2.528403e-001 -3.846017e-001 -1.169104e+000 7.439377e-001 1.026565e+000 3.807638e-001 -2.138064e-001 6.311228e-001 1.799379e-002 1.187574e+000 4.159880e-001 3.693358e-001
<VARIANCE> 25
 5.185272e+001 2.770146e+001 2.365285e+001 2.987765e+001 2.590929e+001 3.544855e+001 3.234293e+001 3.222817e+001 3.329631e+001 3.312186e+001 2.786119e+001 2.472442e+001 3.909889e+000 3.499375e+000 2.723149e+000 3.605659e+000 3.438442e+000 3.601285e+000 4.129280e+000 3.609911e+000 3.573115e+000 4.701755e+000 3.045113e+000 2.002845e+000 6.644586e+000
<GCONST> 1.037318e+002
<STATE> 3
<MEAN> 25
 -2.204796e+001 4.827727e+000 3.604067e+000 -2.977074e+000 2.955714e+000 2.729751e+000 1.568008e+000 4.271544e-001 4.478409e+000 -2.135292e+000 6.910733e+000 2.641221e+000 -7.744308e-001 -3.349888e-001 1.395695e-001 1.491499e-001 -5.431228e-001 -5.965570e-001 1.026493e+000 1.124507e-001 -2.495289e-001 -9.342525e-001 7.528386e-004 4.491009e-002 9.183809e-001
<VARIANCE> 25
 1.322867e+001 2.651882e+001 1.957778e+001 1.365249e+001 2.092076e+001 3.157831e+001 3.533278e+001 3.651506e+001 2.934087e+001 2.530518e+001 4.246067e+001 1.909710e+001 6.858069e+000 2.551783e+000 1.786450e+000 1.873778e+000 2.089255e+000 2.602998e+000 2.361227e+000 2.707138e+000 2.319230e+000 2.348900e+000 2.095669e+000 1.743116e+000 1.589448e+000
<GCONST> 9.543240e+001
<STATE> 4
<MEAN> 25
 -1.166360e+001 1.847940e+000 5.502209e+000 1.201034e+000 -1.025523e+000 -3.436604e+000 2.195421e+000 3.069896e-001 8.062828e-001 -4.648580e+000 2.824160e+000 1.276754e+000 5.503193e+000 -6.742209e-001 3.658248e-001 7.012614e-001 -1.976675e+000 -2.272375e+000 -1.916696e+000 -1.971620e-001 -1.145070e+000 -2.681418e-001 -1.525374e+000 -7.340073e-001 4.028286e-001
<VARIANCE> 25
 6.940276e+001 2.069130e+001 1.856112e+001 1.795652e+001 2.765719e+001 4.131422e+001 3.771892e+001 2.818736e+001 2.972736e+001 2.921381e+001 3.899736e+001 2.044175e+001 2.846253e+000 2.469613e+000 2.258091e+000 2.308735e+000 3.646270e+000 3.125698e+000 3.730689e+000 3.371692e+000 3.669200e+000 3.066039e+000 4.749882e+000 2.241447e+000 1.014198e+000
<GCONST> 9.984985e+001
<TRANSP> 5
 0.000000e+000 1.000000e+000 0.000000e+000 0.000000e+000 0.000000e+000
 0.000000e+000 7.282410e-001 2.717590e-001 0.000000e+000 0.000000e+000
 0.000000e+000 0.000000e+000 6.894103e-001 3.105897e-001 0.000000e+000
 0.000000e+000 0.000000e+000 0.000000e+000 6.691060e-001 3.308940e-001
 0.000000e+000 0.000000e+000 0.000000e+000 0.000000e+000 0.000000e+000
<ENDHMM>
~h "dz"
<BEGINHMM>
<NUMSTATES> 5
<STATE> 2
<MEAN> 25
 4.174698e+000 5.987549e+000 5.989460e+000 4.226331e+000 -1.668797e+000 1.405309e+000 -2.246554e+000 6.223541e-001 -4.129502e-001 -5.771349e+000 -4.613116e+000 1.066095e-001 -2.167609e+000 1.614394e+000 8.710120e-001 1.505737e+000 1.422421e+000 1.631540e+000 1.691849e+000 -1.436254e+000 2.773325e-001 4.407358e-001 1.045835e+000 -4.500319e-001 -8.911527e-001
<VARIANCE> 25
 1.372974e+001 2.063418e+001 2.109629e+001 2.180975e+001 2.135845e+001 2.568494e+001 2.999762e+001 3.328588e+001 3.649492e+001 2.028591e+001 2.925894e+001 1.870203e+001 4.537601e+000 1.919328e+000 1.379514e+000 1.866653e+000 2.470531e+000 3.326996e+000 2.526838e+000 3.177222e+000 4.151115e+000 3.658074e+000 4.785698e+000 1.858199e+000 2.910453e+000
<GCONST> 9.712401e+001
<STATE> 3
<MEAN> 25
 -9.057114e+000 6.137980e+000 7.284137e+000 6.220335e+000 7.698225e-001 2.553952e+000 2.614351e+000 -3.469375e+000 4.051237e+000 -4.670000e+000 1.365935e-001 1.190698e+000 -2.205286e+000 -4.761997e-001 -4.575849e-001 -3.657889e-001 -2.577263e-001 -1.621173e+000 -3.292011e-001 -6.957682e-001 1.329286e+000 -3.331278e-001 5.205108e-001 4.576710e-001 1.902284e+000
<VARIANCE> 25
 4.769477e+001 2.515837e+001 1.431044e+001 2.651443e+001 2.370734e+001 3.700161e+001 3.670430e+001 1.877441e+001 2.684637e+001 2.971555e+001 2.389865e+001 2.428806e+001 9.371229e+000 2.820865e+000 2.033417e+000 4.196345e+000 1.647174e+000 4.158574e+000 4.562358e+000 2.445245e+000 3.392518e+000 2.207082e+000 2.207603e+000 1.906663e+000 1.487996e+000
<GCONST> 9.893613e+001
<STATE> 4
<MEAN> 25
 -1.825951e+000 2.163945e+000 2.169988e+000 4.244859e+000 -2.439763e+000 -5.470829e+000 -6.123698e+000 -5.443075e+000 6.349497e+000 -4.187517e+000 -1.572778e+000 1.062977e-001 3.984307e+000 -2.504896e+000 -1.431437e+000 -1.418410e+000 -7.915888e-001 -5.895387e-001 -3.464786e+000 -3.283392e-001 1.295798e-002 1.673097e+000 -1.837182e-001 -4.058384e-001 4.176410e-001
<VARIANCE> 25
 3.907499e+001 2.470346e+001 2.498553e+001 2.714351e+001 2.367162e+001 3.323861e+001 4.193058e+001 3.498811e+001 2.224868e+001 1.944408e+001 1.420661e+001 2.765979e+001 2.900582e+000 1.384799e+000 1.407813e+000 1.867029e+000 2.584003e+000 4.931469e+000 4.205535e+000 4.265729e+000 2.242648e+000 3.981125e+000 4.397805e+000 2.132796e+000 4.475589e-001
<GCONST> 9.675397e+001
<TRANSP> 5
 0.000000e+000 1.000000e+000 0.000000e+000 0.000000e+000 0.000000e+000
 0.000000e+000 6.588398e-001 3.411601e-001 0.000000e+000 0.000000e+000
 0.000000e+000 0.000000e+000 6.725678e-001 3.274323e-001 0.000000e+000
 0.000000e+000 0.000000e+000 0.000000e+000 6.311010e-001 3.688990e-001
 0.000000e+000 0.000000e+000 0.000000e+000 0.000000e+000 0.000000e+000
<ENDHMM>
~h "sp"
<BEGINHMM>
<NUMSTATES> 3
<STATE> 2
~s "silst"
<TRANSP> 3
 0.000000e+000 1.538395e-001 8.461605e-001
 0.000000e+000 9.542565e-001 4.574350e-002
 0.000000e+000 0.000000e+000 0.000000e+000
<ENDHMM>
~h "sil"
<BEGINHMM>
<NUMSTATES> 5
<STATE> 2
<MEAN> 25
 -4.251652e+000 -2.220132e+000 1.064467e+000 4.561816e+000 3.014269e+000 2.164042e+000 3.295902e+000 2.451752e+000 1.191554e+000 -2.282246e-001 2.806095e+000 1.496513e+000 2.448208e-003 -6.972582e-004 6.747073e-003 8.417149e-003 -2.357189e-002 1.803166e-002 1.536853e-002 -4.050864e-002 -2.059787e-002 1.393783e-002 2.853903e-002 2.243943e-002 -2.234469e-002
<VARIANCE> 25
 1.124411e+001 8.751807e+000 1.538504e+001 1.916679e+001 2.029679e+001 2.129294e+001 2.160792e+001 2.414476e+001 2.068541e+001 1.951225e+001 2.823696e+001 1.551122e+001 1.925084e-001 3.548152e-001 5.666957e-001 7.464756e-001 1.052589e+000 1.133100e+000 1.383282e+000 1.456584e+000 1.492989e+000 1.420517e+000 1.322921e+000 1.224783e+000 1.023374e-001
<GCONST> 7.691883e+001
<STATE> 3
<MEAN> 25
 -6.185224e+000 -2.826867e+000 3.210186e-001 3.108154e+000 5.199168e+000 8.427273e-001 3.439963e+000 3.214614e+000 1.437044e+000 -1.103365e+000 1.592877e+000 2.695411e+000 1.056228e-001 1.124766e-001 5.057409e-004 3.686686e-002 -7.307658e-003 6.367413e-002 4.196867e-002 -6.545863e-002 7.661128e-003 4.736349e-002 1.310549e-002 -4.008681e-002 -1.129109e-001
<VARIANCE> 25
 1.713792e+001 1.464823e+001 1.918023e+001 1.987118e+001 2.489203e+001 2.816577e+001 2.390397e+001 3.161156e+001 2.512345e+001 2.417711e+001 3.459166e+001 1.837873e+001 9.843422e-001 9.345413e-001 1.267189e+000 1.285199e+000 1.875277e+000 1.830431e+000 2.039492e+000 2.342858e+000 2.117133e+000 2.035785e+000 1.930638e+000 1.610796e+000 1.022756e+000
<GCONST> 8.927956e+001
<STATE> 4
<MEAN> 25
 -1.055117e+001 3.280837e+000 -1.060816e+000 3.149129e+000 6.382562e-001 9.957281e+000 6.296796e+000 8.192288e-001 2.086356e+000 8.493586e-001 6.933303e-001 5.434955e+000 6.104581e-002 1.029000e-001 1.366160e-001 2.506641e-003 -1.034194e-001 -1.792243e-001 -8.276358e-002 -6.502622e-002 -1.171982e-001 -7.122260e-002 -5.046191e-002 -4.677033e-002 1.367506e-001
<VARIANCE> 25
 9.956837e+001 3.342042e+001 2.632158e+001 1.801760e+001 2.765409e+001 7.062003e+001 2.007664e+001 2.185016e+001 2.088160e+001 1.792766e+001 2.604159e+001 2.484790e+001 6.917318e-001 7.342755e-001 8.126760e-001 8.992274e-001 1.158712e+000 1.424171e+000 1.588964e+000 1.508567e+000 1.534074e+000 1.338239e+000 1.324018e+000 1.119070e+000 7.594179e-001
<GCONST> 8.749853e+001
<TRANSP> 5
 0.000000e+000 1.000000e+000 0.000000e+000 0.000000e+000 0.000000e+000
 0.000000e+000 9.200464e-001 7.995352e-002 0.000000e+000 0.000000e+000
 0.000000e+000 0.000000e+000 8.845233e-001 1.154767e-001 0.000000e+000
 0.000000e+000 0.000000e+000 0.000000e+000 7.448797e-001 2.551203e-001
 0.000000e+000 0.000000e+000 0.000000e+000 0.000000e+000 0.000000e+000
<ENDHMM>
