~o
<STREAMINFO> 1 25
<VECSIZE> 25<NULLD><MFCC_D_N_Z_0><DIAGC>
~h "C"
<BEGINHMM>
<NUMSTATES> 5
<STATE> 2
<MEAN> 25
 -9.714195e+000 2.993848e+000 4.227336e+000 1.286131e+000 2.228117e+000 1.664470e+000 1.032924e+000 -2.111403e-003 3.040043e+000 -8.280435e-001 2.749162e+000 1.896166e+000 -3.112428e+000 1.103574e-001 -1.364570e-001 -6.592450e-001 6.747549e-001 2.439150e-001 3.364095e-001 -3.874160e-002 5.434502e-001 -4.904168e-001 8.576491e-001 2.340912e-001 7.581526e-001
<VARIANCE> 25
 9.323692e+001 2.884512e+001 2.464109e+001 2.933126e+001 3.025784e+001 3.297144e+001 4.103985e+001 4.253392e+001 3.589156e+001 3.199293e+001 3.999902e+001 2.192134e+001 7.629096e+000 3.407786e+000 2.580085e+000 3.652483e+000 3.969376e+000 3.396822e+000 3.935014e+000 3.742265e+000 3.624297e+000 3.465353e+000 4.019173e+000 2.086928e+000 4.161427e+000
<GCONST> 1.054951e+002
<STATE> 3
<MEAN> 25
 -1.599811e+001 2.876434e+000 3.524078e+000 -5.009008e-001 3.230654e+000 1.287216e+000 1.881100e+000 1.840574e-001 4.025275e+000 -2.632925e+000 4.038767e+000 2.338145e+000 -4.169779e-001 -1.784383e-001 -1.946767e-001 -2.813312e-001 -1.855399e-002 -4.397315e-001 2.858788e-003 1.419989e-001 6.183927e-002 -5.352513e-001 -8.053843e-003 -3.961943e-002 7.722736e-001
<VARIANCE> 25
 6.833413e+001 3.073185e+001 2.067049e+001 2.543966e+001 2.672311e+001 3.833848e+001 4.436969e+001 4.260509e+001 3.307832e+001 3.352470e+001 4.499907e+001 2.008456e+001 1.643535e+001 2.892585e+000 1.991843e+000 2.914550e+000 3.539081e+000 3.297313e+000 4.001257e+000 3.476388e+000 3.544435e+000 2.861573e+000 3.951754e+000 2.158821e+000 2.738891e+000
<GCONST> 1.043339e+002
<STATE> 4
<MEAN> 25
 -1.066247e+001 1.889489e+000 3.171164e+000 -1.063948e-001 1.953767e+000 -7.903779e-001 1.028768e+000 5.549716e-001 3.191779e+000 -3.862030e+000 2.428909e+000 1.439254e+000 2.967532e+000 -6.161490e-001 -1.659512e-001 6.001817e-002 -8.750244e-001 -7.655722e-001 -7.458861e-001 7.325343e-002 -3.624061e-001 -4.580574e-002 -8.324434e-001 -4.906788e-001 3.184267e-001
<VARIANCE> 25
 1.044192e+002 3.119535e+001 2.151214e+001 2.370486e+001 3.401812e+001 4.612484e+001 4.007533e+001 3.913760e+001 3.602480e+001 3.661819e+001 4.726145e+001 2.012057e+001 1.145390e+001 2.994115e+000 2.237412e+000 2.422019e+000 4.045422e+000 4.023560e+000 4.613765e+000 3.828231e+000 3.702859e+000 3.250374e+000 4.792386e+000 2.386629e+000 2.034826e+000
<GCONST> 1.055495e+002
<TRANSP> 5
 0.000000e+000 1.000000e+000 0.000000e+000 0.000000e+000 0.000000e+000
 0.000000e+000 7.112759e-001 2.887241e-001 0.000000e+000 0.000000e+000
 0.000000e+000 0.000000e+000 6.986809e-001 3.013191e-001 0.000000e+000
 0.000000e+000 0.000000e+000 0.000000e+000 7.711405e-001 2.288595e-001
 0.000000e+000 0.000000e+000 0.000000e+000 0.000000e+000 0.000000e+000
<ENDHMM>
~h "L"
<BEGINHMM>
<NUMSTATES> 5
<STATE> 2
<MEAN> 25
 1.547532e+000 2.368253e-001 5.203123e+000 2.601261e+000 -1.424118e+000 -5.430929e+000 -2.847363e+000 9.750077e-001 -1.916244e+000 -2.006290e+000 -5.368024e-001 2.038618e+000 4.016736e-001 -3.103819e-001 4.766053e-001 -1.473353e-001 -4.704891e-001 -8.301522e-001 -5.680385e-001 3.273960e-001 -3.033116e-001 -3.061569e-001 -1.690927e-001 4.109728e-001 5.737655e-001
<VARIANCE> 25
 3.134344e+001 2.183079e+001 3.323596e+001 4.435846e+001 4.370717e+001 4.361468e+001 4.583649e+001 3.916076e+001 3.237376e+001 3.601231e+001 3.131420e+001 3.032253e+001 2.702027e+000 2.508590e+000 3.607907e+000 3.371144e+000 3.593759e+000 4.156981e+000 4.698631e+000 4.422795e+000 3.425865e+000 4.257603e+000 3.084892e+000 2.838147e+000 2.124877e+000
<GCONST> 1.044876e+002
<STATE> 3
<MEAN> 25
 2.064707e+000 -4.381461e-001 5.183376e+000 2.028360e+000 -2.212342e+000 -6.307414e+000 -3.719838e+000 1.058444e+000 -2.323025e+000 -1.959127e+000 -6.314837e-001 2.636730e+000 2.402096e-001 -3.288110e-001 -2.526101e-001 -3.956410e-001 -2.253256e-001 -1.958226e-001 -2.631213e-001 8.192982e-003 5.384589e-003 2.621680e-001 -5.650447e-003 1.491066e-001 4.439292e-001
<VARIANCE> 25
 2.388536e+001 1.948795e+001 3.288642e+001 4.266924e+001 4.339581e+001 3.956453e+001 4.849895e+001 4.536128e+001 3.205021e+001 3.774748e+001 3.140045e+001 3.286036e+001 1.930827e+000 2.393225e+000 3.546226e+000 3.180732e+000 3.655236e+000 4.027449e+000 4.984076e+000 5.066320e+000 3.460382e+000 4.286338e+000 3.120042e+000 2.823653e+000 2.001386e+000
<GCONST> 1.039566e+002
<STATE> 4
<MEAN> 25
 2.150407e+000 -1.007100e+000 3.714509e+000 1.006043e+000 -2.154764e+000 -5.652310e+000 -3.603775e+000 4.082813e-001 -1.974187e+000 -7.708829e-001 -3.553227e-001 2.589213e+000 7.017010e-002 -2.068827e-001 -7.179348e-001 -4.728848e-001 1.708324e-001 4.339053e-001 1.181688e-001 -2.348801e-001 3.499269e-001 5.708334e-001 1.005322e-001 -2.225200e-001 2.088687e-001
<VARIANCE> 25
 2.362823e+001 1.979292e+001 3.589669e+001 3.798908e+001 4.471121e+001 3.805647e+001 5.507933e+001 6.554927e+001 3.261749e+001 4.306647e+001 3.414825e+001 3.618881e+001 1.319548e+000 2.302577e+000 3.166694e+000 2.897318e+000 3.513428e+000 3.442814e+000 4.761122e+000 4.823449e+000 3.416645e+000 3.747841e+000 3.124424e+000 2.844144e+000 1.796988e+000
<GCONST> 1.035857e+002
<TRANSP> 5
 0.000000e+000 1.000000e+000 0.000000e+000 0.000000e+000 0.000000e+000
 0.000000e+000 5.513193e-001 4.486807e-001 0.000000e+000 0.000000e+000
 0.000000e+000 0.000000e+000 5.448765e-001 4.551235e-001 0.000000e+000
 0.000000e+000 0.000000e+000 0.000000e+000 6.377352e-001 3.622648e-001
 0.000000e+000 0.000000e+000 0.000000e+000 0.000000e+000 0.000000e+000
<ENDHMM>
~h "N"
<BEGINHMM>
<NUMSTATES> 5
<STATE> 2
<MEAN> 25
 1.511838e+000 7.101141e-001 3.859337e+000 -1.079804e+000 -1.403795e+000 -5.119976e-001 1.534253e+000 8.421602e-001 -2.892844e+000 -2.602207e+000 2.223458e-001 7.777279e-001 6.359573e-002 7.829155e-002 1.408283e-001 -1.809092e-001 1.683894e-002 1.331054e-001 5.268171e-002 -2.236547e-002 -3.389885e-001 -3.510778e-002 1.059667e-001 1.156387e-001 -7.388044e-002
<VARIANCE> 25
 2.829336e+001 2.842725e+001 2.765190e+001 3.600957e+001 5.161939e+001 3.086636e+001 3.707660e+001 4.827963e+001 4.116957e+001 3.453130e+001 3.280663e+001 2.685182e+001 1.728556e+000 2.628497e+000 2.001619e+000 2.245489e+000 3.409133e+000 2.720464e+000 2.994563e+000 3.797614e+000 2.866510e+000 2.375993e+000 2.538216e+000 2.115030e+000 1.837001e+000
<GCONST> 1.003267e+002
<STATE> 3
<MEAN> 25
 9.948719e-001 5.029936e-001 3.971031e+000 -9.939677e-001 -8.992968e-001 -3.928996e-001 1.834140e+000 1.135103e+000 -3.104797e+000 -2.472316e+000 4.995471e-001 1.170271e+000 -1.124574e-001 -1.008068e-001 5.627828e-002 2.306521e-002 5.357469e-002 -2.509812e-002 1.129380e-001 2.176896e-001 -1.166323e-002 5.468197e-002 -4.350226e-002 7.494832e-002 7.717501e-002
<VARIANCE> 25
 3.016657e+001 2.771784e+001 2.800644e+001 3.612751e+001 5.218441e+001 3.058213e+001 3.987881e+001 4.675702e+001 4.198436e+001 3.328362e+001 3.085411e+001 2.541334e+001 1.453654e+000 2.368495e+000 1.912985e+000 2.121281e+000 3.477364e+000 2.492052e+000 2.923754e+000 3.359658e+000 2.681953e+000 2.335370e+000 2.474917e+000 2.007469e+000 1.622194e+000
<GCONST> 9.941083e+001
<STATE> 4
<MEAN> 25
 -1.755063e+000 -1.045936e+000 3.334062e+000 7.786459e-001 1.350167e+000 -6.388334e-002 2.788255e+000 2.509876e+000 -1.690662e+000 -2.127400e+000 1.104164e+000 2.033172e+000 -1.416213e-001 -1.674665e-001 -8.472841e-002 1.493556e-001 5.389988e-002 -3.476785e-002 4.814937e-002 2.082138e-001 2.071552e-001 5.525890e-002 -1.299332e-001 1.813350e-002 7.606765e-002
<VARIANCE> 25
 3.623866e+001 2.676896e+001 2.745489e+001 3.349831e+001 5.116447e+001 2.971554e+001 3.597687e+001 4.246866e+001 3.986456e+001 3.154739e+001 3.278847e+001 2.331582e+001 1.167355e+000 1.777000e+000 1.803501e+000 1.769592e+000 3.231661e+000 2.257652e+000 2.498446e+000 2.564245e+000 2.403331e+000 2.261296e+000 2.193129e+000 1.747087e+000 1.254465e+000
<GCONST> 9.708046e+001
<TRANSP> 5
 0.000000e+000 1.000000e+000 0.000000e+000 0.000000e+000 0.000000e+000
 0.000000e+000 6.107364e-001 3.892635e-001 0.000000e+000 0.000000e+000
 0.000000e+000 0.000000e+000 6.061957e-001 3.938043e-001 0.000000e+000
 0.000000e+000 0.000000e+000 0.000000e+000 7.810344e-001 2.189657e-001
 0.000000e+000 0.000000e+000 0.000000e+000 0.000000e+000 0.000000e+000
<ENDHMM>
~h "S"
<BEGINHMM>
<NUMSTATES> 5
<STATE> 2
<MEAN> 25
 -1.323769e+001 3.203712e+000 7.092936e+000 2.499937e+000 2.989601e+000 -1.274396e+000 2.288445e+000 6.877299e-001 3.536993e+000 -3.977837e+000 3.553005e+000 1.593641e+000 -3.061250e+000 3.682384e-001 -1.820140e-001 2.664453e-001 1.579621e+000 5.311874e-001 7.438610e-001 5.608086e-001 9.368202e-001 -3.493311e-001 7.486999e-001 6.173685e-001 2.723210e-002
<VARIANCE> 25
 9.464090e+001 3.662378e+001 3.090579e+001 3.722463e+001 5.243866e+001 4.586242e+001 3.898896e+001 4.375830e+001 4.189392e+001 3.675255e+001 5.256527e+001 2.656570e+001 7.505422e+000 3.618171e+000 2.952703e+000 3.967556e+000 6.162041e+000 3.753394e+000 4.166185e+000 4.170104e+000 3.696164e+000 3.387988e+000 4.851434e+000 2.505119e+000 8.114949e-001
<GCONST> 1.075286e+002
<STATE> 3
<MEAN> 25
 -1.870219e+001 2.391877e+000 5.271275e+000 1.319451e+000 5.049766e+000 -3.042554e-001 2.745008e+000 1.532769e+000 5.088355e+000 -4.395775e+000 4.381884e+000 2.731028e+000 -2.891837e-001 -2.505886e-001 -5.022465e-001 -3.333990e-001 1.237974e-001 6.473962e-002 -1.337774e-001 5.492571e-002 1.411200e-001 -6.033455e-002 -4.232637e-002 8.258019e-002 -2.711521e-001
<VARIANCE> 25
 6.081534e+001 3.966382e+001 2.338305e+001 3.371748e+001 3.164044e+001 4.599727e+001 3.705901e+001 4.307721e+001 3.492839e+001 3.716890e+001 5.848636e+001 2.410757e+001 1.067946e+001 2.002316e+000 1.898041e+000 2.591190e+000 4.068576e+000 2.926044e+000 3.144123e+000 3.409107e+000 3.236541e+000 2.629079e+000 3.545890e+000 2.269512e+000 8.811578e-001
<GCONST> 1.030883e+002
<STATE> 4
<MEAN> 25
 -1.302955e+001 1.096131e+000 3.347389e+000 5.602291e-001 3.634314e+000 -9.301904e-001 1.301184e+000 1.316504e+000 4.403019e+000 -4.333213e+000 2.742558e+000 1.896994e+000 2.396971e+000 -2.889848e-001 -4.200226e-001 -2.703936e-001 -8.052192e-001 -3.340446e-001 -5.446382e-001 -1.670446e-001 -4.074861e-001 1.220258e-001 -4.781302e-001 -3.893504e-001 -1.515009e-001
<VARIANCE> 25
 1.078424e+002 3.583257e+001 2.382237e+001 2.798149e+001 4.242110e+001 4.454705e+001 3.692825e+001 4.530332e+001 3.520273e+001 3.858334e+001 5.398167e+001 2.630728e+001 9.834987e+000 2.338149e+000 2.276953e+000 2.702214e+000 4.310202e+000 3.690335e+000 3.430826e+000 3.577332e+000 3.646691e+000 3.033742e+000 4.421705e+000 2.620964e+000 1.631246e+000
<GCONST> 1.057170e+002
<TRANSP> 5
 0.000000e+000 1.000000e+000 0.000000e+000 0.000000e+000 0.000000e+000
 0.000000e+000 7.617418e-001 2.382582e-001 0.000000e+000 0.000000e+000
 0.000000e+000 0.000000e+000 7.490809e-001 2.509192e-001 0.000000e+000
 0.000000e+000 0.000000e+000 0.000000e+000 8.301116e-001 1.698883e-001
 0.000000e+000 0.000000e+000 0.000000e+000 0.000000e+000 0.000000e+000
<ENDHMM>
~h "Z"
<BEGINHMM>
<NUMSTATES> 5
<STATE> 2
<MEAN> 25
 -5.229423e+000 4.360381e+000 6.238217e+000 4.936969e-002 7.069307e-001 -3.526053e+000 -1.088858e+000 -3.240629e+000 4.484433e+000 -3.567265e+000 1.985472e+000 9.651204e-001 -2.420727e+000 1.355058e+000 9.786351e-001 4.246078e-001 1.200194e+000 2.394951e-001 5.684026e-001 2.075243e-001 8.263636e-001 -8.578776e-001 4.778292e-001 2.079321e-001 6.112982e-002
<VARIANCE> 25
 7.586987e+001 3.866872e+001 4.549062e+001 2.945518e+001 5.254505e+001 4.548394e+001 3.729436e+001 3.927371e+001 4.808704e+001 5.417952e+001 4.462025e+001 2.918117e+001 6.813683e+000 4.469618e+000 3.037157e+000 2.687370e+000 4.286643e+000 5.501215e+000 2.913351e+000 3.141591e+000 3.647419e+000 4.108085e+000 3.532733e+000 2.666035e+000 6.077158e-001
<GCONST> 1.065786e+002
<STATE> 3
<MEAN> 25
 -9.880927e+000 6.313807e+000 7.661084e+000 5.190448e-001 2.900012e+000 -2.038611e+000 3.188185e-002 -2.331725e+000 5.755993e+000 -4.913183e+000 2.920313e+000 1.486027e+000 -8.837228e-001 3.155296e-001 2.130075e-001 3.455245e-002 4.240697e-001 3.746560e-001 2.306928e-001 3.268896e-001 2.430743e-001 -2.933678e-001 1.238952e-001 1.196165e-001 -1.403473e-001
<VARIANCE> 25
 7.516058e+001 3.625262e+001 3.495927e+001 2.681153e+001 4.770716e+001 4.649800e+001 3.591292e+001 3.673639e+001 4.293983e+001 5.495261e+001 4.249595e+001 2.818203e+001 1.041416e+001 4.356354e+000 3.308195e+000 2.045858e+000 4.763192e+000 4.170770e+000 2.847135e+000 2.808269e+000 3.722316e+000 3.463490e+000 3.266929e+000 2.077867e+000 7.044117e-001
<GCONST> 1.053601e+002
<STATE> 4
<MEAN> 25
 -7.623873e+000 5.034606e+000 6.669555e+000 3.281236e-001 2.149066e+000 -5.473530e-001 5.568429e-001 -1.457255e+000 5.172415e+000 -4.681693e+000 2.913591e+000 1.225942e+000 1.313408e+000 -7.659993e-001 -5.977415e-001 -7.683648e-002 -5.904548e-001 -1.139995e-001 -1.389577e-001 2.688957e-001 -3.280707e-001 2.694681e-001 -4.045769e-001 -1.255777e-001 -2.544610e-001
<VARIANCE> 25
 8.371648e+001 3.585562e+001 3.118297e+001 2.914960e+001 4.574471e+001 4.716944e+001 3.527079e+001 3.894951e+001 3.975889e+001 4.644073e+001 4.076349e+001 2.409634e+001 9.128988e+000 3.610390e+000 2.775467e+000 1.917589e+000 4.702524e+000 3.605484e+000 2.893283e+000 2.842905e+000 3.591004e+000 3.269547e+000 3.148815e+000 1.869247e+000 9.577956e-001
<GCONST> 1.043766e+002
<TRANSP> 5
 0.000000e+000 1.000000e+000 0.000000e+000 0.000000e+000 0.000000e+000
 0.000000e+000 6.268486e-001 3.731514e-001 0.000000e+000 0.000000e+000
 0.000000e+000 0.000000e+000 6.315285e-001 3.684715e-001 0.000000e+000
 0.000000e+000 0.000000e+000 0.000000e+000 7.704661e-001 2.295340e-001
 0.000000e+000 0.000000e+000 0.000000e+000 0.000000e+000 0.000000e+000
<ENDHMM>
~h "a"
<BEGINHMM>
<NUMSTATES> 5
<STATE> 2
<MEAN> 25
 2.131280e+000 -6.331614e+000 -5.432873e+000 -1.846865e+000 4.375343e+000 -2.835651e-001 7.541139e-001 2.451004e+000 3.392294e+000 -5.993282e-001 -5.228713e+000 -2.198233e+000 6.894468e-002 -4.559170e-001 -4.276161e-001 -2.095515e-001 5.520209e-001 1.244420e-001 1.922502e-001 2.518353e-001 1.985028e-001 -1.017770e-001 -4.615821e-001 -1.959928e-001 2.098207e-001
<VARIANCE> 25
 2.729793e+001 3.319925e+001 4.031236e+001 3.959504e+001 5.024922e+001 5.177409e+001 5.084373e+001 4.661006e+001 4.516047e+001 3.891387e+001 4.892287e+001 3.966662e+001 1.597694e+000 2.959008e+000 3.110115e+000 2.974541e+000 3.816017e+000 3.842503e+000 3.314610e+000 4.191325e+000 3.652018e+000 2.941822e+000 3.733596e+000 2.789785e+000 2.593188e+000
<GCONST> 1.055738e+002
<STATE> 3
<MEAN> 25
 2.040174e+000 -6.384464e+000 -5.562241e+000 -1.804535e+000 5.088035e+000 1.838081e-002 9.875383e-001 2.532845e+000 3.397872e+000 -6.489127e-001 -5.497733e+000 -2.231429e+000 -2.306444e-002 2.556281e-001 1.780228e-001 1.326724e-001 5.184979e-002 7.293145e-002 7.987332e-002 -2.140311e-002 -6.114773e-002 1.605861e-002 1.071181e-001 6.638233e-002 -3.349432e-001
<VARIANCE> 25
 2.623148e+001 3.384822e+001 4.153757e+001 4.062984e+001 4.897430e+001 5.278461e+001 5.054113e+001 4.599852e+001 4.479308e+001 3.901770e+001 4.966306e+001 4.019191e+001 1.248906e+000 2.780643e+000 2.883451e+000 2.776891e+000 3.444840e+000 3.706668e+000 3.081132e+000 3.719881e+000 3.265093e+000 2.815393e+000 3.448784e+000 2.526283e+000 2.576722e+000
<GCONST> 1.044817e+002
<STATE> 4
<MEAN> 25
 1.002238e+000 -5.076967e+000 -4.376785e+000 -9.047410e-001 5.037016e+000 1.911427e-001 1.090498e+000 2.569770e+000 3.033484e+000 -6.877810e-001 -4.479204e+000 -1.374044e+000 -1.061734e-001 6.893906e-001 5.239224e-001 3.010195e-001 -3.445501e-001 5.870403e-002 -9.078266e-003 -1.892956e-001 -2.153641e-001 8.303985e-002 4.825859e-001 2.012507e-001 -6.167701e-001
<VARIANCE> 25
 3.316305e+001 3.299375e+001 4.158612e+001 4.192052e+001 4.699829e+001 5.143444e+001 4.618045e+001 4.766555e+001 4.202581e+001 3.883355e+001 4.834453e+001 3.801586e+001 1.505003e+000 2.730192e+000 2.845994e+000 2.904536e+000 3.196068e+000 3.565509e+000 3.094942e+000 3.509101e+000 3.263767e+000 2.736858e+000 3.308163e+000 2.359052e+000 2.671343e+000
<GCONST> 1.043800e+002
<TRANSP> 5
 0.000000e+000 1.000000e+000 0.000000e+000 0.000000e+000 0.000000e+000
 0.000000e+000 5.806567e-001 4.193433e-001 0.000000e+000 0.000000e+000
 0.000000e+000 0.000000e+000 5.754480e-001 4.245520e-001 0.000000e+000
 0.000000e+000 0.000000e+000 0.000000e+000 6.973587e-001 3.026413e-001
 0.000000e+000 0.000000e+000 0.000000e+000 0.000000e+000 0.000000e+000
<ENDHMM>
~h "b"
<BEGINHMM>
<NUMSTATES> 5
<STATE> 2
<MEAN> 25
 5.195593e+000 2.982825e+000 2.028505e+000 -5.584327e-002 3.583014e-001 2.560809e+000 -1.062796e+000 -1.874496e+000 -1.296832e+000 -5.652819e-001 -5.485684e-001 -1.568199e+000 1.839260e-002 3.465537e-001 7.825105e-001 8.382301e-001 -5.084305e-002 -1.662433e-001 1.267757e-001 -4.327688e-002 -4.139243e-001 -3.504973e-002 -3.026662e-003 -5.844301e-002 -4.553189e-001
<VARIANCE> 25
 2.818264e+001 2.622003e+001 4.744239e+001 8.107690e+001 4.268563e+001 4.912680e+001 3.575059e+001 3.095338e+001 3.543826e+001 3.710551e+001 2.956131e+001 3.329707e+001 1.537722e+000 3.205907e+000 3.537876e+000 6.275376e+000 4.629835e+000 3.937391e+000 3.314514e+000 3.034539e+000 3.305961e+000 3.649298e+000 2.820707e+000 2.538124e+000 4.724988e+000
<GCONST> 1.054563e+002
<STATE> 3
<MEAN> 25
 5.034876e+000 3.136310e+000 3.086197e+000 1.060986e+000 9.956767e-002 1.939176e+000 -1.001237e+000 -1.893602e+000 -1.910379e+000 -4.942200e-001 -5.081587e-001 -1.563905e+000 -1.860922e-001 -1.964788e-001 4.346337e-001 3.959555e-001 -3.934653e-001 -4.544680e-001 -5.781310e-002 3.247092e-002 -3.438041e-001 1.197475e-001 9.491176e-002 1.001977e-001 2.510189e-001
<VARIANCE> 25
 2.719803e+001 2.356068e+001 4.364199e+001 6.966417e+001 4.615437e+001 5.007794e+001 3.288223e+001 2.936624e+001 3.483702e+001 3.703705e+001 2.752857e+001 3.258648e+001 1.460688e+000 3.187040e+000 3.714477e+000 6.618216e+000 5.326651e+000 4.134496e+000 3.396917e+000 3.158163e+000 3.572669e+000 4.035576e+000 2.820031e+000 2.589772e+000 4.993195e+000
<GCONST> 1.054793e+002
<STATE> 4
<MEAN> 25
 3.370315e+000 2.597775e+000 3.265389e+000 1.507026e+000 -1.113038e+000 1.822888e+000 -8.507712e-001 -1.729815e+000 -1.875237e+000 1.462020e-002 2.001474e-001 -7.466133e-001 -2.624254e-001 -6.072958e-001 9.341752e-002 -1.300904e-001 -6.973238e-001 -5.497224e-001 -2.138658e-001 4.301501e-002 -2.717487e-001 2.795723e-001 2.063877e-001 1.840488e-001 8.470906e-001
<VARIANCE> 25
 5.500121e+001 2.634016e+001 4.492217e+001 6.486262e+001 5.360564e+001 7.442971e+001 3.762868e+001 3.092692e+001 4.304085e+001 3.782671e+001 3.288986e+001 3.650430e+001 1.534649e+000 2.916377e+000 3.616208e+000 6.283156e+000 5.851902e+000 4.299641e+000 3.519181e+000 3.529513e+000 3.803745e+000 4.405765e+000 3.060131e+000 2.656864e+000 4.804159e+000
<GCONST> 1.078899e+002
<TRANSP> 5
 0.000000e+000 1.000000e+000 0.000000e+000 0.000000e+000 0.000000e+000
 0.000000e+000 4.494466e-001 5.505534e-001 0.000000e+000 0.000000e+000
 0.000000e+000 0.000000e+000 4.525600e-001 5.474400e-001 0.000000e+000
 0.000000e+000 0.000000e+000 0.000000e+000 5.522411e-001 4.477589e-001
 0.000000e+000 0.000000e+000 0.000000e+000 0.000000e+000 0.000000e+000
<ENDHMM>
~h "c"
<BEGINHMM>
<NUMSTATES> 5
<STATE> 2
<MEAN> 25
 -7.056147e+000 6.040030e+000 -4.331954e+000 6.910725e+000 5.675030e-001 7.603757e-001 1.665936e+000 8.484268e-001 3.157335e+000 1.475451e+000 1.340355e+000 1.806753e+000 -2.434525e+000 7.618570e-001 -1.556296e+000 4.644578e-001 -9.565105e-002 3.109635e-001 5.076894e-001 -2.328621e-001 1.319343e-001 -2.102530e-001 6.067329e-001 4.585202e-001 1.810364e-001
<VARIANCE> 25
 5.099640e+001 2.660352e+001 4.490419e+001 2.685987e+001 3.419776e+001 3.504303e+001 2.904754e+001 3.254864e+001 3.642855e+001 2.943289e+001 4.060680e+001 2.114537e+001 3.133796e+000 2.837337e+000 5.178492e+000 2.836574e+000 2.913056e+000 4.298599e+000 3.150080e+000 3.366411e+000 3.134449e+000 2.821612e+000 3.257854e+000 1.943321e+000 3.310374e+000
<GCONST> 1.029114e+002
<STATE> 3
<MEAN> 25
 -1.267181e+001 7.044555e+000 -7.886299e+000 6.980648e+000 1.508380e-001 4.788791e-001 3.202127e+000 2.254737e-001 2.872797e+000 4.933718e-001 2.178881e+000 2.832875e+000 -1.070357e+000 2.924504e-002 -4.746361e-001 -2.566281e-001 -1.729709e-001 -4.882710e-001 4.997403e-001 -2.931574e-001 -2.529791e-001 -3.315932e-001 2.737824e-002 2.435524e-001 9.044203e-001
<VARIANCE> 25
 4.184084e+001 1.969317e+001 3.484976e+001 2.695972e+001 3.065880e+001 3.223060e+001 3.137799e+001 2.926723e+001 3.704868e+001 2.568194e+001 3.847504e+001 2.287179e+001 6.943359e+000 2.600610e+000 6.588311e+000 2.647194e+000 2.344977e+000 3.787085e+000 3.277485e+000 2.927192e+000 2.969762e+000 2.541456e+000 3.398042e+000 2.087406e+000 1.664939e+000
<GCONST> 1.015503e+002
<STATE> 4
<MEAN> 25
 -1.246766e+001 6.181089e+000 -5.854765e+000 5.480599e+000 -2.620597e-001 -2.103866e+000 4.355501e+000 -6.590490e-001 1.390884e+000 -3.630102e-001 1.227283e+000 3.199304e+000 1.778293e+000 -5.791425e-001 1.838403e+000 -6.637471e-001 -7.188079e-001 -1.155735e+000 -4.793724e-001 -3.965842e-001 -7.868366e-001 -8.614545e-002 -5.756394e-001 -3.262630e-001 8.835533e-001
<VARIANCE> 25
 5.660279e+001 1.727747e+001 5.092308e+001 2.622061e+001 3.493545e+001 4.038222e+001 3.483165e+001 3.117684e+001 3.752237e+001 2.266974e+001 3.829902e+001 2.261765e+001 8.648823e+000 2.124455e+000 6.269079e+000 3.011936e+000 3.422105e+000 3.986437e+000 4.862129e+000 2.920566e+000 3.669626e+000 2.786884e+000 4.701472e+000 2.787897e+000 1.435092e+000
<GCONST> 1.041564e+002
<TRANSP> 5
 0.000000e+000 1.000000e+000 0.000000e+000 0.000000e+000 0.000000e+000
 0.000000e+000 6.582103e-001 3.417897e-001 0.000000e+000 0.000000e+000
 0.000000e+000 0.000000e+000 6.553456e-001 3.446544e-001 0.000000e+000
 0.000000e+000 0.000000e+000 0.000000e+000 7.632874e-001 2.367125e-001
 0.000000e+000 0.000000e+000 0.000000e+000 0.000000e+000 0.000000e+000
<ENDHMM>
~h "d"
<BEGINHMM>
<NUMSTATES> 5
<STATE> 2
<MEAN> 25
 2.706500e+000 4.587526e-001 3.293275e-001 8.989372e-001 2.423160e+000 -1.314696e+000 -1.286264e+000 2.290157e-001 1.690369e+000 6.223495e-001 -3.172489e+000 -2.009302e+000 -2.079489e-002 2.995429e-001 3.303995e-001 5.462564e-001 1.862422e-001 -2.087670e-001 3.323363e-002 1.061582e-001 1.162059e-001 -1.867527e-001 -2.463758e-001 8.122593e-002 -3.199337e-001
<VARIANCE> 25
 2.490155e+001 3.855719e+001 5.084691e+001 4.669949e+001 4.582528e+001 4.777962e+001 5.084112e+001 3.910956e+001 4.207141e+001 3.398179e+001 4.289641e+001 3.376176e+001 1.659653e+000 3.178202e+000 4.098497e+000 4.077406e+000 3.726339e+000 4.819140e+000 4.576415e+000 3.863764e+000 3.534135e+000 2.951354e+000 3.644988e+000 2.716228e+000 4.458341e+000
<GCONST> 1.067881e+002
<STATE> 3
<MEAN> 25
 2.586367e+000 8.459948e-001 7.777045e-001 1.541185e+000 2.528419e+000 -1.541922e+000 -1.219638e+000 3.251049e-001 1.655283e+000 2.516027e-001 -3.342342e+000 -1.710759e+000 -1.212112e-001 8.226636e-002 1.244485e-001 1.700983e-001 -2.568381e-002 -7.389519e-002 1.642935e-002 -1.195881e-002 -4.467699e-002 -1.654559e-001 6.411661e-003 1.919208e-001 -1.362749e-002
<VARIANCE> 25
 2.515511e+001 3.677419e+001 4.633811e+001 4.199121e+001 4.498381e+001 4.719057e+001 4.787682e+001 3.834161e+001 4.033352e+001 3.219252e+001 4.134070e+001 3.254182e+001 1.729667e+000 3.262321e+000 4.107564e+000 4.113682e+000 3.755714e+000 4.672426e+000 4.406100e+000 3.880287e+000 3.533539e+000 2.781963e+000 3.451770e+000 2.709733e+000 4.470972e+000
<GCONST> 1.061793e+002
<STATE> 4
<MEAN> 25
 1.884028e+000 5.168204e-001 6.222391e-001 1.554163e+000 2.581601e+000 -1.380648e+000 -8.358430e-001 4.486969e-001 1.432330e+000 -4.557738e-002 -3.066954e+000 -1.126400e+000 -1.339617e-001 -2.079690e-001 -1.123386e-001 -2.329227e-001 -2.456790e-001 5.714624e-003 -3.681278e-002 -1.003787e-001 -1.344866e-001 -7.763159e-002 1.735869e-001 1.918852e-001 3.389473e-001
<VARIANCE> 25
 2.757104e+001 3.652546e+001 4.459107e+001 3.970959e+001 4.656950e+001 4.792790e+001 4.834196e+001 4.014550e+001 3.938722e+001 3.088696e+001 4.230927e+001 3.170991e+001 1.719612e+000 3.042586e+000 3.595635e+000 3.748296e+000 3.887880e+000 4.442186e+000 4.244487e+000 3.961548e+000 3.492928e+000 2.747870e+000 3.336398e+000 2.620971e+000 3.898552e+000
<GCONST> 1.056454e+002
<TRANSP> 5
 0.000000e+000 1.000000e+000 0.000000e+000 0.000000e+000 0.000000e+000
 0.000000e+000 4.715425e-001 5.284575e-001 0.000000e+000 0.000000e+000
 0.000000e+000 0.000000e+000 4.719378e-001 5.280622e-001 0.000000e+000
 0.000000e+000 0.000000e+000 0.000000e+000 5.752527e-001 4.247473e-001
 0.000000e+000 0.000000e+000 0.000000e+000 0.000000e+000 0.000000e+000
<ENDHMM>
~h "e"
<BEGINHMM>
<NUMSTATES> 5
<STATE> 2
<MEAN> 25
 1.380676e+000 -2.099579e+000 3.206698e+000 6.820974e-001 -4.870605e+000 -5.775624e+000 -2.957157e-001 2.435113e+000 -2.039974e-001 -8.341256e-001 2.174284e-001 6.453058e-001 3.436136e-001 -8.812660e-002 2.384042e-002 6.254759e-002 -1.035453e-001 -1.528636e-001 -8.858278e-002 2.198019e-001 7.725148e-002 4.649816e-002 -2.168231e-002 -2.104417e-003 -6.455400e-003
<VARIANCE> 25
 2.355265e+001 2.934222e+001 2.990545e+001 3.544382e+001 4.900103e+001 4.097752e+001 4.989514e+001 4.355894e+001 3.969433e+001 3.286831e+001 3.440337e+001 2.603469e+001 2.792221e+000 2.818707e+000 2.405685e+000 2.755343e+000 3.999248e+000 4.274382e+000 4.308969e+000 4.185040e+000 3.464553e+000 3.038923e+000 3.256954e+000 2.373304e+000 3.122352e+000
<GCONST> 1.039346e+002
<STATE> 3
<MEAN> 25
 1.494457e+000 -1.856840e+000 3.276175e+000 9.734981e-001 -4.643638e+000 -5.455118e+000 -2.320686e-001 2.539849e+000 -6.699282e-002 -6.956079e-001 3.082345e-001 5.861959e-001 5.436343e-002 3.070363e-001 -4.038963e-002 2.381037e-001 3.156455e-001 4.026600e-001 3.667675e-002 -1.501422e-001 7.431508e-002 1.104381e-001 3.048062e-002 -6.439342e-002 -4.782476e-001
<VARIANCE> 25
 2.197120e+001 3.022243e+001 3.041858e+001 3.606022e+001 4.951054e+001 4.215454e+001 4.966318e+001 4.371968e+001 4.058544e+001 3.257096e+001 3.543666e+001 2.748900e+001 1.972244e+000 2.829819e+000 2.356877e+000 2.896515e+000 3.714349e+000 4.061626e+000 3.990371e+000 4.062230e+000 3.325705e+000 2.950953e+000 3.042268e+000 2.343321e+000 2.971391e+000
<GCONST> 1.033171e+002
<STATE> 4
<MEAN> 25
 1.118684e+000 -1.044687e+000 3.161828e+000 1.602491e+000 -3.651402e+000 -4.254858e+000 6.212250e-002 2.003001e+000 4.458693e-002 -4.651454e-001 5.173505e-001 5.278403e-001 -1.735547e-001 5.169770e-001 -1.824133e-001 2.747853e-001 5.650929e-001 7.034353e-001 8.493136e-002 -3.996086e-001 4.643064e-002 1.323978e-001 5.849443e-002 -5.840950e-002 -6.297778e-001
<VARIANCE> 25
 2.634734e+001 3.191367e+001 3.167446e+001 3.670086e+001 5.111346e+001 4.262666e+001 4.615433e+001 4.351933e+001 3.979255e+001 3.299609e+001 3.730343e+001 2.863977e+001 2.178858e+000 2.946490e+000 2.455029e+000 3.148189e+000 3.587410e+000 3.859009e+000 3.877985e+000 3.967396e+000 3.326438e+000 2.939173e+000 3.069732e+000 2.315923e+000 2.721647e+000
<GCONST> 1.036936e+002
<TRANSP> 5
 0.000000e+000 1.000000e+000 0.000000e+000 0.000000e+000 0.000000e+000
 0.000000e+000 4.643483e-001 5.356517e-001 0.000000e+000 0.000000e+000
 0.000000e+000 0.000000e+000 4.655876e-001 5.344125e-001 0.000000e+000
 0.000000e+000 0.000000e+000 0.000000e+000 5.625804e-001 4.374196e-001
 0.000000e+000 0.000000e+000 0.000000e+000 0.000000e+000 0.000000e+000
<ENDHMM>
~h "f"
<BEGINHMM>
<NUMSTATES> 5
<STATE> 2
<MEAN> 25
 -5.282188e+000 3.977663e-002 -5.218625e+000 6.384115e+000 2.763594e+000 1.814356e+000 4.460639e-001 2.162604e-001 7.135061e-001 2.522391e+000 2.723212e+000 2.366942e+000 9.948705e-001 -1.679765e-001 -4.872294e-001 -1.318332e-001 -4.130464e-001 4.652013e-001 -1.642059e-002 -1.140519e+000 8.428080e-002 -1.363258e-001 8.235318e-001 -1.328412e-001 4.137340e-001
<VARIANCE> 25
 6.834721e+001 1.992335e+001 3.318944e+001 2.518028e+001 5.193164e+001 3.420700e+001 2.438659e+001 4.458952e+001 2.566456e+001 2.126613e+001 2.935999e+001 2.586941e+001 8.621900e+000 2.911127e+000 2.381911e+000 2.756486e+000 4.772836e+000 5.125007e+000 2.943555e+000 3.626487e+000 2.703741e+000 2.537365e+000 3.448326e+000 2.600487e+000 2.083888e+000
<GCONST> 1.028238e+002
<STATE> 3
<MEAN> 25
 -2.281813e+000 -6.678786e-001 -6.548304e+000 5.346269e+000 1.323442e+000 2.652757e+000 -1.324468e-001 -2.912337e+000 1.116693e+000 1.208225e+000 4.215566e+000 1.123926e+000 1.170689e+000 -4.726972e-001 -3.998541e-001 -4.422047e-001 -7.472178e-001 -7.683222e-002 -3.315263e-001 -9.649078e-001 1.639238e-001 -4.245304e-001 2.490449e-001 -5.902352e-001 7.487013e-001
<VARIANCE> 25
 8.232069e+001 2.154099e+001 3.397432e+001 2.803449e+001 4.453032e+001 3.041263e+001 2.807076e+001 6.243975e+001 3.010581e+001 2.083500e+001 3.012659e+001 3.007479e+001 6.504911e+000 3.112663e+000 2.116292e+000 3.058367e+000 5.910683e+000 3.977987e+000 2.821113e+000 3.806893e+000 3.035568e+000 2.801562e+000 3.455763e+000 2.629646e+000 1.937724e+000
<GCONST> 1.036330e+002
<STATE> 4
<MEAN> 25
 3.660328e-001 -1.816583e+000 -7.274940e+000 3.762727e+000 5.345802e-001 2.526624e+000 -1.505981e+000 -4.338721e+000 1.002034e+000 2.603010e-002 3.196203e+000 -8.671321e-001 1.221624e+000 -2.529458e-001 -9.726891e-002 -7.036442e-001 -6.080804e-001 -4.391587e-001 -3.481595e-001 -2.756516e-001 8.141201e-002 -5.502805e-001 -2.617561e-001 -6.174892e-001 6.162465e-001
<VARIANCE> 25
 7.688678e+001 2.099622e+001 3.352658e+001 3.515971e+001 4.930864e+001 3.272024e+001 3.606870e+001 5.820337e+001 3.818482e+001 2.640268e+001 3.449307e+001 3.429571e+001 5.484356e+000 3.647992e+000 1.883456e+000 4.352927e+000 5.355552e+000 3.626310e+000 2.709620e+000 3.823556e+000 3.419510e+000 3.353159e+000 3.264055e+000 3.235781e+000 1.683608e+000
<GCONST> 1.051549e+002
<TRANSP> 5
 0.000000e+000 1.000000e+000 0.000000e+000 0.000000e+000 0.000000e+000
 0.000000e+000 6.939756e-001 3.060245e-001 0.000000e+000 0.000000e+000
 0.000000e+000 0.000000e+000 6.364540e-001 3.635460e-001 0.000000e+000
 0.000000e+000 0.000000e+000 0.000000e+000 6.882923e-001 3.117078e-001
 0.000000e+000 0.000000e+000 0.000000e+000 0.000000e+000 0.000000e+000
<ENDHMM>
~h "g"
<BEGINHMM>
<NUMSTATES> 5
<STATE> 2
<MEAN> 25
 5.449920e+000 4.375332e+000 -5.942258e-001 -3.162323e+000 -3.569416e+000 2.452060e+000 -4.527754e-001 -1.080990e+000 -3.590699e+000 -2.625014e+000 1.825857e+000 -8.923548e-001 3.141752e-002 1.229546e-001 3.929657e-002 2.308518e-001 1.487518e-001 -3.538401e-002 2.201824e-001 9.260363e-002 8.860504e-002 -1.316024e-001 -5.017652e-002 -1.401330e-001 -2.797438e-001
<VARIANCE> 25
 1.882497e+001 2.956466e+001 4.252234e+001 8.728082e+001 5.401123e+001 4.913093e+001 5.249675e+001 5.017295e+001 5.273734e+001 5.525368e+001 5.016258e+001 4.058259e+001 1.323983e+000 2.274166e+000 3.782725e+000 7.513624e+000 4.762153e+000 4.448869e+000 4.668273e+000 4.743365e+000 5.121442e+000 4.910898e+000 5.035147e+000 3.685000e+000 2.670139e+000
<GCONST> 1.095717e+002
<STATE> 3
<MEAN> 25
 5.304065e+000 4.097110e+000 -5.731947e-001 -2.411954e+000 -2.752019e+000 2.142194e+000 -2.358975e-001 -1.013734e+000 -3.219583e+000 -2.295629e+000 1.750724e+000 -1.096785e+000 -1.758553e-001 -3.169409e-001 -1.038918e-001 2.175403e-001 3.131508e-001 -1.684311e-001 -9.921430e-002 -8.721966e-002 1.978403e-001 2.932342e-001 7.854117e-002 5.669480e-003 1.206587e-001
<VARIANCE> 25
 1.836941e+001 3.072575e+001 4.077418e+001 8.040102e+001 5.113346e+001 4.959041e+001 5.019109e+001 4.801524e+001 5.218967e+001 5.402979e+001 5.334833e+001 4.131007e+001 1.310395e+000 2.283673e+000 3.758284e+000 7.206061e+000 4.716336e+000 4.403353e+000 4.712819e+000 4.672410e+000 5.366056e+000 5.129730e+000 5.192427e+000 3.851575e+000 2.817298e+000
<GCONST> 1.095127e+002
<STATE> 4
<MEAN> 25
 4.929384e+000 2.969008e+000 -1.136195e+000 -2.625229e+000 -2.196209e+000 1.914205e+000 -7.456786e-001 -1.466924e+000 -2.850680e+000 -1.295951e+000 2.161884e+000 -9.886943e-001 -2.553992e-001 -5.671762e-001 -2.245227e-001 -1.119957e-001 2.538680e-001 -1.463590e-001 -2.419911e-001 -1.245693e-001 2.911823e-001 5.626645e-001 8.171669e-002 9.982126e-002 4.746033e-001
<VARIANCE> 25
 1.846096e+001 3.418689e+001 4.239844e+001 7.621400e+001 4.926384e+001 5.291529e+001 5.227748e+001 4.861742e+001 5.494827e+001 5.684620e+001 5.895211e+001 4.101759e+001 1.342916e+000 2.200970e+000 3.794520e+000 6.903672e+000 4.618064e+000 4.707437e+000 4.934915e+000 4.682783e+000 5.616094e+000 5.251632e+000 5.352127e+000 3.937719e+000 2.583770e+000
<GCONST> 1.099692e+002
<TRANSP> 5
 0.000000e+000 1.000000e+000 0.000000e+000 0.000000e+000 0.000000e+000
 0.000000e+000 5.739183e-001 4.260817e-001 0.000000e+000 0.000000e+000
 0.000000e+000 0.000000e+000 5.651646e-001 4.348354e-001 0.000000e+000
 0.000000e+000 0.000000e+000 0.000000e+000 6.594507e-001 3.405493e-001
 0.000000e+000 0.000000e+000 0.000000e+000 0.000000e+000 0.000000e+000
<ENDHMM>
~h "h"
<BEGINHMM>
<NUMSTATES> 5
<STATE> 2
<MEAN> 25
 -1.580047e+000 3.126283e+000 -3.939174e-002 1.783177e-001 1.894296e+000 2.369602e+000 3.606520e+000 1.211213e+000 -8.792248e-001 3.245924e-001 3.927450e-001 1.071154e+000 -5.958050e-001 -6.542776e-001 -9.510949e-001 2.555421e-001 1.475255e+000 2.415303e-001 1.727065e-001 6.179161e-002 3.388627e-001 4.420766e-001 -1.259901e-001 2.000804e-001 4.104593e-002
<VARIANCE> 25
 5.038710e+001 4.412145e+001 6.287729e+001 5.238974e+001 1.069902e+002 4.561672e+001 4.281873e+001 4.906253e+001 5.010033e+001 4.130953e+001 3.916451e+001 3.171761e+001 3.569319e+000 3.257112e+000 3.281028e+000 3.782959e+000 9.979284e+000 3.712668e+000 4.508941e+000 4.678696e+000 4.384099e+000 4.093570e+000 3.510267e+000 3.389042e+000 1.880833e+000
<GCONST> 1.102849e+002
<STATE> 3
<MEAN> 25
 -2.021313e+000 1.541439e+000 -2.384617e+000 1.175728e-001 4.472058e+000 2.717927e+000 3.259974e+000 1.034224e+000 -5.337673e-001 1.151190e+000 -4.031797e-002 8.578869e-001 -8.826147e-002 -7.627316e-001 -7.774488e-001 2.979864e-002 8.943102e-001 -2.568336e-002 -2.594515e-001 -1.614473e-001 3.238475e-001 3.077697e-001 -3.055372e-001 -3.229573e-001 2.829060e-001
<VARIANCE> 25
 4.480936e+001 4.837041e+001 6.532500e+001 4.297470e+001 1.084092e+002 5.045168e+001 4.898684e+001 5.255296e+001 4.969044e+001 4.518270e+001 4.230548e+001 3.437597e+001 3.738482e+000 3.193506e+000 3.884579e+000 3.436611e+000 1.034972e+001 4.147755e+000 4.877879e+000 4.905961e+000 4.899806e+000 4.413009e+000 3.816597e+000 4.108188e+000 1.763118e+000
<GCONST> 1.114265e+002
<STATE> 4
<MEAN> 25
 -1.114866e+000 2.166862e-001 -4.204825e+000 -1.997193e-001 5.703901e+000 2.115341e+000 2.270814e+000 3.953877e-001 -1.123735e-001 1.206572e+000 -1.152618e+000 -8.821312e-001 4.766934e-001 -5.480002e-001 -2.191824e-001 -6.754647e-002 -1.917608e-001 -4.812428e-001 -3.167272e-001 -2.436870e-001 3.638626e-001 -7.701577e-002 -3.683358e-001 -6.325085e-001 4.668958e-001
<VARIANCE> 25
 3.884825e+001 4.741676e+001 6.045716e+001 3.996396e+001 9.483246e+001 5.130462e+001 5.623529e+001 5.291500e+001 4.603224e+001 4.729698e+001 4.898648e+001 4.400103e+001 3.565995e+000 3.131923e+000 4.208924e+000 3.439914e+000 1.027747e+001 5.055574e+000 4.964258e+000 5.175125e+000 5.155182e+000 4.670414e+000 4.467215e+000 4.488318e+000 1.750439e+000
<GCONST> 1.121268e+002
<TRANSP> 5
 0.000000e+000 1.000000e+000 0.000000e+000 0.000000e+000 0.000000e+000
 0.000000e+000 5.251194e-001 4.748806e-001 0.000000e+000 0.000000e+000
 0.000000e+000 0.000000e+000 5.280896e-001 4.719104e-001 0.000000e+000
 0.000000e+000 0.000000e+000 0.000000e+000 6.437829e-001 3.562171e-001
 0.000000e+000 0.000000e+000 0.000000e+000 0.000000e+000 0.000000e+000
<ENDHMM>
~h "i"
<BEGINHMM>
<NUMSTATES> 5
<STATE> 2
<MEAN> 25
 2.390889e-001 1.494904e+000 7.792584e+000 1.071335e+000 -6.700267e+000 -2.726756e+000 -9.074776e-001 -1.927453e+000 -4.382192e+000 3.905698e-001 6.308816e-001 -5.300071e-001 1.632153e-001 1.219921e-001 7.870592e-001 -1.312846e-001 -8.139255e-001 -8.526701e-002 -1.653715e-001 -1.731981e-001 -4.304100e-001 1.141125e-001 7.983678e-002 -1.292373e-001 2.694216e-001
<VARIANCE> 25
 2.606691e+001 2.362000e+001 3.636359e+001 4.208939e+001 6.022559e+001 3.948348e+001 3.871388e+001 3.983390e+001 3.856380e+001 3.855290e+001 3.574730e+001 2.799513e+001 2.604437e+000 2.138070e+000 3.249175e+000 3.317598e+000 5.592509e+000 3.599918e+000 3.386872e+000 3.424703e+000 3.616564e+000 3.318965e+000 3.237935e+000 2.306113e+000 2.586534e+000
<GCONST> 1.040248e+002
<STATE> 3
<MEAN> 25
 3.906650e-001 1.760348e+000 8.638503e+000 9.845244e-001 -7.361895e+000 -2.413700e+000 -1.016979e+000 -2.169727e+000 -4.630319e+000 6.866788e-001 7.431445e-001 -7.166961e-001 6.490563e-002 1.129432e-001 7.060914e-002 7.590191e-002 4.093817e-002 1.465212e-001 1.565901e-002 -2.178850e-002 5.923405e-002 9.890548e-002 4.877312e-002 -1.592205e-002 -1.884047e-001
<VARIANCE> 25
 2.136795e+001 2.241821e+001 3.432717e+001 4.565997e+001 6.049376e+001 3.923067e+001 3.719107e+001 3.954197e+001 3.785686e+001 3.933289e+001 3.593631e+001 2.858936e+001 1.975839e+000 2.011194e+000 2.972617e+000 3.147494e+000 5.273850e+000 3.387723e+000 3.140093e+000 3.141188e+000 3.350048e+000 2.998894e+000 2.846374e+000 2.110592e+000 2.519971e+000
<GCONST> 1.025940e+002
<STATE> 4
<MEAN> 25
 1.594594e-001 1.973614e+000 7.908537e+000 1.566016e+000 -6.100787e+000 -1.787226e+000 -6.957769e-001 -1.987663e+000 -3.932139e+000 7.214339e-001 8.355588e-001 -4.596260e-001 -1.192463e-001 1.040767e-001 -5.872330e-001 2.483828e-001 7.340642e-001 1.720032e-001 1.467059e-001 1.172959e-001 4.147416e-001 -2.900811e-002 4.308661e-002 1.362000e-001 -3.784496e-001
<VARIANCE> 25
 2.454418e+001 2.397642e+001 3.635161e+001 4.564735e+001 6.341418e+001 3.955247e+001 3.774134e+001 4.108340e+001 3.831712e+001 3.664333e+001 3.495073e+001 2.865699e+001 2.081552e+000 2.129523e+000 2.744799e+000 3.097437e+000 4.740848e+000 3.361528e+000 3.174689e+000 3.304714e+000 3.268187e+000 3.011890e+000 2.924642e+000 2.190188e+000 2.247711e+000
<GCONST> 1.027711e+002
<TRANSP> 5
 0.000000e+000 1.000000e+000 0.000000e+000 0.000000e+000 0.000000e+000
 0.000000e+000 5.524649e-001 4.475351e-001 0.000000e+000 0.000000e+000
 0.000000e+000 0.000000e+000 5.500699e-001 4.499301e-001 0.000000e+000
 0.000000e+000 0.000000e+000 0.000000e+000 6.498678e-001 3.501323e-001
 0.000000e+000 0.000000e+000 0.000000e+000 0.000000e+000 0.000000e+000
<ENDHMM>
~h "j"
<BEGINHMM>
<NUMSTATES> 5
<STATE> 2
<MEAN> 25
 1.141331e+000 -6.817311e-001 6.131372e+000 -9.342675e-001 -6.152157e+000 -3.146537e+000 -3.031721e-001 1.277677e-001 -3.201351e+000 9.454989e-002 5.896487e-001 -5.024066e-001 -2.405205e-002 -2.563317e-001 4.172809e-001 -2.324187e-001 -6.914406e-001 -4.047514e-001 -1.398712e-002 3.484326e-001 -9.352724e-002 6.508228e-002 1.811226e-001 1.339085e-001 3.925465e-001
<VARIANCE> 25
 2.131321e+001 3.254768e+001 4.562925e+001 4.339729e+001 6.088475e+001 4.162145e+001 4.890839e+001 4.942199e+001 4.062061e+001 4.342384e+001 3.715567e+001 2.756548e+001 1.595199e+000 2.156613e+000 2.969070e+000 2.700672e+000 3.825135e+000 3.098864e+000 3.459623e+000 3.602380e+000 3.171708e+000 2.962228e+000 2.738201e+000 2.021502e+000 1.550459e+000
<GCONST> 1.028174e+002
<STATE> 3
<MEAN> 25
 9.868055e-001 -1.149353e+000 6.363978e+000 -1.178549e+000 -6.989181e+000 -3.693542e+000 -1.601012e-001 8.019931e-001 -3.179843e+000 2.318797e-001 8.973771e-001 -2.733608e-001 4.025337e-003 -2.595127e-001 -1.575049e-001 1.546206e-002 -1.677748e-001 -3.104823e-001 2.346791e-002 4.027456e-001 1.490183e-001 5.059815e-003 6.849883e-002 1.116739e-001 2.085039e-001
<VARIANCE> 25
 1.890789e+001 3.057480e+001 4.230285e+001 4.332489e+001 5.968155e+001 4.168718e+001 5.187361e+001 4.803905e+001 4.120000e+001 4.325656e+001 3.634198e+001 2.709852e+001 1.059612e+000 2.045558e+000 2.959721e+000 2.437608e+000 3.736685e+000 2.924825e+000 3.317353e+000 3.622355e+000 3.077037e+000 2.803983e+000 2.542588e+000 1.939009e+000 1.481394e+000
<GCONST> 1.016091e+002
<STATE> 4
<MEAN> 25
 9.649523e-001 -1.606095e+000 5.361662e+000 -7.944015e-001 -6.477211e+000 -4.125882e+000 3.351382e-004 1.593188e+000 -2.606542e+000 3.259502e-002 8.269334e-001 -7.662203e-002 1.122656e-001 -1.732484e-001 -6.422719e-001 2.095053e-001 4.292230e-001 -1.438303e-001 -9.552540e-002 2.629735e-001 3.489011e-001 -9.258477e-002 -1.007837e-001 5.848202e-002 -2.028798e-002
<VARIANCE> 25
 1.935997e+001 3.101516e+001 4.071873e+001 4.353880e+001 6.142144e+001 4.216796e+001 5.699586e+001 4.751254e+001 4.241016e+001 4.142080e+001 3.610416e+001 2.698197e+001 9.547914e-001 2.059783e+000 3.130800e+000 2.503482e+000 3.764675e+000 3.142935e+000 3.486322e+000 3.901990e+000 3.091301e+000 2.872104e+000 2.679207e+000 2.041786e+000 1.560037e+000
<GCONST> 1.020852e+002
<TRANSP> 5
 0.000000e+000 1.000000e+000 0.000000e+000 0.000000e+000 0.000000e+000
 0.000000e+000 5.087647e-001 4.912353e-001 0.000000e+000 0.000000e+000
 0.000000e+000 0.000000e+000 5.072607e-001 4.927393e-001 0.000000e+000
 0.000000e+000 0.000000e+000 0.000000e+000 6.063870e-001 3.936130e-001
 0.000000e+000 0.000000e+000 0.000000e+000 0.000000e+000 0.000000e+000
<ENDHMM>
~h "k"
<BEGINHMM>
<NUMSTATES> 5
<STATE> 2
<MEAN> 25
 -2.611364e+000 -1.349903e+000 -2.135954e+000 2.565444e+000 4.192747e+000 1.169245e+000 1.192688e+000 2.333368e+000 9.898956e-001 2.370949e+000 1.171949e+000 1.261507e+000 -4.615590e-001 -2.352803e-001 -4.716494e-001 -1.273425e-001 3.069881e-001 2.464567e-001 1.409507e-002 5.473740e-002 5.140041e-003 2.241887e-001 9.804519e-002 2.688952e-001 -2.485286e-001
<VARIANCE> 25
 3.742885e+001 2.371361e+001 4.462583e+001 3.904750e+001 4.407542e+001 4.676013e+001 4.017209e+001 3.831590e+001 3.854899e+001 3.504389e+001 4.387395e+001 3.000367e+001 3.580528e+000 3.184394e+000 5.864435e+000 4.447669e+000 4.765618e+000 5.000192e+000 3.876531e+000 3.851409e+000 4.258445e+000 3.676960e+000 4.391096e+000 2.990569e+000 6.038715e+000
<GCONST> 1.082532e+002
<STATE> 3
<MEAN> 25
 -3.601556e+000 -1.797013e+000 -3.353944e+000 1.704282e+000 4.533633e+000 1.483846e+000 1.241578e+000 2.278134e+000 7.502736e-001 2.477273e+000 1.044131e+000 1.598578e+000 -1.037174e-001 2.228191e-002 -3.330463e-001 -5.142778e-001 -5.778235e-002 3.896597e-002 -7.730592e-002 -2.193647e-001 -2.993620e-001 -8.499905e-002 -1.460283e-001 -2.612007e-002 5.945945e-001
<VARIANCE> 25
 3.540076e+001 2.380902e+001 5.218467e+001 4.202610e+001 4.652999e+001 4.710582e+001 4.059211e+001 3.982435e+001 4.032943e+001 3.529213e+001 4.174834e+001 2.831434e+001 4.390767e+000 3.137177e+000 6.334715e+000 4.218966e+000 5.186184e+000 4.685376e+000 4.005251e+000 3.985661e+000 4.308271e+000 3.738762e+000 4.516844e+000 3.174739e+000 4.954183e+000
<GCONST> 1.087049e+002
<STATE> 4
<MEAN> 25
 -3.136768e+000 -1.225045e+000 -3.221116e+000 4.955613e-001 3.903212e+000 1.278167e+000 1.077134e+000 1.558025e+000 -1.552358e-001 1.853782e+000 5.017028e-001 1.194850e+000 7.291825e-001 3.614041e-001 3.743658e-001 -6.299977e-001 -7.108085e-001 -1.232344e-001 -2.412870e-001 -5.380111e-001 -5.532538e-001 -3.280025e-001 -1.816915e-001 -3.539528e-001 9.773907e-001
<VARIANCE> 25
 4.189353e+001 2.795808e+001 5.922935e+001 4.628215e+001 5.161554e+001 4.942098e+001 4.293192e+001 4.305393e+001 4.352113e+001 3.616465e+001 4.465619e+001 2.892729e+001 4.962369e+000 3.153529e+000 6.210098e+000 4.337536e+000 5.748496e+000 4.343016e+000 4.287518e+000 4.122943e+000 4.294818e+000 4.021699e+000 4.974249e+000 3.338029e+000 3.446145e+000
<GCONST> 1.098500e+002
<TRANSP> 5
 0.000000e+000 1.000000e+000 0.000000e+000 0.000000e+000 0.000000e+000
 0.000000e+000 5.215530e-001 4.784470e-001 0.000000e+000 0.000000e+000
 0.000000e+000 0.000000e+000 5.167219e-001 4.832781e-001 0.000000e+000
 0.000000e+000 0.000000e+000 0.000000e+000 5.988122e-001 4.011878e-001
 0.000000e+000 0.000000e+000 0.000000e+000 0.000000e+000 0.000000e+000
<ENDHMM>
~h "l"
<BEGINHMM>
<NUMSTATES> 5
<STATE> 2
<MEAN> 25
 5.395313e+000 -2.275652e+000 -4.909032e+000 -7.272758e+000 5.370672e-001 5.727393e+000 -2.834193e-001 -5.296627e+000 -8.611492e-001 2.259248e+000 4.736914e-001 -1.101786e+000 4.546881e-001 -2.193355e-001 -5.002064e-001 -1.167276e+000 4.752726e-002 6.691034e-001 6.005445e-003 -5.253044e-001 -1.519431e-001 3.401088e-001 -9.267361e-002 -1.344759e-001 4.226933e-001
<VARIANCE> 25
 2.167610e+001 3.094376e+001 4.367608e+001 7.385295e+001 6.888887e+001 6.275196e+001 6.454125e+001 5.435272e+001 5.743703e+001 4.538389e+001 4.375644e+001 3.667656e+001 1.944732e+000 2.567690e+000 3.443148e+000 5.844715e+000 5.360637e+000 4.531319e+000 4.293714e+000 5.348042e+000 5.254406e+000 4.054725e+000 4.019112e+000 3.302616e+000 2.204407e+000
<GCONST> 1.096845e+002
<STATE> 3
<MEAN> 25
 5.813445e+000 -2.732855e+000 -5.778726e+000 -8.988135e+000 9.757407e-001 6.705084e+000 -6.352758e-002 -5.490783e+000 -9.500136e-001 2.449394e+000 -2.903432e-002 -1.348928e+000 7.460870e-002 -9.435115e-002 -1.244263e-001 -3.026351e-001 1.744393e-001 1.031675e-001 1.885284e-002 8.798785e-002 -1.913545e-002 -6.019449e-003 -1.790913e-001 -7.066468e-002 1.050175e-001
<VARIANCE> 25
 1.773604e+001 2.833741e+001 4.462930e+001 7.204517e+001 7.118350e+001 6.036598e+001 6.556496e+001 5.418259e+001 5.981992e+001 4.703912e+001 4.501879e+001 3.722940e+001 1.272273e+000 2.219522e+000 3.173073e+000 5.189152e+000 5.293204e+000 4.333859e+000 3.746721e+000 4.664577e+000 4.678869e+000 3.848994e+000 3.564104e+000 3.024710e+000 1.668548e+000
<GCONST> 1.077637e+002
<STATE> 4
<MEAN> 25
 5.571323e+000 -2.670763e+000 -5.815175e+000 -8.671021e+000 1.714237e+000 6.541663e+000 -1.381261e-001 -4.659572e+000 -7.180905e-001 2.045122e+000 -5.703712e-001 -1.475459e+000 -1.492124e-001 9.347337e-002 3.138157e-001 5.021014e-001 7.309031e-002 -4.819571e-001 -9.268826e-002 4.265800e-001 7.210894e-002 -1.461644e-001 -1.377434e-001 -9.251473e-003 -1.777006e-001
<VARIANCE> 25
 1.701393e+001 3.004363e+001 4.572067e+001 7.174721e+001 7.107967e+001 6.225948e+001 6.186447e+001 5.226059e+001 5.942717e+001 4.697379e+001 4.742501e+001 3.711156e+001 1.034610e+000 1.912165e+000 3.074502e+000 4.766016e+000 4.968637e+000 4.356547e+000 3.606795e+000 4.288401e+000 4.403800e+000 3.920306e+000 3.420365e+000 2.714182e+000 1.615419e+000
<GCONST> 1.069000e+002
<TRANSP> 5
 0.000000e+000 1.000000e+000 0.000000e+000 0.000000e+000 0.000000e+000
 0.000000e+000 6.220710e-001 3.779291e-001 0.000000e+000 0.000000e+000
 0.000000e+000 0.000000e+000 6.175295e-001 3.824705e-001 0.000000e+000
 0.000000e+000 0.000000e+000 0.000000e+000 7.237410e-001 2.762590e-001
 0.000000e+000 0.000000e+000 0.000000e+000 0.000000e+000 0.000000e+000
<ENDHMM>
~h "m"
<BEGINHMM>
<NUMSTATES> 5
<STATE> 2
<MEAN> 25
 5.548191e+000 4.739652e-001 1.717741e+000 9.497731e-001 -1.792271e+000 1.348132e+000 -9.207610e-001 -3.381219e+000 -4.843798e+000 -2.180725e-001 8.515706e-001 -2.826837e+000 1.292307e-001 2.698831e-001 5.191742e-001 3.114341e-001 -6.370198e-002 2.365280e-001 1.083908e-001 -5.023735e-001 -5.116131e-001 -1.057560e-002 1.616710e-001 -1.378693e-001 -3.872716e-001
<VARIANCE> 25
 1.998417e+001 2.318864e+001 3.135322e+001 3.740253e+001 4.237165e+001 3.876703e+001 4.081359e+001 5.472557e+001 4.614857e+001 3.342281e+001 4.022556e+001 2.787160e+001 1.179986e+000 1.875355e+000 2.800462e+000 2.956510e+000 3.190421e+000 2.847753e+000 3.065357e+000 4.765673e+000 4.522343e+000 3.227665e+000 3.181411e+000 2.553211e+000 1.455400e+000
<GCONST> 1.015783e+002
<STATE> 3
<MEAN> 25
 5.480221e+000 7.184386e-001 2.354103e+000 1.179850e+000 -1.925368e+000 1.585633e+000 -6.813630e-001 -3.764096e+000 -5.138908e+000 -3.625036e-001 8.962298e-001 -2.675992e+000 -1.337626e-001 5.854849e-003 1.589499e-001 -5.118419e-002 -6.173973e-002 6.812624e-002 1.320257e-001 1.130684e-001 1.384038e-001 -9.566832e-002 -6.752698e-002 2.063460e-001 -5.297583e-002
<VARIANCE> 25
 1.950736e+001 2.103570e+001 2.922187e+001 3.533076e+001 4.201125e+001 3.625539e+001 4.012062e+001 5.486209e+001 4.462716e+001 3.465988e+001 3.966440e+001 2.741657e+001 1.035554e+000 1.735902e+000 2.801301e+000 2.891151e+000 3.053351e+000 2.589012e+000 2.749480e+000 4.467278e+000 4.111616e+000 3.074477e+000 2.837909e+000 2.374879e+000 1.444208e+000
<GCONST> 1.003308e+002
<STATE> 4
<MEAN> 25
 4.842448e+000 4.049260e-001 2.158144e+000 5.227119e-001 -2.054629e+000 1.649398e+000 -3.066930e-001 -2.799270e+000 -4.081279e+000 -6.799770e-001 4.520917e-001 -1.884350e+000 -3.646486e-001 -2.115913e-001 -1.779602e-001 -3.842358e-001 -8.209184e-003 -4.741262e-002 1.431845e-001 6.291955e-001 6.067862e-001 -1.358785e-001 -2.430011e-001 3.812816e-001 2.388317e-001
<VARIANCE> 25
 2.197451e+001 2.265755e+001 3.650350e+001 4.087017e+001 5.044251e+001 3.814149e+001 4.075284e+001 5.394661e+001 4.504187e+001 3.561620e+001 3.839198e+001 2.659008e+001 1.141691e+000 1.792951e+000 3.267332e+000 3.133686e+000 3.519967e+000 2.900456e+000 2.825426e+000 4.247618e+000 3.960741e+000 3.163904e+000 2.965008e+000 2.348010e+000 1.539097e+000
<GCONST> 1.017823e+002
<TRANSP> 5
 0.000000e+000 1.000000e+000 0.000000e+000 0.000000e+000 0.000000e+000
 0.000000e+000 5.112734e-001 4.887265e-001 0.000000e+000 0.000000e+000
 0.000000e+000 0.000000e+000 5.124862e-001 4.875139e-001 0.000000e+000
 0.000000e+000 0.000000e+000 0.000000e+000 6.084175e-001 3.915825e-001
 0.000000e+000 0.000000e+000 0.000000e+000 0.000000e+000 0.000000e+000
<ENDHMM>
~h "n"
<BEGINHMM>
<NUMSTATES> 5
<STATE> 2
<MEAN> 25
 3.541661e+000 -4.520346e-001 1.418487e+000 6.503676e-001 -1.125335e+000 -1.120249e-002 -4.170305e-001 -1.595338e+000 -1.481653e+000 -9.022088e-001 -2.831783e+000 -8.067005e-001 2.486833e-001 8.658064e-002 1.539917e-001 1.109726e-001 -1.349294e-001 5.990391e-002 -3.011546e-002 -3.127275e-001 -1.929242e-001 -4.679250e-002 -1.460130e-001 1.029743e-002 -1.054652e-001
<VARIANCE> 25
 2.922133e+001 2.491807e+001 3.376655e+001 3.196470e+001 5.022778e+001 3.927160e+001 4.028186e+001 5.247969e+001 3.893861e+001 3.466256e+001 4.365385e+001 2.753899e+001 1.532385e+000 1.979522e+000 2.836597e+000 2.522398e+000 3.332048e+000 3.432679e+000 3.202257e+000 4.992620e+000 3.736484e+000 2.942872e+000 3.120622e+000 2.161682e+000 1.794136e+000
<GCONST> 1.022417e+002
<STATE> 3
<MEAN> 25
 3.789888e+000 -4.247368e-001 1.538420e+000 6.820948e-001 -1.276430e+000 2.295601e-002 -4.693769e-001 -1.930525e+000 -1.586911e+000 -9.410005e-001 -2.949126e+000 -7.469085e-001 7.543842e-003 -9.432092e-002 -1.183741e-001 -1.051893e-001 7.040055e-002 -4.460378e-002 -3.086986e-002 1.265415e-001 4.904057e-002 -3.639563e-002 -2.225834e-002 3.388524e-002 1.983764e-001
<VARIANCE> 25
 2.799938e+001 2.390125e+001 3.232325e+001 3.068294e+001 4.806448e+001 3.860491e+001 4.035998e+001 5.372178e+001 3.799832e+001 3.386619e+001 4.310936e+001 2.731432e+001 1.374796e+000 2.001997e+000 2.820543e+000 2.409129e+000 3.362703e+000 3.357442e+000 3.114883e+000 5.272946e+000 3.694705e+000 2.968331e+000 3.058095e+000 2.082070e+000 1.808132e+000
<GCONST> 1.017809e+002
<STATE> 4
<MEAN> 25
 3.133645e+000 -8.474519e-001 1.126750e+000 5.040851e-001 -7.045616e-001 -1.202593e-001 -3.227104e-001 -1.084009e+000 -1.201345e+000 -1.077066e+000 -2.659081e+000 -5.004717e-001 -2.240786e-001 -2.186303e-001 -3.229456e-001 -2.759138e-001 2.753428e-001 -7.064309e-002 1.821694e-003 5.207701e-001 2.128192e-001 -4.818059e-002 9.479086e-002 1.825106e-002 3.727593e-001
<VARIANCE> 25
 3.022219e+001 2.565016e+001 3.462235e+001 3.317907e+001 5.151175e+001 4.096499e+001 4.210725e+001 5.573578e+001 3.966985e+001 3.390715e+001 4.406458e+001 2.833035e+001 1.372347e+000 2.113336e+000 2.903211e+000 2.515602e+000 3.629165e+000 3.476960e+000 3.235552e+000 5.354629e+000 3.767966e+000 3.061542e+000 3.087561e+000 2.070894e+000 1.799715e+000
<GCONST> 1.027245e+002
<TRANSP> 5
 0.000000e+000 1.000000e+000 0.000000e+000 0.000000e+000 0.000000e+000
 0.000000e+000 4.713988e-001 5.286012e-001 0.000000e+000 0.000000e+000
 0.000000e+000 0.000000e+000 4.712956e-001 5.287044e-001 0.000000e+000
 0.000000e+000 0.000000e+000 0.000000e+000 5.736120e-001 4.263881e-001
 0.000000e+000 0.000000e+000 0.000000e+000 0.000000e+000 0.000000e+000
<ENDHMM>
~h "o"
<BEGINHMM>
<NUMSTATES> 5
<STATE> 2
<MEAN> 25
 4.819980e+000 4.716633e-001 -4.397486e+000 -7.931813e+000 3.109612e-002 5.504580e+000 -1.601721e+000 -2.353702e+000 -1.321611e+000 6.131292e-001 1.967639e+000 -5.003899e-001 4.561597e-001 1.039541e-001 -2.689746e-001 -1.062287e+000 -1.779318e-001 5.936264e-001 -5.584562e-002 -2.332348e-001 -1.205726e-001 7.634748e-002 3.704871e-001 -3.431790e-002 3.807857e-001
<VARIANCE> 25
 2.336552e+001 2.403495e+001 3.600774e+001 8.715923e+001 5.731359e+001 5.389641e+001 5.747057e+001 3.961027e+001 4.676445e+001 4.950518e+001 4.849527e+001 2.872915e+001 2.284106e+000 1.982455e+000 3.332633e+000 6.781503e+000 4.483854e+000 4.239244e+000 4.309724e+000 3.952835e+000 4.263466e+000 4.217632e+000 3.986867e+000 2.616880e+000 2.503318e+000
<GCONST> 1.076421e+002
<STATE> 3
<MEAN> 25
 5.268115e+000 6.306502e-001 -4.503267e+000 -9.170904e+000 -1.377543e-002 6.280726e+000 -1.554042e+000 -2.715884e+000 -1.420079e+000 8.270035e-001 2.507756e+000 -5.375476e-001 4.798391e-002 1.016056e-001 2.123061e-001 1.246088e-001 1.161500e-001 -4.847301e-002 -1.170158e-002 -6.534823e-002 8.759081e-003 1.813967e-001 4.548574e-002 -6.610746e-002 -7.445136e-002
<VARIANCE> 25
 2.014379e+001 2.211476e+001 3.564899e+001 9.299258e+001 5.437948e+001 5.447593e+001 5.927580e+001 4.001503e+001 4.609797e+001 5.308419e+001 4.896880e+001 3.025645e+001 1.686138e+000 2.022582e+000 3.062618e+000 6.813787e+000 4.042858e+000 4.288816e+000 4.309085e+000 3.597027e+000 4.150027e+000 4.412587e+000 4.027528e+000 2.649424e+000 2.360021e+000
<GCONST> 1.070136e+002
<STATE> 4
<MEAN> 25
 4.992550e+000 7.525837e-001 -3.641022e+000 -7.697542e+000 6.462117e-001 5.411726e+000 -1.691098e+000 -2.766993e+000 -1.032450e+000 1.453019e+000 2.185412e+000 -7.673821e-001 -3.608377e-001 1.537979e-001 6.361185e-001 1.314089e+000 2.851142e-001 -7.628832e-001 7.422195e-003 2.213781e-001 1.667624e-001 1.477456e-001 -3.114705e-001 -5.817568e-002 -4.388218e-001
<VARIANCE> 25
 2.113806e+001 2.310216e+001 3.828303e+001 9.664858e+001 5.092245e+001 5.561634e+001 5.891654e+001 4.149502e+001 4.477904e+001 5.272116e+001 4.837970e+001 3.215019e+001 1.881371e+000 2.339324e+000 3.107809e+000 6.768705e+000 4.306410e+000 4.402643e+000 4.397077e+000 3.872659e+000 4.159900e+000 4.728664e+000 4.264627e+000 2.877406e+000 2.281007e+000
<GCONST> 1.078370e+002
<TRANSP> 5
 0.000000e+000 1.000000e+000 0.000000e+000 0.000000e+000 0.000000e+000
 0.000000e+000 5.589402e-001 4.410598e-001 0.000000e+000 0.000000e+000
 0.000000e+000 0.000000e+000 5.583069e-001 4.416931e-001 0.000000e+000
 0.000000e+000 0.000000e+000 0.000000e+000 6.617558e-001 3.382441e-001
 0.000000e+000 0.000000e+000 0.000000e+000 0.000000e+000 0.000000e+000
<ENDHMM>
~h "p"
<BEGINHMM>
<NUMSTATES> 5
<STATE> 2
<MEAN> 25
 4.935128e-001 4.836360e-001 7.841519e-001 2.126656e+000 2.360057e+000 2.551372e+000 1.512056e+000 8.866732e-001 1.219968e+000 1.219703e+000 1.981539e+000 7.491298e-001 -3.388638e-001 -6.955987e-002 -6.055582e-002 3.415155e-001 -1.311052e-002 -4.658375e-002 5.540157e-002 8.437699e-002 2.308009e-001 1.007536e-001 1.857880e-001 1.178912e-001 -5.199121e-001
<VARIANCE> 25
 2.765965e+001 2.121664e+001 3.596157e+001 4.508918e+001 3.260154e+001 3.301712e+001 2.866986e+001 2.664648e+001 2.810441e+001 2.551733e+001 3.304999e+001 2.371885e+001 2.338789e+000 2.404225e+000 3.643896e+000 5.216108e+000 3.502355e+000 3.354764e+000 2.842064e+000 2.961300e+000 3.033390e+000 2.667487e+000 3.140543e+000 2.157384e+000 5.460764e+000
<GCONST> 1.015396e+002
<STATE> 3
<MEAN> 25
 -1.775884e-001 1.391583e-001 2.330590e-001 2.194373e+000 2.028742e+000 2.199039e+000 1.479802e+000 9.468473e-001 1.432300e+000 1.137684e+000 2.037567e+000 8.589644e-001 -2.839191e-003 -1.366878e-001 -3.776814e-001 -3.340983e-001 -3.048384e-001 -1.667436e-001 -8.866931e-002 -2.081189e-002 2.799830e-002 -1.479102e-001 -1.168673e-001 -3.481205e-002 5.438038e-001
<VARIANCE> 25
 2.386541e+001 1.802074e+001 3.155559e+001 4.146565e+001 3.096507e+001 3.217398e+001 2.692502e+001 2.537183e+001 2.745081e+001 2.506891e+001 3.160757e+001 2.190599e+001 3.148972e+000 2.296081e+000 3.347912e+000 5.770434e+000 3.641775e+000 3.557632e+000 2.989487e+000 2.991128e+000 3.157285e+000 2.742871e+000 3.189492e+000 2.264986e+000 6.042422e+000
<GCONST> 1.013190e+002
<STATE> 4
<MEAN> 25
 3.896381e-001 -8.896931e-002 -7.477710e-001 8.367419e-001 1.112849e+000 1.768771e+000 1.144071e+000 7.202159e-001 1.178658e+000 5.751584e-001 1.446495e+000 5.651231e-001 6.163408e-001 -1.067297e-001 -4.229940e-001 -9.593274e-001 -6.179510e-001 -1.077223e-001 -2.147491e-001 -1.735385e-001 -1.598116e-001 -2.864555e-001 -3.032145e-001 -2.062209e-001 1.354848e+000
<VARIANCE> 25
 2.773385e+001 2.091910e+001 3.224640e+001 5.924289e+001 3.962141e+001 3.742014e+001 3.034277e+001 2.802518e+001 3.141810e+001 2.821695e+001 3.305744e+001 2.193246e+001 3.759162e+000 2.637330e+000 3.316967e+000 7.255675e+000 4.398180e+000 4.254521e+000 3.581893e+000 3.389284e+000 3.647719e+000 3.096808e+000 3.536391e+000 2.451644e+000 4.997000e+000
<GCONST> 1.043797e+002
<TRANSP> 5
 0.000000e+000 1.000000e+000 0.000000e+000 0.000000e+000 0.000000e+000
 0.000000e+000 5.435651e-001 4.564349e-001 0.000000e+000 0.000000e+000
 0.000000e+000 0.000000e+000 5.398375e-001 4.601625e-001 0.000000e+000
 0.000000e+000 0.000000e+000 0.000000e+000 6.314986e-001 3.685013e-001
 0.000000e+000 0.000000e+000 0.000000e+000 0.000000e+000 0.000000e+000
<ENDHMM>
~h "r"
<BEGINHMM>
<NUMSTATES> 5
<STATE> 2
<MEAN> 25
 2.598404e+000 -3.193069e+000 -1.164900e+000 2.553721e+000 -2.300306e+000 -3.855496e+000 -1.526830e+000 6.056586e-001 2.361554e+000 7.248468e-001 -1.508544e+000 -5.070184e-001 5.343247e-001 -6.777381e-001 1.737058e-001 2.584568e-001 -5.780770e-001 -3.532583e-001 -2.577759e-001 1.263215e-001 1.884359e-001 -2.815044e-002 -3.147334e-001 -1.314884e-001 3.546714e-001
<VARIANCE> 25
 2.722241e+001 3.001208e+001 4.120181e+001 4.289305e+001 4.907776e+001 4.212307e+001 4.760520e+001 4.808354e+001 4.292523e+001 3.654916e+001 4.244855e+001 2.978601e+001 2.344203e+000 2.655289e+000 3.200931e+000 5.105389e+000 4.085874e+000 4.216685e+000 3.938771e+000 4.426946e+000 4.202033e+000 3.850737e+000 3.713722e+000 2.732334e+000 2.711878e+000
<GCONST> 1.064262e+002
<STATE> 3
<MEAN> 25
 3.330812e+000 -4.384057e+000 -8.656727e-001 2.731999e+000 -3.060520e+000 -4.027889e+000 -1.774009e+000 9.772246e-001 2.503765e+000 6.916775e-001 -1.858020e+000 -6.986155e-001 3.429723e-001 -5.454813e-001 1.255260e-001 -1.133411e-001 -3.046897e-001 2.676091e-002 -3.531875e-002 1.637338e-001 -7.705978e-002 -1.813812e-002 -1.516207e-001 -1.374255e-001 2.325568e-001
<VARIANCE> 25
 2.453360e+001 3.205808e+001 4.210612e+001 4.040184e+001 4.953379e+001 4.105061e+001 4.796791e+001 5.017929e+001 4.644582e+001 3.749069e+001 4.268916e+001 2.972849e+001 1.840814e+000 2.837365e+000 2.981720e+000 4.601688e+000 4.245498e+000 3.825133e+000 3.839080e+000 4.321829e+000 4.163171e+000 3.860567e+000 3.617197e+000 2.675455e+000 2.303856e+000
<GCONST> 1.058155e+002
<STATE> 4
<MEAN> 25
 3.723544e+000 -5.205717e+000 -7.873691e-001 2.035963e+000 -3.073623e+000 -3.545004e+000 -1.545484e+000 1.318259e+000 2.099309e+000 6.630049e-001 -2.089415e+000 -9.905739e-001 1.351241e-001 -1.655100e-001 2.561909e-002 -4.455901e-001 1.089020e-001 3.122968e-001 1.708457e-001 5.537275e-003 -3.448342e-001 -8.083543e-003 -3.859396e-002 -1.619689e-001 8.389283e-002
<VARIANCE> 25
 2.423314e+001 3.516047e+001 4.552120e+001 4.050771e+001 5.131294e+001 4.308207e+001 4.959953e+001 5.260686e+001 5.156029e+001 3.948360e+001 4.676300e+001 3.054478e+001 1.567701e+000 3.032044e+000 2.733182e+000 4.052704e+000 4.410292e+000 3.569176e+000 3.648909e+000 4.214539e+000 4.022848e+000 3.695939e+000 3.587912e+000 2.577461e+000 2.146864e+000
<GCONST> 1.058056e+002
<TRANSP> 5
 0.000000e+000 1.000000e+000 0.000000e+000 0.000000e+000 0.000000e+000
 0.000000e+000 4.581981e-001 5.418019e-001 0.000000e+000 0.000000e+000
 0.000000e+000 0.000000e+000 4.599204e-001 5.400797e-001 0.000000e+000
 0.000000e+000 0.000000e+000 0.000000e+000 5.481908e-001 4.518091e-001
 0.000000e+000 0.000000e+000 0.000000e+000 0.000000e+000 0.000000e+000
<ENDHMM>
~h "s"
<BEGINHMM>
<NUMSTATES> 5
<STATE> 2
<MEAN> 25
 -1.009313e+001 8.269129e+000 -3.623142e+000 6.410031e+000 4.570640e+000 -4.599839e-001 2.974159e+000 1.879858e+000 1.731603e+000 6.828153e-001 1.135365e+000 2.593574e+000 -2.702175e+000 8.018759e-001 -1.084187e+000 9.437667e-001 5.273191e-001 4.538655e-001 5.698094e-001 4.634161e-001 2.350845e-001 -9.010679e-002 5.144320e-001 6.197265e-001 -4.979761e-001
<VARIANCE> 25
 5.976949e+001 3.089690e+001 3.543549e+001 3.789874e+001 5.057542e+001 3.737365e+001 4.506936e+001 3.767925e+001 3.323992e+001 3.147777e+001 3.246347e+001 2.494642e+001 5.078664e+000 4.011073e+000 3.163262e+000 4.315437e+000 4.703150e+000 4.113899e+000 4.558326e+000 4.360060e+000 3.022801e+000 2.885816e+000 3.815711e+000 2.741005e+000 1.022030e+000
<GCONST> 1.054175e+002
<STATE> 3
<MEAN> 25
 -1.465890e+001 7.988775e+000 -6.340804e+000 6.759080e+000 4.127397e+000 1.889102e-001 2.922633e+000 2.006842e+000 1.917829e+000 5.245383e-001 2.025653e+000 3.435873e+000 -6.367949e-001 -3.479604e-001 -4.202993e-001 -9.162699e-002 -2.880990e-001 7.390864e-002 -1.935235e-001 -1.093299e-001 -3.780724e-002 -1.579977e-002 1.461276e-001 7.760596e-002 -4.507136e-001
<VARIANCE> 25
 3.384143e+001 2.770103e+001 3.113325e+001 3.456693e+001 4.259870e+001 3.434779e+001 4.115859e+001 3.338840e+001 3.184481e+001 2.644119e+001 3.101346e+001 2.173877e+001 6.141580e+000 2.502933e+000 3.270970e+000 2.564899e+000 3.186141e+000 2.970605e+000 3.347337e+000 3.161709e+000 2.590243e+000 2.422746e+000 2.713726e+000 2.342106e+000 1.306648e+000
<GCONST> 1.009545e+002
<STATE> 4
<MEAN> 25
 -1.246827e+001 5.596830e+000 -5.367816e+000 5.496875e+000 2.808644e+000 -1.099772e-003 1.846805e+000 1.143731e+000 1.261277e+000 5.248860e-001 1.804278e+000 2.672386e+000 1.682733e+000 -7.352170e-001 6.998754e-001 -6.461318e-001 -6.081457e-001 -2.392886e-001 -5.345312e-001 -4.224100e-001 -3.569723e-001 9.967569e-003 -2.185043e-001 -3.732181e-001 1.007125e-002
<VARIANCE> 25
 5.373173e+001 2.773408e+001 3.308326e+001 3.646680e+001 4.094310e+001 3.761773e+001 4.342382e+001 3.397849e+001 3.167706e+001 2.645509e+001 3.359239e+001 2.205306e+001 6.662820e+000 2.377198e+000 3.386033e+000 2.779114e+000 3.387628e+000 3.493266e+000 3.725103e+000 3.394382e+000 3.019366e+000 2.558759e+000 3.122648e+000 2.353216e+000 2.099126e+000
<GCONST> 1.031172e+002
<TRANSP> 5
 0.000000e+000 1.000000e+000 0.000000e+000 0.000000e+000 0.000000e+000
 0.000000e+000 6.803492e-001 3.196508e-001 0.000000e+000 0.000000e+000
 0.000000e+000 0.000000e+000 6.786659e-001 3.213342e-001 0.000000e+000
 0.000000e+000 0.000000e+000 0.000000e+000 7.821954e-001 2.178046e-001
 0.000000e+000 0.000000e+000 0.000000e+000 0.000000e+000 0.000000e+000
<ENDHMM>
~h "t"
<BEGINHMM>
<NUMSTATES> 5
<STATE> 2
<MEAN> 25
 -2.210327e+000 1.540640e+000 1.535660e+000 3.657365e+000 9.350507e-001 -6.121225e-001 8.599217e-001 1.292894e+000 1.595524e+000 1.443292e+000 1.569006e+000 1.372067e+000 -4.516995e-001 -1.879054e-001 -1.411190e-002 5.953602e-002 2.450870e-001 2.084403e-001 2.561992e-001 8.489356e-002 5.520975e-002 3.278667e-002 3.075193e-001 1.972999e-001 -6.528093e-001
<VARIANCE> 25
 3.148082e+001 2.162564e+001 3.611795e+001 3.051371e+001 3.698690e+001 3.623018e+001 3.553258e+001 3.247403e+001 3.325453e+001 2.775427e+001 3.512867e+001 2.360955e+001 2.973647e+000 2.634250e+000 3.934879e+000 3.478876e+000 3.627003e+000 3.981158e+000 3.937143e+000 3.088393e+000 3.140808e+000 2.788928e+000 3.532270e+000 2.379508e+000 5.887567e+000
<GCONST> 1.031896e+002
<STATE> 3
<MEAN> 25
 -3.442772e+000 9.118824e-001 8.837618e-001 3.203342e+000 1.382849e+000 -5.262938e-001 1.216092e+000 1.303748e+000 1.513629e+000 1.338716e+000 1.893319e+000 1.697631e+000 -3.372247e-001 -2.278608e-001 -3.451025e-001 -3.736646e-001 1.095674e-001 -1.636709e-001 -4.047269e-002 -1.472282e-001 -1.338720e-001 -1.223257e-001 -4.850979e-002 6.932549e-003 5.643046e-001
<VARIANCE> 25
 3.009504e+001 1.987215e+001 3.377428e+001 2.974582e+001 3.565364e+001 3.325765e+001 3.264621e+001 3.326828e+001 3.189045e+001 2.673131e+001 3.301936e+001 2.204148e+001 4.084221e+000 2.219301e+000 3.908766e+000 3.076009e+000 3.705419e+000 4.034775e+000 3.981892e+000 3.406721e+000 3.394151e+000 2.904476e+000 3.675871e+000 2.562612e+000 6.231713e+000
<GCONST> 1.030238e+002
<STATE> 4
<MEAN> 25
 -3.789054e+000 4.822918e-001 1.105067e-001 2.279382e+000 1.546482e+000 -1.168728e+000 1.005479e+000 8.609620e-001 1.061568e+000 8.351603e-001 1.464233e+000 1.455165e+000 4.014222e-001 -1.121032e-001 -2.102031e-001 -5.913714e-001 -2.740056e-001 -3.503480e-001 -3.890507e-001 -3.692975e-001 -2.803735e-001 -1.555150e-001 -3.402705e-001 -3.113963e-001 1.295420e+000
<VARIANCE> 25
 3.337040e+001 2.153548e+001 3.357053e+001 3.204897e+001 3.973472e+001 3.645200e+001 3.735117e+001 3.883272e+001 3.395628e+001 2.824125e+001 3.556844e+001 2.297813e+001 5.327557e+000 2.435139e+000 4.249416e+000 3.281990e+000 4.450748e+000 4.506990e+000 4.408559e+000 4.096704e+000 4.098767e+000 3.179265e+000 4.348853e+000 2.859488e+000 4.982880e+000
<GCONST> 1.054194e+002
<TRANSP> 5
 0.000000e+000 1.000000e+000 0.000000e+000 0.000000e+000 0.000000e+000
 0.000000e+000 5.200831e-001 4.799169e-001 0.000000e+000 0.000000e+000
 0.000000e+000 0.000000e+000 5.197416e-001 4.802584e-001 0.000000e+000
 0.000000e+000 0.000000e+000 0.000000e+000 6.181730e-001 3.818270e-001
 0.000000e+000 0.000000e+000 0.000000e+000 0.000000e+000 0.000000e+000
<ENDHMM>
~h "u"
<BEGINHMM>
<NUMSTATES> 5
<STATE> 2
<MEAN> 25
 3.978755e+000 3.051055e+000 -1.495819e+000 -3.342820e+000 -1.607621e+000 2.259206e+000 -3.971823e+000 -3.357125e+000 -2.825027e+000 -3.316445e-001 1.678441e+000 3.761972e-001 6.530595e-001 5.190729e-001 -2.946456e-001 -7.518860e-001 -2.278184e-001 5.309326e-001 -1.342340e-001 -5.256308e-001 -3.466651e-001 -8.215626e-002 2.433054e-001 6.792724e-002 -7.307790e-003
<VARIANCE> 25
 3.123109e+001 2.649209e+001 3.230604e+001 6.172389e+001 5.779165e+001 4.528273e+001 6.253292e+001 5.599387e+001 4.400407e+001 5.107204e+001 4.576114e+001 2.980592e+001 2.933244e+000 2.033484e+000 3.041015e+000 5.117120e+000 5.470545e+000 4.191372e+000 5.240594e+000 5.134164e+000 4.472050e+000 4.631972e+000 4.115067e+000 2.712665e+000 1.519802e+000
<GCONST> 1.080469e+002
<STATE> 3
<MEAN> 25
 4.642494e+000 3.814529e+000 -1.631559e+000 -4.231258e+000 -1.815197e+000 3.029567e+000 -3.839020e+000 -3.860094e+000 -3.126695e+000 -4.289956e-001 1.871835e+000 4.961486e-001 7.643509e-002 2.427531e-001 9.247940e-002 -2.349814e-003 1.178257e-001 1.664139e-001 1.371815e-001 -3.281000e-002 4.718809e-002 3.944821e-002 -1.591972e-002 -2.374053e-002 -1.784201e-001
<VARIANCE> 25
 2.745911e+001 2.491514e+001 2.943734e+001 6.231065e+001 5.817459e+001 4.091407e+001 6.544531e+001 5.339193e+001 4.446616e+001 5.318803e+001 4.628588e+001 2.889945e+001 2.139789e+000 1.912499e+000 2.706120e+000 5.427636e+000 4.812295e+000 3.801303e+000 5.091955e+000 4.760094e+000 4.064002e+000 4.581250e+000 4.119675e+000 2.672147e+000 1.539492e+000
<GCONST> 1.068354e+002
<STATE> 4
<MEAN> 25
 4.083448e+000 3.860308e+000 -1.031126e+000 -3.132747e+000 -9.818966e-001 2.793989e+000 -3.478906e+000 -3.518375e+000 -2.513108e+000 -1.053198e-001 1.512762e+000 2.543774e-001 -4.462467e-001 5.644515e-003 3.512721e-001 7.662138e-001 4.139653e-001 -2.425109e-001 3.481339e-001 3.422551e-001 3.357140e-001 1.273154e-001 -2.262151e-001 -8.608472e-002 -2.552898e-001
<VARIANCE> 25
 3.129811e+001 2.564448e+001 3.132083e+001 6.316547e+001 6.197292e+001 3.874256e+001 6.460135e+001 5.095100e+001 4.393605e+001 4.988456e+001 4.431649e+001 2.798643e+001 2.361427e+000 2.057844e+000 2.663298e+000 5.572547e+000 4.626106e+000 3.735825e+000 5.057348e+000 4.819671e+000 3.857888e+000 4.562830e+000 4.193909e+000 2.701783e+000 1.697980e+000
<GCONST> 1.070697e+002
<TRANSP> 5
 0.000000e+000 1.000000e+000 0.000000e+000 0.000000e+000 0.000000e+000
 0.000000e+000 5.398036e-001 4.601963e-001 0.000000e+000 0.000000e+000
 0.000000e+000 0.000000e+000 5.392646e-001 4.607354e-001 0.000000e+000
 0.000000e+000 0.000000e+000 0.000000e+000 6.359421e-001 3.640579e-001
 0.000000e+000 0.000000e+000 0.000000e+000 0.000000e+000 0.000000e+000
<ENDHMM>
~h "v"
<BEGINHMM>
<NUMSTATES> 5
<STATE> 2
<MEAN> 25
 3.935089e+000 -1.529559e+000 -5.515341e-001 2.439955e-001 -3.428502e-001 -4.204757e-001 -1.796762e+000 -5.776048e-001 4.092782e-002 1.695804e+000 3.370455e-001 -1.006115e+000 1.794216e-001 -5.052504e-002 1.447325e-001 2.750343e-001 -1.488842e-002 -1.038296e-001 -2.612480e-002 -1.015952e-001 3.036072e-002 9.874246e-002 2.944504e-002 -8.350932e-002 -1.465393e-001
<VARIANCE> 25
 2.850519e+001 3.177995e+001 4.185135e+001 5.469801e+001 4.334012e+001 6.013200e+001 4.867675e+001 4.238320e+001 3.357342e+001 3.318911e+001 3.631557e+001 2.971317e+001 1.581846e+000 2.393983e+000 2.892736e+000 4.454600e+000 3.750274e+000 3.928174e+000 3.522676e+000 3.410918e+000 3.154022e+000 2.851064e+000 2.936142e+000 2.255250e+000 2.072167e+000
<GCONST> 1.038684e+002
<STATE> 3
<MEAN> 25
 3.965922e+000 -1.619747e+000 -2.573886e-001 4.010600e-001 -4.539936e-001 -6.086966e-001 -1.535341e+000 -5.830960e-001 3.209340e-002 1.744824e+000 3.264898e-001 -1.021438e+000 -1.258019e-002 -1.354960e-001 1.887825e-001 -3.051843e-002 -1.841584e-001 -1.620999e-001 1.753831e-001 4.388131e-002 -1.208863e-002 3.419653e-003 -4.814254e-002 6.757889e-003 9.948253e-002
<VARIANCE> 25
 2.751468e+001 3.023116e+001 4.428130e+001 5.436524e+001 4.346275e+001 6.080726e+001 4.766814e+001 4.105259e+001 3.355119e+001 3.225661e+001 3.492189e+001 2.912731e+001 1.328549e+000 2.264383e+000 2.846172e+000 4.235496e+000 3.489974e+000 3.770913e+000 3.370032e+000 3.325819e+000 3.092829e+000 2.696361e+000 2.768933e+000 2.166269e+000 2.084762e+000
<GCONST> 1.030590e+002
<STATE> 4
<MEAN> 25
 3.247775e+000 -1.809407e+000 1.256073e-001 3.837800e-001 -5.063860e-001 -6.952430e-001 -6.618869e-001 -1.852425e-001 2.184978e-001 1.566412e+000 3.235428e-001 -8.104398e-001 -1.444835e-001 -1.563667e-001 1.863745e-001 -2.031575e-001 -2.678945e-001 -1.409467e-001 2.149466e-001 9.602954e-002 -3.614340e-002 -5.906473e-002 -1.237925e-001 3.299526e-002 2.346632e-001
<VARIANCE> 25
 3.100646e+001 2.964084e+001 4.843502e+001 5.657600e+001 4.807385e+001 6.167583e+001 4.819064e+001 4.070071e+001 3.571452e+001 3.249192e+001 3.539935e+001 3.000412e+001 1.241240e+000 2.152143e+000 2.743664e+000 3.882309e+000 3.364275e+000 3.441326e+000 3.163840e+000 3.220237e+000 3.038953e+000 2.599309e+000 2.652598e+000 2.082728e+000 2.092656e+000
<GCONST> 1.029197e+002
<TRANSP> 5
 0.000000e+000 1.000000e+000 0.000000e+000 0.000000e+000 0.000000e+000
 0.000000e+000 4.273062e-001 5.726938e-001 0.000000e+000 0.000000e+000
 0.000000e+000 0.000000e+000 4.270918e-001 5.729081e-001 0.000000e+000
 0.000000e+000 0.000000e+000 0.000000e+000 5.329213e-001 4.670788e-001
 0.000000e+000 0.000000e+000 0.000000e+000 0.000000e+000 0.000000e+000
<ENDHMM>
~h "z"
<BEGINHMM>
<NUMSTATES> 5
<STATE> 2
<MEAN> 25
 -2.455814e+000 8.788439e+000 -3.588670e+000 5.435501e+000 2.860688e+000 -3.385579e+000 -1.839285e+000 -2.057385e+000 2.925431e+000 1.159824e+000 -2.122782e+000 7.173353e-001 -1.332286e+000 1.742443e+000 -3.797727e-001 1.416228e+000 3.528742e-001 1.364348e-001 5.958302e-001 -4.975977e-002 5.222786e-001 -2.925376e-001 2.916241e-001 2.882485e-001 -4.017654e-001
<VARIANCE> 25
 3.890982e+001 7.513043e+001 2.914086e+001 5.645327e+001 4.024139e+001 3.890217e+001 4.636948e+001 3.758947e+001 3.984955e+001 4.432938e+001 3.703043e+001 2.594138e+001 4.014504e+000 6.882724e+000 1.835693e+000 4.743839e+000 2.902570e+000 4.288637e+000 4.439143e+000 3.949387e+000 3.199269e+000 3.124222e+000 3.722944e+000 2.468975e+000 1.287113e+000
<GCONST> 1.061382e+002
<STATE> 3
<MEAN> 25
 -4.837471e+000 1.048024e+001 -4.423272e+000 7.284491e+000 3.211707e+000 -2.433314e+000 -6.163112e-001 -1.573347e+000 3.936780e+000 8.064614e-001 -1.241461e+000 1.027460e+000 -2.130646e-001 -3.219939e-001 -1.848813e-001 -1.105945e-003 4.523288e-002 2.331861e-001 2.111325e-001 2.919388e-001 2.708291e-001 7.041801e-003 2.823698e-003 -1.484143e-002 -1.119386e-002
<VARIANCE> 25
 4.149155e+001 7.060557e+001 2.614664e+001 5.075775e+001 3.746838e+001 3.618470e+001 3.999145e+001 3.705845e+001 3.769930e+001 4.019702e+001 3.454483e+001 2.430593e+001 5.898355e+000 9.107063e+000 1.792081e+000 6.058939e+000 2.655548e+000 4.327724e+000 4.383866e+000 3.605974e+000 3.322073e+000 2.680445e+000 3.603542e+000 2.608959e+000 1.831335e+000
<GCONST> 1.062934e+002
<STATE> 4
<MEAN> 25
 -2.605099e+000 5.437816e+000 -4.904259e+000 4.332187e+000 3.027289e+000 -1.949451e+000 -4.619717e-001 -4.518856e-001 4.511547e+000 1.162755e+000 -2.460240e+000 9.521957e-002 9.742141e-001 -1.906759e+000 -2.589946e-002 -1.216224e+000 -1.261329e-002 2.275345e-001 8.445191e-002 3.883337e-001 -1.283107e-001 9.269955e-002 -5.390876e-001 -4.028042e-001 3.805513e-001
<VARIANCE> 25
 4.674492e+001 9.383189e+001 3.102299e+001 5.841178e+001 3.763062e+001 4.088919e+001 4.411808e+001 3.884632e+001 4.223659e+001 3.796780e+001 4.157023e+001 2.930668e+001 4.753263e+000 6.732814e+000 2.104632e+000 5.031914e+000 3.336310e+000 4.881204e+000 4.944228e+000 4.047246e+000 3.877074e+000 2.867488e+000 3.840615e+000 2.680944e+000 2.123197e+000
<GCONST> 1.082113e+002
<TRANSP> 5
 0.000000e+000 1.000000e+000 0.000000e+000 0.000000e+000 0.000000e+000
 0.000000e+000 6.714628e-001 3.285372e-001 0.000000e+000 0.000000e+000
 0.000000e+000 0.000000e+000 6.585173e-001 3.414827e-001 0.000000e+000
 0.000000e+000 0.000000e+000 0.000000e+000 7.433441e-001 2.566559e-001
 0.000000e+000 0.000000e+000 0.000000e+000 0.000000e+000 0.000000e+000
<ENDHMM>
~h "cc"
<BEGINHMM>
<NUMSTATES> 5
<STATE> 2
<MEAN> 25
 -9.117407e+000 2.591165e+000 4.324544e+000 5.025399e-001 1.261577e+000 3.036066e-001 -5.658500e-001 9.059292e-001 1.974953e+000 -1.599943e-001 3.277357e+000 1.440101e+000 -2.676998e+000 4.146568e-001 -2.926221e-002 -5.842763e-001 4.253681e-001 3.956152e-001 3.727346e-001 -1.591985e-001 3.767705e-001 -3.532239e-001 6.961443e-001 3.111518e-001 5.400756e-001
<VARIANCE> 25
 9.152989e+001 3.080110e+001 2.578380e+001 3.068337e+001 3.629201e+001 4.285715e+001 3.843031e+001 3.586655e+001 4.072807e+001 3.525702e+001 3.877224e+001 2.611596e+001 8.013150e+000 3.904752e+000 2.989465e+000 4.149391e+000 4.124770e+000 4.562568e+000 4.301968e+000 3.532242e+000 3.821101e+000 4.498028e+000 3.761602e+000 2.269834e+000 5.341844e+000
<GCONST> 1.076141e+002
<STATE> 3
<MEAN> 25
 -1.494263e+001 3.080442e+000 4.187168e+000 -7.075339e-001 1.426029e+000 5.067926e-001 7.814708e-001 5.884405e-001 2.609036e+000 -1.551984e+000 4.640476e+000 1.876108e+000 -5.697713e-001 -4.817266e-002 4.333170e-002 -1.272050e-001 -3.408794e-001 -4.415212e-001 2.014715e-001 -6.371547e-002 -8.358540e-002 -5.472237e-001 7.576793e-002 -1.787588e-002 8.025134e-001
<VARIANCE> 25
 8.386677e+001 3.077799e+001 2.303688e+001 2.419825e+001 3.227452e+001 4.426075e+001 4.054008e+001 3.547195e+001 3.756369e+001 3.369821e+001 4.331125e+001 2.271287e+001 1.609638e+001 3.249246e+000 2.368435e+000 3.175809e+000 4.073846e+000 4.516213e+000 4.308894e+000 3.242512e+000 3.628165e+000 3.588338e+000 3.893848e+000 2.236673e+000 3.158298e+000
<GCONST> 1.061015e+002
<STATE> 4
<MEAN> 25
 -1.137012e+001 2.418747e+000 4.723792e+000 -3.715980e-002 -9.198186e-001 -2.033043e+000 2.915333e-001 4.934962e-001 1.314504e+000 -3.264353e+000 3.821828e+000 1.038501e+000 2.713231e+000 -4.978776e-001 1.366825e-001 2.644069e-001 -1.093683e+000 -1.125017e+000 -8.337581e-001 -1.137314e-002 -5.577579e-001 -2.071286e-001 -6.412666e-001 -3.522563e-001 4.525244e-001
<VARIANCE> 25
 1.091626e+002 2.796531e+001 2.446003e+001 2.234305e+001 3.811436e+001 4.939311e+001 4.348340e+001 3.238824e+001 3.818367e+001 3.071375e+001 4.416279e+001 2.263403e+001 1.385244e+001 2.994140e+000 2.357936e+000 2.609201e+000 4.440618e+000 4.511636e+000 5.257169e+000 3.373950e+000 4.062692e+000 3.447923e+000 4.916491e+000 2.397968e+000 2.010907e+000
<GCONST> 1.062598e+002
<TRANSP> 5
 0.000000e+000 1.000000e+000 0.000000e+000 0.000000e+000 0.000000e+000
 0.000000e+000 6.587977e-001 3.412022e-001 0.000000e+000 0.000000e+000
 0.000000e+000 0.000000e+000 6.695910e-001 3.304090e-001 0.000000e+000
 0.000000e+000 0.000000e+000 0.000000e+000 7.686969e-001 2.313031e-001
 0.000000e+000 0.000000e+000 0.000000e+000 0.000000e+000 0.000000e+000
<ENDHMM>
~h "dz"
<BEGINHMM>
<NUMSTATES> 5
<STATE> 2
<MEAN> 25
 7.019849e-001 3.165458e+000 4.905913e+000 3.111099e+000 -1.713063e+000 -8.620855e-001 -3.355712e+000 3.075906e-001 2.070917e+000 -4.913880e+000 -3.545371e+000 8.320051e-002 -9.610816e-001 8.811785e-001 5.059028e-001 5.989208e-001 3.224415e-001 3.644983e-001 3.616638e-001 -6.523191e-001 3.950941e-001 -2.401754e-001 3.169831e-001 1.367337e-001 -2.150124e-001
<VARIANCE> 25
 5.565145e+001 3.524024e+001 2.607233e+001 3.312975e+001 2.587675e+001 3.818268e+001 5.544326e+001 4.144958e+001 3.812288e+001 2.730717e+001 3.330944e+001 2.269572e+001 9.224908e+000 4.431981e+000 2.358110e+000 5.223974e+000 3.038613e+000 5.295043e+000 7.531320e+000 4.048769e+000 4.484757e+000 4.840787e+000 4.482974e+000 2.777622e+000 3.976327e+000
<GCONST> 1.078986e+002
<STATE> 3
<MEAN> 25
 -2.038468e+000 3.957899e+000 5.164510e+000 3.462966e+000 -1.257149e+000 -6.032191e-001 -3.122688e+000 -1.620561e+000 3.397247e+000 -4.393557e+000 -2.568562e+000 4.495560e-001 -2.470728e-001 -1.841400e-001 -2.353131e-001 -4.400182e-002 6.826460e-002 -2.471561e-001 -5.395134e-001 -6.876456e-001 4.556993e-001 3.531851e-001 3.269083e-001 -9.298597e-002 3.739065e-001
<VARIANCE> 25
 6.017824e+001 3.359101e+001 2.449736e+001 2.917230e+001 2.828278e+001 4.130100e+001 5.822861e+001 3.913097e+001 3.108636e+001 2.612494e+001 3.050442e+001 2.650481e+001 1.257192e+001 4.346330e+000 2.419895e+000 3.752682e+000 3.035424e+000 5.272594e+000 7.718164e+000 3.685342e+000 3.645073e+000 3.665685e+000 3.927185e+000 2.577127e+000 2.928149e+000
<GCONST> 1.066287e+002
<STATE> 4
<MEAN> 25
 -5.570347e-001 1.835839e+000 3.889710e+000 3.416994e+000 -1.625123e+000 -2.552624e+000 -5.491038e+000 -2.890295e+000 4.472968e+000 -2.861043e+000 -2.404626e+000 6.462080e-001 1.016569e+000 -8.786187e-001 -5.643040e-001 -3.231685e-001 -4.773399e-002 -2.631308e-001 -9.245484e-001 -4.532499e-001 1.551627e-001 5.682068e-001 3.736889e-001 -1.731339e-001 2.293938e-001
<VARIANCE> 25
 4.851063e+001 3.707281e+001 2.666961e+001 2.922177e+001 2.970977e+001 3.862472e+001 5.855206e+001 4.158880e+001 2.587239e+001 2.476336e+001 2.863404e+001 3.071704e+001 9.106433e+000 4.013695e+000 2.399274e+000 3.210533e+000 3.150019e+000 5.057041e+000 7.103573e+000 4.077686e+000 3.216479e+000 3.526835e+000 3.657425e+000 2.526356e+000 2.086835e+000
<GCONST> 1.053476e+002
<TRANSP> 5
 0.000000e+000 1.000000e+000 0.000000e+000 0.000000e+000 0.000000e+000
 0.000000e+000 6.556414e-001 3.443585e-001 0.000000e+000 0.000000e+000
 0.000000e+000 0.000000e+000 6.386392e-001 3.613608e-001 0.000000e+000
 0.000000e+000 0.000000e+000 0.000000e+000 7.437687e-001 2.562313e-001
 0.000000e+000 0.000000e+000 0.000000e+000 0.000000e+000 0.000000e+000
<ENDHMM>
~h "sil"
<BEGINHMM>
<NUMSTATES> 5
<STATE> 2
<MEAN> 25
 -4.604632e+000 -2.636335e+000 4.174857e-001 3.904978e+000 4.086199e+000 2.085073e+000 3.003334e+000 3.106862e+000 1.641252e+000 -4.416099e-001 1.812343e+000 1.871063e+000 -3.188160e-002 -6.822600e-003 3.258591e-002 1.319785e-002 -3.462379e-002 -3.523951e-002 -2.818990e-002 -6.566972e-002 -5.265621e-002 -1.248907e-002 6.479389e-002 3.328493e-002 -1.117051e-001
<VARIANCE> 25
 1.887719e+001 1.193997e+001 2.154142e+001 1.792361e+001 2.284935e+001 2.948285e+001 2.452932e+001 2.830714e+001 2.249679e+001 2.193800e+001 3.073831e+001 1.786786e+001 3.488228e-001 4.952538e-001 7.593001e-001 9.011734e-001 1.303879e+000 1.384169e+000 1.638996e+000 1.731537e+000 1.533675e+000 1.663250e+000 1.499213e+000 1.360945e+000 2.831852e-001
<GCONST> 8.277284e+001
<STATE> 3
<MEAN> 25
 -5.062693e+000 -2.538831e+000 4.434141e-001 3.895401e+000 4.259504e+000 1.864557e+000 3.735211e+000 2.801239e+000 1.273109e+000 -5.431038e-001 1.997579e+000 2.401176e+000 3.068135e-002 6.861924e-002 -2.051724e-002 -8.388835e-003 -1.340686e-002 3.699906e-002 6.923198e-002 -1.016829e-001 -5.693095e-002 2.548840e-002 6.721759e-002 -4.014914e-004 -9.631466e-002
<VARIANCE> 25
 1.662732e+001 1.285233e+001 1.765602e+001 1.810820e+001 2.403066e+001 2.697213e+001 2.272234e+001 2.783284e+001 2.299601e+001 2.211206e+001 3.124294e+001 1.853321e+001 5.794253e-001 6.078134e-001 8.969703e-001 9.792767e-001 1.518273e+000 1.520814e+000 1.678435e+000 1.944358e+000 1.785754e+000 1.762435e+000 1.695258e+000 1.365113e+000 5.960440e-001
<GCONST> 8.490994e+001
<STATE> 4
<MEAN> 25
 -6.471273e+000 -7.226679e-001 4.577232e-001 3.699408e+000 3.196295e+000 3.197133e+000 4.348627e+000 2.036246e+000 1.204199e+000 -1.935289e-001 1.905050e+000 2.807626e+000 6.672700e-002 6.286781e-002 4.217223e-002 1.646224e-002 -4.622196e-002 -1.375730e-002 -2.254434e-002 -5.153296e-002 -1.825969e-002 2.506532e-002 -1.337055e-003 -3.749572e-002 -5.642955e-003
<VARIANCE> 25
 3.805782e+001 2.155406e+001 1.779243e+001 2.166743e+001 2.705309e+001 4.506990e+001 2.271878e+001 2.564352e+001 2.295661e+001 2.099045e+001 3.142505e+001 2.010455e+001 7.004652e-001 7.103121e-001 9.833577e-001 1.058192e+000 1.466746e+000 1.519154e+000 1.741687e+000 1.862991e+000 1.895794e+000 1.630720e+000 1.577328e+000 1.334898e+000 6.350720e-001
<GCONST> 8.745009e+001
<TRANSP> 5
 0.000000e+000 1.000000e+000 0.000000e+000 0.000000e+000 0.000000e+000
 0.000000e+000 8.997224e-001 1.002776e-001 0.000000e+000 0.000000e+000
 0.000000e+000 0.000000e+000 7.970977e-001 2.029023e-001 0.000000e+000
 0.000000e+000 0.000000e+000 0.000000e+000 9.221692e-001 7.783078e-002
 0.000000e+000 0.000000e+000 0.000000e+000 0.000000e+000 0.000000e+000
<ENDHMM>
