~o
<STREAMINFO> 1 25
<VECSIZE> 25<NULLD><MFCC_D_N_Z_0><DIAGC>
~s "silst"
<MEAN> 25
 -5.516980e+000 -2.833526e+000 -1.922962e-002 3.267205e+000 5.931296e+000 1.232457e+000 2.882306e+000 3.933348e+000 1.850173e+000 -8.847597e-001 1.285892e+000 2.728186e+000 -4.962951e-002 -1.122714e-002 -9.987134e-003 1.581186e-002 -6.532124e-002 -6.698743e-003 -3.239629e-002 -6.038599e-002 -3.695099e-002 -2.000950e-002 2.360900e-002 -1.271123e-002 -1.403750e-001
<VARIANCE> 25
 1.813167e+001 1.282093e+001 1.799394e+001 1.944302e+001 2.492570e+001 2.832693e+001 2.673574e+001 3.272411e+001 2.709907e+001 2.877152e+001 3.327863e+001 2.046531e+001 7.557573e-001 7.886645e-001 1.030459e+000 1.124529e+000 1.693512e+000 1.903442e+000 1.880237e+000 2.158262e+000 1.924810e+000 2.048666e+000 1.853846e+000 1.599698e+000 5.836766e-001
<GCONST> 8.789132e+001
~h "C"
<BEGINHMM>
<NUMSTATES> 5
<STATE> 2
<MEAN> 25
 -6.628128e+000 2.706217e+000 4.675503e+000 2.693594e+000 2.400279e+000 2.034979e+000 6.659142e-001 6.316928e-001 3.183126e+000 4.803701e-001 2.591489e+000 1.588644e+000 -4.062942e+000 7.987463e-002 -3.473381e-001 -1.121136e+000 7.673025e-001 5.692064e-001 2.557682e-001 -2.683785e-001 7.096182e-001 -4.143105e-001 1.221846e+000 2.831938e-001 7.697180e-001
<VARIANCE> 25
 5.498071e+001 2.539446e+001 2.616542e+001 2.801626e+001 2.966742e+001 3.021610e+001 3.790084e+001 4.140874e+001 3.026355e+001 2.998080e+001 3.354285e+001 2.193083e+001 3.672749e+000 3.558748e+000 2.564905e+000 3.439662e+000 4.090354e+000 3.455847e+000 3.930105e+000 3.706600e+000 3.747023e+000 3.816928e+000 3.705092e+000 2.086618e+000 5.704639e+000
<GCONST> 1.038758e+002
<STATE> 3
<MEAN> 25
 -2.197951e+001 4.087959e+000 3.474708e+000 -2.486419e+000 3.984490e+000 2.511463e+000 2.381700e+000 5.805463e-002 5.421090e+000 -3.478570e+000 5.721484e+000 3.017479e+000 -2.924101e-001 -2.643356e-001 -1.458581e-001 3.209649e-002 -4.239820e-002 -4.960405e-001 4.808061e-001 4.671810e-001 -1.713907e-001 -6.144319e-001 -3.504886e-002 1.043660e-001 4.821948e-001
<VARIANCE> 25
 9.258561e+000 3.315689e+001 1.736364e+001 1.806712e+001 2.379009e+001 3.359992e+001 4.871098e+001 4.259819e+001 3.021551e+001 3.091184e+001 4.775666e+001 1.802062e+001 5.633763e+000 2.152470e+000 1.590662e+000 1.993231e+000 2.046255e+000 2.397808e+000 2.888402e+000 2.813501e+000 2.563001e+000 2.184925e+000 2.185540e+000 1.737198e+000 1.543507e+000
<GCONST> 9.616679e+001
<STATE> 4
<MEAN> 25
 -1.032483e+001 1.645069e+000 3.534601e+000 6.450705e-001 2.128937e+000 -1.818341e+000 1.533889e+000 8.167683e-001 2.426784e+000 -4.568621e+000 1.436198e+000 1.151390e+000 5.407221e+000 -7.984835e-001 -1.048835e-001 3.485377e-001 -1.448776e+000 -1.368455e+000 -1.441741e+000 -1.181961e-001 -6.100684e-001 1.834464e-002 -1.706806e+000 -9.712375e-001 2.307205e-001
<VARIANCE> 25
 6.706335e+001 2.391531e+001 1.953758e+001 2.232362e+001 3.048998e+001 4.543569e+001 3.366605e+001 3.596076e+001 3.598248e+001 3.908409e+001 4.331595e+001 2.024031e+001 2.413055e+000 2.989441e+000 2.371953e+000 2.329107e+000 4.234296e+000 4.057586e+000 4.400062e+000 4.012475e+000 3.869775e+000 3.384787e+000 4.626429e+000 2.287269e+000 1.632409e+000
<GCONST> 1.025843e+002
<TRANSP> 5
 0.000000e+000 1.000000e+000 0.000000e+000 0.000000e+000 0.000000e+000
 0.000000e+000 7.750039e-001 2.249960e-001 0.000000e+000 0.000000e+000
 0.000000e+000 0.000000e+000 7.135094e-001 2.864905e-001 0.000000e+000
 0.000000e+000 0.000000e+000 0.000000e+000 6.765777e-001 3.234223e-001
 0.000000e+000 0.000000e+000 0.000000e+000 0.000000e+000 0.000000e+000
<ENDHMM>
~h "L"
<BEGINHMM>
<NUMSTATES> 5
<STATE> 2
<MEAN> 25
 -7.223804e-001 1.998702e+000 6.696524e+000 3.782751e+000 3.115247e-001 -4.326989e+000 -2.607361e+000 1.129801e+000 -1.944778e+000 -3.332827e+000 -5.034010e-001 1.077882e+000 1.402257e+000 -6.318680e-002 1.565331e+000 3.039391e-002 -1.145975e+000 -1.497886e+000 -8.425081e-001 5.926032e-001 -7.442017e-001 -1.048326e+000 -4.543654e-001 3.901652e-001 1.231662e+000
<VARIANCE> 25
 3.784852e+001 2.367601e+001 2.778300e+001 3.337361e+001 4.387533e+001 5.065927e+001 3.329793e+001 2.854548e+001 3.377847e+001 2.824201e+001 3.003733e+001 2.004417e+001 4.234561e+000 3.200773e+000 3.260096e+000 4.458339e+000 3.555054e+000 4.177564e+000 5.525474e+000 4.208586e+000 4.015177e+000 3.876567e+000 3.502778e+000 3.124829e+000 2.214601e+000
<GCONST> 1.044625e+002
<STATE> 3
<MEAN> 25
 3.149657e+000 -3.067797e-001 7.900065e+000 1.377345e+000 -3.502510e+000 -8.970410e+000 -4.477866e+000 2.519982e+000 -3.562624e+000 -3.508647e+000 -6.314883e-001 2.851795e+000 3.170609e-001 -1.160203e+000 -3.294971e-001 -9.239100e-001 -7.818093e-001 -8.229603e-001 -5.278829e-001 6.127254e-001 4.016972e-001 9.035860e-001 -2.933666e-001 5.800214e-001 1.105588e+000
<VARIANCE> 25
 7.283845e+000 1.664007e+001 2.311110e+001 5.068225e+001 3.333895e+001 2.337499e+001 3.102185e+001 2.008222e+001 3.058461e+001 3.233290e+001 2.805111e+001 2.354833e+001 2.164370e+000 1.964164e+000 2.794175e+000 2.612459e+000 3.415355e+000 3.234525e+000 5.801779e+000 4.030795e+000 3.495890e+000 4.067149e+000 3.081445e+000 1.952860e+000 9.946412e-001
<GCONST> 9.772604e+001
<STATE> 4
<MEAN> 25
 3.008313e+000 -2.913191e+000 4.277720e+000 6.488177e-001 -4.394866e+000 -8.781737e+000 -5.408251e+000 1.607963e+000 -5.534638e-001 -1.307292e+000 -2.175961e+000 3.754766e+000 1.642959e-001 -7.612361e-001 -1.530994e+000 -9.405098e-001 -8.829941e-002 8.755066e-001 9.775308e-002 -4.068585e-001 7.761096e-001 1.419518e+000 1.769249e-001 -6.584555e-001 6.532723e-001
<VARIANCE> 25
 9.905234e+000 1.927730e+001 2.147667e+001 5.171062e+001 3.071521e+001 2.306964e+001 6.484733e+001 5.637239e+001 3.473040e+001 4.335849e+001 3.698840e+001 2.920244e+001 9.491549e-001 2.291399e+000 2.962655e+000 1.992144e+000 3.491976e+000 2.227958e+000 5.579826e+000 7.231500e+000 4.027842e+000 4.131910e+000 3.694174e+000 2.981341e+000 7.286587e-001
<GCONST> 1.004768e+002
<TRANSP> 5
 0.000000e+000 1.000000e+000 0.000000e+000 0.000000e+000 0.000000e+000
 0.000000e+000 4.544777e-001 5.455223e-001 0.000000e+000 0.000000e+000
 0.000000e+000 0.000000e+000 4.563912e-001 5.436088e-001 0.000000e+000
 0.000000e+000 0.000000e+000 0.000000e+000 4.308542e-001 5.691458e-001
 0.000000e+000 0.000000e+000 0.000000e+000 0.000000e+000 0.000000e+000
<ENDHMM>
~h "N"
<BEGINHMM>
<NUMSTATES> 5
<STATE> 2
<MEAN> 25
 4.450753e+000 3.525521e+000 4.265156e+000 -2.214957e+000 -8.095283e-001 3.359212e-001 -9.374415e-001 -2.170113e+000 -5.807450e+000 -3.140126e+000 6.048544e-001 2.179549e-001 8.290631e-001 8.194208e-001 -8.285170e-002 -2.603867e-001 1.896251e-001 4.803082e-001 -4.571646e-001 -5.337088e-001 -7.093086e-001 -4.153651e-002 1.522362e-001 -5.943992e-002 -3.150521e-001
<VARIANCE> 25
 2.062961e+001 1.753722e+001 2.159340e+001 3.072594e+001 3.413758e+001 2.452230e+001 3.308916e+001 3.799353e+001 3.240804e+001 3.873217e+001 3.101339e+001 3.043673e+001 2.100970e+000 1.960964e+000 2.003786e+000 3.103190e+000 4.395934e+000 2.756046e+000 3.133943e+000 3.539062e+000 2.960294e+000 2.705990e+000 2.948653e+000 2.290552e+000 1.866145e+000
<GCONST> 9.894593e+001
<STATE> 3
<MEAN> 25
 3.839976e+000 3.947202e+000 5.445259e+000 -4.356475e+000 -2.857795e+000 -6.147150e-001 2.446008e-001 -1.101892e+000 -6.075097e+000 -3.196166e+000 5.061985e-001 1.089263e+000 -7.838414e-001 -9.859269e-001 6.539961e-001 -5.742435e-001 -1.246822e+000 -7.545382e-001 7.936689e-001 1.318951e+000 3.583527e-001 3.513043e-003 -8.377818e-003 4.014884e-001 1.230193e+000
<VARIANCE> 25
 1.318396e+001 1.751120e+001 2.552434e+001 2.770632e+001 3.599069e+001 2.956357e+001 3.657661e+001 4.387058e+001 3.377456e+001 2.722495e+001 2.469240e+001 2.973569e+001 1.576548e+000 2.080817e+000 1.539372e+000 2.146763e+000 3.436861e+000 2.873395e+000 4.171414e+000 3.683501e+000 2.715518e+000 2.482176e+000 2.527453e+000 1.918533e+000 8.620736e-001
<GCONST> 9.646719e+001
<STATE> 4
<MEAN> 25
 1.788092e+000 -9.285821e-001 5.910209e+000 -2.854017e+000 -5.187697e+000 -2.518533e+000 2.413214e+000 4.431993e+000 -2.556187e+000 -3.876137e+000 -8.402298e-001 1.909699e+000 -1.559012e-001 -1.414309e+000 -8.280968e-001 8.135049e-001 9.448487e-002 -5.216241e-001 3.806023e-001 1.117220e+000 1.221628e+000 1.822481e-001 -8.436520e-001 -3.369594e-001 5.742258e-001
<VARIANCE> 25
 1.197497e+001 2.754105e+001 2.865668e+001 3.192050e+001 5.058339e+001 3.269004e+001 5.189179e+001 5.453969e+001 4.383601e+001 3.093235e+001 2.840432e+001 2.549639e+001 1.011814e+000 2.279659e+000 2.808842e+000 1.775597e+000 4.825957e+000 2.204927e+000 3.280506e+000 2.929211e+000 3.386618e+000 2.547729e+000 3.146172e+000 2.402766e+000 7.320722e-001
<GCONST> 9.865626e+001
<TRANSP> 5
 0.000000e+000 1.000000e+000 0.000000e+000 0.000000e+000 0.000000e+000
 0.000000e+000 6.250291e-001 3.749709e-001 0.000000e+000 0.000000e+000
 0.000000e+000 0.000000e+000 6.104822e-001 3.895178e-001 0.000000e+000
 0.000000e+000 0.000000e+000 0.000000e+000 3.884558e-001 6.115441e-001
 0.000000e+000 0.000000e+000 0.000000e+000 0.000000e+000 0.000000e+000
<ENDHMM>
~h "S"
<BEGINHMM>
<NUMSTATES> 5
<STATE> 2
<MEAN> 25
 -9.264009e+000 4.200006e+000 8.774055e+000 4.700626e+000 2.847503e+000 -2.348907e+000 2.705682e+000 2.682331e-001 2.689959e+000 -3.775628e+000 2.083300e+000 9.002739e-001 -5.098205e+000 7.167299e-001 2.239115e-002 1.024811e+000 2.865166e+000 1.232150e+000 1.478610e+000 1.200943e+000 1.752798e+000 -3.681883e-001 1.437602e+000 9.986802e-001 2.533312e-001
<VARIANCE> 25
 5.191127e+001 2.698147e+001 3.061362e+001 3.965977e+001 5.526130e+001 4.000330e+001 3.554665e+001 4.616465e+001 3.938873e+001 3.816879e+001 4.033323e+001 2.243463e+001 1.427163e+000 4.811042e+000 3.260337e+000 3.836448e+000 5.027163e+000 4.026175e+000 4.180119e+000 4.021151e+000 3.250379e+000 4.189603e+000 5.520097e+000 2.473516e+000 6.745552e-001
<GCONST> 1.046350e+002
<STATE> 3
<MEAN> 25
 -2.303304e+001 2.380754e+000 5.418152e+000 6.373739e-001 5.545634e+000 2.504825e-001 3.525256e+000 1.588976e+000 5.635409e+000 -4.601428e+000 5.689927e+000 3.353257e+000 -4.287167e-001 -4.413983e-001 -6.075682e-001 -6.262158e-001 -7.429068e-002 9.984008e-003 -2.870074e-001 -5.859993e-002 1.003806e-001 -1.691264e-001 -1.190992e-001 1.293494e-001 -3.173519e-001
<VARIANCE> 25
 1.071022e+001 4.483604e+001 1.613531e+001 2.866662e+001 2.098716e+001 4.684194e+001 3.509984e+001 4.053930e+001 3.061287e+001 3.398191e+001 6.011154e+001 2.262580e+001 3.582812e+000 1.095122e+000 1.442374e+000 1.781914e+000 1.592351e+000 1.909558e+000 2.187317e+000 2.721820e+000 2.224557e+000 2.050024e+000 2.019545e+000 1.661061e+000 3.453787e-001
<GCONST> 9.344325e+001
<STATE> 4
<MEAN> 25
 -1.226453e+001 7.485644e-001 2.639406e+000 8.541443e-001 3.771042e+000 -8.029096e-001 7.752661e-001 1.368745e+000 4.238651e+000 -4.282443e+000 1.928932e+000 1.666368e+000 4.615819e+000 -1.898791e-001 -5.808299e-001 -3.449294e-001 -1.426744e+000 -7.283137e-001 -9.816556e-001 -5.479636e-001 -8.424205e-001 2.629588e-001 -1.000594e+000 -1.000911e+000 -4.072135e-001
<VARIANCE> 25
 5.950419e+001 2.967430e+001 2.029729e+001 2.570830e+001 3.613008e+001 4.631448e+001 3.560980e+001 4.221135e+001 3.651582e+001 4.257690e+001 5.105439e+001 2.333153e+001 4.587838e+000 2.667634e+000 2.479630e+000 3.471541e+000 3.824157e+000 4.211837e+000 3.757852e+000 3.891371e+000 4.096093e+000 3.378377e+000 5.225798e+000 2.509371e+000 2.211271e+000
<GCONST> 1.049640e+002
<TRANSP> 5
 0.000000e+000 1.000000e+000 0.000000e+000 0.000000e+000 0.000000e+000
 0.000000e+000 6.705936e-001 3.294064e-001 0.000000e+000 0.000000e+000
 0.000000e+000 0.000000e+000 8.207684e-001 1.792316e-001 0.000000e+000
 0.000000e+000 0.000000e+000 0.000000e+000 7.030927e-001 2.969073e-001
 0.000000e+000 0.000000e+000 0.000000e+000 0.000000e+000 0.000000e+000
<ENDHMM>
~h "Z"
<BEGINHMM>
<NUMSTATES> 5
<STATE> 2
<MEAN> 25
 -2.969799e+000 3.288169e+000 4.764338e+000 1.790887e+000 1.358764e+000 -7.380577e+000 -1.401325e+000 -3.310562e+000 5.616700e+000 -3.255014e+000 4.974007e-001 1.654478e+000 -3.942408e+000 2.609393e+000 1.883357e+000 5.279962e-001 2.045402e+000 3.852716e-001 1.100432e+000 3.277293e-001 1.237305e+000 -1.371569e+000 8.835902e-001 3.258183e-001 2.788602e-001
<VARIANCE> 25
 3.290591e+001 2.907676e+001 3.483699e+001 2.715422e+001 4.645748e+001 2.561030e+001 3.418317e+001 3.672134e+001 3.584112e+001 4.975806e+001 4.104080e+001 2.613555e+001 2.487379e+000 3.345618e+000 2.765099e+000 2.528529e+000 3.468498e+000 5.199437e+000 3.302867e+000 3.807926e+000 3.560095e+000 3.949034e+000 3.605719e+000 3.409371e+000 6.649352e-001
<GCONST> 1.025755e+002
<STATE> 3
<MEAN> 25
 -1.553746e+001 8.526748e+000 1.017032e+001 1.241191e+000 5.105425e+000 -6.435295e-001 1.842565e+000 -1.570265e+000 7.443887e+000 -5.663884e+000 4.043425e+000 2.139790e+000 -1.545159e+000 1.271686e-001 1.547858e-001 -3.634551e-001 6.980143e-001 9.994302e-001 2.491846e-001 3.791539e-001 2.462383e-001 -4.304176e-001 4.942949e-002 2.145813e-001 -1.729439e-001
<VARIANCE> 25
 3.092721e+001 3.655768e+001 2.167661e+001 2.638573e+001 2.876497e+001 4.762015e+001 4.036267e+001 3.273238e+001 2.946432e+001 5.085059e+001 4.505650e+001 2.663693e+001 4.617475e+000 1.646989e+000 1.759806e+000 1.307061e+000 2.549445e+000 2.785898e+000 1.983733e+000 2.156925e+000 2.682789e+000 1.858282e+000 2.542237e+000 1.632777e+000 4.613734e-001
<GCONST> 9.666966e+001
<STATE> 4
<MEAN> 25
 -9.206386e+000 5.217674e+000 6.531973e+000 1.372513e-002 2.733789e+000 -1.930656e+000 -6.561016e-001 -7.198395e-001 5.732134e+000 -6.340660e+000 2.099194e+000 1.705093e+000 3.945058e+000 -1.818238e+000 -1.401814e+000 -1.403801e-001 -2.108565e+000 -8.375586e-001 -6.256720e-001 1.400922e-001 -9.707814e-001 6.770681e-001 -1.015779e+000 -4.274165e-001 -2.715248e-001
<VARIANCE> 25
 6.376281e+001 3.328788e+001 2.460514e+001 2.123680e+001 3.581761e+001 5.328518e+001 3.656546e+001 3.605676e+001 3.683768e+001 4.017418e+001 4.670457e+001 2.252289e+001 3.182842e+000 3.620337e+000 2.644520e+000 1.653525e+000 2.990497e+000 3.707983e+000 3.544600e+000 3.488281e+000 3.845437e+000 3.618037e+000 3.261158e+000 2.148987e+000 1.212168e+000
<GCONST> 1.024752e+002
<TRANSP> 5
 0.000000e+000 1.000000e+000 0.000000e+000 0.000000e+000 0.000000e+000
 0.000000e+000 6.338854e-001 3.661146e-001 0.000000e+000 0.000000e+000
 0.000000e+000 0.000000e+000 6.869031e-001 3.130969e-001 0.000000e+000
 0.000000e+000 0.000000e+000 0.000000e+000 6.969904e-001 3.030096e-001
 0.000000e+000 0.000000e+000 0.000000e+000 0.000000e+000 0.000000e+000
<ENDHMM>
~h "a"
<BEGINHMM>
<NUMSTATES> 5
<STATE> 2
<MEAN> 25
 4.008664e+000 -7.139817e+000 -6.772145e+000 -3.947895e+000 2.728937e+000 -1.106710e+000 -7.603492e-002 2.564105e+000 4.244636e+000 -2.349893e-001 -5.786337e+000 -3.257058e+000 2.749521e-001 -1.781812e+000 -1.444470e+000 -1.230143e+000 1.389617e+000 5.595675e-001 7.510935e-001 6.167905e-001 4.543330e-001 -3.817584e-001 -1.289804e+000 -8.863530e-001 1.271317e+000
<VARIANCE> 25
 1.209505e+001 2.210210e+001 2.756881e+001 3.489108e+001 4.427479e+001 6.198238e+001 5.522441e+001 5.102708e+001 4.844162e+001 4.180105e+001 4.727450e+001 3.548002e+001 1.875159e+000 2.139073e+000 2.620228e+000 3.342096e+000 4.439978e+000 4.645635e+000 4.333297e+000 4.908027e+000 4.849705e+000 3.402556e+000 3.896133e+000 3.179072e+000 1.818338e+000
<GCONST> 1.048642e+002
<STATE> 3
<MEAN> 25
 3.568233e+000 -9.974749e+000 -9.406118e+000 -5.460710e+000 7.363731e+000 2.170209e+000 1.432505e+000 1.031291e+000 3.117385e+000 -9.997139e-001 -7.581000e+000 -4.566017e+000 1.600299e-002 2.873633e-001 5.585117e-002 1.412970e-001 3.425594e-003 -1.784150e-001 4.426151e-003 -8.255922e-002 2.234222e-002 2.176066e-002 -1.857964e-002 1.238621e-001 -2.363933e-001
<VARIANCE> 25
 1.026744e+001 1.891739e+001 2.893797e+001 3.957486e+001 4.919204e+001 6.097689e+001 6.277057e+001 4.546832e+001 5.622965e+001 3.935570e+001 4.142449e+001 4.090135e+001 4.585054e-001 1.168046e+000 1.238712e+000 1.636171e+000 3.041865e+000 3.136343e+000 2.416556e+000 2.878240e+000 2.216807e+000 2.270347e+000 2.276447e+000 1.792238e+000 3.731564e-001
<GCONST> 9.567254e+001
<STATE> 4
<MEAN> 25
 4.157621e+000 -4.435338e+000 -4.906142e+000 -1.513272e+000 3.446746e+000 -1.526500e+000 3.097544e-001 2.406186e+000 3.975698e+000 6.043634e-002 -5.418294e+000 -2.147149e+000 -1.019880e-001 2.038630e+000 1.901902e+000 1.456719e+000 -6.361369e-001 2.990694e-001 -1.345801e-001 -3.646062e-001 -5.411946e-001 3.226655e-001 1.273084e+000 6.914335e-001 -2.177822e+000
<VARIANCE> 25
 1.183566e+001 2.378606e+001 3.724229e+001 4.184654e+001 4.886581e+001 7.170460e+001 5.551564e+001 4.954035e+001 4.632971e+001 4.458189e+001 4.836177e+001 3.594036e+001 1.383758e+000 2.130596e+000 2.538671e+000 3.215673e+000 4.249211e+000 4.496677e+000 4.117857e+000 4.386939e+000 4.486947e+000 3.432554e+000 3.650846e+000 2.993926e+000 1.772451e+000
<GCONST> 1.048367e+002
<TRANSP> 5
 0.000000e+000 1.000000e+000 0.000000e+000 0.000000e+000 0.000000e+000
 0.000000e+000 5.036337e-001 4.963663e-001 0.000000e+000 0.000000e+000
 0.000000e+000 0.000000e+000 6.935576e-001 3.064424e-001 0.000000e+000
 0.000000e+000 0.000000e+000 0.000000e+000 5.939342e-001 4.060657e-001
 0.000000e+000 0.000000e+000 0.000000e+000 0.000000e+000 0.000000e+000
<ENDHMM>
~h "b"
<BEGINHMM>
<NUMSTATES> 5
<STATE> 2
<MEAN> 25
 7.765602e+000 4.381677e+000 3.041522e+000 2.336565e+000 1.823897e+000 2.987096e+000 -2.294088e+000 -3.348776e+000 -1.734056e+000 -3.077412e-001 -1.436584e+000 -3.429944e+000 4.065387e-002 1.604680e+000 1.807826e+000 2.277864e+000 8.551378e-001 6.588132e-001 1.139761e+000 2.163348e-001 -2.766023e-001 -5.170485e-001 -2.407719e-001 -5.826311e-001 -2.111885e+000
<VARIANCE> 25
 7.457631e+000 1.232104e+001 2.515812e+001 2.283939e+001 1.960151e+001 2.540751e+001 2.597765e+001 2.520053e+001 2.726626e+001 2.841754e+001 2.321783e+001 2.505732e+001 1.073963e+000 1.645891e+000 2.484773e+000 4.404581e+000 3.037627e+000 3.459419e+000 2.881741e+000 2.746169e+000 3.238760e+000 3.537968e+000 3.003008e+000 2.381000e+000 1.420938e+000
<GCONST> 9.467507e+001
<STATE> 3
<MEAN> 25
 6.807977e+000 6.107174e+000 5.342550e+000 5.013064e+000 2.547518e+000 3.017236e+000 -1.408142e-001 -1.486911e+000 -5.975379e-001 -9.724166e-001 -7.683827e-001 -2.683131e+000 -6.077412e-001 -2.066151e-001 1.915810e-001 5.856155e-001 1.218367e-001 -3.950730e-001 2.349171e-001 3.166662e-001 -8.558495e-002 -3.175106e-002 3.617561e-001 3.653298e-001 2.325741e-002
<VARIANCE> 25
 8.572848e+000 9.865955e+000 2.191063e+001 1.807915e+001 1.959716e+001 1.859393e+001 2.175432e+001 2.132221e+001 2.167538e+001 2.850524e+001 2.018516e+001 2.230387e+001 7.917638e-001 8.932009e-001 1.164334e+000 1.265761e+000 1.395375e+000 1.697743e+000 1.652164e+000 1.713221e+000 1.847110e+000 1.668758e+000 1.561287e+000 1.642053e+000 8.722671e-001
<GCONST> 8.481491e+001
<STATE> 4
<MEAN> 25
 4.314741e+000 3.041844e+000 4.401061e+000 5.781424e+000 8.591409e-001 -2.512928e-001 -1.498201e+000 -1.153928e+000 -2.074226e+000 -8.959914e-001 6.315436e-001 -8.310795e-001 -6.891093e-001 -2.143420e+000 -4.132718e-001 -8.653093e-001 -2.558394e+000 -2.000059e+000 -1.067366e+000 7.208414e-002 -8.713456e-001 4.893950e-001 7.808748e-001 6.494570e-001 2.849724e+000
<VARIANCE> 25
 1.310107e+001 1.837518e+001 2.539178e+001 2.663236e+001 3.216971e+001 3.971302e+001 3.076477e+001 2.185054e+001 2.823425e+001 2.472811e+001 2.164848e+001 2.596486e+001 1.464369e+000 1.742912e+000 4.353278e+000 5.327928e+000 4.324320e+000 4.435299e+000 4.182963e+000 4.378432e+000 4.916608e+000 6.430152e+000 2.954627e+000 2.880119e+000 1.194020e+000
<GCONST> 1.002052e+002
<TRANSP> 5
 0.000000e+000 1.000000e+000 0.000000e+000 0.000000e+000 0.000000e+000
 0.000000e+000 4.763267e-001 5.236734e-001 0.000000e+000 0.000000e+000
 0.000000e+000 0.000000e+000 5.642061e-001 4.357940e-001 0.000000e+000
 0.000000e+000 0.000000e+000 0.000000e+000 5.134835e-001 4.865165e-001
 0.000000e+000 0.000000e+000 0.000000e+000 0.000000e+000 0.000000e+000
<ENDHMM>
~h "c"
<BEGINHMM>
<NUMSTATES> 5
<STATE> 2
<MEAN> 25
 -4.588693e+000 4.632970e+000 -1.683659e+000 6.441005e+000 8.165675e-001 1.911332e+000 9.980031e-001 1.975574e+000 3.145204e+000 2.135108e+000 2.129781e+000 8.450031e-001 -2.680113e+000 6.327212e-001 -1.744168e+000 4.543494e-001 -3.998761e-001 6.602184e-001 2.706893e-001 -3.799870e-002 1.539473e-001 1.008835e-001 8.051016e-001 2.187639e-001 -1.992128e-001
<VARIANCE> 25
 2.873099e+001 2.507337e+001 3.358677e+001 2.526619e+001 3.336471e+001 3.177622e+001 3.065389e+001 2.773208e+001 3.373541e+001 2.722736e+001 2.578577e+001 1.875984e+001 2.089610e+000 2.938309e+000 3.526407e+000 2.650724e+000 2.836854e+000 3.753638e+000 3.096651e+000 3.015041e+000 3.198345e+000 2.913939e+000 2.697256e+000 2.061944e+000 3.472623e+000
<GCONST> 9.982840e+001
<STATE> 3
<MEAN> 25
 -1.657833e+001 8.668221e+000 -1.051791e+001 7.670329e+000 1.971686e-001 7.124716e-001 3.779490e+000 -1.412615e-001 3.224342e+000 -4.490153e-001 2.462919e+000 3.561071e+000 -1.078989e+000 -3.388767e-001 -3.014407e-001 -5.244117e-001 2.458664e-001 -5.086020e-001 1.028605e+000 -1.824026e-001 -1.343386e-001 -4.510421e-001 1.787781e-001 4.304265e-001 1.050158e+000
<VARIANCE> 25
 1.041875e+001 1.268127e+001 1.650434e+001 2.501951e+001 2.511001e+001 2.624804e+001 2.967580e+001 2.795645e+001 3.426500e+001 2.141768e+001 3.561462e+001 2.211986e+001 2.634747e+000 1.716431e+000 3.308713e+000 1.665355e+000 1.386261e+000 2.255206e+000 2.415882e+000 2.422424e+000 2.221565e+000 1.867703e+000 2.140169e+000 1.741351e+000 6.432607e-001
<GCONST> 9.175293e+001
<STATE> 4
<MEAN> 25
 -1.144866e+001 5.567772e+000 -3.697036e+000 4.344782e+000 -1.543461e-001 -3.822453e+000 4.724802e+000 -1.033600e+000 1.651095e-002 -9.573255e-001 9.228759e-001 3.080550e+000 4.258819e+000 -8.158436e-001 3.531182e+000 -8.577341e-001 -1.586569e+000 -2.043015e+000 -1.727175e+000 -7.651152e-001 -1.420211e+000 4.719918e-002 -1.520737e+000 -9.434862e-001 1.038628e+000
<VARIANCE> 25
 5.036465e+001 1.124345e+001 3.472977e+001 2.396952e+001 3.222364e+001 3.928926e+001 3.735180e+001 3.265309e+001 3.258790e+001 2.108199e+001 4.382825e+001 2.216936e+001 2.130747e+000 2.200970e+000 2.662174e+000 4.158183e+000 3.220220e+000 3.954905e+000 4.058823e+000 3.319206e+000 4.288984e+000 3.417917e+000 5.664138e+000 3.154197e+000 1.278153e+000
<GCONST> 1.015797e+002
<TRANSP> 5
 0.000000e+000 1.000000e+000 0.000000e+000 0.000000e+000 0.000000e+000
 0.000000e+000 7.936940e-001 2.063060e-001 0.000000e+000 0.000000e+000
 0.000000e+000 0.000000e+000 7.515008e-001 2.484992e-001 0.000000e+000
 0.000000e+000 0.000000e+000 0.000000e+000 6.527072e-001 3.472928e-001
 0.000000e+000 0.000000e+000 0.000000e+000 0.000000e+000 0.000000e+000
<ENDHMM>
~h "d"
<BEGINHMM>
<NUMSTATES> 5
<STATE> 2
<MEAN> 25
 4.931900e+000 3.217746e+000 3.552754e+000 2.568177e+000 1.853760e+000 -1.934543e+000 -3.442601e+000 -9.153574e-001 4.740648e-001 5.697436e-001 -3.985458e+000 -3.243630e+000 4.227704e-001 1.531990e+000 1.633901e+000 1.618821e+000 5.852470e-001 1.472254e+000 9.881904e-001 -6.127433e-002 -4.890793e-001 -7.173750e-001 -1.740806e-001 -4.430076e-001 -2.166806e+000
<VARIANCE> 25
 1.455699e+001 1.453110e+001 2.827416e+001 2.969257e+001 3.581403e+001 3.745914e+001 4.414220e+001 2.868520e+001 3.715876e+001 3.242535e+001 2.951834e+001 2.726799e+001 1.295616e+000 1.843208e+000 3.056291e+000 3.206239e+000 4.039145e+000 4.037715e+000 5.254532e+000 4.129335e+000 4.360785e+000 3.531544e+000 4.084701e+000 2.573593e+000 2.354980e+000
<GCONST> 1.011296e+002
<STATE> 3
<MEAN> 25
 5.241763e+000 5.626716e+000 6.189270e+000 5.028150e+000 2.571956e+000 7.559841e-001 -5.800070e-001 -1.384111e-001 6.837026e-001 -7.496938e-002 -2.599715e+000 -2.656831e+000 -7.300868e-001 2.632231e-001 -1.093782e-002 2.533530e-001 3.332403e-001 1.187853e-001 3.014788e-001 -1.663609e-001 8.269331e-004 -2.099944e-001 4.236260e-001 4.586674e-001 9.492920e-002
<VARIANCE> 25
 1.383019e+001 1.097684e+001 2.270861e+001 2.169386e+001 2.941950e+001 2.153296e+001 2.531448e+001 2.390529e+001 2.465966e+001 2.759049e+001 2.778251e+001 2.061486e+001 2.077141e+000 1.215954e+000 1.886066e+000 2.004931e+000 2.862993e+000 3.072236e+000 2.857128e+000 2.840871e+000 2.676289e+000 2.076215e+000 2.348724e+000 1.834596e+000 2.031550e+000
<GCONST> 9.330842e+001
<STATE> 4
<MEAN> 25
 9.311959e-001 3.860193e+000 2.772981e+000 3.316575e+000 2.882936e+000 -1.773935e+000 -2.098362e+000 -9.773077e-001 6.968161e-001 -3.624568e-001 -1.267268e+000 -5.063741e-001 -5.496572e-001 -1.305048e+000 -1.393247e+000 -1.589318e+000 -1.013800e+000 -1.308415e+000 -1.055003e+000 -1.200430e-001 4.385423e-001 3.458294e-001 2.125717e-001 6.576127e-001 2.479460e+000
<VARIANCE> 25
 2.246297e+001 1.842658e+001 2.849244e+001 3.014699e+001 3.987665e+001 3.646442e+001 3.999806e+001 3.699037e+001 3.417780e+001 2.952587e+001 3.257417e+001 2.497410e+001 2.664256e+000 2.587889e+000 3.866950e+000 3.336360e+000 4.118432e+000 3.985277e+000 4.939621e+000 5.357894e+000 4.530321e+000 3.377828e+000 4.089170e+000 2.953336e+000 3.142856e+000
<GCONST> 1.038546e+002
<TRANSP> 5
 0.000000e+000 1.000000e+000 0.000000e+000 0.000000e+000 0.000000e+000
 0.000000e+000 3.608620e-001 6.391380e-001 0.000000e+000 0.000000e+000
 0.000000e+000 0.000000e+000 4.801691e-001 5.198309e-001 0.000000e+000
 0.000000e+000 0.000000e+000 0.000000e+000 4.640413e-001 5.359587e-001
 0.000000e+000 0.000000e+000 0.000000e+000 0.000000e+000 0.000000e+000
<ENDHMM>
~h "e"
<BEGINHMM>
<NUMSTATES> 5
<STATE> 2
<MEAN> 25
 2.236192e+000 -4.623865e+000 2.755553e+000 -9.088954e-001 -7.417106e+000 -8.576492e+000 -1.272272e+000 4.822019e+000 -9.136529e-002 -1.771539e+000 -2.815810e-001 5.548553e-001 4.917270e-001 -7.862880e-001 -2.234949e-003 -4.925638e-001 -5.182155e-001 -5.032970e-001 3.269235e-002 9.475092e-001 9.239979e-002 1.791076e-001 -1.196784e-001 -9.225895e-002 6.235231e-001
<VARIANCE> 25
 9.939631e+000 2.233957e+001 2.634070e+001 2.929242e+001 3.230438e+001 2.673116e+001 5.543389e+001 3.770074e+001 4.103593e+001 3.255381e+001 3.244240e+001 2.360954e+001 2.833707e+000 1.970037e+000 2.233203e+000 2.436082e+000 3.753020e+000 2.859775e+000 4.914148e+000 3.574285e+000 3.767600e+000 3.378365e+000 3.375727e+000 2.447216e+000 1.400502e+000
<GCONST> 9.988750e+001
<STATE> 3
<MEAN> 25
 1.832520e+000 -4.987561e+000 3.415375e+000 -1.861765e+000 -7.847561e+000 -8.006598e+000 8.203471e-001 4.461287e+000 -7.569507e-001 -5.594066e-001 -6.396134e-001 4.841006e-002 2.859591e-001 8.087043e-001 -7.897130e-002 6.142442e-001 6.244601e-001 4.162990e-001 -1.666264e-001 -6.925858e-001 1.417853e-001 5.425212e-002 -2.623137e-001 -5.574583e-002 -7.882540e-001
<VARIANCE> 25
 9.677056e+000 2.056668e+001 2.825179e+001 3.220023e+001 3.496866e+001 2.729351e+001 6.521339e+001 4.657114e+001 4.729716e+001 3.595928e+001 3.286304e+001 2.709105e+001 7.787068e-001 1.286741e+000 1.586976e+000 1.840527e+000 2.388456e+000 2.029125e+000 2.997172e+000 2.463423e+000 2.437506e+000 2.340253e+000 1.993850e+000 1.803932e+000 8.969178e-001
<GCONST> 9.472745e+001
<STATE> 4
<MEAN> 25
 3.160849e+000 -5.830775e-001 3.091336e+000 2.244801e+000 -3.913995e+000 -6.016226e+000 -1.394420e+000 2.071891e+000 7.711057e-001 -1.051385e+000 -1.202629e+000 4.057033e-001 -7.230125e-003 1.803610e+000 4.016668e-001 1.349472e+000 1.648530e+000 2.052104e+000 2.221383e-001 -1.147112e+000 -1.136086e-002 4.205978e-001 3.170625e-001 -2.425521e-001 -2.279636e+000
<VARIANCE> 25
 1.301952e+001 2.737967e+001 3.371397e+001 3.235660e+001 3.721516e+001 3.779396e+001 5.171756e+001 4.020414e+001 4.475378e+001 3.262159e+001 3.526490e+001 2.928222e+001 1.807860e+000 2.257625e+000 2.911473e+000 3.266551e+000 3.417690e+000 3.082860e+000 5.285486e+000 4.648276e+000 4.179364e+000 3.659625e+000 3.546656e+000 2.685321e+000 1.793716e+000
<GCONST> 1.027133e+002
<TRANSP> 5
 0.000000e+000 1.000000e+000 0.000000e+000 0.000000e+000 0.000000e+000
 0.000000e+000 3.515048e-001 6.484951e-001 0.000000e+000 0.000000e+000
 0.000000e+000 0.000000e+000 5.309994e-001 4.690006e-001 0.000000e+000
 0.000000e+000 0.000000e+000 0.000000e+000 3.706442e-001 6.293559e-001
 0.000000e+000 0.000000e+000 0.000000e+000 0.000000e+000 0.000000e+000
<ENDHMM>
~h "f"
<BEGINHMM>
<NUMSTATES> 5
<STATE> 2
<MEAN> 25
 -1.034395e+001 1.916285e+000 -2.371013e+000 6.819027e+000 4.857018e+000 2.998711e+000 -6.263791e-001 4.093045e+000 1.513590e+000 2.829985e+000 1.630065e+000 3.663204e+000 -1.409807e+000 -8.187166e-001 -1.053805e+000 -2.310745e-002 6.417730e-002 2.153598e-001 -2.465673e-002 -2.122988e-001 1.234278e-002 -1.673410e-001 3.368494e-001 4.271566e-001 6.783273e-002
<VARIANCE> 25
 2.112023e+001 1.389043e+001 1.880713e+001 2.080904e+001 2.872013e+001 2.304244e+001 2.692497e+001 1.153842e+001 2.037117e+001 1.882761e+001 2.325750e+001 2.176839e+001 3.205202e+000 1.090822e+000 2.456234e+000 1.912938e+000 2.475237e+000 4.026508e+000 2.964328e+000 1.484510e+000 2.553348e+000 1.914912e+000 3.271997e+000 2.199463e+000 1.785701e+000
<GCONST> 9.272864e+001
<STATE> 3
<MEAN> 25
 -9.170553e+000 -4.135185e-001 -6.748716e+000 6.143549e+000 5.653838e+000 3.101513e+000 -1.720349e-001 -4.521453e-002 3.867520e-001 1.091066e+000 1.805050e+000 1.065473e+000 3.581537e+000 4.832327e-001 -2.476282e-001 -1.121611e-003 -1.276172e+000 -2.733299e-001 -6.717319e-001 -1.973098e+000 -2.719056e-001 -4.370539e-001 -7.129651e-002 -2.003806e+000 9.255272e-001
<VARIANCE> 25
 5.010851e+001 1.476644e+001 1.535854e+001 1.344560e+001 2.323338e+001 1.542566e+001 1.384302e+001 2.566425e+001 1.573830e+001 1.895882e+001 1.766593e+001 2.268646e+001 3.974831e+000 3.621395e+000 1.961865e+000 2.132505e+000 2.846964e+000 1.610546e+000 1.558229e+000 1.557802e+000 8.590121e-001 1.713135e+000 4.524050e+000 1.967101e+000 1.184057e+000
<GCONST> 9.057903e+001
<STATE> 4
<MEAN> 25
 3.268570e+000 1.447853e+000 -6.456843e+000 5.784625e+000 -6.407240e-001 -6.133941e-001 -3.861236e+000 -3.533170e+000 -1.778368e-001 7.342126e-001 1.730921e+000 -5.475770e+000 3.353153e+000 -1.048704e+000 -3.883610e-001 -3.530043e-001 -2.727006e+000 -1.508576e+000 -1.102478e+000 -5.879551e-001 7.628403e-001 -4.849139e-001 1.503969e+000 -1.072114e+000 1.621676e+000
<VARIANCE> 25
 7.242987e+000 1.621232e+001 3.276623e+001 2.332333e+001 1.659385e+001 1.994127e+001 2.767774e+001 2.929529e+001 1.138841e+001 1.647389e+001 4.574056e+001 1.493557e+001 3.440399e+000 5.232573e+000 1.864452e+000 4.830952e+000 5.390523e+000 1.562126e+000 3.523264e+000 4.871189e+000 3.114357e+000 3.118852e+000 1.580796e+000 1.769046e+000 2.594047e+000
<GCONST> 9.592956e+001
<TRANSP> 5
 0.000000e+000 1.000000e+000 0.000000e+000 0.000000e+000 0.000000e+000
 0.000000e+000 8.309106e-001 1.690895e-001 0.000000e+000 0.000000e+000
 0.000000e+000 0.000000e+000 6.599133e-001 3.400867e-001 0.000000e+000
 0.000000e+000 0.000000e+000 0.000000e+000 4.149415e-001 5.850585e-001
 0.000000e+000 0.000000e+000 0.000000e+000 0.000000e+000 0.000000e+000
<ENDHMM>
~h "g"
<BEGINHMM>
<NUMSTATES> 5
<STATE> 2
<MEAN> 25
 7.417355e+000 6.655988e+000 1.418302e+000 -3.008441e+000 -4.637787e+000 1.619754e+000 4.129258e-001 1.404683e+000 -3.158534e+000 -2.854669e+000 -1.345544e+000 -3.278822e+000 5.788547e-002 1.301122e-001 1.267511e+000 2.393815e+000 1.187864e+000 -4.468748e-001 4.267341e-001 3.152663e-001 9.976534e-001 1.813999e-002 -6.717862e-001 -4.111132e-001 -1.476732e+000
<VARIANCE> 25
 1.183423e+001 1.448856e+001 2.810693e+001 5.713581e+001 4.299286e+001 3.003906e+001 3.220015e+001 3.408332e+001 4.423970e+001 3.640286e+001 3.894146e+001 3.219542e+001 8.827613e-001 1.193971e+000 2.272350e+000 3.852307e+000 3.620161e+000 3.285360e+000 2.805855e+000 3.869956e+000 4.658566e+000 4.538126e+000 3.469972e+000 3.028023e+000 8.276447e-001
<GCONST> 9.945232e+001
<STATE> 3
<MEAN> 25
 6.512124e+000 6.422594e+000 4.114203e+000 2.987696e+000 -9.284836e-001 1.517379e+000 1.195247e+000 4.094585e-001 -1.707029e+000 -1.914635e+000 -5.105172e-001 -1.777708e+000 -7.651998e-001 -2.748178e-001 -5.815666e-001 5.789003e-001 9.619746e-001 3.726461e-001 2.752863e-001 -2.015987e-001 -2.461952e-001 -5.403963e-002 4.230165e-001 8.268438e-001 4.000456e-002
<VARIANCE> 25
 1.073330e+001 1.190137e+001 2.246234e+001 3.204319e+001 2.525507e+001 2.335677e+001 2.744092e+001 2.318322e+001 3.102318e+001 2.725328e+001 2.667641e+001 2.385632e+001 1.127341e+000 1.362634e+000 2.791592e+000 4.317209e+000 3.392651e+000 3.110758e+000 2.543612e+000 3.105971e+000 4.061121e+000 2.605057e+000 2.893663e+000 2.302536e+000 1.258262e+000
<GCONST> 9.523404e+001
<STATE> 4
<MEAN> 25
 3.476934e+000 3.998359e+000 -7.545454e-001 1.686135e+000 1.560478e+000 2.869050e+000 1.279096e+000 -1.150379e+000 -4.363056e+000 -1.490452e+000 2.770422e+000 1.242204e+000 -6.837710e-001 -1.124221e+000 -1.491127e+000 -1.142031e+000 -1.557633e-001 -4.711317e-001 -7.247145e-001 -6.545551e-001 -1.746456e-001 9.388870e-001 1.184246e+000 6.360022e-001 1.810520e+000
<VARIANCE> 25
 2.058302e+001 2.330472e+001 4.056925e+001 6.099391e+001 4.472729e+001 5.154495e+001 3.929282e+001 4.025368e+001 4.235258e+001 4.322923e+001 4.700414e+001 3.255637e+001 1.724602e+000 2.422868e+000 4.003983e+000 5.296226e+000 5.071033e+000 5.273923e+000 5.396755e+000 4.646544e+000 5.830712e+000 5.670561e+000 5.816516e+000 3.502939e+000 1.624342e+000
<GCONST> 1.078792e+002
<TRANSP> 5
 0.000000e+000 1.000000e+000 0.000000e+000 0.000000e+000 0.000000e+000
 0.000000e+000 4.366620e-001 5.633379e-001 0.000000e+000 0.000000e+000
 0.000000e+000 0.000000e+000 4.158121e-001 5.841878e-001 0.000000e+000
 0.000000e+000 0.000000e+000 0.000000e+000 4.427765e-001 5.572235e-001
 0.000000e+000 0.000000e+000 0.000000e+000 0.000000e+000 0.000000e+000
<ENDHMM>
~h "h"
<BEGINHMM>
<NUMSTATES> 5
<STATE> 2
<MEAN> 25
 9.840752e-001 7.189884e+000 2.103829e+000 3.624148e-001 2.619952e+000 3.934160e+000 5.806113e+000 1.692493e+000 -2.552572e+000 4.555118e-001 6.013603e-001 9.291540e-001 -2.053586e+000 -1.233951e+000 -1.537970e+000 1.599949e+000 4.277365e+000 1.277234e+000 1.055959e+000 1.259825e-001 2.709351e-001 1.130370e+000 7.548588e-001 1.327264e+000 -6.338021e-001
<VARIANCE> 25
 2.847122e+001 1.915769e+001 6.123588e+001 5.451259e+001 5.898817e+001 4.439880e+001 3.737054e+001 4.042670e+001 4.775925e+001 3.314861e+001 2.720424e+001 2.561063e+001 2.229739e+000 2.560713e+000 2.692137e+000 3.860951e+000 6.353475e+000 3.266221e+000 4.229203e+000 5.567637e+000 6.039934e+000 4.250203e+000 3.602087e+000 2.980512e+000 7.896820e-001
<GCONST> 1.051240e+002
<STATE> 3
<MEAN> 25
 -6.371099e+000 -8.730371e-002 -2.980724e+000 1.515254e+000 8.056585e+000 3.759436e+000 5.237543e+000 1.193297e+000 -7.722389e-001 3.364137e+000 1.359773e+000 3.485838e+000 -6.675334e-001 -1.312971e+000 -1.364588e+000 -3.648825e-001 7.123916e-001 -3.301683e-001 -8.368428e-001 -3.569352e-001 2.302341e-001 5.406674e-001 3.031092e-002 -1.465812e-001 1.241819e-001
<VARIANCE> 25
 3.311246e+001 2.495447e+001 7.067954e+001 3.905881e+001 5.141576e+001 6.352659e+001 4.922581e+001 4.830727e+001 4.369999e+001 2.815608e+001 3.618060e+001 2.759879e+001 2.250956e+000 1.951655e+000 2.623675e+000 2.072215e+000 4.099604e+000 2.764262e+000 3.704428e+000 4.590528e+000 3.627152e+000 3.457675e+000 2.635589e+000 2.859364e+000 1.116783e+000
<GCONST> 1.035675e+002
<STATE> 4
<MEAN> 25
 -2.492646e+000 -1.551770e+000 -5.007235e+000 2.047669e-001 1.016733e+001 2.936131e+000 1.863678e+000 -3.251804e-001 -1.226902e-001 4.022908e+000 -4.574015e-001 -1.173562e+000 1.644000e+000 2.750922e-001 9.486066e-001 -1.061512e-001 -1.508847e+000 -1.352454e+000 -2.964008e-001 6.509908e-002 9.117266e-001 -7.650600e-001 -1.056393e+000 -1.290492e+000 5.783768e-001
<VARIANCE> 25
 3.417833e+001 2.953681e+001 5.540085e+001 3.299960e+001 5.444659e+001 5.222514e+001 5.595127e+001 4.705552e+001 3.473537e+001 3.677005e+001 5.313824e+001 3.925349e+001 2.794560e+000 2.811128e+000 3.411082e+000 3.049163e+000 4.609702e+000 5.528667e+000 5.252303e+000 4.136545e+000 5.650712e+000 4.577259e+000 4.891623e+000 4.220277e+000 2.282125e+000
<GCONST> 1.088244e+002
<TRANSP> 5
 0.000000e+000 1.000000e+000 0.000000e+000 0.000000e+000 0.000000e+000
 0.000000e+000 4.790713e-001 5.209287e-001 0.000000e+000 0.000000e+000
 0.000000e+000 0.000000e+000 6.307577e-001 3.692422e-001 0.000000e+000
 0.000000e+000 0.000000e+000 0.000000e+000 6.031196e-001 3.968804e-001
 0.000000e+000 0.000000e+000 0.000000e+000 0.000000e+000 0.000000e+000
<ENDHMM>
~h "i"
<BEGINHMM>
<NUMSTATES> 5
<STATE> 2
<MEAN> 25
 7.824162e-001 1.337226e+000 8.296895e+000 1.200055e+000 -8.107486e+000 -4.684525e+000 -1.604983e+000 -2.069619e+000 -5.488147e+000 -3.303899e-001 5.514619e-001 -5.954229e-001 4.120871e-001 -2.269349e-001 1.798339e+000 -9.731745e-001 -2.322256e+000 -4.485083e-001 -5.596080e-001 -2.727807e-001 -1.272088e+000 3.832865e-001 1.627950e-001 -4.658057e-001 1.243970e+000
<VARIANCE> 25
 1.292078e+001 2.589241e+001 2.621988e+001 3.785608e+001 3.917839e+001 3.792548e+001 3.685012e+001 4.027794e+001 3.429160e+001 3.464338e+001 3.114382e+001 2.634141e+001 3.796684e+000 2.368675e+000 2.663745e+000 4.147830e+000 4.360900e+000 3.703861e+000 4.263109e+000 4.114863e+000 3.878001e+000 4.532677e+000 4.728998e+000 2.862207e+000 1.651219e+000
<GCONST> 1.032751e+002
<STATE> 3
<MEAN> 25
 -8.321973e-002 1.242243e+000 1.099742e+001 -2.046762e+000 -1.145200e+001 -2.200137e+000 -2.325021e+000 -3.225452e+000 -6.232892e+000 1.559383e+000 7.347555e-002 -2.164557e+000 -9.279846e-004 1.129227e-001 1.229807e-001 -4.290069e-002 -1.089150e-001 1.444826e-001 5.220053e-002 -5.090542e-002 -3.180339e-003 2.311759e-001 -9.404822e-002 -3.572620e-002 -6.599370e-002
<VARIANCE> 25
 1.135052e+001 2.087135e+001 2.442479e+001 4.734352e+001 3.730331e+001 4.010848e+001 3.828514e+001 3.699413e+001 3.377659e+001 4.877091e+001 4.495224e+001 3.267693e+001 7.491432e-001 1.185213e+000 1.330378e+000 1.889828e+000 1.864032e+000 2.008815e+000 1.953008e+000 2.139285e+000 2.010028e+000 2.002576e+000 1.850095e+000 1.429835e+000 5.537753e-001
<GCONST> 9.306081e+001
<STATE> 4
<MEAN> 25
 1.559660e+000 1.899048e+000 8.716159e+000 1.922606e+000 -7.817353e+000 -4.121922e+000 -9.501510e-001 -1.343320e+000 -5.286688e+000 7.591326e-001 6.939984e-001 -4.635066e-001 2.062620e-001 6.971460e-001 -9.647087e-001 1.107552e+000 2.040116e+000 6.169055e-001 4.168437e-001 2.545512e-001 1.103681e+000 -1.441302e-001 6.364265e-003 2.890593e-001 -1.503155e+000
<VARIANCE> 25
 1.218989e+001 2.146297e+001 2.665666e+001 4.226576e+001 4.267912e+001 3.959202e+001 3.692113e+001 4.096255e+001 3.447477e+001 3.675993e+001 3.169382e+001 2.582713e+001 1.687335e+000 2.152066e+000 2.772969e+000 3.398630e+000 4.024984e+000 3.996906e+000 4.250613e+000 3.521499e+000 3.305306e+000 3.941662e+000 3.633783e+000 2.554203e+000 1.994941e+000
<GCONST> 1.016495e+002
<TRANSP> 5
 0.000000e+000 1.000000e+000 0.000000e+000 0.000000e+000 0.000000e+000
 0.000000e+000 4.375526e-001 5.624473e-001 0.000000e+000 0.000000e+000
 0.000000e+000 0.000000e+000 6.252539e-001 3.747461e-001 0.000000e+000
 0.000000e+000 0.000000e+000 0.000000e+000 5.262002e-001 4.737998e-001
 0.000000e+000 0.000000e+000 0.000000e+000 0.000000e+000 0.000000e+000
<ENDHMM>
~h "j"
<BEGINHMM>
<NUMSTATES> 5
<STATE> 2
<MEAN> 25
 1.185979e+000 8.083412e-001 8.551056e+000 -2.516029e-001 -7.661150e+000 -2.918922e+000 -1.774681e+000 -5.399221e-001 -4.367606e+000 -4.385827e-001 3.891895e-001 -2.733706e-001 -2.250857e-001 -5.511665e-001 1.069947e+000 -8.246797e-001 -1.632219e+000 -6.219609e-001 -2.845083e-001 2.853262e-001 -4.160507e-001 2.403235e-001 2.970547e-001 2.417170e-001 1.109915e+000
<VARIANCE> 25
 1.213778e+001 3.045150e+001 3.702891e+001 4.419960e+001 4.335940e+001 4.322462e+001 4.057148e+001 4.854826e+001 3.473755e+001 4.174018e+001 3.040682e+001 2.829040e+001 2.488651e+000 2.586579e+000 2.739929e+000 3.795310e+000 3.833143e+000 3.340496e+000 3.925977e+000 3.590610e+000 3.391002e+000 3.497098e+000 2.926392e+000 2.179487e+000 1.784522e+000
<GCONST> 1.027224e+002
<STATE> 3
<MEAN> 25
 3.616820e-001 -1.637408e+000 8.774386e+000 -4.327310e+000 -1.034298e+001 -5.100587e+000 6.524671e-001 -9.395924e-001 -3.899622e+000 2.555194e+000 1.216362e+000 -3.314732e-001 -2.659385e-003 -8.079838e-001 -5.944844e-001 5.521028e-002 -2.360211e-001 -7.434573e-001 5.405463e-001 9.712757e-001 3.971208e-001 -2.066570e-002 2.923124e-001 1.452383e-001 4.359106e-001
<VARIANCE> 25
 9.576315e+000 2.160492e+001 2.878387e+001 4.534872e+001 3.414584e+001 3.394981e+001 4.860708e+001 4.582091e+001 3.662364e+001 4.966693e+001 3.530822e+001 2.356735e+001 5.562208e-001 1.401421e+000 1.554732e+000 1.643432e+000 1.683587e+000 2.026954e+000 2.752859e+000 2.498982e+000 2.067481e+000 2.073870e+000 1.791302e+000 1.337419e+000 5.449048e-001
<GCONST> 9.301464e+001
<STATE> 4
<MEAN> 25
 1.064767e+000 -3.528716e+000 5.294755e+000 -7.098636e-001 -9.284629e+000 -6.912457e+000 -8.530609e-001 4.034089e+000 -2.602871e+000 -3.239046e-001 1.581937e+000 2.794885e-001 3.905204e-001 -3.952202e-001 -1.741013e+000 3.331305e-001 1.353040e+000 -5.061188e-001 -4.453259e-001 8.056652e-001 1.073753e+000 -4.278907e-001 -4.277950e-001 5.734887e-003 -8.435945e-003
<VARIANCE> 25
 1.077579e+001 2.161632e+001 2.964910e+001 4.561150e+001 3.895631e+001 2.869811e+001 7.366350e+001 3.980407e+001 3.979142e+001 4.378955e+001 3.475110e+001 2.833367e+001 5.418419e-001 1.688561e+000 3.223099e+000 2.067440e+000 2.605232e+000 2.656557e+000 3.857208e+000 3.969845e+000 3.164009e+000 3.363692e+000 2.783733e+000 2.249821e+000 6.843697e-001
<GCONST> 9.825656e+001
<TRANSP> 5
 0.000000e+000 1.000000e+000 0.000000e+000 0.000000e+000 0.000000e+000
 0.000000e+000 4.510106e-001 5.489894e-001 0.000000e+000 0.000000e+000
 0.000000e+000 0.000000e+000 5.461870e-001 4.538130e-001 0.000000e+000
 0.000000e+000 0.000000e+000 0.000000e+000 3.422672e-001 6.577327e-001
 0.000000e+000 0.000000e+000 0.000000e+000 0.000000e+000 0.000000e+000
<ENDHMM>
~h "k"
<BEGINHMM>
<NUMSTATES> 5
<STATE> 2
<MEAN> 25
 -1.223819e+000 3.401276e-002 1.121297e+000 4.360645e+000 2.200923e+000 2.629830e+000 2.136936e+000 3.015876e+000 2.258694e+000 2.881120e+000 2.794061e+000 1.314784e+000 -9.916383e-001 -8.566695e-001 -7.450682e-001 -2.506701e-001 -2.219388e-002 2.108700e-001 -9.394629e-002 8.055039e-002 2.780777e-001 5.831298e-002 3.254483e-001 4.509666e-001 -8.445559e-001
<VARIANCE> 25
 1.468003e+001 1.400582e+001 2.409856e+001 2.552570e+001 2.829158e+001 2.983755e+001 2.783714e+001 3.012239e+001 2.483135e+001 2.632382e+001 2.897462e+001 2.160249e+001 2.269624e+000 1.760097e+000 3.462755e+000 3.094362e+000 3.967640e+000 4.647965e+000 3.500161e+000 3.511761e+000 3.445280e+000 3.130888e+000 3.487541e+000 2.414155e+000 3.922659e+000
<GCONST> 9.914230e+001
<STATE> 3
<MEAN> 25
 -5.718709e+000 -4.077909e+000 -6.239138e+000 1.579300e+000 5.745337e+000 1.461090e+000 9.541896e-001 2.596900e+000 6.338878e-001 3.419982e+000 1.101954e+000 3.014580e+000 -9.658194e-001 -3.655825e-001 -1.787504e+000 -8.602201e-001 1.031112e+000 -1.143258e-001 -1.305720e-001 -6.276964e-003 -4.932632e-001 6.840615e-002 -5.208312e-001 1.757706e-001 1.939325e+000
<VARIANCE> 25
 2.262684e+001 2.209520e+001 5.215362e+001 4.560178e+001 4.868826e+001 5.359443e+001 4.315249e+001 3.814975e+001 4.230802e+001 3.292192e+001 3.844296e+001 2.379822e+001 2.727103e+000 2.429503e+000 5.846530e+000 4.202175e+000 4.426232e+000 4.800063e+000 4.111625e+000 3.938462e+000 3.908904e+000 3.100330e+000 3.501214e+000 2.828908e+000 2.311738e+000
<GCONST> 1.058255e+002
<STATE> 4
<MEAN> 25
 -4.654417e+000 -2.795129e-002 -4.653863e+000 3.786045e-002 5.577567e+000 1.619069e+000 1.120509e+000 1.174406e+000 -8.213418e-001 2.064443e+000 2.024996e-001 1.245018e+000 2.434356e+000 1.617248e+000 1.917502e+000 -7.963062e-001 -1.735158e+000 -7.183140e-001 -5.274496e-001 -1.348063e+000 -1.140228e+000 -8.598784e-001 -5.180634e-001 -1.206227e+000 1.317912e+000
<VARIANCE> 25
 3.749150e+001 2.565871e+001 6.003498e+001 4.000307e+001 4.340345e+001 5.245209e+001 4.136922e+001 4.309674e+001 4.202375e+001 3.569057e+001 4.242441e+001 2.473749e+001 2.480741e+000 2.177313e+000 3.556138e+000 4.122570e+000 3.868700e+000 3.915817e+000 4.960001e+000 4.009159e+000 4.289671e+000 4.116502e+000 5.793907e+000 2.983816e+000 1.845510e+000
<GCONST> 1.064991e+002
<TRANSP> 5
 0.000000e+000 1.000000e+000 0.000000e+000 0.000000e+000 0.000000e+000
 0.000000e+000 6.908985e-001 3.091015e-001 0.000000e+000 0.000000e+000
 0.000000e+000 0.000000e+000 6.080175e-001 3.919824e-001 0.000000e+000
 0.000000e+000 0.000000e+000 0.000000e+000 5.586442e-001 4.413558e-001
 0.000000e+000 0.000000e+000 0.000000e+000 0.000000e+000 0.000000e+000
<ENDHMM>
~h "l"
<BEGINHMM>
<NUMSTATES> 5
<STATE> 2
<MEAN> 25
 6.089730e+000 -1.574788e+000 -2.795501e+000 -4.090223e+000 -2.636442e+000 2.878218e+000 -9.419487e-001 -7.327878e+000 -5.004075e-001 3.387877e+000 1.228574e+000 -3.056852e-001 1.370462e+000 -1.327603e-001 -9.520374e-002 -1.760797e+000 -8.172969e-001 8.848866e-001 -1.387484e-001 -1.658891e+000 -7.227712e-001 1.201044e+000 1.948874e-001 3.271917e-002 4.554833e-001
<VARIANCE> 25
 1.661048e+001 2.903732e+001 3.219542e+001 5.903042e+001 4.276207e+001 6.153685e+001 6.865946e+001 5.887073e+001 5.420380e+001 4.193079e+001 4.729546e+001 3.249434e+001 2.569874e+000 2.993205e+000 4.057714e+000 7.411859e+000 5.753420e+000 6.235209e+000 5.713617e+000 6.294464e+000 6.970800e+000 4.382907e+000 5.075608e+000 3.986147e+000 3.188169e+000
<GCONST> 1.111141e+002
<STATE> 3
<MEAN> 25
 7.554667e+000 -2.280364e+000 -3.054675e+000 -7.830971e+000 -3.122844e+000 5.300967e+000 -1.866477e-001 -8.460641e+000 -1.870012e+000 5.143146e+000 1.206887e+000 1.234037e-001 7.770280e-002 -1.259923e-001 -3.870240e-001 -9.531809e-001 4.723633e-001 2.021840e-001 2.170189e-002 3.523002e-001 -1.594044e-001 1.439412e-001 -2.170380e-001 -2.001625e-001 3.088252e-001
<VARIANCE> 25
 1.129070e+001 2.152084e+001 3.293262e+001 6.821908e+001 4.997984e+001 6.216573e+001 7.231266e+001 6.496918e+001 5.760167e+001 4.138724e+001 4.467482e+001 2.883772e+001 1.093656e+000 2.802066e+000 3.625755e+000 4.759324e+000 5.921104e+000 4.957869e+000 4.042604e+000 4.371090e+000 5.935385e+000 3.291394e+000 4.151069e+000 3.804161e+000 1.654642e+000
<GCONST> 1.070458e+002
<STATE> 4
<MEAN> 25
 6.649721e+000 -2.179231e+000 -3.988633e+000 -7.674520e+000 -7.052535e-001 3.556261e+000 -1.237830e+000 -5.819716e+000 -1.755895e+000 3.969953e+000 -1.044754e-001 -9.923291e-001 -4.426978e-001 -1.610786e-001 -1.076847e-001 2.214261e-001 4.299929e-001 -7.030072e-001 1.189094e-001 1.341684e+000 -2.397504e-002 -7.814912e-001 -2.772596e-001 -2.020063e-001 3.032281e-001
<VARIANCE> 25
 1.229294e+001 2.037568e+001 4.318944e+001 6.855318e+001 4.960159e+001 6.745342e+001 6.570869e+001 5.475271e+001 5.992167e+001 4.071997e+001 4.633443e+001 2.970076e+001 7.988445e-001 2.266972e+000 2.927310e+000 4.525477e+000 5.318495e+000 5.505499e+000 3.803533e+000 4.877261e+000 4.908856e+000 3.819276e+000 3.767048e+000 3.194963e+000 9.343061e-001
<GCONST> 1.056200e+002
<TRANSP> 5
 0.000000e+000 1.000000e+000 0.000000e+000 0.000000e+000 0.000000e+000
 0.000000e+000 3.639364e-001 6.360636e-001 0.000000e+000 0.000000e+000
 0.000000e+000 0.000000e+000 2.779439e-001 7.220561e-001 0.000000e+000
 0.000000e+000 0.000000e+000 0.000000e+000 3.610690e-001 6.389310e-001
 0.000000e+000 0.000000e+000 0.000000e+000 0.000000e+000 0.000000e+000
<ENDHMM>
~h "m"
<BEGINHMM>
<NUMSTATES> 5
<STATE> 2
<MEAN> 25
 7.395693e+000 6.248955e-001 1.713989e+000 1.863721e+000 -1.408069e+000 1.229275e+000 -1.914538e+000 -5.282522e+000 -6.219038e+000 4.954758e-001 7.791210e-001 -4.273785e+000 3.784618e-001 1.099386e+000 1.284474e+000 9.909337e-001 1.445874e-001 7.227783e-001 2.489947e-001 -1.965421e+000 -1.790934e+000 3.089235e-001 8.087111e-001 -7.840540e-001 -1.037651e+000
<VARIANCE> 25
 7.416601e+000 1.686885e+001 2.248769e+001 2.609879e+001 2.510099e+001 3.070362e+001 3.290662e+001 4.139312e+001 3.746545e+001 2.848329e+001 4.080991e+001 2.250248e+001 9.072924e-001 1.832572e+000 2.759582e+000 2.817551e+000 3.405034e+000 3.703153e+000 3.885550e+000 3.909676e+000 4.171280e+000 3.978038e+000 3.453223e+000 2.728089e+000 1.179511e+000
<GCONST> 9.784190e+001
<STATE> 3
<MEAN> 25
 7.420160e+000 1.915952e+000 3.587196e+000 2.059426e+000 -1.853692e+000 2.159867e+000 -1.174107e+000 -6.287587e+000 -7.253277e+000 1.208594e-001 1.173571e+000 -3.748527e+000 -6.927008e-002 1.271882e-001 2.841375e-001 1.297987e-001 -4.690872e-002 4.311057e-002 7.726577e-002 3.899178e-002 1.238619e-001 -1.474419e-001 3.446514e-003 2.274111e-001 -1.371475e-001
<VARIANCE> 25
 5.569409e+000 1.189328e+001 1.668382e+001 2.405273e+001 2.428565e+001 3.179719e+001 3.591949e+001 3.616713e+001 3.020828e+001 3.449588e+001 4.035279e+001 2.270246e+001 2.928533e-001 8.866351e-001 1.005137e+000 1.278769e+000 1.479090e+000 1.367362e+000 1.562389e+000 1.795467e+000 1.615236e+000 1.893699e+000 1.805200e+000 1.487621e+000 5.450388e-001
<GCONST> 8.586003e+001
<STATE> 4
<MEAN> 25
 6.826284e+000 1.424776e+000 2.992872e+000 2.564546e+000 -1.456876e+000 1.536301e+000 -1.327924e+000 -5.332999e+000 -5.857540e+000 -3.113599e-002 1.292113e+000 -2.967676e+000 -6.789380e-001 -6.883423e-001 -4.707419e-001 -8.880146e-001 -1.933586e-001 -3.388169e-001 2.078453e-001 1.918420e+000 1.634125e+000 -5.451531e-001 -5.838890e-001 1.031059e+000 6.820288e-001
<VARIANCE> 25
 8.291638e+000 1.652391e+001 2.156998e+001 2.785134e+001 2.787291e+001 3.410112e+001 3.599699e+001 4.326769e+001 3.347520e+001 3.444248e+001 3.809455e+001 2.337596e+001 8.945884e-001 1.813581e+000 4.646571e+000 3.660241e+000 4.401325e+000 3.875925e+000 3.541390e+000 3.715270e+000 3.758827e+000 3.884377e+000 2.968678e+000 2.365427e+000 1.752359e+000
<GCONST> 9.923721e+001
<TRANSP> 5
 0.000000e+000 1.000000e+000 0.000000e+000 0.000000e+000 0.000000e+000
 0.000000e+000 4.228889e-001 5.771111e-001 0.000000e+000 0.000000e+000
 0.000000e+000 0.000000e+000 6.321726e-001 3.678274e-001 0.000000e+000
 0.000000e+000 0.000000e+000 0.000000e+000 4.110445e-001 5.889555e-001
 0.000000e+000 0.000000e+000 0.000000e+000 0.000000e+000 0.000000e+000
<ENDHMM>
~h "n"
<BEGINHMM>
<NUMSTATES> 5
<STATE> 2
<MEAN> 25
 5.831165e+000 1.342778e+000 3.186595e+000 1.912204e+000 -3.003124e+000 -5.568697e-002 -1.030380e+000 -4.510958e+000 -3.123301e+000 -7.667418e-001 -3.868416e+000 -1.540286e+000 9.112267e-001 6.216967e-001 6.847760e-001 1.146162e-001 -7.504973e-001 2.495419e-001 1.669925e-001 -1.594021e+000 -8.284461e-001 7.352142e-002 -4.552931e-001 -9.199250e-002 -1.750100e-001
<VARIANCE> 25
 1.149628e+001 1.871578e+001 2.373734e+001 2.512238e+001 3.119851e+001 3.092348e+001 3.446658e+001 3.814096e+001 3.235910e+001 3.183940e+001 3.507845e+001 2.373752e+001 1.593843e+000 1.836905e+000 2.948573e+000 2.447062e+000 3.430782e+000 3.596668e+000 3.721832e+000 4.773607e+000 3.967049e+000 3.314340e+000 3.896270e+000 2.576403e+000 2.581752e+000
<GCONST> 9.969625e+001
<STATE> 3
<MEAN> 25
 6.990178e+000 1.436325e+000 3.917628e+000 1.278921e+000 -3.841001e+000 7.693107e-001 -3.383082e-001 -5.805365e+000 -3.389277e+000 -4.157199e-001 -3.416783e+000 -1.203376e+000 -9.231669e-002 -2.852373e-001 -2.946042e-001 -1.914195e-001 8.397239e-002 -2.118765e-001 -1.110414e-001 2.469647e-001 2.004438e-001 8.928338e-002 5.552771e-003 6.974746e-003 4.272829e-001
<VARIANCE> 25
 6.184981e+000 1.623259e+001 2.217678e+001 2.093490e+001 2.536680e+001 2.824460e+001 3.381821e+001 3.642578e+001 2.762097e+001 2.959267e+001 3.714142e+001 2.303097e+001 6.148917e-001 1.186358e+000 1.539123e+000 1.462292e+000 1.896639e+000 2.144653e+000 1.976348e+000 2.450738e+000 2.443155e+000 2.046367e+000 2.108223e+000 1.468554e+000 1.002214e+000
<GCONST> 9.006302e+001
<STATE> 4
<MEAN> 25
 5.422464e+000 -7.494650e-001 1.207809e+000 6.690719e-001 -2.247333e+000 -1.992902e+000 -2.258905e+000 -2.670417e+000 -1.407087e+000 -7.943344e-001 -4.625619e+000 -1.497573e+000 -8.230911e-001 -1.174392e+000 -1.440094e+000 -9.712254e-001 1.150651e+000 -6.475655e-001 -3.978373e-001 2.436889e+000 1.080553e+000 -5.344625e-001 9.753172e-002 1.086786e-001 1.433326e+000
<VARIANCE> 25
 8.447034e+000 2.148200e+001 2.797344e+001 2.587209e+001 3.115991e+001 3.849878e+001 3.668890e+001 4.822910e+001 4.128812e+001 3.323935e+001 3.643688e+001 2.702114e+001 9.120644e-001 1.989303e+000 3.425852e+000 2.549023e+000 4.035565e+000 5.085763e+000 4.307997e+000 5.467450e+000 4.992389e+000 4.023448e+000 3.819684e+000 2.456673e+000 1.069240e+000
<GCONST> 1.006667e+002
<TRANSP> 5
 0.000000e+000 1.000000e+000 0.000000e+000 0.000000e+000 0.000000e+000
 0.000000e+000 3.164420e-001 6.835580e-001 0.000000e+000 0.000000e+000
 0.000000e+000 0.000000e+000 4.872916e-001 5.127084e-001 0.000000e+000
 0.000000e+000 0.000000e+000 0.000000e+000 4.086173e-001 5.913827e-001
 0.000000e+000 0.000000e+000 0.000000e+000 0.000000e+000 0.000000e+000
<ENDHMM>
~h "o"
<BEGINHMM>
<NUMSTATES> 5
<STATE> 2
<MEAN> 25
 6.051086e+000 6.176538e-001 -5.308503e+000 -8.817621e+000 -1.214064e+000 4.458724e+000 -2.819232e+000 -2.844741e+000 -1.169735e+000 4.746571e-001 1.704862e+000 -9.483648e-001 1.153322e+000 8.925902e-002 -8.126557e-001 -2.863410e+000 -9.304379e-001 1.481736e+000 1.378082e-002 -4.661663e-001 -1.202152e-001 -1.401180e-001 7.429199e-001 -7.447681e-002 1.069368e+000
<VARIANCE> 25
 1.368454e+001 2.947526e+001 2.494179e+001 5.414824e+001 5.150970e+001 4.541489e+001 6.142137e+001 3.625423e+001 5.158440e+001 5.033860e+001 5.287093e+001 2.814260e+001 2.626370e+000 2.189693e+000 2.992033e+000 5.228281e+000 6.125143e+000 4.755820e+000 5.076240e+000 4.791993e+000 4.894469e+000 5.137763e+000 4.752772e+000 2.926129e+000 2.046551e+000
<GCONST> 1.074240e+002
<STATE> 3
<MEAN> 25
 6.696822e+000 8.617190e-001 -6.369111e+000 -1.542124e+001 -2.981846e+000 9.428122e+000 4.572326e-003 -3.121933e+000 -1.845130e+000 -1.520241e+000 3.047636e+000 3.997418e-001 -1.777029e-002 -7.243063e-002 -6.452581e-002 4.884201e-002 4.000027e-001 1.075616e-001 -1.546954e-001 -2.641381e-001 -8.133604e-002 4.293621e-001 1.702922e-001 -1.344021e-001 -8.324613e-003
<VARIANCE> 25
 9.492901e+000 1.971422e+001 2.575546e+001 5.242643e+001 5.870184e+001 4.353654e+001 5.554513e+001 3.905381e+001 4.533686e+001 5.621619e+001 4.822697e+001 2.930023e+001 4.883536e-001 1.516291e+000 1.382952e+000 3.187352e+000 2.976673e+000 2.463355e+000 3.384247e+000 2.528817e+000 2.964019e+000 3.728954e+000 2.700828e+000 2.226364e+000 7.757420e-001
<GCONST> 9.827676e+001
<STATE> 4
<MEAN> 25
 5.908749e+000 -3.321619e-001 -4.984157e+000 -7.511537e+000 1.978405e+000 3.869352e+000 -4.650716e+000 -3.472837e+000 -6.437797e-001 3.663046e+000 1.449801e+000 -2.408525e+000 -4.493565e-001 4.967515e-001 1.698294e+000 2.931380e+000 6.893463e-001 -1.657749e+000 8.925286e-003 7.414814e-001 3.750404e-001 6.666179e-002 -9.244834e-001 -7.914683e-002 -1.163731e+000
<VARIANCE> 25
 1.075868e+001 2.361935e+001 2.761726e+001 5.135925e+001 3.988578e+001 5.588693e+001 6.210033e+001 3.979060e+001 4.774195e+001 5.182874e+001 6.373920e+001 3.630369e+001 1.404807e+000 2.560420e+000 2.466953e+000 4.256938e+000 4.882380e+000 4.740035e+000 4.974812e+000 4.068630e+000 5.251416e+000 5.348104e+000 5.133362e+000 3.463967e+000 2.018163e+000
<GCONST> 1.065208e+002
<TRANSP> 5
 0.000000e+000 1.000000e+000 0.000000e+000 0.000000e+000 0.000000e+000
 0.000000e+000 4.483873e-001 5.516127e-001 0.000000e+000 0.000000e+000
 0.000000e+000 0.000000e+000 6.796224e-001 3.203776e-001 0.000000e+000
 0.000000e+000 0.000000e+000 0.000000e+000 5.714604e-001 4.285396e-001
 0.000000e+000 0.000000e+000 0.000000e+000 0.000000e+000 0.000000e+000
<ENDHMM>
~h "p"
<BEGINHMM>
<NUMSTATES> 5
<STATE> 2
<MEAN> 25
 2.114939e+000 3.238321e+000 4.394197e+000 5.442327e+000 3.657201e+000 4.490830e+000 3.056521e+000 1.871882e+000 1.689301e+000 1.645794e+000 2.680008e+000 7.526537e-001 -1.608634e+000 -8.892864e-001 -2.870729e-001 3.952469e-001 -6.719225e-002 -1.426942e-001 2.156716e-001 6.810640e-001 9.947547e-001 5.717912e-001 9.152367e-001 7.209862e-001 -1.664833e+000
<VARIANCE> 25
 1.232430e+001 1.550656e+001 3.632979e+001 2.544178e+001 2.307369e+001 2.410382e+001 2.567681e+001 2.281644e+001 2.516147e+001 2.421190e+001 2.690410e+001 2.293103e+001 1.010651e+000 1.369727e+000 2.897208e+000 3.186288e+000 2.519018e+000 3.068508e+000 2.478158e+000 2.572653e+000 2.377636e+000 2.091182e+000 2.372884e+000 1.882031e+000 1.576485e+000
<GCONST> 9.356067e+001
<STATE> 3
<MEAN> 25
 -1.669194e+000 -6.591806e-001 1.238795e+000 2.968566e+000 8.432909e-001 1.813689e+000 1.071033e+000 1.296265e+000 2.144986e+000 1.629176e+000 3.370161e+000 1.426983e+000 -5.862924e-001 -4.019484e-001 -7.516223e-001 -2.770322e-001 -6.551513e-002 -4.574672e-001 -2.684025e-001 -1.894951e-001 -1.387089e-001 -2.622849e-001 -3.031258e-001 -1.164567e-002 5.754923e-001
<VARIANCE> 25
 6.957280e+000 8.213799e+000 1.948251e+001 2.196452e+001 1.803510e+001 2.164894e+001 2.238568e+001 2.017491e+001 2.284295e+001 1.970201e+001 2.566598e+001 1.846894e+001 9.699867e-001 1.005130e+000 1.750087e+000 1.579749e+000 1.636220e+000 1.963805e+000 2.006548e+000 1.964903e+000 1.851336e+000 1.872272e+000 1.712067e+000 1.562783e+000 1.970987e+000
<GCONST> 8.683871e+001
<STATE> 4
<MEAN> 25
 -2.236676e+000 -6.052564e-001 -2.620275e+000 2.550227e+000 3.063252e+000 9.408564e-001 6.441124e-001 6.896232e-001 1.439137e+000 7.550176e-001 1.182330e+000 8.924099e-001 1.951088e+000 3.377929e-001 -9.439207e-001 -1.580263e+000 -7.185624e-001 -2.982717e-001 -4.054099e-001 -6.955752e-001 -5.782559e-001 -5.718818e-001 -8.652499e-001 -7.797198e-001 3.367983e+000
<VARIANCE> 25
 2.126967e+001 1.483764e+001 2.096657e+001 2.384684e+001 2.224076e+001 2.686106e+001 2.329006e+001 2.457939e+001 2.711991e+001 2.376857e+001 3.142859e+001 2.029302e+001 3.075842e+000 3.338323e+000 3.792797e+000 7.352045e+000 4.666465e+000 4.860817e+000 4.561730e+000 3.857050e+000 4.729832e+000 3.574529e+000 4.355344e+000 2.728482e+000 2.113295e+000
<GCONST> 1.012826e+002
<TRANSP> 5
 0.000000e+000 1.000000e+000 0.000000e+000 0.000000e+000 0.000000e+000
 0.000000e+000 5.579945e-001 4.420055e-001 0.000000e+000 0.000000e+000
 0.000000e+000 0.000000e+000 7.371705e-001 2.628295e-001 0.000000e+000
 0.000000e+000 0.000000e+000 0.000000e+000 5.501820e-001 4.498180e-001
 0.000000e+000 0.000000e+000 0.000000e+000 0.000000e+000 0.000000e+000
<ENDHMM>
~h "r"
<BEGINHMM>
<NUMSTATES> 5
<STATE> 2
<MEAN> 25
 3.095791e+000 -1.833781e+000 -1.703780e+000 4.030306e+000 -1.899990e+000 -5.467489e+000 -2.195288e+000 -4.757982e-001 3.011424e+000 5.635055e-001 -1.748525e+000 -1.013082e+000 1.363549e+000 -9.213351e-001 5.063285e-001 7.381786e-001 -1.501887e+000 -7.755388e-001 -6.140357e-001 -1.701475e-001 3.257656e-001 -1.021613e-001 -4.255364e-001 -1.938641e-002 4.924696e-001
<VARIANCE> 25
 1.786671e+001 2.054399e+001 4.013802e+001 3.410987e+001 3.639243e+001 3.770920e+001 4.106995e+001 4.551193e+001 3.566283e+001 3.384943e+001 3.724907e+001 2.968360e+001 2.990876e+000 2.408518e+000 3.347676e+000 5.696169e+000 4.328199e+000 4.285220e+000 4.305015e+000 4.905233e+000 4.349068e+000 4.426288e+000 4.505939e+000 2.885189e+000 2.906670e+000
<GCONST> 1.054187e+002
<STATE> 3
<MEAN> 25
 4.311166e+000 -4.019238e+000 -7.577433e-001 5.715717e+000 -4.308357e+000 -5.722251e+000 -2.751680e+000 7.877495e-002 3.641087e+000 4.211688e-001 -1.862187e+000 -1.960624e-001 6.963732e-001 -1.284413e+000 3.225753e-001 1.516018e-001 -1.167382e+000 2.964573e-001 -3.242657e-001 2.283823e-001 8.211452e-002 -3.092368e-002 -5.721019e-002 3.788305e-002 2.200257e-001
<VARIANCE> 25
 1.409496e+001 1.907192e+001 3.398430e+001 3.249940e+001 4.029322e+001 3.311056e+001 3.416989e+001 4.346022e+001 3.488977e+001 3.452943e+001 3.455034e+001 2.604256e+001 1.351422e+000 2.290055e+000 2.969149e+000 3.700524e+000 3.655202e+000 3.420645e+000 3.264479e+000 3.755028e+000 3.953709e+000 3.787457e+000 3.493376e+000 2.583853e+000 1.672611e+000
<GCONST> 1.009230e+002
<STATE> 4
<MEAN> 25
 5.445568e+000 -6.853366e+000 -9.892557e-001 4.138465e+000 -6.354333e+000 -4.422329e+000 -3.536412e+000 7.596402e-001 3.286529e+000 4.912539e-001 -1.895149e+000 -4.941879e-001 2.363777e-001 -8.365356e-001 -4.493802e-002 -1.344198e+000 -1.821380e-001 5.067860e-001 2.414700e-001 5.902297e-001 -6.057091e-001 1.407913e-001 -3.205391e-003 -2.481431e-001 4.822550e-001
<VARIANCE> 25
 1.750327e+001 2.870501e+001 4.528191e+001 3.085567e+001 4.269556e+001 3.555923e+001 3.947888e+001 5.027937e+001 4.369170e+001 4.096684e+001 4.665813e+001 2.862999e+001 1.395583e+000 2.980728e+000 2.932386e+000 3.480469e+000 4.709069e+000 3.853303e+000 3.550725e+000 4.258246e+000 4.220148e+000 4.150228e+000 3.741562e+000 2.999832e+000 1.646235e+000
<GCONST> 1.041570e+002
<TRANSP> 5
 0.000000e+000 1.000000e+000 0.000000e+000 0.000000e+000 0.000000e+000
 0.000000e+000 1.956521e-001 8.043479e-001 0.000000e+000 0.000000e+000
 0.000000e+000 0.000000e+000 3.493333e-001 6.506667e-001 0.000000e+000
 0.000000e+000 0.000000e+000 0.000000e+000 2.345169e-001 7.654831e-001
 0.000000e+000 0.000000e+000 0.000000e+000 0.000000e+000 0.000000e+000
<ENDHMM>
~h "s"
<BEGINHMM>
<NUMSTATES> 5
<STATE> 2
<MEAN> 25
 -6.618731e+000 9.448047e+000 -8.051975e-001 6.553019e+000 5.397511e+000 -1.420619e+000 2.851226e+000 1.612714e+000 1.295475e+000 5.376454e-001 -3.422143e-001 1.547809e+000 -4.368988e+000 1.860348e+000 -1.387469e+000 1.989074e+000 1.509486e+000 1.160072e+000 1.548715e+000 1.133286e+000 5.102235e-001 -1.046280e-001 1.110990e+000 1.183241e+000 -4.774374e-001
<VARIANCE> 25
 3.771629e+001 2.239854e+001 2.551574e+001 3.280266e+001 5.716413e+001 3.672814e+001 4.769619e+001 3.847979e+001 3.110956e+001 3.519392e+001 3.015016e+001 2.327974e+001 1.457701e+000 3.497334e+000 3.237707e+000 4.299392e+000 4.386281e+000 4.827656e+000 4.452013e+000 4.872497e+000 3.699852e+000 3.250515e+000 4.526522e+000 2.935120e+000 1.048047e+000
<GCONST> 1.036452e+002
<STATE> 3
<MEAN> 25
 -1.728449e+001 8.840116e+000 -8.096187e+000 7.425221e+000 3.957314e+000 7.692150e-001 3.393512e+000 2.019481e+000 2.241571e+000 4.187319e-001 2.672642e+000 4.055293e+000 -6.328957e-001 -6.244897e-001 -6.177263e-001 -3.374915e-001 -4.612026e-001 6.130597e-003 -3.867248e-001 -2.236969e-001 -1.310622e-002 -4.599987e-002 8.207634e-002 1.230831e-002 -4.074322e-001
<VARIANCE> 25
 1.044008e+001 1.856986e+001 2.188153e+001 3.383231e+001 3.771212e+001 3.295527e+001 3.830886e+001 3.109998e+001 3.141196e+001 2.381243e+001 3.018251e+001 1.946384e+001 1.958333e+000 1.405069e+000 2.268603e+000 1.503741e+000 2.253529e+000 2.106855e+000 2.517615e+000 2.361643e+000 2.125981e+000 2.153456e+000 1.931329e+000 1.662089e+000 8.834036e-001
<GCONST> 9.316570e+001
<STATE> 4
<MEAN> 25
 -1.222962e+001 4.801569e+000 -5.078565e+000 5.138042e+000 2.577898e+000 -5.383036e-001 1.258175e+000 7.851044e-001 1.144133e+000 9.525618e-001 1.341654e+000 2.369538e+000 3.476171e+000 -9.920152e-001 1.752691e+000 -8.566800e-001 -1.076570e+000 -6.128262e-001 -9.580414e-001 -7.937227e-001 -7.333462e-001 1.348725e-001 -5.562907e-001 -8.790783e-001 -1.831886e-001
<VARIANCE> 25
 3.353358e+001 2.139674e+001 2.790785e+001 3.075113e+001 4.296083e+001 3.891507e+001 4.596027e+001 3.159307e+001 3.235214e+001 2.908711e+001 3.455402e+001 2.216234e+001 3.577841e+000 2.682084e+000 2.828889e+000 3.167496e+000 3.329167e+000 4.545719e+000 4.266017e+000 3.628208e+000 3.543713e+000 2.791575e+000 3.827360e+000 2.499374e+000 3.269928e+000
<GCONST> 1.031131e+002
<TRANSP> 5
 0.000000e+000 1.000000e+000 0.000000e+000 0.000000e+000 0.000000e+000
 0.000000e+000 6.271990e-001 3.728010e-001 0.000000e+000 0.000000e+000
 0.000000e+000 0.000000e+000 7.987061e-001 2.012939e-001 0.000000e+000
 0.000000e+000 0.000000e+000 0.000000e+000 6.581959e-001 3.418041e-001
 0.000000e+000 0.000000e+000 0.000000e+000 0.000000e+000 0.000000e+000
<ENDHMM>
~h "t"
<BEGINHMM>
<NUMSTATES> 5
<STATE> 2
<MEAN> 25
 -1.973823e-001 3.892717e+000 4.466354e+000 6.175978e+000 1.900212e+000 9.583766e-001 1.755598e+000 1.708386e+000 2.459438e+000 2.101383e+000 1.847013e+000 7.529380e-001 -7.551131e-001 -7.150185e-001 1.998710e-001 2.269397e-001 3.117743e-001 1.336301e+000 6.615281e-001 5.232168e-001 3.440822e-001 5.140773e-001 1.182536e+000 3.990325e-001 -2.350170e+000
<VARIANCE> 25
 2.052920e+001 1.563865e+001 3.489423e+001 2.366743e+001 3.170324e+001 2.826877e+001 2.862869e+001 2.829045e+001 2.911700e+001 2.620066e+001 3.037253e+001 2.159820e+001 1.855493e+000 2.233164e+000 2.915040e+000 3.022154e+000 3.290907e+000 3.440806e+000 4.279301e+000 2.846694e+000 2.842626e+000 2.638656e+000 3.081089e+000 2.341347e+000 2.467773e+000
<GCONST> 9.847187e+001
<STATE> 3
<MEAN> 25
 -2.930588e+000 1.306120e-001 1.728710e+000 3.378265e+000 5.444472e-001 7.898112e-001 9.568533e-001 1.331125e+000 1.942791e+000 2.254205e+000 3.258873e+000 1.893521e+000 -1.328068e+000 -5.542289e-001 -1.217462e+000 -8.111935e-001 3.468499e-001 -4.446795e-001 2.965482e-002 -2.475327e-001 -2.183301e-001 -4.002998e-001 -6.846240e-002 2.738181e-001 9.235939e-001
<VARIANCE> 25
 1.420953e+001 1.137692e+001 2.406054e+001 2.375352e+001 2.650353e+001 2.477473e+001 2.297130e+001 2.392558e+001 2.833994e+001 2.193921e+001 2.575268e+001 1.791883e+001 2.067089e+000 1.371407e+000 2.507133e+000 2.050302e+000 2.521570e+000 2.296103e+000 2.820965e+000 2.672482e+000 2.257955e+000 2.195257e+000 2.109106e+000 1.929996e+000 3.147510e+000
<GCONST> 9.335040e+001
<STATE> 4
<MEAN> 25
 -7.730115e+000 8.494550e-001 -2.530616e+000 1.267298e+000 3.243487e+000 -1.735363e+000 1.692034e+000 3.854098e-001 7.669774e-001 2.741143e-001 9.962125e-001 2.308537e+000 1.201843e+000 2.856370e-001 -2.423681e-002 -7.099221e-001 -6.689436e-001 -1.293321e+000 -7.928287e-001 -7.240348e-001 -4.821723e-001 -4.160615e-001 -1.144844e+000 -7.525043e-001 2.762956e+000
<VARIANCE> 25
 2.282973e+001 2.250576e+001 2.757840e+001 2.793827e+001 3.273042e+001 3.320921e+001 3.673912e+001 3.483662e+001 2.902023e+001 2.614719e+001 3.818069e+001 2.071350e+001 6.078294e+000 2.720938e+000 5.481826e+000 3.686156e+000 4.649312e+000 4.654428e+000 5.123059e+000 4.633106e+000 5.314443e+000 3.595119e+000 4.747295e+000 3.138680e+000 2.708375e+000
<GCONST> 1.049873e+002
<TRANSP> 5
 0.000000e+000 1.000000e+000 0.000000e+000 0.000000e+000 0.000000e+000
 0.000000e+000 4.830994e-001 5.169006e-001 0.000000e+000 0.000000e+000
 0.000000e+000 0.000000e+000 6.560823e-001 3.439177e-001 0.000000e+000
 0.000000e+000 0.000000e+000 0.000000e+000 5.690364e-001 4.309636e-001
 0.000000e+000 0.000000e+000 0.000000e+000 0.000000e+000 0.000000e+000
<ENDHMM>
~h "u"
<BEGINHMM>
<NUMSTATES> 5
<STATE> 2
<MEAN> 25
 5.086492e+000 3.218540e+000 -2.845334e+000 -3.150978e+000 -1.493897e+000 1.089587e+000 -6.350789e+000 -5.500490e+000 -3.128091e+000 7.861875e-001 2.178701e+000 -6.890318e-001 1.646571e+000 1.334848e+000 -8.299608e-001 -2.504159e+000 -1.097661e+000 1.572846e+000 2.904911e-001 -1.441347e+000 -1.287893e+000 -3.738690e-001 8.439317e-001 3.354175e-001 2.265863e-001
<VARIANCE> 25
 1.433320e+001 2.160824e+001 2.555548e+001 5.026028e+001 4.343573e+001 4.228660e+001 5.730712e+001 4.823116e+001 4.032445e+001 5.228882e+001 5.367844e+001 2.848223e+001 3.265124e+000 1.952783e+000 2.926033e+000 3.558331e+000 6.761454e+000 4.945786e+000 6.106869e+000 5.625305e+000 4.579249e+000 5.490988e+000 4.853749e+000 3.132731e+000 1.745896e+000
<GCONST> 1.070124e+002
<STATE> 3
<MEAN> 25
 7.359973e+000 6.140202e+000 -2.719494e+000 -8.916945e+000 -6.667735e+000 4.718450e+000 -1.366215e+000 -4.673446e+000 -4.633698e+000 -3.145760e+000 1.728299e+000 1.007989e+000 5.646584e-002 1.203821e-001 1.900221e-001 -8.734772e-002 -1.872101e-002 3.034278e-001 2.820866e-001 9.464119e-002 -4.878326e-002 -1.110429e-001 -1.543419e-001 7.755352e-002 -9.752984e-002
<VARIANCE> 25
 7.793809e+000 1.874415e+001 2.433225e+001 3.853529e+001 4.574730e+001 3.823526e+001 5.508097e+001 4.957759e+001 4.373361e+001 5.232027e+001 4.923081e+001 2.978036e+001 4.736712e-001 1.328323e+000 1.315481e+000 2.648033e+000 3.405349e+000 2.200169e+000 3.848874e+000 3.558893e+000 2.718667e+000 3.980974e+000 3.617100e+000 2.240227e+000 8.320199e-001
<GCONST> 9.788544e+001
<STATE> 4
<MEAN> 25
 5.781193e+000 3.742335e+000 -1.828735e+000 -3.833051e+000 -4.114656e-001 3.317062e+000 -5.287289e+000 -5.660362e+000 -3.048918e+000 1.260158e+000 2.037259e+000 -1.190707e-001 -8.301564e-001 -1.787359e-001 1.219112e+000 2.390819e+000 1.321385e+000 -9.868758e-001 1.331085e-001 1.009343e+000 1.195495e+000 5.365659e-001 -8.563863e-001 -4.808923e-001 -8.051926e-001
<VARIANCE> 25
 1.190676e+001 2.087502e+001 3.162940e+001 5.291016e+001 4.438433e+001 3.854734e+001 7.526080e+001 5.007632e+001 3.965656e+001 5.380856e+001 4.866235e+001 3.130589e+001 1.500655e+000 2.218585e+000 2.651553e+000 4.065152e+000 4.547349e+000 3.840004e+000 6.178745e+000 5.019894e+000 4.108939e+000 5.553676e+000 4.675819e+000 3.307051e+000 1.943586e+000
<GCONST> 1.059645e+002
<TRANSP> 5
 0.000000e+000 1.000000e+000 0.000000e+000 0.000000e+000 0.000000e+000
 0.000000e+000 5.196813e-001 4.803187e-001 0.000000e+000 0.000000e+000
 0.000000e+000 0.000000e+000 6.800819e-001 3.199181e-001 0.000000e+000
 0.000000e+000 0.000000e+000 0.000000e+000 5.471944e-001 4.528056e-001
 0.000000e+000 0.000000e+000 0.000000e+000 0.000000e+000 0.000000e+000
<ENDHMM>
~h "v"
<BEGINHMM>
<NUMSTATES> 5
<STATE> 2
<MEAN> 25
 5.737754e+000 1.938741e-002 -6.013900e-001 1.805635e+000 6.417814e-001 5.499517e-003 -4.207464e+000 -1.937631e+000 -1.080951e-001 2.150672e+000 4.272745e-001 -1.931116e+000 6.066447e-001 4.292158e-001 1.972783e-001 5.736519e-001 2.906627e-001 2.374314e-001 -5.342978e-001 -7.055048e-001 -8.118976e-002 2.784182e-001 1.449757e-001 -3.666878e-001 -5.671123e-001
<VARIANCE> 25
 1.315666e+001 2.858025e+001 2.982806e+001 3.686268e+001 2.815727e+001 4.224869e+001 3.555349e+001 3.455358e+001 2.823790e+001 3.237416e+001 3.071058e+001 2.103931e+001 2.156485e+000 2.662727e+000 3.112110e+000 4.942176e+000 4.018926e+000 5.050469e+000 3.908178e+000 3.823402e+000 3.921764e+000 3.364389e+000 3.274208e+000 2.352297e+000 2.237560e+000
<GCONST> 1.019855e+002
<STATE> 3
<MEAN> 25
 5.953435e+000 9.005275e-003 -4.742908e-001 1.689827e+000 5.557684e-001 4.156507e-001 -4.234453e+000 -2.174108e+000 1.237297e-001 2.110570e+000 5.437238e-001 -2.344889e+000 6.077610e-002 -3.447009e-001 2.133893e-001 -1.901194e-001 -5.530164e-001 -3.494010e-001 2.020996e-001 1.177740e-001 -8.715425e-002 2.487862e-003 1.527529e-002 4.315276e-002 3.494304e-001
<VARIANCE> 25
 1.008214e+001 2.740414e+001 3.203363e+001 4.095949e+001 2.708208e+001 4.018630e+001 3.451741e+001 2.985622e+001 2.913040e+001 3.129572e+001 2.852065e+001 2.609545e+001 1.243736e+000 2.270070e+000 2.624393e+000 4.349161e+000 2.589491e+000 4.240777e+000 2.908997e+000 3.278463e+000 3.060930e+000 2.892169e+000 2.867531e+000 1.919674e+000 1.668272e+000
<GCONST> 9.862794e+001
<STATE> 4
<MEAN> 25
 5.708283e+000 -1.283675e+000 -2.388587e-001 1.190559e+000 -8.661337e-001 -1.552933e+000 -3.651586e+000 -9.376723e-001 1.942589e-002 2.189410e+000 5.556293e-001 -1.290721e+000 -3.478940e-001 -1.015211e+000 2.715315e-001 -9.353018e-001 -1.282480e+000 -8.928248e-001 6.432037e-001 7.178015e-001 -1.655255e-001 -1.326753e-001 -1.856848e-001 3.046238e-001 1.252417e+000
<VARIANCE> 25
 1.048944e+001 2.525301e+001 3.586447e+001 4.472939e+001 2.848018e+001 5.729949e+001 3.713991e+001 3.546998e+001 3.067737e+001 3.098123e+001 3.052112e+001 2.661558e+001 8.846527e-001 2.287972e+000 3.778939e+000 4.301279e+000 3.419170e+000 4.335285e+000 3.498505e+000 3.656240e+000 3.753979e+000 3.015280e+000 3.088454e+000 2.240522e+000 1.741140e+000
<GCONST> 1.006982e+002
<TRANSP> 5
 0.000000e+000 1.000000e+000 0.000000e+000 0.000000e+000 0.000000e+000
 0.000000e+000 1.657047e-001 8.342953e-001 0.000000e+000 0.000000e+000
 0.000000e+000 0.000000e+000 1.786380e-001 8.213620e-001 0.000000e+000
 0.000000e+000 0.000000e+000 0.000000e+000 1.894352e-001 8.105647e-001
 0.000000e+000 0.000000e+000 0.000000e+000 0.000000e+000 0.000000e+000
<ENDHMM>
~h "z"
<BEGINHMM>
<NUMSTATES> 5
<STATE> 2
<MEAN> 25
 -1.405729e+000 1.074113e+001 -2.987429e+000 5.841667e+000 2.252135e+000 -4.834013e+000 -2.998286e+000 -3.422727e+000 2.099062e+000 1.169852e+000 -2.725954e+000 7.083335e-001 -2.339990e+000 3.133317e+000 -5.185853e-001 2.511661e+000 7.384494e-001 4.878068e-001 1.346649e+000 1.013416e-001 5.722852e-001 -7.988049e-001 6.299673e-001 4.671023e-001 -6.638125e-001
<VARIANCE> 25
 1.976114e+001 3.166211e+001 2.699356e+001 3.559690e+001 4.258453e+001 3.227063e+001 3.676461e+001 2.965560e+001 3.559244e+001 4.917342e+001 2.819670e+001 1.800844e+001 2.605151e+000 2.849942e+000 2.176670e+000 2.857350e+000 2.784864e+000 4.381837e+000 4.535753e+000 4.812989e+000 3.901587e+000 3.246220e+000 3.815034e+000 2.750866e+000 1.240458e+000
<GCONST> 1.016937e+002
<STATE> 3
<MEAN> 25
 -9.725710e+000 1.480456e+001 -3.532876e+000 1.091548e+001 4.306559e+000 -6.156620e-001 1.352043e+000 -2.361817e-001 2.914710e+000 2.538971e-001 1.198747e+000 2.434319e+000 -5.879985e-001 -7.402278e-001 -2.304385e-001 -6.366115e-002 -9.783788e-003 5.192699e-001 1.639553e-001 3.996265e-001 1.459748e-001 6.986234e-002 2.959593e-001 1.735133e-001 -2.756132e-001
<VARIANCE> 25
 2.516701e+001 2.222740e+001 2.138355e+001 2.782078e+001 4.006890e+001 3.288705e+001 3.508541e+001 3.434280e+001 3.019032e+001 3.698485e+001 2.461926e+001 1.943187e+001 3.432516e+000 2.368452e+000 1.708916e+000 2.085914e+000 1.855585e+000 3.288573e+000 2.594094e+000 2.532204e+000 2.337001e+000 1.935588e+000 1.996027e+000 1.646485e+000 9.810690e-001
<GCONST> 9.586607e+001
<STATE> 4
<MEAN> 25
 -3.957424e+000 8.284269e+000 -4.449326e+000 6.037956e+000 2.022059e+000 -3.136400e+000 -2.206165e+000 -1.241610e+000 4.067574e+000 1.104079e+000 -1.389385e+000 1.308326e+000 2.990501e+000 -3.474606e+000 1.625310e-001 -2.704416e+000 -8.111783e-001 -8.722594e-001 -1.047392e+000 3.196344e-001 3.085277e-001 5.888912e-001 -1.283457e+000 -7.906074e-001 1.127284e+000
<VARIANCE> 25
 3.697187e+001 3.265427e+001 2.529643e+001 3.380942e+001 3.510736e+001 3.977302e+001 3.591959e+001 3.236478e+001 3.206800e+001 3.739053e+001 2.952576e+001 1.982523e+001 2.509806e+000 3.758115e+000 2.528163e+000 3.488558e+000 2.783324e+000 5.504549e+000 4.345104e+000 5.041272e+000 4.572021e+000 2.939347e+000 4.142032e+000 3.049847e+000 2.402447e+000
<GCONST> 1.038039e+002
<TRANSP> 5
 0.000000e+000 1.000000e+000 0.000000e+000 0.000000e+000 0.000000e+000
 0.000000e+000 6.668846e-001 3.331154e-001 0.000000e+000 0.000000e+000
 0.000000e+000 0.000000e+000 6.833014e-001 3.166986e-001 0.000000e+000
 0.000000e+000 0.000000e+000 0.000000e+000 5.927845e-001 4.072156e-001
 0.000000e+000 0.000000e+000 0.000000e+000 0.000000e+000 0.000000e+000
<ENDHMM>
~h "cc"
<BEGINHMM>
<NUMSTATES> 5
<STATE> 2
<MEAN> 25
 -6.965497e+000 2.975880e+000 4.943355e+000 2.161182e+000 2.452438e+000 1.438240e+000 -2.787593e-001 1.587028e+000 3.314686e+000 1.059953e+000 3.654848e+000 1.666833e+000 -3.688548e+000 2.225214e-001 -4.064012e-001 -1.191140e+000 7.045370e-001 9.754364e-001 3.766838e-001 -2.327248e-001 6.152888e-001 -4.160328e-002 1.157406e+000 4.028163e-001 4.472786e-001
<VARIANCE> 25
 5.302449e+001 2.765574e+001 2.367495e+001 2.988732e+001 2.555750e+001 3.516498e+001 3.256248e+001 3.314708e+001 3.345637e+001 3.266090e+001 2.788100e+001 2.467152e+001 3.862678e+000 3.420893e+000 2.668804e+000 3.490499e+000 3.432096e+000 3.640967e+000 4.071024e+000 3.602400e+000 3.527081e+000 4.716571e+000 3.021822e+000 1.999724e+000 6.554986e+000
<GCONST> 1.036290e+002
<STATE> 3
<MEAN> 25
 -2.221134e+001 4.712279e+000 3.640383e+000 -2.938877e+000 2.840163e+000 2.539834e+000 1.702712e+000 4.988182e-001 4.344879e+000 -2.195318e+000 6.855196e+000 2.629868e+000 -5.317683e-001 -3.651600e-001 1.691498e-001 2.416094e-001 -5.632836e-001 -6.509995e-001 1.017164e+000 1.637778e-001 -2.877273e-001 -8.870513e-001 -3.271957e-002 1.795449e-002 8.232144e-001
<VARIANCE> 25
 1.201717e+001 2.700471e+001 1.932912e+001 1.387971e+001 2.139594e+001 3.329555e+001 3.530880e+001 3.592894e+001 3.002025e+001 2.487331e+001 4.304549e+001 1.890649e+001 6.732384e+000 2.502944e+000 1.745006e+000 1.820375e+000 2.072164e+000 2.605848e+000 2.341320e+000 2.675074e+000 2.307674e+000 2.304936e+000 2.103621e+000 1.732251e+000 1.528179e+000
<GCONST> 9.524274e+001
<STATE> 4
<MEAN> 25
 -1.134230e+001 1.942434e+000 5.555484e+000 1.257405e+000 -1.025400e+000 -3.420181e+000 2.128696e+000 3.180912e-001 8.061062e-001 -4.781667e+000 2.811500e+000 1.199986e+000 5.643142e+000 -6.653633e-001 3.801817e-001 6.767423e-001 -2.026328e+000 -2.289051e+000 -2.013078e+000 -2.428502e-001 -1.163105e+000 -2.678360e-001 -1.566493e+000 -7.412177e-001 4.284435e-001
<VARIANCE> 25
 6.770608e+001 2.049429e+001 1.867424e+001 1.768492e+001 2.789201e+001 4.108840e+001 3.755765e+001 2.796709e+001 2.954902e+001 2.917154e+001 3.890939e+001 2.050195e+001 2.339818e+000 2.520648e+000 2.277025e+000 2.338951e+000 3.651356e+000 3.173433e+000 3.577540e+000 3.345280e+000 3.717936e+000 3.101653e+000 4.808222e+000 2.277788e+000 1.008040e+000
<GCONST> 9.965002e+001
<TRANSP> 5
 0.000000e+000 1.000000e+000 0.000000e+000 0.000000e+000 0.000000e+000
 0.000000e+000 7.349445e-001 2.650554e-001 0.000000e+000 0.000000e+000
 0.000000e+000 0.000000e+000 6.905031e-001 3.094970e-001 0.000000e+000
 0.000000e+000 0.000000e+000 0.000000e+000 6.537911e-001 3.462089e-001
 0.000000e+000 0.000000e+000 0.000000e+000 0.000000e+000 0.000000e+000
<ENDHMM>
~h "dz"
<BEGINHMM>
<NUMSTATES> 5
<STATE> 2
<MEAN> 25
 4.091282e+000 6.246887e+000 6.075026e+000 4.142161e+000 -1.749400e+000 1.560194e+000 -2.114539e+000 7.545903e-001 -6.336712e-001 -5.792705e+000 -4.501179e+000 9.647445e-002 -2.236025e+000 1.582124e+000 8.351892e-001 1.475290e+000 1.441443e+000 1.621020e+000 1.675588e+000 -1.481853e+000 3.071773e-001 5.168007e-001 1.117840e+000 -4.469489e-001 -8.448055e-001
<VARIANCE> 25
 1.342199e+001 1.865102e+001 2.121911e+001 2.152024e+001 2.137080e+001 2.502080e+001 2.872643e+001 3.130040e+001 3.542469e+001 2.057818e+001 2.924700e+001 1.864505e+001 4.384187e+000 1.921238e+000 1.359724e+000 1.730995e+000 2.418684e+000 3.373458e+000 2.460744e+000 3.141799e+000 4.123561e+000 3.335905e+000 4.764846e+000 1.778880e+000 2.785133e+000
<GCONST> 9.648418e+001
<STATE> 3
<MEAN> 25
 -8.997737e+000 6.110030e+000 7.316202e+000 6.220099e+000 8.205470e-001 2.501121e+000 2.618220e+000 -3.508134e+000 4.040097e+000 -4.644513e+000 1.106043e-001 1.190089e+000 -2.216212e+000 -4.762907e-001 -4.421333e-001 -3.714328e-001 -2.492549e-001 -1.608586e+000 -3.120546e-001 -6.807562e-001 1.329638e+000 -3.472927e-001 5.191756e-001 4.642644e-001 1.906172e+000
<VARIANCE> 25
 4.772899e+001 2.511322e+001 1.418080e+001 2.649650e+001 2.328784e+001 3.746859e+001 3.633766e+001 1.880984e+001 2.670835e+001 2.964406e+001 2.379561e+001 2.413516e+001 9.261771e+000 2.844604e+000 2.029689e+000 4.181584e+000 1.674043e+000 4.139570e+000 4.525585e+000 2.455465e+000 3.396453e+000 2.214750e+000 2.149959e+000 1.904595e+000 1.477341e+000
<GCONST> 9.886246e+001
<STATE> 4
<MEAN> 25
 -1.919337e+000 2.236576e+000 2.117253e+000 4.315952e+000 -2.452717e+000 -5.444301e+000 -6.135612e+000 -5.499647e+000 6.400065e+000 -4.249597e+000 -1.541435e+000 6.332895e-002 4.008215e+000 -2.490679e+000 -1.447647e+000 -1.428078e+000 -7.910857e-001 -5.971675e-001 -3.504305e+000 -3.681926e-001 3.224248e-002 1.667507e+000 -1.929050e-001 -4.136697e-001 4.151290e-001
<VARIANCE> 25
 3.983921e+001 2.452096e+001 2.495464e+001 2.678629e+001 2.390930e+001 3.335669e+001 4.154681e+001 3.491598e+001 2.212667e+001 1.953493e+001 1.420041e+001 2.773014e+001 2.907635e+000 1.400002e+000 1.413698e+000 1.871372e+000 2.592847e+000 5.003091e+000 4.147218e+000 4.177397e+000 2.242605e+000 4.027137e+000 4.425814e+000 2.115988e+000 4.437692e-001
<GCONST> 9.675918e+001
<TRANSP> 5
 0.000000e+000 1.000000e+000 0.000000e+000 0.000000e+000 0.000000e+000
 0.000000e+000 6.502622e-001 3.497378e-001 0.000000e+000 0.000000e+000
 0.000000e+000 0.000000e+000 6.733600e-001 3.266400e-001 0.000000e+000
 0.000000e+000 0.000000e+000 0.000000e+000 6.271542e-001 3.728458e-001
 0.000000e+000 0.000000e+000 0.000000e+000 0.000000e+000 0.000000e+000
<ENDHMM>
~h "sp"
<BEGINHMM>
<NUMSTATES> 3
<STATE> 2
~s "silst"
<TRANSP> 3
 0.000000e+000 1.566233e-001 8.433766e-001
 0.000000e+000 9.543855e-001 4.561456e-002
 0.000000e+000 0.000000e+000 0.000000e+000
<ENDHMM>
~h "sil"
<BEGINHMM>
<NUMSTATES> 5
<STATE> 2
<MEAN> 25
 -3.982927e+000 -2.096513e+000 1.130762e+000 4.757768e+000 2.773059e+000 2.444036e+000 3.471571e+000 2.268958e+000 1.104601e+000 -7.898879e-002 2.980266e+000 1.334481e+000 -2.109296e-003 2.010315e-003 1.294343e-002 5.913188e-003 -2.076877e-002 1.562217e-002 1.882930e-002 -3.954528e-002 -2.538817e-002 1.514008e-002 2.882882e-002 2.411450e-002 -1.824498e-002
<VARIANCE> 25
 1.004628e+001 8.536838e+000 1.472722e+001 1.878459e+001 1.967514e+001 1.978693e+001 2.091977e+001 2.296140e+001 2.027526e+001 1.916658e+001 2.735348e+001 1.463803e+001 1.926683e-001 3.625697e-001 5.693839e-001 7.396035e-001 1.055129e+000 1.146870e+000 1.377747e+000 1.450197e+000 1.485902e+000 1.438503e+000 1.328547e+000 1.224876e+000 1.009943e-001
<GCONST> 7.642572e+001
<STATE> 3
<MEAN> 25
 -6.484408e+000 -2.748503e+000 4.980678e-002 3.027848e+000 5.254210e+000 6.689948e-001 3.367834e+000 3.389912e+000 1.402622e+000 -1.246294e+000 1.413242e+000 2.835070e+000 8.523016e-002 8.393331e-002 -4.148754e-003 1.982749e-002 -7.475557e-003 4.255834e-002 4.752314e-002 -4.481968e-002 8.244053e-003 3.649203e-002 1.485532e-002 -3.624612e-002 -8.466112e-002
<VARIANCE> 25
 1.736505e+001 1.624717e+001 2.081974e+001 2.041249e+001 2.500637e+001 3.100692e+001 2.479199e+001 3.328514e+001 2.538614e+001 2.453184e+001 3.545771e+001 1.872733e+001 9.581843e-001 9.401291e-001 1.245096e+000 1.306329e+000 1.817530e+000 1.834046e+000 2.053589e+000 2.357662e+000 2.126471e+000 1.994534e+000 1.886153e+000 1.597469e+000 1.062205e+000
<GCONST> 8.971425e+001
<STATE> 4
<MEAN> 25
 -1.107184e+001 3.620875e+000 -5.436399e-001 2.955257e+000 1.980885e-001 1.086735e+001 6.375179e+000 5.290211e-001 2.437560e+000 1.093018e+000 6.674638e-001 5.857115e+000 8.108449e-002 1.367144e-001 1.334413e-001 3.941207e-002 -8.477322e-002 -1.263349e-001 -1.141690e-001 -7.895979e-002 -9.670335e-002 -5.564019e-002 -6.647090e-002 -5.823379e-002 8.566121e-002
<VARIANCE> 25
 1.082846e+002 3.209132e+001 2.518476e+001 1.550360e+001 2.500488e+001 6.459769e+001 1.951181e+001 1.738338e+001 1.967499e+001 1.495345e+001 2.312977e+001 2.486681e+001 5.382571e-001 5.485888e-001 6.548962e-001 7.043226e-001 1.003498e+000 1.184376e+000 1.324592e+000 1.235554e+000 1.296655e+000 1.181209e+000 1.208133e+000 1.026835e+000 4.396454e-001
<GCONST> 8.381212e+001
<TRANSP> 5
 0.000000e+000 1.000000e+000 0.000000e+000 0.000000e+000 0.000000e+000
 0.000000e+000 9.155908e-001 8.440915e-002 0.000000e+000 0.000000e+000
 0.000000e+000 0.000000e+000 8.967555e-001 1.032445e-001 0.000000e+000
 0.000000e+000 0.000000e+000 0.000000e+000 7.078215e-001 2.921785e-001
 0.000000e+000 0.000000e+000 0.000000e+000 0.000000e+000 0.000000e+000
<ENDHMM>
