~o
<STREAMINFO> 1 25
<VECSIZE> 25<NULLD><MFCC_D_N_Z_0><DIAGC>
~h "C"
<BEGINHMM>
<NUMSTATES> 5
<STATE> 2
<MEAN> 25
 -1.762113e+000 6.569101e-001 8.141498e-001 8.950057e-002 9.308328e-002 9.175071e-002 -1.133143e-003 -2.562498e-001 4.185533e-001 -4.460548e-001 4.946230e-001 2.422617e-001 2.507474e-002 -1.183768e-002 -3.202667e-003 -4.593079e-003 -5.354367e-005 1.789919e-003 9.267779e-003 1.364938e-002 -5.919575e-004 -6.149089e-003 -2.724087e-003 -5.897298e-003 2.633888e-002
<VARIANCE> 25
 8.529314e+001 4.101849e+001 4.774094e+001 4.967810e+001 5.938688e+001 5.189408e+001 4.606912e+001 4.711423e+001 4.513306e+001 3.726755e+001 4.448233e+001 2.863348e+001 5.748230e+000 2.843596e+000 3.043806e+000 3.793225e+000 4.340267e+000 3.918108e+000 3.833328e+000 3.772206e+000 3.638734e+000 3.217895e+000 3.649119e+000 2.418527e+000 2.834279e+000
<GCONST> 1.085968e+002
<STATE> 3
<MEAN> 25
 -1.697500e+000 6.269228e-001 8.045457e-001 7.937913e-002 8.985499e-002 9.096088e-002 1.859827e-002 -2.203873e-001 4.155775e-001 -4.558739e-001 4.868222e-001 2.266823e-001 3.119485e-002 -1.426698e-002 -5.885174e-003 -5.447180e-003 -3.627638e-003 5.983951e-004 9.771172e-003 1.643864e-002 -2.166171e-003 -1.482751e-003 -5.001299e-003 -7.776585e-003 2.452498e-002
<VARIANCE> 25
 8.478000e+001 4.134642e+001 4.788968e+001 4.958968e+001 5.918149e+001 5.154879e+001 4.600431e+001 4.724127e+001 4.515531e+001 3.720438e+001 4.476706e+001 2.859784e+001 5.757215e+000 2.850996e+000 3.044316e+000 3.793093e+000 4.350071e+000 3.904871e+000 3.850526e+000 3.783319e+000 3.647044e+000 3.226751e+000 3.649534e+000 2.417107e+000 2.825343e+000
<GCONST> 1.086071e+002
<STATE> 4
<MEAN> 25
 -1.592570e+000 5.793681e-001 7.750468e-001 6.342635e-002 9.270144e-002 7.674547e-002 3.756341e-002 -1.620976e-001 4.186279e-001 -4.471522e-001 4.672423e-001 2.043996e-001 3.864970e-002 -1.737791e-002 -1.104953e-002 -6.470223e-003 -6.481337e-003 4.341680e-004 1.159953e-002 1.641053e-002 -2.164143e-003 4.431059e-003 -7.861136e-003 -9.024804e-003 1.864509e-002
<VARIANCE> 25
 8.389841e+001 4.186341e+001 4.817601e+001 4.972679e+001 5.890820e+001 5.121515e+001 4.594458e+001 4.725153e+001 4.516470e+001 3.717231e+001 4.517362e+001 2.848887e+001 5.713076e+000 2.864265e+000 3.044763e+000 3.794858e+000 4.347358e+000 3.886233e+000 3.858913e+000 3.794975e+000 3.644865e+000 3.231204e+000 3.641502e+000 2.410453e+000 2.799315e+000
<GCONST> 1.085942e+002
<TRANSP> 5
 0.000000e+000 1.000000e+000 0.000000e+000 0.000000e+000 0.000000e+000
 0.000000e+000 5.657058e-001 4.342943e-001 0.000000e+000 0.000000e+000
 0.000000e+000 0.000000e+000 5.657060e-001 4.342940e-001 0.000000e+000
 0.000000e+000 0.000000e+000 0.000000e+000 6.608134e-001 3.391866e-001
 0.000000e+000 0.000000e+000 0.000000e+000 0.000000e+000 0.000000e+000
<ENDHMM>
~h "L"
<BEGINHMM>
<NUMSTATES> 5
<STATE> 2
<MEAN> 25
 2.862423e-001 5.380063e-002 6.074173e-001 4.694031e-001 1.011128e-002 -1.104883e+000 -7.310486e-001 1.377576e-001 -6.215761e-001 -7.352310e-002 -9.669402e-003 5.378398e-001 -1.175823e-002 2.699459e-003 -2.688047e-002 -1.610567e-002 -1.861004e-004 4.429116e-003 -2.085468e-002 -1.343906e-002 -3.234769e-003 4.415094e-003 1.834474e-003 -9.264940e-003 -1.293552e-004
<VARIANCE> 25
 5.717818e+001 3.501969e+001 5.194476e+001 6.227010e+001 6.341663e+001 5.375191e+001 5.002651e+001 4.957705e+001 4.304542e+001 3.842099e+001 4.316219e+001 3.485405e+001 3.106827e+000 2.560351e+000 3.129784e+000 4.159619e+000 4.160224e+000 3.847398e+000 3.756054e+000 4.110051e+000 3.519947e+000 3.449855e+000 3.317421e+000 2.629837e+000 2.622169e+000
<GCONST> 1.080846e+002
<STATE> 3
<MEAN> 25
 2.556614e-001 5.878237e-002 5.489237e-001 4.291546e-001 6.235685e-003 -1.093219e+000 -7.713810e-001 1.110894e-001 -6.268210e-001 -6.173415e-002 -1.614482e-004 5.133272e-001 -1.825679e-002 1.256900e-003 -2.630612e-002 -1.728815e-002 1.620727e-003 5.938357e-003 -1.471047e-002 -9.717296e-003 -4.105444e-005 7.644312e-003 4.330485e-003 -1.180951e-002 1.000294e-003
<VARIANCE> 25
 5.763824e+001 3.485157e+001 5.182987e+001 6.221511e+001 6.366523e+001 5.345802e+001 4.974788e+001 4.929010e+001 4.287885e+001 3.866861e+001 4.305181e+001 3.498925e+001 3.110516e+000 2.550605e+000 3.143976e+000 4.147559e+000 4.155310e+000 3.837276e+000 3.750936e+000 4.084100e+000 3.492004e+000 3.449901e+000 3.309299e+000 2.631297e+000 2.609611e+000
<GCONST> 1.080485e+002
<STATE> 4
<MEAN> 25
 2.325637e-001 4.456514e-002 4.797271e-001 3.798877e-001 7.938945e-003 -1.105410e+000 -8.006752e-001 9.794068e-002 -6.280113e-001 -3.453138e-002 1.138645e-002 4.496166e-001 -2.421427e-002 -1.208913e-003 -2.397445e-002 -1.649644e-002 5.894301e-003 7.251191e-003 -5.460416e-003 -3.189078e-003 5.233548e-003 9.610599e-003 6.124648e-003 -1.350632e-002 -7.492095e-004
<VARIANCE> 25
 5.829227e+001 3.478748e+001 5.173691e+001 6.215519e+001 6.424339e+001 5.323849e+001 4.940165e+001 4.901606e+001 4.279393e+001 3.893513e+001 4.307965e+001 3.516805e+001 3.117390e+000 2.547302e+000 3.153576e+000 4.126658e+000 4.151943e+000 3.818338e+000 3.738205e+000 4.047733e+000 3.457638e+000 3.437219e+000 3.303365e+000 2.623629e+000 2.592927e+000
<GCONST> 1.080143e+002
<TRANSP> 5
 0.000000e+000 1.000000e+000 0.000000e+000 0.000000e+000 0.000000e+000
 0.000000e+000 5.635616e-001 4.364384e-001 0.000000e+000 0.000000e+000
 0.000000e+000 0.000000e+000 5.635616e-001 4.364384e-001 0.000000e+000
 0.000000e+000 0.000000e+000 0.000000e+000 6.590484e-001 3.409516e-001
 0.000000e+000 0.000000e+000 0.000000e+000 0.000000e+000 0.000000e+000
<ENDHMM>
~h "N"
<BEGINHMM>
<NUMSTATES> 5
<STATE> 2
<MEAN> 25
 -1.781011e-001 -2.253913e-001 8.047342e-001 -2.888977e-001 -6.830887e-002 5.535830e-002 6.919402e-001 4.568920e-001 -2.452951e-001 -4.268630e-001 -2.578045e-001 2.241911e-002 -1.725289e-002 5.540574e-003 -4.906069e-003 4.486383e-004 9.445950e-003 -9.309630e-003 7.740277e-004 4.881096e-003 6.087589e-003 1.313733e-002 7.202307e-003 1.927856e-002 -1.870112e-002
<VARIANCE> 25
 5.389744e+001 4.039060e+001 5.211551e+001 5.440832e+001 6.386753e+001 4.811322e+001 4.752122e+001 4.730578e+001 4.695661e+001 3.799780e+001 4.637509e+001 2.974842e+001 2.821164e+000 2.720977e+000 3.026938e+000 3.442210e+000 4.068972e+000 3.443663e+000 3.527059e+000 3.690286e+000 3.313555e+000 3.017054e+000 3.205725e+000 2.360309e+000 2.497581e+000
<GCONST> 1.068763e+002
<STATE> 3
<MEAN> 25
 -2.187911e-001 -2.092732e-001 7.892033e-001 -2.838301e-001 -4.263677e-002 3.498166e-002 6.861929e-001 4.622974e-001 -2.309284e-001 -3.930767e-001 -2.420585e-001 6.597731e-002 -2.142593e-002 6.016280e-003 -1.125776e-002 1.961532e-003 1.699903e-002 -6.406485e-003 -1.731008e-003 -1.508834e-004 3.574174e-003 1.419023e-002 5.814893e-003 1.821665e-002 -1.393027e-002
<VARIANCE> 25
 5.412096e+001 4.012936e+001 5.168812e+001 5.464771e+001 6.383055e+001 4.828127e+001 4.749091e+001 4.691105e+001 4.693451e+001 3.813403e+001 4.641845e+001 2.962987e+001 2.823286e+000 2.699461e+000 3.045144e+000 3.459428e+000 4.089545e+000 3.449075e+000 3.549855e+000 3.666662e+000 3.328735e+000 3.034248e+000 3.213433e+000 2.357497e+000 2.505097e+000
<GCONST> 1.068890e+002
<STATE> 4
<MEAN> 25
 -2.946984e-001 -1.877376e-001 7.530141e-001 -2.752669e-001 -1.256974e-002 4.647796e-002 6.880590e-001 4.584523e-001 -2.142969e-001 -3.455465e-001 -2.408158e-001 1.252793e-001 -2.295245e-002 3.487777e-003 -1.702699e-002 2.162412e-003 2.365522e-002 -1.340315e-003 1.057324e-003 -1.297531e-003 1.299143e-003 1.367330e-002 6.989994e-003 1.740851e-002 -7.782494e-003
<VARIANCE> 25
 5.492094e+001 3.990568e+001 5.117067e+001 5.481465e+001 6.377766e+001 4.887462e+001 4.752672e+001 4.629390e+001 4.687889e+001 3.830935e+001 4.637457e+001 2.941507e+001 2.819341e+000 2.677556e+000 3.054212e+000 3.483376e+000 4.104355e+000 3.448743e+000 3.569396e+000 3.635393e+000 3.335874e+000 3.046800e+000 3.214291e+000 2.350755e+000 2.513717e+000
<GCONST> 1.068930e+002
<TRANSP> 5
 0.000000e+000 1.000000e+000 0.000000e+000 0.000000e+000 0.000000e+000
 0.000000e+000 5.658328e-001 4.341672e-001 0.000000e+000 0.000000e+000
 0.000000e+000 0.000000e+000 5.658341e-001 4.341659e-001 0.000000e+000
 0.000000e+000 0.000000e+000 0.000000e+000 6.612808e-001 3.387192e-001
 0.000000e+000 0.000000e+000 0.000000e+000 0.000000e+000 0.000000e+000
<ENDHMM>
~h "S"
<BEGINHMM>
<NUMSTATES> 5
<STATE> 2
<MEAN> 25
 -2.830118e+000 1.243591e-001 1.563300e+000 4.923260e-002 3.795818e-001 -6.395410e-001 -2.800255e-003 -1.620085e-001 9.770043e-001 -1.233806e+000 6.747183e-001 2.768718e-001 5.153962e-003 -3.524851e-003 -4.847774e-003 -9.871863e-003 -1.655614e-003 -1.539726e-002 -1.595987e-003 -8.639539e-003 -3.520118e-003 -4.120722e-003 6.601923e-003 -2.925495e-004 1.033244e-002
<VARIANCE> 25
 9.533321e+001 4.192651e+001 5.256819e+001 5.379085e+001 6.149583e+001 5.117743e+001 4.715499e+001 4.767852e+001 4.578200e+001 4.017126e+001 5.232221e+001 3.272190e+001 5.581930e+000 2.838643e+000 3.015141e+000 3.727943e+000 4.923054e+000 3.713935e+000 3.703223e+000 3.826308e+000 3.582211e+000 3.263572e+000 3.866241e+000 2.581737e+000 2.577153e+000
<GCONST> 1.093679e+002
<STATE> 3
<MEAN> 25
 -2.801526e+000 1.132252e-001 1.551375e+000 3.666280e-002 3.675766e-001 -6.834033e-001 -7.699492e-003 -1.771051e-001 9.647511e-001 -1.235615e+000 6.844608e-001 2.789177e-001 1.932524e-002 -2.007135e-003 -8.006485e-003 -6.017825e-003 -6.504988e-003 -1.590980e-002 -1.728064e-003 -5.206110e-003 -7.147940e-003 1.819716e-003 3.642452e-003 1.671264e-003 2.941756e-003
<VARIANCE> 25
 9.495222e+001 4.175790e+001 5.220536e+001 5.375200e+001 6.150098e+001 5.097610e+001 4.715381e+001 4.786084e+001 4.576012e+001 4.009707e+001 5.231972e+001 3.261026e+001 5.563645e+000 2.830181e+000 3.016574e+000 3.722428e+000 4.931402e+000 3.723646e+000 3.712090e+000 3.821267e+000 3.584042e+000 3.258415e+000 3.865046e+000 2.587537e+000 2.580898e+000
<GCONST> 1.093467e+002
<STATE> 4
<MEAN> 25
 -2.669609e+000 9.992161e-002 1.504081e+000 3.586683e-002 3.464168e-001 -7.480732e-001 -3.825320e-002 -1.772634e-001 9.196717e-001 -1.190601e+000 6.758302e-001 2.584482e-001 3.344800e-002 -1.938894e-003 -9.901051e-003 -2.527038e-003 -1.113816e-002 -1.633930e-002 -1.442371e-003 1.942592e-004 -1.084235e-002 9.723787e-003 -1.150988e-003 3.835851e-003 -3.069837e-003
<VARIANCE> 25
 9.418061e+001 4.148408e+001 5.168634e+001 5.364336e+001 6.136702e+001 5.098210e+001 4.725385e+001 4.799733e+001 4.579248e+001 3.995686e+001 5.222279e+001 3.243829e+001 5.484194e+000 2.815211e+000 3.013923e+000 3.715019e+000 4.919344e+000 3.732887e+000 3.720608e+000 3.820241e+000 3.578315e+000 3.252224e+000 3.848228e+000 2.586647e+000 2.590763e+000
<GCONST> 1.092881e+002
<TRANSP> 5
 0.000000e+000 1.000000e+000 0.000000e+000 0.000000e+000 0.000000e+000
 0.000000e+000 5.669722e-001 4.330278e-001 0.000000e+000 0.000000e+000
 0.000000e+000 0.000000e+000 5.669734e-001 4.330266e-001 0.000000e+000
 0.000000e+000 0.000000e+000 0.000000e+000 6.632714e-001 3.367285e-001
 0.000000e+000 0.000000e+000 0.000000e+000 0.000000e+000 0.000000e+000
<ENDHMM>
~h "Z"
<BEGINHMM>
<NUMSTATES> 5
<STATE> 2
<MEAN> 25
 -3.405679e-001 6.121956e-001 1.408290e+000 -1.166884e-001 -3.697621e-001 -8.202796e-002 -4.111842e-002 -5.683348e-001 3.540463e-001 -3.531656e-001 5.643584e-001 7.971516e-002 9.070843e-003 2.068709e-002 1.303511e-002 1.891764e-002 5.036123e-003 3.379466e-003 3.383928e-003 2.509180e-002 1.020444e-002 -5.644239e-003 1.238116e-002 1.152732e-002 -1.640624e-002
<VARIANCE> 25
 6.033413e+001 4.161372e+001 5.647065e+001 5.900605e+001 6.113256e+001 5.270520e+001 4.664790e+001 4.697927e+001 5.009263e+001 4.178803e+001 4.520324e+001 2.970512e+001 3.886977e+000 2.832117e+000 3.116701e+000 3.917955e+000 4.168461e+000 3.846503e+000 3.472028e+000 3.740353e+000 3.633450e+000 3.401695e+000 3.276711e+000 2.376212e+000 2.127190e+000
<GCONST> 1.080669e+002
<STATE> 3
<MEAN> 25
 -3.236848e-001 6.597780e-001 1.431338e+000 -6.810623e-002 -3.522757e-001 -6.857398e-002 -3.505003e-002 -5.099204e-001 3.774292e-001 -3.669185e-001 5.981583e-001 1.079022e-001 3.292528e-003 2.413753e-002 1.318936e-002 2.427573e-002 5.579661e-003 7.712822e-003 1.184858e-003 2.379974e-002 4.005450e-003 -1.126448e-002 1.989529e-002 1.363012e-002 -2.328194e-002
<VARIANCE> 25
 6.008535e+001 4.132382e+001 5.617771e+001 5.914049e+001 6.096431e+001 5.279017e+001 4.642092e+001 4.660904e+001 4.990571e+001 4.168948e+001 4.467774e+001 2.946865e+001 3.879800e+000 2.825286e+000 3.104354e+000 3.915291e+000 4.160833e+000 3.828749e+000 3.453431e+000 3.724453e+000 3.643608e+000 3.390767e+000 3.263815e+000 2.357634e+000 2.116602e+000
<GCONST> 1.079709e+002
<STATE> 4
<MEAN> 25
 -3.355597e-001 7.267499e-001 1.444847e+000 -6.586555e-003 -3.383177e-001 -2.543917e-002 -4.244979e-002 -4.477657e-001 3.997223e-001 -3.949203e-001 6.636745e-001 1.394695e-001 -2.583084e-003 2.325681e-002 8.691037e-003 2.788586e-002 8.764655e-003 1.447323e-002 -2.912230e-003 2.444196e-002 -2.757995e-004 -1.699990e-002 2.497324e-002 1.488839e-002 -2.800437e-002
<VARIANCE> 25
 5.996267e+001 4.106794e+001 5.582563e+001 5.946729e+001 6.062406e+001 5.287065e+001 4.618652e+001 4.610880e+001 4.948755e+001 4.149598e+001 4.398376e+001 2.906424e+001 3.863209e+000 2.808785e+000 3.084545e+000 3.912012e+000 4.123893e+000 3.790194e+000 3.422361e+000 3.696475e+000 3.638156e+000 3.364457e+000 3.240933e+000 2.322222e+000 2.099240e+000
<GCONST> 1.078067e+002
<TRANSP> 5
 0.000000e+000 1.000000e+000 0.000000e+000 0.000000e+000 0.000000e+000
 0.000000e+000 5.654457e-001 4.345544e-001 0.000000e+000 0.000000e+000
 0.000000e+000 0.000000e+000 5.654459e-001 4.345542e-001 0.000000e+000
 0.000000e+000 0.000000e+000 0.000000e+000 6.604414e-001 3.395586e-001
 0.000000e+000 0.000000e+000 0.000000e+000 0.000000e+000 0.000000e+000
<ENDHMM>
~h "a"
<BEGINHMM>
<NUMSTATES> 5
<STATE> 2
<MEAN> 25
 7.816341e-002 -6.510069e-001 -9.032137e-001 -8.102270e-002 8.035890e-001 9.604603e-002 3.322935e-001 3.871678e-001 5.874143e-001 -4.673825e-002 -8.477651e-001 -2.893584e-001 -6.603791e-004 5.274708e-003 8.175867e-004 -6.919792e-003 -4.660990e-003 -1.423454e-003 1.513994e-003 -3.638846e-004 -6.246476e-003 3.127157e-003 -4.461140e-003 -1.034430e-003 -3.994767e-003
<VARIANCE> 25
 5.736953e+001 4.492725e+001 5.366737e+001 5.743837e+001 6.011455e+001 5.299622e+001 4.823082e+001 4.814396e+001 4.623738e+001 3.865672e+001 4.866319e+001 3.201204e+001 3.166849e+000 2.891583e+000 3.186653e+000 3.877885e+000 3.966992e+000 3.801296e+000 3.651038e+000 3.897813e+000 3.559112e+000 3.153608e+000 3.491006e+000 2.495961e+000 2.798339e+000
<GCONST> 1.082007e+002
<STATE> 3
<MEAN> 25
 7.610738e-002 -6.352035e-001 -8.985833e-001 -9.682827e-002 7.896794e-001 9.129936e-002 3.347378e-001 3.849840e-001 5.696861e-001 -4.030405e-002 -8.535189e-001 -2.898972e-001 -2.175090e-003 7.881279e-003 3.759779e-003 -6.265777e-003 -6.812019e-003 -3.047221e-003 8.202914e-004 -1.131803e-003 -9.571631e-003 1.619048e-003 -2.816903e-004 1.340725e-003 -5.798092e-003
<VARIANCE> 25
 5.738353e+001 4.484836e+001 5.364534e+001 5.758400e+001 6.006654e+001 5.299105e+001 4.830280e+001 4.818400e+001 4.623839e+001 3.867135e+001 4.862725e+001 3.201549e+001 3.177348e+000 2.885950e+000 3.187462e+000 3.883852e+000 3.971158e+000 3.807307e+000 3.654125e+000 3.901999e+000 3.563647e+000 3.158935e+000 3.485010e+000 2.493956e+000 2.800663e+000
<GCONST> 1.082115e+002
<STATE> 4
<MEAN> 25
 6.252988e-002 -6.012825e-001 -8.773385e-001 -1.096986e-001 7.610819e-001 8.447149e-002 3.335314e-001 3.772394e-001 5.368877e-001 -4.039095e-002 -8.424463e-001 -2.796299e-001 -3.564704e-003 9.962267e-003 6.612631e-003 -5.320458e-003 -9.577720e-003 -4.865555e-003 -8.757106e-004 -1.617273e-003 -1.269540e-002 5.810009e-006 3.994293e-003 3.187906e-003 -5.316488e-003
<VARIANCE> 25
 5.768560e+001 4.478268e+001 5.353601e+001 5.782245e+001 5.998567e+001 5.316282e+001 4.828328e+001 4.814523e+001 4.619407e+001 3.866919e+001 4.855400e+001 3.190938e+001 3.187953e+000 2.878332e+000 3.180931e+000 3.890161e+000 3.967671e+000 3.805657e+000 3.652728e+000 3.898324e+000 3.566336e+000 3.158744e+000 3.475928e+000 2.480623e+000 2.797538e+000
<GCONST> 1.082015e+002
<TRANSP> 5
 0.000000e+000 1.000000e+000 0.000000e+000 0.000000e+000 0.000000e+000
 0.000000e+000 5.653263e-001 4.346737e-001 0.000000e+000 0.000000e+000
 0.000000e+000 0.000000e+000 5.653312e-001 4.346689e-001 0.000000e+000
 0.000000e+000 0.000000e+000 0.000000e+000 6.606905e-001 3.393095e-001
 0.000000e+000 0.000000e+000 0.000000e+000 0.000000e+000 0.000000e+000
<ENDHMM>
~h "b"
<BEGINHMM>
<NUMSTATES> 5
<STATE> 2
<MEAN> 25
 1.874129e-002 2.576847e-001 1.609859e-001 -6.284574e-001 -1.656284e-001 6.928205e-001 -2.087242e-001 -4.297083e-001 -4.981947e-001 5.004329e-002 -1.404215e-001 -2.237630e-002 7.508562e-003 4.318676e-003 -1.961933e-003 -3.958195e-003 3.692337e-003 1.309003e-002 3.057074e-003 -1.450874e-002 3.105806e-004 4.279725e-003 6.349105e-004 -5.733816e-003 -1.649166e-003
<VARIANCE> 25
 6.506921e+001 3.946943e+001 5.919277e+001 6.688828e+001 6.442978e+001 5.904922e+001 4.790555e+001 4.563170e+001 4.630976e+001 4.069214e+001 4.429480e+001 3.364360e+001 3.249478e+000 2.703181e+000 3.323450e+000 4.250863e+000 4.478400e+000 3.846705e+000 3.653650e+000 3.795399e+000 3.609064e+000 3.430227e+000 3.489424e+000 2.516290e+000 3.054591e+000
<GCONST> 1.089659e+002
<STATE> 3
<MEAN> 25
 3.504915e-002 2.677265e-001 1.554816e-001 -6.310444e-001 -1.558848e-001 7.165734e-001 -2.030667e-001 -4.613854e-001 -4.952789e-001 5.972836e-002 -1.385969e-001 -3.388554e-002 8.143357e-003 5.828029e-003 -7.191012e-004 2.409071e-003 3.943912e-003 9.184641e-003 2.882946e-003 -1.310506e-002 1.593494e-003 4.150441e-003 1.688200e-003 -5.124316e-003 -5.764342e-003
<VARIANCE> 25
 6.497262e+001 3.941945e+001 5.912707e+001 6.683803e+001 6.426749e+001 5.907222e+001 4.780299e+001 4.549814e+001 4.629035e+001 4.065812e+001 4.409359e+001 3.361848e+001 3.251079e+000 2.702277e+000 3.322007e+000 4.244489e+000 4.486330e+000 3.845752e+000 3.646850e+000 3.784604e+000 3.617671e+000 3.427768e+000 3.474353e+000 2.521059e+000 3.050498e+000
<GCONST> 1.089404e+002
<STATE> 4
<MEAN> 25
 2.023271e-002 2.999502e-001 1.556312e-001 -6.122936e-001 -1.626298e-001 7.561862e-001 -1.809346e-001 -4.984060e-001 -4.814376e-001 7.319076e-002 -1.385315e-001 -3.085955e-002 7.412470e-003 7.959022e-003 9.378308e-004 7.909891e-003 2.602495e-003 3.395350e-003 2.164227e-003 -1.114911e-002 2.411738e-003 3.570504e-003 2.229174e-003 -3.718288e-003 -7.796794e-003
<VARIANCE> 25
 6.549659e+001 3.948622e+001 5.877748e+001 6.651614e+001 6.395469e+001 5.915047e+001 4.767389e+001 4.535216e+001 4.617880e+001 4.053065e+001 4.383258e+001 3.348400e+001 3.245761e+000 2.700582e+000 3.301753e+000 4.231308e+000 4.478303e+000 3.834725e+000 3.631699e+000 3.764729e+000 3.615958e+000 3.416227e+000 3.449615e+000 2.512768e+000 3.020205e+000
<GCONST> 1.088646e+002
<TRANSP> 5
 0.000000e+000 1.000000e+000 0.000000e+000 0.000000e+000 0.000000e+000
 0.000000e+000 5.652455e-001 4.347545e-001 0.000000e+000 0.000000e+000
 0.000000e+000 0.000000e+000 5.652433e-001 4.347567e-001 0.000000e+000
 0.000000e+000 0.000000e+000 0.000000e+000 6.606168e-001 3.393832e-001
 0.000000e+000 0.000000e+000 0.000000e+000 0.000000e+000 0.000000e+000
<ENDHMM>
~h "c"
<BEGINHMM>
<NUMSTATES> 5
<STATE> 2
<MEAN> 25
 -1.987290e+000 9.374509e-001 -1.278638e+000 8.448435e-001 2.956117e-001 -1.670717e-001 6.119415e-001 -4.381427e-001 4.442636e-001 1.938695e-001 -4.713145e-001 8.941982e-001 -4.514813e-002 -2.687178e-003 1.437168e-003 -1.687003e-002 -3.678642e-003 -3.786673e-002 1.856335e-002 4.270098e-003 -2.146783e-002 -1.319115e-002 -4.610224e-003 2.595131e-002 -1.074644e-002
<VARIANCE> 25
 7.272952e+001 4.245572e+001 6.103831e+001 6.076974e+001 6.127147e+001 5.428767e+001 4.329467e+001 4.822285e+001 4.661554e+001 3.860844e+001 4.861569e+001 3.286351e+001 4.031085e+000 2.726456e+000 4.075325e+000 3.820610e+000 4.122886e+000 4.233500e+000 3.691889e+000 3.794184e+000 3.834586e+000 3.334233e+000 3.731286e+000 2.625788e+000 2.858563e+000
<GCONST> 1.093483e+002
<STATE> 3
<MEAN> 25
 -2.071697e+000 9.318812e-001 -1.262809e+000 7.946209e-001 2.839738e-001 -2.468038e-001 6.508376e-001 -4.319532e-001 3.814430e-001 1.567875e-001 -4.683239e-001 9.444068e-001 -3.272834e-002 -4.365332e-003 1.234233e-002 -1.956288e-002 -8.940560e-003 -3.365698e-002 1.509059e-002 2.254001e-003 -2.973161e-002 -2.171496e-002 7.898482e-003 1.892025e-002 -1.090863e-002
<VARIANCE> 25
 7.335136e+001 4.171138e+001 6.169290e+001 6.014585e+001 6.139551e+001 5.447901e+001 4.344493e+001 4.813532e+001 4.632490e+001 3.878608e+001 4.846269e+001 3.290777e+001 4.071584e+000 2.702104e+000 4.054867e+000 3.803398e+000 4.151113e+000 4.231157e+000 3.714238e+000 3.783558e+000 3.790026e+000 3.348062e+000 3.704755e+000 2.613731e+000 2.849151e+000
<GCONST> 1.093215e+002
<STATE> 4
<MEAN> 25
 -2.190805e+000 9.568431e-001 -1.192152e+000 7.223696e-001 2.469629e-001 -2.302447e-001 7.161354e-001 -4.398841e-001 2.931640e-001 1.121404e-001 -4.315220e-001 1.007783e+000 -1.630332e-002 -7.311481e-003 2.519667e-002 -2.074808e-002 -1.404085e-002 -2.413110e-002 8.844764e-003 8.537802e-004 -3.238889e-002 -2.774959e-002 1.910414e-002 9.110990e-003 -9.279132e-003
<VARIANCE> 25
 7.441447e+001 4.071395e+001 6.206632e+001 5.937725e+001 6.150461e+001 5.555337e+001 4.376796e+001 4.790692e+001 4.563011e+001 3.886221e+001 4.775850e+001 3.283608e+001 4.059275e+000 2.663148e+000 3.997369e+000 3.774076e+000 4.160016e+000 4.178894e+000 3.717934e+000 3.756169e+000 3.726899e+000 3.360067e+000 3.655976e+000 2.582270e+000 2.817414e+000
<GCONST> 1.091930e+002
<TRANSP> 5
 0.000000e+000 1.000000e+000 0.000000e+000 0.000000e+000 0.000000e+000
 0.000000e+000 5.654251e-001 4.345749e-001 0.000000e+000 0.000000e+000
 0.000000e+000 0.000000e+000 5.654261e-001 4.345739e-001 0.000000e+000
 0.000000e+000 0.000000e+000 0.000000e+000 6.616974e-001 3.383026e-001
 0.000000e+000 0.000000e+000 0.000000e+000 0.000000e+000 0.000000e+000
<ENDHMM>
~h "d"
<BEGINHMM>
<NUMSTATES> 5
<STATE> 2
<MEAN> 25
 8.262385e-002 -8.199428e-002 -5.400113e-001 1.347972e-001 6.169501e-001 -2.025897e-001 1.136771e-001 1.161796e-001 5.111961e-001 -2.939283e-002 -6.843566e-001 -2.119673e-001 1.427556e-003 2.462470e-003 4.318249e-003 -9.453041e-005 -1.990680e-003 -3.760739e-003 -4.206419e-003 5.876963e-003 -5.650499e-003 -8.785582e-004 -6.721077e-004 4.276983e-004 -3.661060e-003
<VARIANCE> 25
 5.404842e+001 4.260337e+001 5.413020e+001 6.014718e+001 6.256009e+001 5.549604e+001 4.905072e+001 4.630402e+001 4.587679e+001 3.758745e+001 4.864740e+001 3.315804e+001 2.897402e+000 2.758985e+000 3.155835e+000 3.966739e+000 3.999554e+000 3.929677e+000 3.839910e+000 3.795330e+000 3.456841e+000 3.137215e+000 3.442945e+000 2.494916e+000 2.797030e+000
<GCONST> 1.080986e+002
<STATE> 3
<MEAN> 25
 7.897639e-002 -7.340288e-002 -5.288879e-001 1.397210e-001 6.079384e-001 -2.089701e-001 1.114269e-001 1.276653e-001 4.977086e-001 -3.234205e-002 -6.816546e-001 -2.072067e-001 -2.457064e-003 4.280264e-003 5.198394e-003 1.970640e-003 -4.885234e-003 -3.249704e-003 -7.060180e-004 3.934812e-003 -5.409044e-003 -1.362112e-003 1.442245e-003 3.065574e-003 -5.847625e-003
<VARIANCE> 25
 5.414130e+001 4.245953e+001 5.402048e+001 6.010117e+001 6.237185e+001 5.548220e+001 4.912300e+001 4.620393e+001 4.588063e+001 3.750283e+001 4.876033e+001 3.321061e+001 2.897885e+000 2.748005e+000 3.159331e+000 3.955607e+000 3.994115e+000 3.928122e+000 3.835694e+000 3.793764e+000 3.455778e+000 3.121444e+000 3.448834e+000 2.493886e+000 2.797514e+000
<GCONST> 1.080793e+002
<STATE> 4
<MEAN> 25
 4.405165e-002 -5.244567e-002 -5.108160e-001 1.582829e-001 5.885580e-001 -2.077916e-001 1.293545e-001 1.331770e-001 4.897292e-001 -3.879373e-002 -6.741008e-001 -1.825841e-001 -7.333429e-003 6.453936e-003 6.342990e-003 5.678853e-003 -5.913170e-003 -4.251896e-003 4.797540e-004 9.023642e-004 -3.999087e-003 -2.102195e-003 2.897922e-003 5.509818e-003 -7.897348e-003
<VARIANCE> 25
 5.466172e+001 4.231448e+001 5.375062e+001 6.005486e+001 6.205653e+001 5.551839e+001 4.918283e+001 4.597443e+001 4.586361e+001 3.746351e+001 4.876035e+001 3.311949e+001 2.902147e+000 2.735569e+000 3.151045e+000 3.950497e+000 3.981276e+000 3.918793e+000 3.828444e+000 3.787745e+000 3.451439e+000 3.108338e+000 3.450431e+000 2.485179e+000 2.795314e+000
<GCONST> 1.080420e+002
<TRANSP> 5
 0.000000e+000 1.000000e+000 0.000000e+000 0.000000e+000 0.000000e+000
 0.000000e+000 5.652615e-001 4.347385e-001 0.000000e+000 0.000000e+000
 0.000000e+000 0.000000e+000 5.652631e-001 4.347370e-001 0.000000e+000
 0.000000e+000 0.000000e+000 0.000000e+000 6.606495e-001 3.393506e-001
 0.000000e+000 0.000000e+000 0.000000e+000 0.000000e+000 0.000000e+000
<ENDHMM>
~h "e"
<BEGINHMM>
<NUMSTATES> 5
<STATE> 2
<MEAN> 25
 -9.732983e-002 1.634405e-002 5.538526e-001 3.528123e-001 -8.286635e-001 -8.354366e-001 1.657158e-002 1.602437e-001 -2.757330e-002 -1.133844e-001 1.750606e-001 6.866772e-002 4.957836e-003 -9.538523e-004 2.301092e-003 3.333721e-004 -3.049183e-003 -1.441021e-003 -6.875984e-003 3.565694e-003 -2.168101e-003 2.193594e-003 9.361610e-004 1.325395e-003 5.700063e-003
<VARIANCE> 25
 5.943412e+001 4.026661e+001 5.241284e+001 5.695612e+001 6.204460e+001 5.330276e+001 4.780934e+001 4.727483e+001 4.546556e+001 3.799824e+001 4.568661e+001 3.098922e+001 3.472928e+000 2.743669e+000 3.116620e+000 3.902190e+000 4.152149e+000 3.945159e+000 3.867291e+000 3.946088e+000 3.581351e+000 3.257582e+000 3.508015e+000 2.489160e+000 2.831419e+000
<GCONST> 1.082042e+002
<STATE> 3
<MEAN> 25
 -8.623152e-002 1.193470e-002 5.573831e-001 3.514300e-001 -8.316267e-001 -8.353976e-001 4.952019e-005 1.694535e-001 -3.030523e-002 -1.068683e-001 1.749667e-001 7.196718e-002 4.466920e-003 -2.459774e-003 2.341004e-004 -1.771864e-003 -4.228068e-005 1.236147e-003 -7.711271e-003 4.398537e-003 -6.523047e-004 3.588791e-003 -8.168803e-004 1.268940e-003 3.757548e-003
<VARIANCE> 25
 5.925785e+001 4.028251e+001 5.247991e+001 5.683537e+001 6.202908e+001 5.335448e+001 4.772773e+001 4.723813e+001 4.554317e+001 3.802172e+001 4.576569e+001 3.097336e+001 3.463721e+000 2.746509e+000 3.119647e+000 3.898013e+000 4.148650e+000 3.949038e+000 3.864740e+000 3.946732e+000 3.582062e+000 3.257908e+000 3.509579e+000 2.490845e+000 2.831777e+000
<GCONST> 1.082020e+002
<STATE> 4
<MEAN> 25
 -6.711535e-002 -1.636126e-003 5.543585e-001 3.374591e-001 -8.261693e-001 -8.317139e-001 -2.176190e-002 1.778960e-001 -2.681676e-002 -9.367148e-002 1.660886e-001 6.946516e-002 4.219658e-003 -3.166732e-003 -1.758524e-003 -4.357221e-003 3.451578e-003 4.587866e-003 -6.904237e-003 4.657607e-003 5.393599e-004 4.724603e-003 -2.275201e-003 4.664205e-004 1.015396e-003
<VARIANCE> 25
 5.911784e+001 4.039456e+001 5.248072e+001 5.684821e+001 6.194480e+001 5.340244e+001 4.761363e+001 4.718231e+001 4.565872e+001 3.807019e+001 4.589794e+001 3.088004e+001 3.452286e+000 2.754045e+000 3.114934e+000 3.898103e+000 4.136397e+000 3.947068e+000 3.858955e+000 3.945811e+000 3.579302e+000 3.255683e+000 3.509411e+000 2.487271e+000 2.823427e+000
<GCONST> 1.081892e+002
<TRANSP> 5
 0.000000e+000 1.000000e+000 0.000000e+000 0.000000e+000 0.000000e+000
 0.000000e+000 5.639856e-001 4.360144e-001 0.000000e+000 0.000000e+000
 0.000000e+000 0.000000e+000 5.639892e-001 4.360107e-001 0.000000e+000
 0.000000e+000 0.000000e+000 0.000000e+000 6.590057e-001 3.409943e-001
 0.000000e+000 0.000000e+000 0.000000e+000 0.000000e+000 0.000000e+000
<ENDHMM>
~h "f"
<BEGINHMM>
<NUMSTATES> 5
<STATE> 2
<MEAN> 25
 4.189496e-001 -9.416197e-001 -1.945016e+000 1.118343e+000 9.074141e-002 1.422175e+000 -1.657875e-001 -6.638948e-001 5.136849e-001 8.611542e-001 1.751223e+000 6.340176e-001 6.815200e-002 -2.732751e-002 3.336250e-002 -3.869696e-002 4.099067e-003 3.154661e-002 -4.302128e-002 7.864670e-003 7.322233e-003 -2.477486e-002 1.238374e-002 -1.809582e-002 -1.556314e-002
<VARIANCE> 25
 5.614781e+001 3.170235e+001 5.074203e+001 6.040157e+001 7.021636e+001 5.446428e+001 4.459352e+001 5.353458e+001 5.161103e+001 3.563300e+001 5.115343e+001 3.046550e+001 3.935086e+000 2.474962e+000 2.859865e+000 4.255756e+000 4.679873e+000 4.645814e+000 3.579053e+000 4.703171e+000 3.655100e+000 3.112310e+000 3.673135e+000 2.700924e+000 2.665265e+000
<GCONST> 1.087388e+002
<STATE> 3
<MEAN> 25
 5.574559e-001 -9.928516e-001 -1.845153e+000 1.016316e+000 1.193032e-001 1.462638e+000 -2.844211e-001 -6.115993e-001 5.188138e-001 8.052300e-001 1.776909e+000 5.591679e-001 5.679017e-002 -1.823000e-002 5.076411e-002 -4.417809e-002 1.686565e-002 1.122865e-002 -5.481362e-002 2.684600e-002 -5.419223e-003 -1.776906e-002 6.592921e-003 -3.573098e-002 -2.135922e-002
<VARIANCE> 25
 5.464670e+001 3.155276e+001 5.098642e+001 6.091571e+001 6.790730e+001 5.377576e+001 4.635870e+001 5.192395e+001 5.310608e+001 3.474425e+001 5.078575e+001 3.113168e+001 3.873061e+000 2.471106e+000 2.883619e+000 4.207211e+000 4.588280e+000 4.572587e+000 3.668200e+000 4.645746e+000 3.738503e+000 3.052853e+000 3.655139e+000 2.762487e+000 2.739365e+000
<GCONST> 1.087044e+002
<STATE> 4
<MEAN> 25
 6.695587e-001 -1.018351e+000 -1.655923e+000 8.729860e-001 1.918146e-001 1.435625e+000 -4.815715e-001 -4.499905e-001 5.004572e-001 7.675355e-001 1.786890e+000 3.838058e-001 3.895361e-002 -5.734584e-003 5.706617e-002 -4.132602e-002 2.971842e-002 -1.435236e-002 -5.743255e-002 3.886409e-002 -1.421229e-002 -9.577721e-003 2.450112e-003 -5.098772e-002 -2.383373e-002
<VARIANCE> 25
 5.336424e+001 3.160743e+001 5.114979e+001 6.179766e+001 6.440207e+001 5.330849e+001 4.849771e+001 4.975260e+001 5.470473e+001 3.383155e+001 5.061753e+001 3.202188e+001 3.835049e+000 2.477253e+000 2.915054e+000 4.153995e+000 4.479579e+000 4.474968e+000 3.769811e+000 4.592769e+000 3.844265e+000 3.010156e+000 3.650859e+000 2.804919e+000 2.844790e+000
<GCONST> 1.086952e+002
<TRANSP> 5
 0.000000e+000 1.000000e+000 0.000000e+000 0.000000e+000 0.000000e+000
 0.000000e+000 5.793656e-001 4.206345e-001 0.000000e+000 0.000000e+000
 0.000000e+000 0.000000e+000 5.793659e-001 4.206341e-001 0.000000e+000
 0.000000e+000 0.000000e+000 0.000000e+000 6.767930e-001 3.232070e-001
 0.000000e+000 0.000000e+000 0.000000e+000 0.000000e+000 0.000000e+000
<ENDHMM>
~h "g"
<BEGINHMM>
<NUMSTATES> 5
<STATE> 2
<MEAN> 25
 1.227895e+000 5.759531e-001 -1.015298e-001 -5.110908e-001 -3.423832e-001 4.063582e-001 -4.571093e-001 -3.273276e-001 -5.416222e-001 -9.766515e-002 5.297480e-001 -1.333568e-001 -4.531660e-004 -2.305274e-002 -9.781956e-003 8.211199e-003 1.441800e-002 -7.702238e-003 5.719853e-003 6.336368e-003 1.597940e-002 1.026864e-002 -1.002542e-002 -3.739917e-003 5.800061e-003
<VARIANCE> 25
 5.268566e+001 4.422764e+001 5.414658e+001 6.596886e+001 6.196392e+001 5.369394e+001 5.138643e+001 4.894350e+001 5.080347e+001 4.359027e+001 4.803608e+001 3.433846e+001 2.860312e+000 2.773791e+000 3.283026e+000 4.586943e+000 4.175560e+000 3.913319e+000 3.928411e+000 4.045326e+000 4.050169e+000 3.646087e+000 3.758569e+000 2.754689e+000 2.529568e+000
<GCONST> 1.092328e+002
<STATE> 3
<MEAN> 25
 1.224664e+000 5.230297e-001 -1.205637e-001 -4.968269e-001 -3.123128e-001 3.919232e-001 -4.452186e-001 -3.148575e-001 -5.025745e-001 -7.139447e-002 5.061052e-001 -1.422790e-001 -1.367551e-003 -2.491384e-002 -5.945519e-003 5.388159e-003 1.001599e-002 -7.033657e-003 4.785722e-003 6.954600e-003 1.763123e-002 1.016003e-002 -1.176142e-002 -4.502582e-003 5.451889e-003
<VARIANCE> 25
 5.236170e+001 4.416998e+001 5.396705e+001 6.586702e+001 6.183132e+001 5.394593e+001 5.110138e+001 4.896159e+001 5.109211e+001 4.333794e+001 4.798401e+001 3.440848e+001 2.845416e+000 2.772306e+000 3.271328e+000 4.574887e+000 4.156827e+000 3.897607e+000 3.912490e+000 4.036299e+000 4.058915e+000 3.629134e+000 3.755874e+000 2.770202e+000 2.538482e+000
<GCONST> 1.091977e+002
<STATE> 4
<MEAN> 25
 1.240388e+000 4.516875e-001 -1.336155e-001 -4.924802e-001 -2.950009e-001 3.701650e-001 -4.503748e-001 -3.075343e-001 -4.664401e-001 -3.808875e-002 4.723344e-001 -1.664898e-001 -1.534921e-003 -2.332083e-002 -1.951749e-003 2.913724e-003 5.379026e-003 -6.655016e-003 4.930445e-003 8.796690e-003 1.749798e-002 9.609743e-003 -1.421808e-002 -5.055985e-003 2.872899e-003
<VARIANCE> 25
 5.222166e+001 4.397349e+001 5.382240e+001 6.584677e+001 6.176333e+001 5.411986e+001 5.089854e+001 4.913093e+001 5.140068e+001 4.301277e+001 4.790010e+001 3.435788e+001 2.827523e+000 2.761519e+000 3.252908e+000 4.558594e+000 4.125922e+000 3.872502e+000 3.886941e+000 4.020236e+000 4.057883e+000 3.608527e+000 3.736368e+000 2.772520e+000 2.540391e+000
<GCONST> 1.091310e+002
<TRANSP> 5
 0.000000e+000 1.000000e+000 0.000000e+000 0.000000e+000 0.000000e+000
 0.000000e+000 5.649633e-001 4.350367e-001 0.000000e+000 0.000000e+000
 0.000000e+000 0.000000e+000 5.649595e-001 4.350406e-001 0.000000e+000
 0.000000e+000 0.000000e+000 0.000000e+000 6.603001e-001 3.396999e-001
 0.000000e+000 0.000000e+000 0.000000e+000 0.000000e+000 0.000000e+000
<ENDHMM>
~h "h"
<BEGINHMM>
<NUMSTATES> 5
<STATE> 2
<MEAN> 25
 -8.487720e-001 2.703321e-001 2.989775e-004 -1.896938e-001 3.003163e-002 2.629983e-001 1.641308e-001 1.256532e-001 -1.086894e-001 -2.869443e-001 2.657602e-001 -5.362582e-002 7.394207e-002 -2.874591e-002 -5.317464e-002 -3.037573e-002 7.516479e-004 2.305032e-002 3.692192e-003 6.359867e-004 4.671611e-003 -1.091856e-002 -2.865977e-002 -5.269699e-002 2.491812e-002
<VARIANCE> 25
 6.225594e+001 4.232278e+001 5.795308e+001 5.405921e+001 7.695517e+001 4.925541e+001 4.921563e+001 5.055613e+001 4.711850e+001 3.955179e+001 4.907415e+001 3.202856e+001 3.978573e+000 2.847973e+000 3.188815e+000 3.721387e+000 5.254434e+000 3.870147e+000 3.984460e+000 4.124872e+000 3.805629e+000 3.468034e+000 3.568450e+000 2.709301e+000 2.372358e+000
<GCONST> 1.092488e+002
<STATE> 3
<MEAN> 25
 -6.954758e-001 2.045862e-001 -1.199620e-001 -2.530062e-001 3.386556e-002 3.116023e-001 1.760223e-001 1.310031e-001 -9.194616e-002 -3.176501e-001 1.891776e-001 -1.681547e-001 6.600743e-002 -2.886790e-002 -5.515537e-002 -2.640742e-002 4.534880e-003 2.022981e-002 5.819282e-003 2.149817e-003 1.056405e-002 -1.159892e-002 -3.500819e-002 -5.062024e-002 2.512439e-002
<VARIANCE> 25
 6.097740e+001 4.289305e+001 5.911772e+001 5.456583e+001 7.646725e+001 4.955570e+001 4.942834e+001 5.097209e+001 4.752814e+001 3.959408e+001 4.962784e+001 3.220955e+001 3.927038e+000 2.862251e+000 3.214333e+000 3.774103e+000 5.285057e+000 3.882846e+000 3.984620e+000 4.175007e+000 3.827535e+000 3.476334e+000 3.605000e+000 2.717129e+000 2.371241e+000
<GCONST> 1.093655e+002
<STATE> 4
<MEAN> 25
 -5.527287e-001 1.254388e-001 -2.439807e-001 -3.023239e-001 3.776155e-002 3.513871e-001 1.858146e-001 1.525419e-001 -7.708609e-002 -3.648624e-001 8.520100e-002 -2.889519e-001 5.214366e-002 -2.762870e-002 -4.694744e-002 -1.739210e-002 1.053303e-002 1.388669e-002 5.934476e-003 7.940553e-003 1.225659e-002 -9.838933e-003 -4.038817e-002 -4.208483e-002 1.964539e-002
<VARIANCE> 25
 5.968611e+001 4.345615e+001 6.025951e+001 5.502719e+001 7.586472e+001 4.975030e+001 4.956253e+001 5.150609e+001 4.794770e+001 3.961260e+001 5.030535e+001 3.244829e+001 3.853708e+000 2.873935e+000 3.232346e+000 3.802449e+000 5.300433e+000 3.878800e+000 3.982843e+000 4.215032e+000 3.824584e+000 3.471938e+000 3.634517e+000 2.713715e+000 2.367719e+000
<GCONST> 1.094366e+002
<TRANSP> 5
 0.000000e+000 1.000000e+000 0.000000e+000 0.000000e+000 0.000000e+000
 0.000000e+000 5.644655e-001 4.355345e-001 0.000000e+000 0.000000e+000
 0.000000e+000 0.000000e+000 5.644670e-001 4.355330e-001 0.000000e+000
 0.000000e+000 0.000000e+000 0.000000e+000 6.595838e-001 3.404162e-001
 0.000000e+000 0.000000e+000 0.000000e+000 0.000000e+000 0.000000e+000
<ENDHMM>
~h "i"
<BEGINHMM>
<NUMSTATES> 5
<STATE> 2
<MEAN> 25
 -3.051789e-001 3.888011e-001 1.277552e+000 3.153661e-001 -9.585733e-001 -2.625500e-001 -1.116663e-001 -4.244115e-001 -5.373926e-001 -2.189640e-002 2.161409e-001 8.173834e-002 -8.946931e-003 -1.998231e-003 2.257695e-003 7.246155e-003 1.173528e-002 6.091446e-003 9.807983e-003 1.574051e-003 2.801594e-003 -2.485756e-003 4.605717e-003 3.996667e-003 -9.538325e-003
<VARIANCE> 25
 6.167996e+001 3.927092e+001 5.865981e+001 5.732054e+001 6.674599e+001 5.159227e+001 4.679342e+001 4.666016e+001 4.689990e+001 3.874989e+001 4.541689e+001 3.069801e+001 3.510962e+000 2.633414e+000 3.304748e+000 3.817711e+000 4.469992e+000 3.851969e+000 3.626567e+000 3.787712e+000 3.623896e+000 3.219507e+000 3.422008e+000 2.449670e+000 2.698651e+000
<GCONST> 1.082388e+002
<STATE> 3
<MEAN> 25
 -3.244665e-001 3.837713e-001 1.277918e+000 3.288380e-001 -9.284297e-001 -2.504618e-001 -8.996049e-002 -4.172408e-001 -5.278431e-001 -2.808825e-002 2.279439e-001 8.896434e-002 -7.806307e-003 -3.206823e-003 -1.958107e-003 4.205458e-003 1.241815e-002 6.133275e-003 9.335304e-003 4.347827e-003 4.968276e-003 -2.523502e-003 5.475982e-003 2.342837e-003 -8.462819e-003
<VARIANCE> 25
 6.175050e+001 3.930449e+001 5.862897e+001 5.728066e+001 6.693059e+001 5.153915e+001 4.684848e+001 4.667812e+001 4.695352e+001 3.866232e+001 4.538963e+001 3.071593e+001 3.504351e+000 2.633400e+000 3.303816e+000 3.810936e+000 4.466682e+000 3.839545e+000 3.624962e+000 3.789481e+000 3.624815e+000 3.210840e+000 3.417755e+000 2.447544e+000 2.689083e+000
<GCONST> 1.082258e+002
<STATE> 4
<MEAN> 25
 -3.252592e-001 3.707827e-001 1.254382e+000 3.254536e-001 -8.896055e-001 -2.305506e-001 -7.619818e-002 -4.026524e-001 -5.126927e-001 -3.487948e-002 2.391361e-001 8.934434e-002 -5.297644e-003 -5.237942e-003 -6.966884e-003 1.696061e-003 1.288275e-002 5.571265e-003 8.851848e-003 7.338844e-003 6.793825e-003 -3.402757e-003 5.151880e-003 6.345304e-004 -7.532337e-003
<VARIANCE> 25
 6.203862e+001 3.939820e+001 5.849762e+001 5.738193e+001 6.706297e+001 5.159983e+001 4.696183e+001 4.676782e+001 4.703188e+001 3.861005e+001 4.541469e+001 3.068282e+001 3.485042e+000 2.632938e+000 3.293565e+000 3.810901e+000 4.447328e+000 3.818577e+000 3.620884e+000 3.792471e+000 3.622513e+000 3.201549e+000 3.412799e+000 2.443846e+000 2.669558e+000
<GCONST> 1.082068e+002
<TRANSP> 5
 0.000000e+000 1.000000e+000 0.000000e+000 0.000000e+000 0.000000e+000
 0.000000e+000 5.657102e-001 4.342898e-001 0.000000e+000 0.000000e+000
 0.000000e+000 0.000000e+000 5.657119e-001 4.342881e-001 0.000000e+000
 0.000000e+000 0.000000e+000 0.000000e+000 6.612296e-001 3.387704e-001
 0.000000e+000 0.000000e+000 0.000000e+000 0.000000e+000 0.000000e+000
<ENDHMM>
~h "j"
<BEGINHMM>
<NUMSTATES> 5
<STATE> 2
<MEAN> 25
 3.670999e-001 -8.356056e-002 7.423018e-001 4.512472e-003 -9.529357e-001 -5.398489e-001 3.703412e-002 1.973693e-002 -4.254706e-001 -1.325761e-001 1.747879e-001 -6.816303e-002 6.420018e-003 -1.420718e-003 -1.070181e-003 3.360916e-003 -3.285008e-003 -4.335816e-003 1.450899e-003 1.105065e-003 3.848569e-003 -1.597677e-003 1.647996e-003 1.763411e-003 3.129042e-003
<VARIANCE> 25
 5.387960e+001 4.152744e+001 5.598422e+001 5.701386e+001 6.596526e+001 5.148355e+001 4.869972e+001 4.788639e+001 4.698404e+001 3.951406e+001 4.652610e+001 2.981813e+001 2.920631e+000 2.593309e+000 3.281197e+000 3.884820e+000 4.142762e+000 3.768147e+000 3.725934e+000 3.890236e+000 3.591980e+000 3.238838e+000 3.441627e+000 2.412653e+000 2.458946e+000
<GCONST> 1.078370e+002
<STATE> 3
<MEAN> 25
 3.822201e-001 -8.631377e-002 7.332979e-001 1.424961e-002 -9.543433e-001 -5.426849e-001 3.701767e-002 2.580579e-002 -4.168694e-001 -1.345556e-001 1.771291e-001 -6.522968e-002 4.937388e-003 -1.242178e-003 -4.420838e-003 5.720909e-003 4.650021e-004 -5.299035e-004 -5.726697e-004 3.854991e-003 4.895883e-003 -4.622480e-004 8.476395e-004 1.468025e-003 1.041329e-003
<VARIANCE> 25
 5.373935e+001 4.160714e+001 5.595164e+001 5.698649e+001 6.609195e+001 5.163434e+001 4.875676e+001 4.778196e+001 4.706653e+001 3.956363e+001 4.651435e+001 2.983032e+001 2.920049e+000 2.602415e+000 3.286236e+000 3.884394e+000 4.139219e+000 3.762767e+000 3.725501e+000 3.886106e+000 3.588004e+000 3.242092e+000 3.452638e+000 2.413957e+000 2.468814e+000
<GCONST> 1.078511e+002
<STATE> 4
<MEAN> 25
 4.041855e-001 -8.979202e-002 7.114978e-001 2.141907e-002 -9.477766e-001 -5.369226e-001 2.743923e-002 3.596089e-002 -4.041807e-001 -1.343560e-001 1.727701e-001 -6.448419e-002 3.301286e-003 -1.869629e-003 -8.758260e-003 5.793401e-003 4.105802e-003 3.164691e-003 -3.269561e-003 6.229936e-003 6.095171e-003 1.488299e-003 -6.218653e-004 1.581397e-003 -6.387467e-004
<VARIANCE> 25
 5.368333e+001 4.172161e+001 5.582811e+001 5.710862e+001 6.610716e+001 5.179187e+001 4.875351e+001 4.765833e+001 4.718813e+001 3.963463e+001 4.646845e+001 2.978304e+001 2.921716e+000 2.613265e+000 3.285385e+000 3.892229e+000 4.124141e+000 3.755542e+000 3.724194e+000 3.882138e+000 3.579702e+000 3.245847e+000 3.461168e+000 2.412832e+000 2.476110e+000
<GCONST> 1.078585e+002
<TRANSP> 5
 0.000000e+000 1.000000e+000 0.000000e+000 0.000000e+000 0.000000e+000
 0.000000e+000 5.624351e-001 4.375649e-001 0.000000e+000 0.000000e+000
 0.000000e+000 0.000000e+000 5.624374e-001 4.375626e-001 0.000000e+000
 0.000000e+000 0.000000e+000 0.000000e+000 6.570616e-001 3.429385e-001
 0.000000e+000 0.000000e+000 0.000000e+000 0.000000e+000 0.000000e+000
<ENDHMM>
~h "k"
<BEGINHMM>
<NUMSTATES> 5
<STATE> 2
<MEAN> 25
 -3.317386e-001 -4.868538e-001 -4.253044e-001 -3.378388e-002 8.307554e-001 1.360268e-001 8.281557e-002 2.258893e-001 -5.344838e-002 2.764303e-001 -2.787055e-002 3.284682e-002 7.881533e-003 7.420079e-004 7.392679e-003 -8.139619e-003 -9.678510e-003 3.724712e-003 1.663751e-003 4.996815e-003 -9.972222e-003 -6.991099e-003 2.525515e-003 -8.307309e-003 5.117610e-003
<VARIANCE> 25
 6.198545e+001 4.030217e+001 5.637891e+001 5.974484e+001 6.188320e+001 5.462349e+001 4.881131e+001 4.858202e+001 4.723686e+001 4.006026e+001 4.771195e+001 3.300387e+001 3.684977e+000 2.838594e+000 3.533562e+000 4.208568e+000 4.407991e+000 3.978148e+000 3.740940e+000 3.955715e+000 3.758548e+000 3.441771e+000 3.738334e+000 2.673425e+000 3.175612e+000
<GCONST> 1.093200e+002
<STATE> 3
<MEAN> 25
 -3.153850e-001 -4.822424e-001 -4.038769e-001 -4.929071e-002 8.064890e-001 1.395720e-001 8.529697e-002 2.367876e-001 -7.630281e-002 2.625189e-001 -1.992180e-002 1.286534e-002 6.428794e-003 2.887386e-003 1.157993e-002 -7.493563e-003 -1.256762e-002 9.415473e-004 7.302425e-004 5.170754e-003 -8.587505e-003 -6.319480e-003 2.906970e-003 -7.841716e-003 5.221807e-003
<VARIANCE> 25
 6.220163e+001 4.023483e+001 5.646168e+001 5.986986e+001 6.170319e+001 5.464328e+001 4.895735e+001 4.861789e+001 4.723576e+001 3.999279e+001 4.786248e+001 3.288078e+001 3.699216e+000 2.828635e+000 3.528498e+000 4.208201e+000 4.406709e+000 3.972033e+000 3.744708e+000 3.957340e+000 3.765331e+000 3.441493e+000 3.736426e+000 2.662989e+000 3.164631e+000
<GCONST> 1.093165e+002
<STATE> 4
<MEAN> 25
 -2.879001e-001 -4.756110e-001 -3.709113e-001 -5.759243e-002 7.744541e-001 1.213532e-001 8.713326e-002 2.557461e-001 -9.062045e-002 2.457361e-001 -1.721421e-002 -1.643946e-002 4.595788e-003 5.723798e-003 1.551564e-002 -4.833500e-003 -1.573571e-002 -4.059555e-003 1.601646e-003 2.831680e-003 -3.464153e-003 -7.420165e-003 2.540835e-003 -6.283394e-003 4.814785e-003
<VARIANCE> 25
 6.261105e+001 4.013083e+001 5.637732e+001 6.003172e+001 6.155924e+001 5.460431e+001 4.910316e+001 4.864976e+001 4.720042e+001 3.982951e+001 4.788930e+001 3.262210e+001 3.704957e+000 2.812364e+000 3.514427e+000 4.203870e+000 4.396254e+000 3.959346e+000 3.743943e+000 3.950216e+000 3.761860e+000 3.436454e+000 3.724117e+000 2.641943e+000 3.141470e+000
<GCONST> 1.092722e+002
<TRANSP> 5
 0.000000e+000 1.000000e+000 0.000000e+000 0.000000e+000 0.000000e+000
 0.000000e+000 5.650254e-001 4.349746e-001 0.000000e+000 0.000000e+000
 0.000000e+000 0.000000e+000 5.650255e-001 4.349745e-001 0.000000e+000
 0.000000e+000 0.000000e+000 0.000000e+000 6.603405e-001 3.396595e-001
 0.000000e+000 0.000000e+000 0.000000e+000 0.000000e+000 0.000000e+000
<ENDHMM>
~h "l"
<BEGINHMM>
<NUMSTATES> 5
<STATE> 2
<MEAN> 25
 1.016896e+000 -2.681916e-001 -9.631296e-001 -1.521547e+000 4.665108e-001 1.488117e+000 -4.844709e-002 -9.697884e-001 -1.222503e-001 4.849649e-001 1.241796e-001 -2.647690e-001 3.268839e-004 -4.585015e-003 -3.847489e-005 -3.918541e-004 5.987075e-003 -1.659206e-003 -5.262899e-004 -2.532803e-003 1.889461e-003 -6.490799e-003 -8.356173e-003 -8.746324e-003 3.477473e-003
<VARIANCE> 25
 5.790542e+001 3.920029e+001 5.590564e+001 7.014787e+001 6.341847e+001 5.929072e+001 4.931841e+001 4.883482e+001 4.875572e+001 4.020753e+001 4.553991e+001 3.235174e+001 3.044732e+000 2.604458e+000 3.326024e+000 4.584408e+000 4.283342e+000 4.016238e+000 3.706532e+000 3.960886e+000 3.921495e+000 3.360340e+000 3.440554e+000 2.648432e+000 2.662220e+000
<GCONST> 1.089378e+002
<STATE> 3
<MEAN> 25
 1.010609e+000 -2.719512e-001 -9.560330e-001 -1.513458e+000 4.773299e-001 1.475765e+000 -4.797857e-002 -9.648837e-001 -1.225596e-001 4.657807e-001 1.057841e-001 -2.783626e-001 -5.218634e-003 -7.630860e-004 5.188734e-003 6.814922e-003 5.036828e-003 -6.770098e-003 -3.451229e-004 3.352719e-003 5.102112e-004 -8.302116e-003 -8.448736e-003 -4.393671e-003 -2.804307e-003
<VARIANCE> 25
 5.771238e+001 3.936047e+001 5.592843e+001 7.010403e+001 6.335873e+001 5.923605e+001 4.928514e+001 4.883244e+001 4.880807e+001 4.028684e+001 4.556541e+001 3.230384e+001 3.037509e+000 2.600128e+000 3.322139e+000 4.561749e+000 4.264812e+000 4.013578e+000 3.685038e+000 3.946921e+000 3.925653e+000 3.356215e+000 3.430463e+000 2.638070e+000 2.646550e+000
<GCONST> 1.089004e+002
<STATE> 4
<MEAN> 25
 9.800399e-001 -2.640600e-001 -9.244508e-001 -1.481187e+000 4.772507e-001 1.445324e+000 -5.914469e-002 -9.481382e-001 -1.239016e-001 4.351227e-001 8.535559e-002 -2.701729e-001 -1.103858e-002 3.274913e-003 1.013847e-002 1.495270e-002 4.213161e-003 -1.227106e-002 -4.416206e-005 9.208732e-003 -7.310104e-005 -8.550148e-003 -6.985331e-003 8.001363e-004 -9.674227e-003
<VARIANCE> 25
 5.801072e+001 3.956781e+001 5.588215e+001 6.999911e+001 6.337613e+001 5.925564e+001 4.927495e+001 4.883250e+001 4.876078e+001 4.029883e+001 4.568026e+001 3.218449e+001 3.031628e+000 2.588345e+000 3.305308e+000 4.527665e+000 4.235434e+000 4.003035e+000 3.661819e+000 3.927600e+000 3.915957e+000 3.345363e+000 3.420549e+000 2.614052e+000 2.621164e+000
<GCONST> 1.088398e+002
<TRANSP> 5
 0.000000e+000 1.000000e+000 0.000000e+000 0.000000e+000 0.000000e+000
 0.000000e+000 5.653759e-001 4.346240e-001 0.000000e+000 0.000000e+000
 0.000000e+000 0.000000e+000 5.653753e-001 4.346247e-001 0.000000e+000
 0.000000e+000 0.000000e+000 0.000000e+000 6.608600e-001 3.391400e-001
 0.000000e+000 0.000000e+000 0.000000e+000 0.000000e+000 0.000000e+000
<ENDHMM>
~h "m"
<BEGINHMM>
<NUMSTATES> 5
<STATE> 2
<MEAN> 25
 9.265761e-001 -1.751172e-001 2.666440e-001 -1.291700e-002 -5.222245e-001 2.300435e-001 -2.109155e-001 -3.237640e-001 -6.003259e-001 -1.923948e-001 2.106313e-001 -3.106056e-001 5.500528e-003 -1.006698e-003 -3.633933e-003 -4.367299e-003 -1.264534e-002 -6.053722e-003 -6.857799e-004 -2.250863e-003 3.854694e-003 -1.100466e-003 8.600259e-004 4.379382e-003 4.929513e-003
<VARIANCE> 25
 5.455439e+001 3.776047e+001 5.266941e+001 5.909138e+001 6.321495e+001 5.204688e+001 4.847460e+001 5.031716e+001 4.823586e+001 3.811834e+001 4.523555e+001 3.117444e+001 2.964067e+000 2.497671e+000 3.222857e+000 3.951537e+000 4.140532e+000 3.701554e+000 3.699234e+000 4.087626e+000 3.876703e+000 3.259324e+000 3.480797e+000 2.534016e+000 2.518579e+000
<GCONST> 1.079161e+002
<STATE> 3
<MEAN> 25
 9.392033e-001 -1.767474e-001 2.594177e-001 -2.301165e-002 -5.475935e-001 2.171491e-001 -2.136467e-001 -3.267172e-001 -5.900854e-001 -1.967992e-001 2.098964e-001 -3.009931e-001 4.857603e-003 -3.750710e-004 -2.602186e-003 -5.585314e-003 -1.046634e-002 -6.500209e-003 -9.680067e-004 -1.178971e-003 6.853576e-003 -1.088462e-003 -9.948125e-004 4.436808e-003 2.664801e-003
<VARIANCE> 25
 5.446649e+001 3.777523e+001 5.260685e+001 5.894738e+001 6.327000e+001 5.201764e+001 4.843152e+001 5.034718e+001 4.821591e+001 3.815997e+001 4.535309e+001 3.115716e+001 2.954817e+000 2.499808e+000 3.221770e+000 3.946704e+000 4.140615e+000 3.701000e+000 3.693280e+000 4.091263e+000 3.866535e+000 3.257877e+000 3.477288e+000 2.531616e+000 2.509943e+000
<GCONST> 1.079008e+002
<STATE> 4
<MEAN> 25
 9.415285e-001 -1.772817e-001 2.546719e-001 -4.631115e-002 -5.669318e-001 2.044145e-001 -2.153237e-001 -3.226979e-001 -5.697843e-001 -1.992436e-001 1.964837e-001 -2.929730e-001 2.610806e-003 7.160243e-004 -1.248979e-003 -6.365946e-003 -7.092977e-003 -6.125916e-003 -1.381476e-004 -2.275733e-004 9.876874e-003 -2.417037e-004 -3.603246e-003 4.788177e-003 7.400833e-004
<VARIANCE> 25
 5.463928e+001 3.782906e+001 5.251523e+001 5.879248e+001 6.328572e+001 5.201786e+001 4.835075e+001 5.019914e+001 4.823843e+001 3.821326e+001 4.542808e+001 3.104693e+001 2.949276e+000 2.505257e+000 3.212891e+000 3.939721e+000 4.132005e+000 3.696411e+000 3.686291e+000 4.078238e+000 3.845532e+000 3.252805e+000 3.468339e+000 2.524337e+000 2.496671e+000
<GCONST> 1.078663e+002
<TRANSP> 5
 0.000000e+000 1.000000e+000 0.000000e+000 0.000000e+000 0.000000e+000
 0.000000e+000 5.632844e-001 4.367155e-001 0.000000e+000 0.000000e+000
 0.000000e+000 0.000000e+000 5.632859e-001 4.367141e-001 0.000000e+000
 0.000000e+000 0.000000e+000 0.000000e+000 6.581832e-001 3.418168e-001
 0.000000e+000 0.000000e+000 0.000000e+000 0.000000e+000 0.000000e+000
<ENDHMM>
~h "n"
<BEGINHMM>
<NUMSTATES> 5
<STATE> 2
<MEAN> 25
 3.509991e-001 -1.177783e-001 1.103509e-001 -6.584822e-002 -1.632709e-001 8.628203e-002 5.175107e-002 2.693371e-002 -1.603896e-001 -2.914475e-001 -4.222001e-001 -1.064850e-001 4.543695e-003 6.797826e-003 4.852766e-003 7.618557e-003 -3.260233e-003 7.748248e-003 -4.238690e-003 -3.519026e-003 -2.052275e-003 2.789832e-003 7.188195e-004 2.896707e-004 -1.167549e-002
<VARIANCE> 25
 5.822985e+001 3.966379e+001 5.234512e+001 5.720314e+001 6.262765e+001 5.292970e+001 4.756887e+001 4.825950e+001 4.579603e+001 3.848780e+001 4.805981e+001 3.058051e+001 3.262776e+000 2.632493e+000 3.118409e+000 3.837743e+000 4.096358e+000 3.769300e+000 3.698264e+000 4.057234e+000 3.591586e+000 3.189203e+000 3.435313e+000 2.423897e+000 2.546628e+000
<GCONST> 1.078792e+002
<STATE> 3
<MEAN> 25
 3.623265e-001 -1.038392e-001 1.197940e-001 -4.999300e-002 -1.715200e-001 1.008761e-001 4.197745e-002 1.672785e-002 -1.636115e-001 -2.857472e-001 -4.197240e-001 -1.079609e-001 3.763849e-003 4.859635e-003 3.076755e-003 6.550284e-003 -1.989000e-003 5.223513e-003 -4.787219e-003 -3.758430e-003 -1.304766e-003 1.359258e-003 1.203533e-003 -9.615654e-004 -9.627167e-003
<VARIANCE> 25
 5.812669e+001 3.961910e+001 5.226842e+001 5.734001e+001 6.251119e+001 5.282448e+001 4.764875e+001 4.826126e+001 4.575668e+001 3.849672e+001 4.801261e+001 3.053576e+001 3.263409e+000 2.633719e+000 3.123477e+000 3.844591e+000 4.100361e+000 3.770744e+000 3.709562e+000 4.063971e+000 3.595178e+000 3.194235e+000 3.442423e+000 2.423524e+000 2.547399e+000
<GCONST> 1.078869e+002
<STATE> 4
<MEAN> 25
 3.722956e-001 -9.479991e-002 1.259623e-001 -4.737501e-002 -1.775527e-001 1.059108e-001 2.607319e-002 5.413380e-003 -1.693214e-001 -2.874102e-001 -4.063435e-001 -1.087314e-001 1.570505e-003 2.100606e-003 -4.623518e-004 2.702332e-003 5.869340e-005 3.646597e-003 -3.596145e-003 -3.251917e-003 1.629599e-005 4.191359e-004 3.358555e-003 -5.386855e-004 -6.557671e-003
<VARIANCE> 25
 5.821328e+001 3.968459e+001 5.213815e+001 5.751478e+001 6.242513e+001 5.280855e+001 4.769556e+001 4.834994e+001 4.576420e+001 3.856458e+001 4.802045e+001 3.050964e+001 3.265145e+000 2.637880e+000 3.121004e+000 3.854596e+000 4.099460e+000 3.768485e+000 3.715255e+000 4.070340e+000 3.596611e+000 3.201144e+000 3.449503e+000 2.421201e+000 2.540736e+000
<GCONST> 1.079002e+002
<TRANSP> 5
 0.000000e+000 1.000000e+000 0.000000e+000 0.000000e+000 0.000000e+000
 0.000000e+000 5.648016e-001 4.351984e-001 0.000000e+000 0.000000e+000
 0.000000e+000 0.000000e+000 5.648025e-001 4.351974e-001 0.000000e+000
 0.000000e+000 0.000000e+000 0.000000e+000 6.600268e-001 3.399732e-001
 0.000000e+000 0.000000e+000 0.000000e+000 0.000000e+000 0.000000e+000
<ENDHMM>
~h "o"
<BEGINHMM>
<NUMSTATES> 5
<STATE> 2
<MEAN> 25
 6.316572e-001 2.800448e-001 -5.425836e-001 -1.050171e+000 3.664373e-001 1.007582e+000 -2.661567e-001 -4.121149e-001 -1.612644e-001 2.615627e-001 4.231605e-001 -4.551788e-002 -7.836496e-004 1.926813e-003 -1.745287e-003 3.488257e-003 3.063806e-004 -1.394393e-003 3.196112e-003 -1.654936e-003 5.157846e-003 -6.091507e-004 1.617796e-003 -2.976877e-003 -6.212421e-003
<VARIANCE> 25
 5.871344e+001 3.749336e+001 5.245973e+001 7.092889e+001 6.027958e+001 5.666158e+001 5.012412e+001 4.702328e+001 4.737367e+001 4.077283e+001 4.666009e+001 3.143146e+001 3.255872e+000 2.564913e+000 3.234829e+000 4.656996e+000 4.151437e+000 3.908288e+000 3.810198e+000 3.927969e+000 3.794221e+000 3.455173e+000 3.582677e+000 2.534291e+000 2.720402e+000
<GCONST> 1.087307e+002
<STATE> 3
<MEAN> 25
 6.277424e-001 2.833525e-001 -5.457625e-001 -1.040577e+000 3.647535e-001 1.000957e+000 -2.580309e-001 -4.163444e-001 -1.497791e-001 2.601170e-001 4.252270e-001 -5.281080e-002 -1.881861e-003 1.393546e-003 -1.980660e-004 5.126045e-003 -2.157598e-003 -4.671866e-003 4.125434e-003 -1.990995e-003 4.133701e-003 -7.492728e-004 1.017050e-004 -2.760140e-003 -3.372744e-003
<VARIANCE> 25
 5.867578e+001 3.746049e+001 5.244585e+001 7.102619e+001 6.028112e+001 5.666445e+001 5.016364e+001 4.695896e+001 4.734684e+001 4.076638e+001 4.664930e+001 3.140771e+001 3.255887e+000 2.565147e+000 3.234875e+000 4.659809e+000 4.152386e+000 3.911628e+000 3.809029e+000 3.928380e+000 3.794414e+000 3.457577e+000 3.587587e+000 2.534050e+000 2.725388e+000
<GCONST> 1.087336e+002
<STATE> 4
<MEAN> 25
 6.143091e-001 2.884025e-001 -5.442863e-001 -1.022329e+000 3.516929e-001 9.847700e-001 -2.421282e-001 -4.229570e-001 -1.375142e-001 2.590998e-001 4.219657e-001 -5.751817e-002 -3.718631e-003 -1.952802e-005 1.425741e-003 7.550514e-003 -4.556000e-003 -8.057931e-003 4.813568e-003 -1.390685e-003 3.270389e-003 -7.110164e-004 -7.228446e-004 -2.143434e-003 -5.729156e-004
<VARIANCE> 25
 5.887285e+001 3.744634e+001 5.239471e+001 7.111965e+001 6.021144e+001 5.669366e+001 5.013828e+001 4.690167e+001 4.726438e+001 4.068613e+001 4.661495e+001 3.131994e+001 3.254656e+000 2.564030e+000 3.225969e+000 4.664218e+000 4.147468e+000 3.907868e+000 3.804596e+000 3.924760e+000 3.784535e+000 3.457413e+000 3.585851e+000 2.528346e+000 2.722412e+000
<GCONST> 1.087139e+002
<TRANSP> 5
 0.000000e+000 1.000000e+000 0.000000e+000 0.000000e+000 0.000000e+000
 0.000000e+000 5.652539e-001 4.347460e-001 0.000000e+000 0.000000e+000
 0.000000e+000 0.000000e+000 5.652582e-001 4.347418e-001 0.000000e+000
 0.000000e+000 0.000000e+000 0.000000e+000 6.604694e-001 3.395306e-001
 0.000000e+000 0.000000e+000 0.000000e+000 0.000000e+000 0.000000e+000
<ENDHMM>
~h "p"
<BEGINHMM>
<NUMSTATES> 5
<STATE> 2
<MEAN> 25
 2.999213e-001 -4.928702e-002 -1.285067e-001 -1.936945e-001 3.261306e-001 1.192786e-001 3.827395e-002 1.625456e-001 6.904471e-002 3.533466e-001 1.334680e-001 7.755603e-002 1.382727e-002 9.354224e-003 -2.598483e-003 -2.761805e-003 -1.736936e-002 -6.054759e-003 -6.157995e-003 -6.267490e-003 -7.031249e-003 -9.595348e-005 3.164488e-003 -2.946940e-003 4.980912e-003
<VARIANCE> 25
 5.282938e+001 3.685041e+001 4.936317e+001 6.544794e+001 6.005949e+001 5.332821e+001 4.626942e+001 4.523773e+001 4.470338e+001 3.878812e+001 4.541756e+001 2.979830e+001 3.220624e+000 2.731314e+000 3.130183e+000 4.715799e+000 4.186010e+000 4.087740e+000 3.744639e+000 3.938820e+000 3.620781e+000 3.365680e+000 3.517955e+000 2.465313e+000 3.343904e+000
<GCONST> 1.082530e+002
<STATE> 3
<MEAN> 25
 3.280880e-001 -3.164572e-002 -1.337598e-001 -1.999154e-001 2.861653e-001 1.043755e-001 2.512460e-002 1.499058e-001 5.388581e-002 3.581340e-001 1.407708e-001 6.964327e-002 1.115987e-002 7.008869e-003 -1.859023e-003 -3.052682e-003 -1.728556e-002 -6.252222e-003 -6.287428e-003 -5.215872e-003 -6.870314e-003 2.632087e-003 2.302345e-003 -3.230123e-003 6.611980e-003
<VARIANCE> 25
 5.276793e+001 3.686208e+001 4.939969e+001 6.556384e+001 6.009980e+001 5.348212e+001 4.623882e+001 4.532414e+001 4.463787e+001 3.880682e+001 4.536118e+001 2.974663e+001 3.223693e+000 2.733654e+000 3.140525e+000 4.721320e+000 4.196405e+000 4.111004e+000 3.751812e+000 3.949611e+000 3.620353e+000 3.367474e+000 3.513488e+000 2.465818e+000 3.329693e+000
<GCONST> 1.082697e+002
<STATE> 4
<MEAN> 25
 3.522703e-001 -2.189120e-002 -1.482692e-001 -2.026273e-001 2.431914e-001 7.853252e-002 1.545252e-002 1.344098e-001 3.569771e-002 3.699916e-001 1.420180e-001 5.506326e-002 6.915939e-003 3.696610e-003 -1.262457e-003 -1.092743e-003 -1.513605e-002 -6.856127e-003 -4.773581e-003 -4.248168e-003 -6.839405e-003 3.628219e-003 -4.314255e-005 -3.157775e-003 8.123510e-003
<VARIANCE> 25
 5.285247e+001 3.695468e+001 4.943081e+001 6.558765e+001 6.013795e+001 5.351499e+001 4.622975e+001 4.549740e+001 4.464447e+001 3.879397e+001 4.541747e+001 2.961553e+001 3.226063e+000 2.738362e+000 3.147500e+000 4.723768e+000 4.196177e+000 4.124965e+000 3.757493e+000 3.960772e+000 3.619574e+000 3.362787e+000 3.514622e+000 2.461716e+000 3.305058e+000
<GCONST> 1.082788e+002
<TRANSP> 5
 0.000000e+000 1.000000e+000 0.000000e+000 0.000000e+000 0.000000e+000
 0.000000e+000 5.648513e-001 4.351487e-001 0.000000e+000 0.000000e+000
 0.000000e+000 0.000000e+000 5.648525e-001 4.351475e-001 0.000000e+000
 0.000000e+000 0.000000e+000 0.000000e+000 6.599096e-001 3.400904e-001
 0.000000e+000 0.000000e+000 0.000000e+000 0.000000e+000 0.000000e+000
<ENDHMM>
~h "r"
<BEGINHMM>
<NUMSTATES> 5
<STATE> 2
<MEAN> 25
 5.635331e-001 -5.422184e-001 -1.336234e-001 2.261456e-001 -5.218831e-001 -5.356399e-001 -2.349959e-001 2.292000e-001 2.025829e-001 1.999320e-001 -3.245959e-001 -1.422392e-001 8.371224e-003 -1.181357e-002 -3.792759e-003 -3.039458e-003 2.345852e-003 -6.255065e-003 -5.456133e-003 -2.548377e-003 4.858854e-003 2.506632e-003 -2.837844e-003 -4.789788e-003 1.759453e-002
<VARIANCE> 25
 5.613289e+001 4.218579e+001 5.262031e+001 5.948997e+001 5.935855e+001 5.457710e+001 4.992593e+001 4.891313e+001 4.791742e+001 3.886674e+001 4.710740e+001 3.089191e+001 3.083794e+000 2.778902e+000 3.087074e+000 4.073158e+000 4.017064e+000 3.892621e+000 3.812994e+000 3.989367e+000 3.699747e+000 3.306083e+000 3.444504e+000 2.496066e+000 2.786036e+000
<GCONST> 1.082937e+002
<STATE> 3
<MEAN> 25
 5.794309e-001 -5.661379e-001 -1.425325e-001 2.191089e-001 -5.138753e-001 -5.472667e-001 -2.457321e-001 2.226401e-001 2.116406e-001 2.046920e-001 -3.291819e-001 -1.495100e-001 6.537301e-003 -1.011454e-002 -5.721078e-003 -3.506456e-003 4.369811e-003 -3.793195e-003 -4.174605e-003 -4.092689e-003 3.432605e-003 1.342132e-003 -2.519861e-004 -3.277681e-003 1.490044e-002
<VARIANCE> 25
 5.604927e+001 4.235609e+001 5.278032e+001 5.945277e+001 5.948730e+001 5.455724e+001 4.994939e+001 4.889157e+001 4.793125e+001 3.895795e+001 4.708886e+001 3.100173e+001 3.078385e+000 2.788633e+000 3.081908e+000 4.078683e+000 4.021384e+000 3.894212e+000 3.811612e+000 3.985948e+000 3.696913e+000 3.313648e+000 3.447469e+000 2.500354e+000 2.769449e+000
<GCONST> 1.083060e+002
<STATE> 4
<MEAN> 25
 5.953143e-001 -5.808166e-001 -1.587543e-001 2.068791e-001 -4.957144e-001 -5.492014e-001 -2.517363e-001 2.084555e-001 2.141564e-001 2.079574e-001 -3.244343e-001 -1.529452e-001 5.370094e-003 -7.250393e-003 -6.961568e-003 -4.058886e-003 6.432196e-003 -6.205839e-004 -3.248547e-003 -6.258264e-003 1.176209e-003 3.242566e-004 3.024959e-003 -2.166662e-003 1.025383e-002
<VARIANCE> 25
 5.619834e+001 4.254013e+001 5.282406e+001 5.951800e+001 5.956918e+001 5.462260e+001 4.995778e+001 4.879065e+001 4.791258e+001 3.907535e+001 4.705104e+001 3.103262e+001 3.075508e+000 2.799472e+000 3.066496e+000 4.089855e+000 4.016305e+000 3.887320e+000 3.806168e+000 3.977106e+000 3.685186e+000 3.318058e+000 3.447970e+000 2.493993e+000 2.746147e+000
<GCONST> 1.082997e+002
<TRANSP> 5
 0.000000e+000 1.000000e+000 0.000000e+000 0.000000e+000 0.000000e+000
 0.000000e+000 5.655724e-001 4.344276e-001 0.000000e+000 0.000000e+000
 0.000000e+000 0.000000e+000 5.655717e-001 4.344283e-001 0.000000e+000
 0.000000e+000 0.000000e+000 0.000000e+000 6.608539e-001 3.391461e-001
 0.000000e+000 0.000000e+000 0.000000e+000 0.000000e+000 0.000000e+000
<ENDHMM>
~h "s"
<BEGINHMM>
<NUMSTATES> 5
<STATE> 2
<MEAN> 25
 -1.435434e+000 1.072606e+000 -5.982826e-001 7.598324e-001 3.563006e-001 -2.419295e-001 8.029794e-002 2.474028e-003 3.119650e-002 1.309071e-001 3.237783e-001 3.664934e-001 -9.689667e-003 1.754933e-003 -4.223732e-003 4.453311e-003 3.787089e-003 1.116785e-003 -3.060084e-003 -2.547161e-003 1.333445e-003 1.961096e-003 -1.547513e-003 -8.844230e-004 -3.551985e-003
<VARIANCE> 25
 7.365385e+001 4.229312e+001 5.310231e+001 5.834060e+001 6.205436e+001 5.148661e+001 4.867344e+001 4.754006e+001 4.489685e+001 3.772398e+001 4.467204e+001 3.100195e+001 4.300036e+000 2.838319e+000 3.212711e+000 3.973343e+000 4.150286e+000 3.775570e+000 3.839552e+000 3.925278e+000 3.557834e+000 3.201885e+000 3.439929e+000 2.494201e+000 2.544061e+000
<GCONST> 1.085427e+002
<STATE> 3
<MEAN> 25
 -1.447672e+000 1.070831e+000 -6.072580e-001 7.653161e-001 3.628637e-001 -2.389337e-001 7.141884e-002 -8.105920e-003 3.546498e-002 1.351086e-001 3.139354e-001 3.630182e-001 -1.195992e-003 -2.387203e-003 -2.497802e-003 2.167629e-003 1.783407e-003 2.074953e-003 -3.219710e-003 -5.902442e-003 1.583428e-003 1.259812e-003 -5.015154e-003 -1.785201e-003 -2.411140e-003
<VARIANCE> 25
 7.349480e+001 4.228569e+001 5.321694e+001 5.821144e+001 6.219662e+001 5.143493e+001 4.852809e+001 4.755696e+001 4.482364e+001 3.765947e+001 4.457209e+001 3.102452e+001 4.302300e+000 2.840290e+000 3.203924e+000 3.962016e+000 4.152312e+000 3.781034e+000 3.832883e+000 3.928119e+000 3.555202e+000 3.195232e+000 3.439215e+000 2.494412e+000 2.553200e+000
<GCONST> 1.085313e+002
<STATE> 4
<MEAN> 25
 -1.421696e+000 1.049004e+000 -6.026825e-001 7.656645e-001 3.559982e-001 -2.412154e-001 5.455529e-002 -3.326055e-002 3.759435e-002 1.389987e-001 2.943690e-001 3.460862e-001 9.321472e-003 -7.434732e-003 3.256085e-003 7.912440e-004 -1.043186e-003 2.237253e-003 -2.204835e-003 -9.515726e-003 2.336185e-004 8.213505e-004 -6.664223e-003 -4.497502e-003 -2.258103e-003
<VARIANCE> 25
 7.344032e+001 4.227490e+001 5.330658e+001 5.821120e+001 6.218933e+001 5.147026e+001 4.836708e+001 4.759399e+001 4.475697e+001 3.758490e+001 4.442322e+001 3.103837e+001 4.284261e+000 2.837981e+000 3.184052e+000 3.955892e+000 4.141183e+000 3.781888e+000 3.819889e+000 3.927153e+000 3.551070e+000 3.184908e+000 3.433704e+000 2.494824e+000 2.559889e+000
<GCONST> 1.085015e+002
<TRANSP> 5
 0.000000e+000 1.000000e+000 0.000000e+000 0.000000e+000 0.000000e+000
 0.000000e+000 5.649062e-001 4.350938e-001 0.000000e+000 0.000000e+000
 0.000000e+000 0.000000e+000 5.649043e-001 4.350957e-001 0.000000e+000
 0.000000e+000 0.000000e+000 0.000000e+000 6.603447e-001 3.396553e-001
 0.000000e+000 0.000000e+000 0.000000e+000 0.000000e+000 0.000000e+000
<ENDHMM>
~h "t"
<BEGINHMM>
<NUMSTATES> 5
<STATE> 2
<MEAN> 25
 -4.841233e-001 2.598746e-001 1.808199e-001 4.751162e-001 -4.305048e-002 -3.859780e-001 1.742503e-001 1.797957e-001 1.842480e-001 1.825065e-001 1.827397e-001 2.055994e-001 2.700982e-003 -3.286089e-003 -3.522685e-003 6.671454e-004 6.983718e-003 6.312139e-003 4.035776e-003 -6.900151e-003 -4.666650e-004 7.044869e-003 -7.434300e-003 -3.871373e-003 -1.169485e-002
<VARIANCE> 25
 5.656221e+001 3.856171e+001 5.086744e+001 5.528500e+001 5.998871e+001 5.130423e+001 4.745522e+001 4.714399e+001 4.623323e+001 3.731344e+001 4.624944e+001 2.998211e+001 3.609822e+000 2.712690e+000 3.248852e+000 3.880841e+000 4.250924e+000 3.958648e+000 3.833116e+000 3.856032e+000 3.636052e+000 3.195813e+000 3.554848e+000 2.494452e+000 3.228323e+000
<GCONST> 1.081483e+002
<STATE> 3
<MEAN> 25
 -4.739766e-001 2.502314e-001 1.726198e-001 4.750653e-001 -2.404742e-002 -3.699534e-001 1.820653e-001 1.658598e-001 1.820802e-001 1.981260e-001 1.631587e-001 1.929609e-001 3.493431e-003 -4.292422e-003 -3.725753e-003 -4.977886e-004 8.825063e-003 8.402278e-003 4.017636e-003 -6.405627e-003 -3.445462e-004 7.772804e-003 -7.915240e-003 -6.539519e-003 -9.790590e-003
<VARIANCE> 25
 5.651982e+001 3.847248e+001 5.093047e+001 5.530058e+001 5.992588e+001 5.110163e+001 4.750374e+001 4.707207e+001 4.628848e+001 3.727753e+001 4.619611e+001 2.999588e+001 3.605278e+000 2.709816e+000 3.245708e+000 3.882779e+000 4.241447e+000 3.956038e+000 3.824462e+000 3.859647e+000 3.634514e+000 3.201130e+000 3.547418e+000 2.493605e+000 3.222801e+000
<GCONST> 1.081308e+002
<STATE> 4
<MEAN> 25
 -4.519453e-001 2.368417e-001 1.600784e-001 4.701349e-001 -2.483886e-003 -3.435052e-001 1.785158e-001 1.482242e-001 1.781934e-001 2.184498e-001 1.423957e-001 1.689871e-001 3.605434e-003 -4.630977e-003 -4.551719e-003 -1.585800e-003 9.846199e-003 1.025487e-002 2.789653e-003 -5.598922e-003 -6.608080e-005 8.216877e-003 -6.613785e-003 -8.234737e-003 -7.632084e-003
<VARIANCE> 25
 5.670562e+001 3.842221e+001 5.097325e+001 5.555951e+001 5.979865e+001 5.088245e+001 4.759629e+001 4.697871e+001 4.635697e+001 3.726749e+001 4.617598e+001 2.993210e+001 3.598007e+000 2.709349e+000 3.235403e+000 3.898683e+000 4.221663e+000 3.946387e+000 3.813040e+000 3.864934e+000 3.627273e+000 3.207450e+000 3.538271e+000 2.486251e+000 3.199813e+000
<GCONST> 1.081078e+002
<TRANSP> 5
 0.000000e+000 1.000000e+000 0.000000e+000 0.000000e+000 0.000000e+000
 0.000000e+000 5.644730e-001 4.355270e-001 0.000000e+000 0.000000e+000
 0.000000e+000 0.000000e+000 5.644756e-001 4.355243e-001 0.000000e+000
 0.000000e+000 0.000000e+000 0.000000e+000 6.595534e-001 3.404466e-001
 0.000000e+000 0.000000e+000 0.000000e+000 0.000000e+000 0.000000e+000
<ENDHMM>
~h "u"
<BEGINHMM>
<NUMSTATES> 5
<STATE> 2
<MEAN> 25
 2.599607e-001 5.719333e-001 -1.639783e-001 -5.389442e-001 1.123879e-001 4.465556e-001 -7.888917e-001 -3.665276e-001 -3.952717e-001 -1.407789e-001 3.225164e-001 1.183112e-001 4.408656e-003 4.445769e-003 -7.261976e-003 3.383527e-003 4.458163e-003 3.354527e-003 -2.098367e-003 -1.189797e-002 6.027855e-003 5.705877e-003 2.178280e-003 -1.825855e-003 3.694269e-004
<VARIANCE> 25
 6.123234e+001 4.022399e+001 4.966594e+001 6.075714e+001 6.486927e+001 5.134840e+001 5.205737e+001 4.905846e+001 4.826440e+001 4.070975e+001 4.609943e+001 3.055685e+001 3.388208e+000 2.571792e+000 3.096306e+000 4.223098e+000 4.241495e+000 3.758581e+000 3.986582e+000 4.083877e+000 3.695940e+000 3.457844e+000 3.594538e+000 2.489244e+000 2.423905e+000
<GCONST> 1.084775e+002
<STATE> 3
<MEAN> 25
 2.682059e-001 5.783765e-001 -1.786615e-001 -5.273311e-001 1.223459e-001 4.516222e-001 -7.902183e-001 -3.904505e-001 -3.769524e-001 -1.262599e-001 3.280134e-001 1.115116e-001 2.993931e-003 2.017925e-003 -5.430209e-003 5.675838e-003 3.845431e-003 1.280159e-003 8.546407e-004 -9.300143e-003 8.180939e-003 6.372850e-003 2.993670e-003 -3.016284e-003 6.564216e-004
<VARIANCE> 25
 6.124194e+001 4.036703e+001 4.950741e+001 6.074254e+001 6.478320e+001 5.137828e+001 5.202422e+001 4.890442e+001 4.829063e+001 4.071579e+001 4.613076e+001 3.048965e+001 3.402215e+000 2.578285e+000 3.083282e+000 4.229987e+000 4.241718e+000 3.751635e+000 3.988286e+000 4.072160e+000 3.689369e+000 3.462391e+000 3.599545e+000 2.491236e+000 2.429822e+000
<GCONST> 1.084764e+002
<STATE> 4
<MEAN> 25
 2.918493e-001 5.739633e-001 -1.938934e-001 -5.112443e-001 1.280800e-001 4.367988e-001 -7.823731e-001 -4.101099e-001 -3.623709e-001 -1.060111e-001 3.293858e-001 9.373865e-002 2.309339e-003 -3.068729e-004 -3.796093e-003 5.956097e-003 2.061060e-003 1.007158e-003 4.822619e-003 -8.534492e-003 6.300871e-003 6.908788e-003 3.781480e-003 -3.042164e-003 1.808534e-003
<VARIANCE> 25
 6.131565e+001 4.048758e+001 4.934270e+001 6.066497e+001 6.463687e+001 5.149817e+001 5.187797e+001 4.872421e+001 4.830957e+001 4.072038e+001 4.610881e+001 3.038515e+001 3.417084e+000 2.589012e+000 3.067556e+000 4.231107e+000 4.231673e+000 3.739326e+000 3.984704e+000 4.054040e+000 3.675681e+000 3.462403e+000 3.599519e+000 2.486706e+000 2.433926e+000
<GCONST> 1.084549e+002
<TRANSP> 5
 0.000000e+000 1.000000e+000 0.000000e+000 0.000000e+000 0.000000e+000
 0.000000e+000 5.649652e-001 4.350348e-001 0.000000e+000 0.000000e+000
 0.000000e+000 0.000000e+000 5.649614e-001 4.350386e-001 0.000000e+000
 0.000000e+000 0.000000e+000 0.000000e+000 6.601126e-001 3.398874e-001
 0.000000e+000 0.000000e+000 0.000000e+000 0.000000e+000 0.000000e+000
<ENDHMM>
~h "v"
<BEGINHMM>
<NUMSTATES> 5
<STATE> 2
<MEAN> 25
 5.626541e-001 -3.585199e-001 -1.990100e-001 1.643261e-001 -5.987907e-002 1.423301e-002 1.365570e-001 -6.202884e-002 2.770868e-001 2.490012e-001 9.300979e-002 -8.289516e-002 3.047275e-003 1.819655e-003 9.506923e-003 3.522738e-003 4.723103e-003 2.414591e-003 8.539703e-003 -2.071390e-003 2.417987e-003 9.437231e-004 1.630427e-003 -7.227618e-004 -1.331829e-002
<VARIANCE> 25
 5.972949e+001 4.051002e+001 5.354338e+001 6.313459e+001 5.828631e+001 5.658870e+001 4.759049e+001 4.595093e+001 4.395579e+001 3.740446e+001 4.504234e+001 3.111807e+001 3.044640e+000 2.609388e+000 3.051943e+000 4.022444e+000 3.927716e+000 3.812483e+000 3.591102e+000 3.736515e+000 3.481001e+000 3.092605e+000 3.323684e+000 2.427854e+000 2.638487e+000
<GCONST> 1.076236e+002
<STATE> 3
<MEAN> 25
 5.658073e-001 -3.564665e-001 -1.737278e-001 1.693977e-001 -5.046431e-002 1.717034e-002 1.532532e-001 -6.753570e-002 2.847565e-001 2.479991e-001 9.833913e-002 -8.062817e-002 1.022051e-004 1.355286e-003 1.049739e-002 1.193309e-003 6.746404e-003 2.772537e-003 8.952935e-003 -2.112024e-003 4.001235e-003 -6.194643e-004 1.003188e-003 2.747274e-003 -1.046526e-002
<VARIANCE> 25
 5.940475e+001 4.032040e+001 5.376453e+001 6.315554e+001 5.837924e+001 5.641119e+001 4.750444e+001 4.593868e+001 4.395553e+001 3.726879e+001 4.503368e+001 3.090297e+001 3.045794e+000 2.605675e+000 3.055954e+000 4.025925e+000 3.934510e+000 3.802616e+000 3.598820e+000 3.743199e+000 3.484680e+000 3.080915e+000 3.332830e+000 2.427845e+000 2.660125e+000
<GCONST> 1.076159e+002
<STATE> 4
<MEAN> 25
 5.725366e-001 -3.570580e-001 -1.378876e-001 1.734002e-001 -3.332837e-002 6.089449e-003 1.702996e-001 -7.004645e-002 3.017485e-001 2.411971e-001 1.007029e-001 -7.136371e-002 -3.571018e-003 8.271125e-004 8.763881e-003 2.260203e-003 8.744890e-003 4.472177e-003 7.184683e-003 1.003486e-003 5.441183e-003 -3.321977e-003 -2.602698e-005 5.149226e-003 -9.342230e-003
<VARIANCE> 25
 5.927866e+001 4.016528e+001 5.383627e+001 6.323779e+001 5.843498e+001 5.628211e+001 4.739780e+001 4.594323e+001 4.399301e+001 3.719437e+001 4.510108e+001 3.062130e+001 3.050179e+000 2.605629e+000 3.052706e+000 4.025984e+000 3.930408e+000 3.782737e+000 3.609539e+000 3.744159e+000 3.484504e+000 3.072836e+000 3.341317e+000 2.423854e+000 2.676836e+000
<GCONST> 1.076020e+002
<TRANSP> 5
 0.000000e+000 1.000000e+000 0.000000e+000 0.000000e+000 0.000000e+000
 0.000000e+000 5.624831e-001 4.375169e-001 0.000000e+000 0.000000e+000
 0.000000e+000 0.000000e+000 5.624871e-001 4.375130e-001 0.000000e+000
 0.000000e+000 0.000000e+000 0.000000e+000 6.573902e-001 3.426098e-001
 0.000000e+000 0.000000e+000 0.000000e+000 0.000000e+000 0.000000e+000
<ENDHMM>
~h "z"
<BEGINHMM>
<NUMSTATES> 5
<STATE> 2
<MEAN> 25
 1.996769e-001 5.768493e-001 -9.427933e-001 5.617660e-001 7.511949e-001 -1.819867e-001 -1.295126e-001 -4.870591e-002 8.337835e-001 3.597985e-001 -7.968686e-001 -2.664268e-001 -6.505379e-003 -2.324400e-004 4.293284e-003 -4.488869e-003 4.890670e-003 -7.962581e-004 1.377054e-002 1.118573e-002 -2.408079e-003 1.040999e-002 -1.258752e-002 -6.408583e-003 -7.742122e-003
<VARIANCE> 25
 5.244992e+001 5.635364e+001 5.256184e+001 5.822352e+001 6.008301e+001 5.092396e+001 5.012660e+001 4.647751e+001 4.853994e+001 3.927744e+001 4.804810e+001 3.277803e+001 3.326635e+000 3.668122e+000 2.785305e+000 4.111045e+000 3.727418e+000 3.874974e+000 3.863594e+000 3.863260e+000 3.638372e+000 3.142739e+000 3.493122e+000 2.550205e+000 2.661314e+000
<GCONST> 1.085748e+002
<STATE> 3
<MEAN> 25
 1.845213e-001 5.697542e-001 -9.298031e-001 5.451620e-001 7.599493e-001 -1.774934e-001 -9.554031e-002 -2.028973e-002 8.225086e-001 3.812646e-001 -8.225789e-001 -2.796833e-001 -7.244984e-003 -4.412410e-003 8.614939e-003 -8.790514e-003 2.406215e-003 1.518230e-003 1.354121e-002 1.292029e-002 -8.804315e-003 8.795469e-003 -1.085182e-002 -3.653773e-003 -1.225580e-002
<VARIANCE> 25
 5.225331e+001 5.615278e+001 5.246415e+001 5.802595e+001 6.025153e+001 5.105441e+001 4.999030e+001 4.646688e+001 4.852651e+001 3.923647e+001 4.790681e+001 3.287867e+001 3.301237e+000 3.648516e+000 2.788314e+000 4.092085e+000 3.718300e+000 3.867461e+000 3.850279e+000 3.864458e+000 3.636638e+000 3.137195e+000 3.483151e+000 2.554657e+000 2.665618e+000
<GCONST> 1.085375e+002
<STATE> 4
<MEAN> 25
 1.705433e-001 5.488713e-001 -8.995605e-001 5.266391e-001 7.537565e-001 -1.715165e-001 -4.802027e-002 8.579148e-003 7.918002e-001 3.860711e-001 -8.356977e-001 -2.825613e-001 -7.979792e-003 -8.142693e-003 1.419777e-002 -1.170755e-002 -1.163620e-003 -2.951698e-004 1.088497e-002 1.288104e-002 -1.577125e-002 4.741061e-003 -9.352793e-003 -2.755974e-003 -1.480781e-002
<VARIANCE> 25
 5.218898e+001 5.563614e+001 5.234930e+001 5.779079e+001 6.057770e+001 5.118421e+001 4.979229e+001 4.637358e+001 4.847992e+001 3.912006e+001 4.763868e+001 3.283318e+001 3.278137e+000 3.621094e+000 2.795310e+000 4.076445e+000 3.717168e+000 3.867275e+000 3.842049e+000 3.864054e+000 3.626785e+000 3.131482e+000 3.466433e+000 2.549811e+000 2.671441e+000
<GCONST> 1.084843e+002
<TRANSP> 5
 0.000000e+000 1.000000e+000 0.000000e+000 0.000000e+000 0.000000e+000
 0.000000e+000 5.642128e-001 4.357872e-001 0.000000e+000 0.000000e+000
 0.000000e+000 0.000000e+000 5.642116e-001 4.357884e-001 0.000000e+000
 0.000000e+000 0.000000e+000 0.000000e+000 6.591197e-001 3.408802e-001
 0.000000e+000 0.000000e+000 0.000000e+000 0.000000e+000 0.000000e+000
<ENDHMM>
~h "cc"
<BEGINHMM>
<NUMSTATES> 5
<STATE> 2
<MEAN> 25
 -1.194740e+000 4.523965e-001 7.548658e-001 -2.636796e-001 -5.528315e-001 -6.352078e-001 -8.153899e-001 -8.722407e-002 -3.354785e-001 -3.771262e-001 5.075658e-001 -2.763631e-002 6.895405e-003 1.673923e-002 2.795812e-002 -2.021820e-003 -2.003666e-002 -2.262465e-003 -1.100174e-002 -1.850359e-002 -4.001873e-003 7.415648e-003 8.109422e-003 -9.598245e-003 2.669800e-002
<VARIANCE> 25
 7.507238e+001 3.980183e+001 5.334474e+001 5.392318e+001 6.009213e+001 5.279010e+001 4.743366e+001 4.762356e+001 4.710747e+001 3.973442e+001 4.827185e+001 3.198265e+001 4.983877e+000 2.867349e+000 3.222631e+000 3.982547e+000 4.413191e+000 4.233062e+000 4.105747e+000 3.876507e+000 3.810742e+000 3.592762e+000 3.835342e+000 2.581816e+000 2.983977e+000
<GCONST> 1.094845e+002
<STATE> 3
<MEAN> 25
 -1.176068e+000 4.851393e-001 8.102087e-001 -2.690543e-001 -5.912573e-001 -6.357098e-001 -8.349506e-001 -1.304342e-001 -3.399519e-001 -3.625888e-001 5.264907e-001 -5.117092e-002 8.722407e-003 1.217011e-002 2.299301e-002 -1.682315e-003 -1.564637e-002 -6.373003e-005 -7.240593e-003 -1.654137e-002 -1.419900e-003 6.846333e-003 8.330411e-003 -1.130578e-002 2.679993e-002
<VARIANCE> 25
 7.555245e+001 3.986446e+001 5.354560e+001 5.397020e+001 6.025481e+001 5.305304e+001 4.734145e+001 4.760931e+001 4.708701e+001 3.979653e+001 4.854181e+001 3.179991e+001 5.038572e+000 2.891550e+000 3.243200e+000 4.000038e+000 4.436315e+000 4.256189e+000 4.140277e+000 3.895335e+000 3.819139e+000 3.600854e+000 3.843975e+000 2.569103e+000 2.998798e+000
<GCONST> 1.095641e+002
<STATE> 4
<MEAN> 25
 -1.138073e+000 5.134693e-001 8.311204e-001 -2.886011e-001 -6.099375e-001 -6.319976e-001 -8.554975e-001 -1.779309e-001 -3.436283e-001 -3.456879e-001 5.363773e-001 -9.632164e-002 1.139214e-002 8.729968e-003 1.677422e-002 -9.432073e-005 -1.101348e-002 2.108899e-003 -4.250926e-003 -1.293742e-002 1.094939e-003 4.977056e-003 6.829234e-003 -1.269120e-002 2.537139e-002
<VARIANCE> 25
 7.585720e+001 4.005147e+001 5.378160e+001 5.412531e+001 6.044794e+001 5.337471e+001 4.720121e+001 4.761192e+001 4.710386e+001 3.992307e+001 4.904387e+001 3.158575e+001 5.068674e+000 2.923109e+000 3.259950e+000 4.021764e+000 4.446352e+000 4.264871e+000 4.169175e+000 3.919898e+000 3.825836e+000 3.605588e+000 3.858962e+000 2.559504e+000 3.004981e+000
<GCONST> 1.096437e+002
<TRANSP> 5
 0.000000e+000 1.000000e+000 0.000000e+000 0.000000e+000 0.000000e+000
 0.000000e+000 5.693231e-001 4.306769e-001 0.000000e+000 0.000000e+000
 0.000000e+000 0.000000e+000 5.693229e-001 4.306771e-001 0.000000e+000
 0.000000e+000 0.000000e+000 0.000000e+000 6.654834e-001 3.345166e-001
 0.000000e+000 0.000000e+000 0.000000e+000 0.000000e+000 0.000000e+000
<ENDHMM>
~h "dz"
<BEGINHMM>
<NUMSTATES> 5
<STATE> 2
<MEAN> 25
 9.607928e-001 5.219476e-001 1.028661e+000 6.379888e-001 -4.327713e-001 -1.351474e+000 -1.739979e+000 6.085407e-001 2.123809e-001 -1.265731e+000 -1.434795e+000 -3.484727e-001 -2.029805e-002 1.019359e-003 4.493522e-002 6.418663e-002 -3.518071e-002 -4.469149e-002 3.369034e-002 5.114527e-003 1.521843e-002 4.397565e-002 1.947037e-002 5.124563e-002 -7.874233e-002
<VARIANCE> 25
 4.943010e+001 4.537366e+001 5.402604e+001 5.322540e+001 5.727932e+001 4.541962e+001 5.184467e+001 4.788921e+001 5.179121e+001 3.080503e+001 4.442862e+001 3.095840e+001 4.504111e+000 3.391940e+000 2.821438e+000 3.903507e+000 4.206085e+000 3.910355e+000 4.450649e+000 3.853824e+000 3.900592e+000 3.203790e+000 3.566666e+000 2.635652e+000 2.614195e+000
<GCONST> 1.084038e+002
<STATE> 3
<MEAN> 25
 9.049127e-001 5.191149e-001 1.122194e+000 8.021056e-001 -5.150267e-001 -1.436256e+000 -1.649923e+000 6.102948e-001 2.520494e-001 -1.156811e+000 -1.378419e+000 -2.284228e-001 -2.672646e-002 5.822980e-004 2.689571e-002 7.850433e-002 -3.841694e-002 -3.556631e-002 4.226711e-002 -1.159634e-002 1.711833e-002 5.023669e-002 3.194715e-002 5.395257e-002 -8.536158e-002
<VARIANCE> 25
 4.933538e+001 4.467598e+001 5.168179e+001 5.263994e+001 5.730067e+001 4.565481e+001 5.237745e+001 4.769023e+001 5.059418e+001 3.026180e+001 4.416956e+001 3.042752e+001 4.422255e+000 3.332344e+000 2.854395e+000 3.811000e+000 4.250258e+000 3.916062e+000 4.373878e+000 3.830094e+000 3.762891e+000 3.175691e+000 3.513162e+000 2.626900e+000 2.603450e+000
<GCONST> 1.081509e+002
<STATE> 4
<MEAN> 25
 8.381413e-001 5.136450e-001 1.200483e+000 1.008968e+000 -6.078734e-001 -1.484266e+000 -1.529509e+000 6.117560e-001 3.019086e-001 -1.026895e+000 -1.268645e+000 -1.097259e-001 -3.691444e-002 -3.178998e-004 3.866996e-003 9.199931e-002 -3.435205e-002 -2.282846e-002 5.104375e-002 -2.617081e-002 2.198589e-002 5.540005e-002 4.358716e-002 5.770671e-002 -9.033339e-002
<VARIANCE> 25
 4.947911e+001 4.399027e+001 4.923490e+001 5.226119e+001 5.704248e+001 4.591090e+001 5.316398e+001 4.741117e+001 4.964220e+001 2.971083e+001 4.408159e+001 2.983467e+001 4.355268e+000 3.278754e+000 2.880258e+000 3.730783e+000 4.284541e+000 3.915561e+000 4.285953e+000 3.797627e+000 3.648694e+000 3.132669e+000 3.459793e+000 2.609083e+000 2.591536e+000
<GCONST> 1.078979e+002
<TRANSP> 5
 0.000000e+000 1.000000e+000 0.000000e+000 0.000000e+000 0.000000e+000
 0.000000e+000 5.590111e-001 4.409888e-001 0.000000e+000 0.000000e+000
 0.000000e+000 0.000000e+000 5.590119e-001 4.409881e-001 0.000000e+000
 0.000000e+000 0.000000e+000 0.000000e+000 6.529649e-001 3.470351e-001
 0.000000e+000 0.000000e+000 0.000000e+000 0.000000e+000 0.000000e+000
<ENDHMM>
~h "sil"
<BEGINHMM>
<NUMSTATES> 5
<STATE> 2
<MEAN> 25
 -5.641139e+000 -2.589662e+000 9.737982e-002 3.476790e+000 4.279410e+000 1.932192e+000 3.625312e+000 3.619581e+000 1.519601e+000 -5.711724e-001 1.709525e+000 2.457013e+000 -3.028410e-002 4.541775e-002 4.105520e-002 4.808581e-003 3.547668e-002 -1.909821e-002 -1.226714e-002 -4.494653e-002 -7.632449e-002 -5.286909e-002 4.176147e-002 2.596740e-002 2.262419e-002
<VARIANCE> 25
 2.630216e+001 1.782533e+001 2.089507e+001 2.171803e+001 2.661274e+001 3.488782e+001 2.690934e+001 3.175427e+001 2.712207e+001 2.563303e+001 3.169695e+001 2.075200e+001 6.337035e-001 7.766425e-001 1.017576e+000 1.178496e+000 1.725774e+000 1.732917e+000 2.030831e+000 2.189847e+000 1.922135e+000 2.003236e+000 1.715903e+000 1.500638e+000 7.388005e-001
<GCONST> 8.888375e+001
<STATE> 3
<MEAN> 25
 -5.697242e+000 -2.491754e+000 1.527214e-001 3.439349e+000 4.297413e+000 1.911638e+000 3.655898e+000 3.480520e+000 1.348838e+000 -6.645025e-001 1.803272e+000 2.509505e+000 -9.984699e-003 3.027864e-002 1.822439e-002 -1.116975e-002 1.202389e-002 -3.592306e-003 2.078895e-002 -5.076616e-002 -4.932473e-002 -1.453402e-002 3.772669e-002 1.100864e-002 5.679735e-002
<VARIANCE> 25
 2.646225e+001 1.787072e+001 2.031118e+001 2.240937e+001 2.770738e+001 3.383636e+001 2.578821e+001 3.281279e+001 2.608860e+001 2.574273e+001 3.241247e+001 2.128976e+001 6.856599e-001 7.968721e-001 1.019920e+000 1.270055e+000 1.737206e+000 1.805459e+000 2.001483e+000 2.203649e+000 2.042048e+000 1.994727e+000 1.776670e+000 1.463563e+000 8.811550e-001
<GCONST> 8.937185e+001
<STATE> 4
<MEAN> 25
 -5.677396e+000 -2.371740e+000 2.339305e-001 3.441231e+000 4.272236e+000 1.879289e+000 3.630153e+000 3.357550e+000 1.233181e+000 -6.403385e-001 1.873469e+000 2.510555e+000 3.504720e-002 3.943592e-002 3.283526e-002 1.380955e-002 2.642080e-002 -7.345199e-003 -3.957611e-002 -5.306888e-002 -4.180364e-002 1.261566e-002 8.188904e-003 -6.940102e-003 6.296597e-002
<VARIANCE> 25
 2.728852e+001 1.860448e+001 2.042590e+001 2.424050e+001 2.876047e+001 3.479748e+001 2.593360e+001 3.518533e+001 2.736751e+001 2.555670e+001 3.310519e+001 2.153914e+001 7.298530e-001 8.172219e-001 1.039279e+000 1.380521e+000 1.721011e+000 1.867899e+000 2.000004e+000 2.127367e+000 2.131026e+000 1.967674e+000 1.726854e+000 1.542389e+000 9.027525e-001
<GCONST> 8.999693e+001
<TRANSP> 5
 0.000000e+000 1.000000e+000 0.000000e+000 0.000000e+000 0.000000e+000
 0.000000e+000 5.636142e-001 4.363858e-001 0.000000e+000 0.000000e+000
 0.000000e+000 0.000000e+000 5.636142e-001 4.363858e-001 0.000000e+000
 0.000000e+000 0.000000e+000 0.000000e+000 6.590520e-001 3.409480e-001
 0.000000e+000 0.000000e+000 0.000000e+000 0.000000e+000 0.000000e+000
<ENDHMM>
