~o
<STREAMINFO> 1 25
<VECSIZE> 25<NULLD><MFCC_D_N_Z_0><DIAGC>
~h "C"
<BEGINHMM>
<NUMSTATES> 5
<STATE> 2
<MEAN> 25
 -7.276302e+000 3.000405e+000 4.643133e+000 2.436902e+000 2.434493e+000 2.234643e+000 5.156713e-001 5.848091e-001 3.281895e+000 1.996245e-001 2.895516e+000 1.521944e+000 -4.102355e+000 1.965235e-001 -2.717146e-001 -1.093970e+000 8.726910e-001 6.113301e-001 3.226769e-001 -2.008976e-001 7.621120e-001 -4.550476e-001 1.374349e+000 3.430923e-001 8.550587e-001
<VARIANCE> 25
 6.670621e+001 2.728349e+001 2.569732e+001 2.843586e+001 2.860062e+001 2.815149e+001 3.844596e+001 4.086232e+001 3.297131e+001 3.047074e+001 3.494312e+001 2.195673e+001 3.549695e+000 3.669967e+000 2.605013e+000 3.518594e+000 3.928159e+000 3.151278e+000 3.860780e+000 3.749791e+000 3.675029e+000 3.714552e+000 3.690411e+000 2.134803e+000 5.244704e+000
<GCONST> 1.039595e+002
<STATE> 3
<MEAN> 25
 -1.967650e+001 3.414151e+000 3.429305e+000 -1.939802e+000 4.199676e+000 2.395885e+000 2.456595e+000 4.527805e-002 5.023863e+000 -3.012597e+000 5.407472e+000 3.008410e+000 -6.543033e-001 -2.142143e-001 -1.618481e-001 -1.365610e-001 -5.087918e-002 -4.548585e-001 3.838075e-001 2.981226e-001 -9.725557e-002 -6.667303e-001 -5.482382e-002 9.132882e-002 6.313426e-001
<VARIANCE> 25
 3.420961e+001 3.343695e+001 1.680645e+001 1.918617e+001 2.229867e+001 3.113206e+001 4.563030e+001 4.238290e+001 2.980973e+001 3.097687e+001 4.478390e+001 1.796568e+001 7.222507e+000 2.048066e+000 1.512585e+000 2.050961e+000 2.247649e+000 2.364439e+000 3.132420e+000 2.931587e+000 2.604759e+000 2.317987e+000 2.254006e+000 1.770047e+000 1.849888e+000
<GCONST> 9.790440e+001
<STATE> 4
<MEAN> 25
 -1.053235e+001 1.404883e+000 3.313743e+000 6.508976e-001 1.876045e+000 -1.821816e+000 1.443382e+000 9.539600e-001 2.712387e+000 -4.576974e+000 1.598681e+000 1.460753e+000 4.610285e+000 -8.572543e-001 -1.808474e-001 3.111879e-001 -1.295419e+000 -1.284907e+000 -1.238304e+000 -2.138612e-002 -5.481982e-001 2.284992e-002 -1.473024e+000 -8.076790e-001 2.220262e-001
<VARIANCE> 25
 8.077316e+001 2.568014e+001 1.929142e+001 2.260989e+001 3.088436e+001 4.503024e+001 3.575186e+001 3.548631e+001 3.481952e+001 3.691319e+001 4.443712e+001 2.032264e+001 5.129236e+000 2.782521e+000 2.250882e+000 2.152630e+000 3.943798e+000 3.809678e+000 4.445137e+000 3.944293e+000 3.802152e+000 3.224063e+000 4.613595e+000 2.276060e+000 1.469215e+000
<GCONST> 1.030627e+002
<TRANSP> 5
 0.000000e+000 1.000000e+000 0.000000e+000 0.000000e+000 0.000000e+000
 0.000000e+000 7.523802e-001 2.476198e-001 0.000000e+000 0.000000e+000
 0.000000e+000 0.000000e+000 7.191707e-001 2.808293e-001 0.000000e+000
 0.000000e+000 0.000000e+000 0.000000e+000 7.400213e-001 2.599787e-001
 0.000000e+000 0.000000e+000 0.000000e+000 0.000000e+000 0.000000e+000
<ENDHMM>
~h "L"
<BEGINHMM>
<NUMSTATES> 5
<STATE> 2
<MEAN> 25
 1.281604e+000 1.406188e+000 6.576145e+000 3.636251e+000 -6.155565e-001 -5.716951e+000 -3.088353e+000 1.233546e+000 -2.135452e+000 -3.368681e+000 -1.197720e+000 1.609910e+000 1.012388e+000 -4.300306e-001 1.155946e+000 -2.588585e-002 -1.112700e+000 -1.648276e+000 -9.264040e-001 6.723339e-001 -6.031557e-001 -8.971958e-001 -3.407783e-001 7.137190e-001 1.150441e+000
<VARIANCE> 25
 2.817717e+001 2.263687e+001 3.036474e+001 4.017551e+001 4.122906e+001 4.020157e+001 3.408410e+001 2.818690e+001 3.427727e+001 3.115182e+001 2.603027e+001 2.338893e+001 3.987214e+000 2.836306e+000 3.290342e+000 3.733166e+000 3.416286e+000 3.868002e+000 5.457639e+000 4.229270e+000 3.767855e+000 4.293728e+000 3.210723e+000 2.942343e+000 1.791673e+000
<GCONST> 1.034439e+002
<STATE> 3
<MEAN> 25
 3.168897e+000 -8.557519e-001 7.132961e+000 2.162854e+000 -3.753615e+000 -8.803506e+000 -5.232214e+000 2.128596e+000 -3.151183e+000 -3.617898e+000 -1.303215e+000 3.550388e+000 2.349349e-001 -9.093149e-001 -4.791960e-001 -8.650318e-001 -7.341917e-001 -4.855680e-001 -6.159278e-001 2.903535e-001 2.665239e-001 8.009505e-001 -3.130405e-002 4.750632e-001 9.031651e-001
<VARIANCE> 25
 9.246562e+000 1.614877e+001 2.253995e+001 4.883291e+001 3.527909e+001 2.630852e+001 3.656667e+001 2.733416e+001 3.135526e+001 3.244592e+001 2.904255e+001 2.674185e+001 1.827608e+000 2.298738e+000 3.266225e+000 2.753854e+000 3.464976e+000 3.276650e+000 5.645302e+000 5.645946e+000 3.738925e+000 4.494973e+000 3.212214e+000 2.254583e+000 1.198027e+000
<GCONST> 9.978278e+001
<STATE> 4
<MEAN> 25
 3.041521e+000 -2.257426e+000 3.970095e+000 6.521290e-002 -3.883482e+000 -7.454106e+000 -4.722817e+000 -2.803028e-001 -1.726095e+000 -6.881942e-001 -1.076237e+000 3.938300e+000 4.796832e-002 -4.504685e-001 -1.154390e+000 -8.236818e-001 1.458598e-001 7.292780e-001 4.162257e-001 -4.117243e-001 6.770166e-001 1.091174e+000 2.231787e-001 -5.805765e-001 3.990203e-001
<VARIANCE> 25
 1.099671e+001 1.790465e+001 2.887634e+001 3.688862e+001 3.325275e+001 2.768608e+001 5.665514e+001 8.109906e+001 3.298993e+001 4.224683e+001 3.434790e+001 3.531950e+001 7.302939e-001 2.117422e+000 2.781356e+000 2.267931e+000 2.963250e+000 2.459222e+000 4.884420e+000 5.872902e+000 3.571192e+000 3.698397e+000 3.156138e+000 2.808909e+000 9.233882e-001
<GCONST> 1.001024e+002
<TRANSP> 5
 0.000000e+000 1.000000e+000 0.000000e+000 0.000000e+000 0.000000e+000
 0.000000e+000 5.187498e-001 4.812502e-001 0.000000e+000 0.000000e+000
 0.000000e+000 0.000000e+000 4.193443e-001 5.806557e-001 0.000000e+000
 0.000000e+000 0.000000e+000 0.000000e+000 5.842624e-001 4.157376e-001
 0.000000e+000 0.000000e+000 0.000000e+000 0.000000e+000 0.000000e+000
<ENDHMM>
~h "N"
<BEGINHMM>
<NUMSTATES> 5
<STATE> 2
<MEAN> 25
 3.843278e+000 2.621373e+000 4.456827e+000 -2.328028e+000 -2.062425e+000 -6.664196e-001 1.797933e-001 -9.317883e-001 -4.727960e+000 -3.721593e+000 -3.536699e-001 2.186971e-001 3.806224e-001 4.595339e-001 9.376445e-002 -5.237039e-001 6.397971e-002 3.944172e-001 -1.971899e-001 -3.532819e-001 -6.492987e-001 -5.595579e-002 2.945163e-001 9.127666e-002 -1.403794e-001
<VARIANCE> 25
 1.883519e+001 2.250879e+001 2.140073e+001 3.280753e+001 3.697162e+001 2.846001e+001 3.291553e+001 3.986178e+001 3.683282e+001 3.102373e+001 2.984704e+001 2.925876e+001 2.147104e+000 2.892233e+000 2.028327e+000 2.485691e+000 3.722104e+000 3.150931e+000 3.511928e+000 4.871912e+000 3.103116e+000 2.509243e+000 2.669522e+000 2.289031e+000 2.081970e+000
<GCONST> 9.984335e+001
<STATE> 3
<MEAN> 25
 3.212476e+000 2.494877e+000 5.387945e+000 -3.043282e+000 -2.405102e+000 -4.645890e-001 1.277073e+000 -2.572859e-001 -5.054432e+000 -3.262823e+000 7.138934e-001 1.120935e+000 -4.598790e-001 -6.591240e-001 1.868470e-001 4.851854e-002 -3.358533e-001 -2.057693e-001 5.020134e-001 8.623148e-001 3.256189e-001 1.190018e-001 -6.887822e-002 1.423429e-001 4.561265e-001
<VARIANCE> 25
 1.736946e+001 2.120876e+001 2.332752e+001 3.162363e+001 3.684798e+001 3.041476e+001 4.392283e+001 4.182968e+001 3.624834e+001 2.992348e+001 2.508087e+001 2.468654e+001 1.390002e+000 2.402902e+000 1.570635e+000 2.141781e+000 3.550816e+000 2.648361e+000 3.496668e+000 3.546413e+000 2.581404e+000 2.232273e+000 2.370688e+000 2.028390e+000 1.631618e+000
<GCONST> 9.740408e+001
<STATE> 4
<MEAN> 25
 -3.674149e+000 -1.996777e+000 2.294192e+000 2.153704e+000 3.232681e+000 7.534373e-001 3.213356e+000 3.600583e+000 -3.238537e-001 -1.963925e+000 1.775320e+000 2.817415e+000 -1.342247e-001 -2.574455e-001 -1.588218e-001 1.772148e-001 6.826788e-002 -8.195672e-002 1.340610e-002 2.015401e-001 2.382552e-001 1.951391e-002 -1.522357e-001 1.833924e-002 3.895058e-002
<VARIANCE> 25
 2.991369e+001 1.935358e+001 2.321609e+001 2.625759e+001 4.014825e+001 3.010846e+001 3.266013e+001 3.896608e+001 3.225118e+001 2.876795e+001 2.838381e+001 2.137398e+001 8.384463e-001 1.240914e+000 1.388671e+000 1.321200e+000 2.226990e+000 1.971309e+000 2.018535e+000 2.122706e+000 2.048723e+000 2.129694e+000 1.946895e+000 1.584829e+000 8.269786e-001
<GCONST> 9.219884e+001
<TRANSP> 5
 0.000000e+000 1.000000e+000 0.000000e+000 0.000000e+000 0.000000e+000
 0.000000e+000 6.364427e-001 3.635573e-001 0.000000e+000 0.000000e+000
 0.000000e+000 0.000000e+000 5.919236e-001 4.080764e-001 0.000000e+000
 0.000000e+000 0.000000e+000 0.000000e+000 8.268225e-001 1.731775e-001
 0.000000e+000 0.000000e+000 0.000000e+000 0.000000e+000 0.000000e+000
<ENDHMM>
~h "S"
<BEGINHMM>
<NUMSTATES> 5
<STATE> 2
<MEAN> 25
 -9.626729e+000 4.252504e+000 8.770587e+000 4.287152e+000 2.443019e+000 -2.269530e+000 2.495655e+000 3.262187e-001 2.600865e+000 -3.963504e+000 2.613071e+000 8.794559e-001 -4.823906e+000 7.187268e-001 -1.147833e-002 9.493512e-001 2.807896e+000 1.218109e+000 1.524359e+000 1.236386e+000 1.725009e+000 -3.708211e-001 1.379791e+000 1.006056e+000 1.970050e-001
<VARIANCE> 25
 6.189749e+001 2.757210e+001 2.952756e+001 3.830612e+001 5.268555e+001 4.186382e+001 3.486506e+001 4.299673e+001 3.994314e+001 3.659827e+001 4.420494e+001 2.292669e+001 2.330303e+000 4.674972e+000 3.380386e+000 4.000284e+000 5.129911e+000 3.908450e+000 4.012185e+000 3.809999e+000 3.383842e+000 4.151040e+000 5.495528e+000 2.546444e+000 6.352383e-001
<GCONST> 1.051851e+002
<STATE> 3
<MEAN> 25
 -2.248596e+001 2.330552e+000 5.437082e+000 7.845793e-001 5.742588e+000 3.514116e-001 3.663603e+000 1.725378e+000 5.804112e+000 -4.536465e+000 5.533319e+000 3.356674e+000 -4.309754e-001 -4.219331e-001 -6.003230e-001 -6.029134e-001 -6.089694e-002 -1.502848e-003 -2.973084e-001 -8.981667e-002 9.133096e-002 -1.671030e-001 -1.024505e-001 1.118484e-001 -3.242408e-001
<VARIANCE> 25
 1.629636e+001 4.423949e+001 1.625002e+001 3.050306e+001 2.094363e+001 4.635591e+001 3.407213e+001 4.090897e+001 3.041403e+001 3.408730e+001 5.984778e+001 2.234717e+001 4.510055e+000 1.145952e+000 1.391493e+000 1.862653e+000 1.691613e+000 1.963272e+000 2.179588e+000 2.670011e+000 2.219732e+000 2.053981e+000 2.107518e+000 1.661379e+000 4.281885e-001
<GCONST> 9.447232e+001
<STATE> 4
<MEAN> 25
 -1.120814e+001 6.379068e-001 2.612636e+000 1.063545e+000 3.924029e+000 -8.102519e-001 7.382074e-001 1.314884e+000 4.587307e+000 -4.503800e+000 1.788051e+000 1.642318e+000 3.742366e+000 -2.222843e-001 -4.687673e-001 -2.973404e-001 -1.204811e+000 -6.324176e-001 -8.113108e-001 -4.395048e-001 -7.574198e-001 2.287009e-001 -8.550014e-001 -7.805639e-001 -2.533108e-001
<VARIANCE> 25
 7.934107e+001 2.858837e+001 1.986405e+001 2.360573e+001 4.056993e+001 4.279338e+001 3.631569e+001 4.514577e+001 3.418068e+001 4.068707e+001 4.888708e+001 2.311488e+001 7.666020e+000 2.394660e+000 2.356061e+000 2.942069e+000 3.965700e+000 3.851151e+000 3.687186e+000 3.945292e+000 3.970429e+000 3.175936e+000 4.846563e+000 2.585368e+000 1.898805e+000
<GCONST> 1.049066e+002
<TRANSP> 5
 0.000000e+000 1.000000e+000 0.000000e+000 0.000000e+000 0.000000e+000
 0.000000e+000 6.854489e-001 3.145512e-001 0.000000e+000 0.000000e+000
 0.000000e+000 0.000000e+000 8.166517e-001 1.833483e-001 0.000000e+000
 0.000000e+000 0.000000e+000 0.000000e+000 7.625155e-001 2.374844e-001
 0.000000e+000 0.000000e+000 0.000000e+000 0.000000e+000 0.000000e+000
<ENDHMM>
~h "Z"
<BEGINHMM>
<NUMSTATES> 5
<STATE> 2
<MEAN> 25
 -3.675596e+000 3.905961e+000 5.349646e+000 1.120809e+000 1.030200e+000 -6.532475e+000 -1.647203e+000 -3.555742e+000 5.279415e+000 -3.705305e+000 1.004970e+000 1.256543e+000 -3.818519e+000 2.449765e+000 1.702386e+000 5.300321e-001 1.926352e+000 4.340923e-001 9.443142e-001 3.461253e-001 1.291985e+000 -1.401626e+000 8.588414e-001 3.476730e-001 2.365085e-001
<VARIANCE> 25
 4.050418e+001 3.139993e+001 3.910480e+001 2.498660e+001 4.444532e+001 3.113024e+001 3.476639e+001 3.667618e+001 3.770480e+001 4.881140e+001 4.243124e+001 2.621463e+001 2.723745e+000 3.363724e+000 2.693599e+000 2.474028e+000 3.420973e+000 5.342465e+000 3.168489e+000 3.502933e+000 3.421368e+000 3.821113e+000 3.556165e+000 3.313821e+000 4.922960e-001
<GCONST> 1.026478e+002
<STATE> 3
<MEAN> 25
 -1.438667e+001 8.635781e+000 9.842764e+000 1.575400e+000 5.457812e+000 -1.320411e+000 1.356367e+000 -1.915305e+000 7.426597e+000 -5.404490e+000 3.468427e+000 2.241322e+000 -1.824641e+000 2.985190e-001 3.390511e-001 -2.755358e-001 8.331192e-001 1.129882e+000 4.165669e-001 4.952982e-001 3.440681e-001 -3.833737e-001 2.111578e-001 2.411972e-001 -1.830371e-001
<VARIANCE> 25
 3.182867e+001 3.130611e+001 2.669675e+001 2.550968e+001 3.087910e+001 4.475881e+001 3.903337e+001 3.100401e+001 3.160071e+001 5.339371e+001 4.331649e+001 2.779572e+001 4.653455e+000 1.957076e+000 2.047255e+000 1.312502e+000 2.801604e+000 2.931274e+000 2.067059e+000 2.290532e+000 2.697272e+000 2.070221e+000 2.349662e+000 1.647645e+000 5.005207e-001
<GCONST> 9.746835e+001
<STATE> 4
<MEAN> 25
 -1.048517e+001 5.630088e+000 6.793849e+000 3.636936e-001 3.218195e+000 -1.243678e+000 2.267657e-002 -7.390554e-001 5.876278e+000 -5.938234e+000 2.728210e+000 1.683023e+000 3.186303e+000 -1.571121e+000 -1.174083e+000 -2.213437e-001 -1.670648e+000 -6.899827e-001 -5.047995e-001 1.513101e-001 -8.611659e-001 5.317575e-001 -8.898935e-001 -3.501398e-001 -2.640788e-001
<VARIANCE> 25
 7.231618e+001 3.424042e+001 2.690581e+001 2.344955e+001 3.687585e+001 5.285215e+001 3.545285e+001 3.464198e+001 3.594965e+001 4.196175e+001 4.564397e+001 2.282034e+001 5.468397e+000 3.452793e+000 2.556098e+000 1.603891e+000 3.404927e+000 3.441736e+000 3.202244e+000 3.141187e+000 3.576996e+000 3.411944e+000 3.174468e+000 2.027812e+000 1.029595e+000
<GCONST> 1.026761e+002
<TRANSP> 5
 0.000000e+000 1.000000e+000 0.000000e+000 0.000000e+000 0.000000e+000
 0.000000e+000 6.581811e-001 3.418189e-001 0.000000e+000 0.000000e+000
 0.000000e+000 0.000000e+000 5.848169e-001 4.151831e-001 0.000000e+000
 0.000000e+000 0.000000e+000 0.000000e+000 7.559911e-001 2.440089e-001
 0.000000e+000 0.000000e+000 0.000000e+000 0.000000e+000 0.000000e+000
<ENDHMM>
~h "a"
<BEGINHMM>
<NUMSTATES> 5
<STATE> 2
<MEAN> 25
 3.453260e+000 -7.953586e+000 -7.064205e+000 -3.701911e+000 3.940622e+000 -8.443089e-001 3.928997e-001 2.803340e+000 4.050885e+000 -7.744040e-001 -6.486082e+000 -3.422158e+000 8.681155e-002 -1.271237e+000 -1.165392e+000 -7.529135e-001 1.360076e+000 4.283463e-001 5.372623e-001 4.166523e-001 3.362978e-001 -2.954466e-001 -1.075903e+000 -5.812266e-001 7.973005e-001
<VARIANCE> 25
 1.517609e+001 2.347669e+001 3.016001e+001 3.417413e+001 4.674952e+001 5.592348e+001 5.651604e+001 4.670494e+001 4.895401e+001 3.989728e+001 4.403885e+001 3.925212e+001 1.381292e+000 2.313575e+000 2.499214e+000 2.782982e+000 3.954249e+000 4.270521e+000 3.786262e+000 4.790905e+000 4.210014e+000 3.161550e+000 3.595664e+000 2.912073e+000 1.679573e+000
<GCONST> 1.038217e+002
<STATE> 3
<MEAN> 25
 3.396655e+000 -9.247947e+000 -8.736330e+000 -4.313039e+000 6.838999e+000 7.986807e-001 1.329818e+000 1.659934e+000 3.620970e+000 -8.293970e-001 -7.794813e+000 -4.258169e+000 7.006311e-003 4.712233e-001 2.586990e-001 2.880412e-001 -2.388405e-002 -1.696587e-001 -2.478075e-002 -1.575708e-002 -1.286087e-002 4.634357e-002 1.041756e-001 2.315688e-001 -4.136492e-001
<VARIANCE> 25
 1.221751e+001 2.293220e+001 3.240782e+001 3.660126e+001 4.920843e+001 5.755729e+001 6.076963e+001 4.435104e+001 5.252541e+001 3.979488e+001 4.295752e+001 4.248818e+001 5.884501e-001 1.626201e+000 1.760819e+000 1.988522e+000 2.949587e+000 3.460611e+000 2.636114e+000 3.210974e+000 2.566199e+000 2.512103e+000 2.497778e+000 2.113600e+000 1.011813e+000
<GCONST> 9.887060e+001
<STATE> 4
<MEAN> 25
 -2.756886e-001 -4.859530e+000 -3.888073e+000 -1.195868e-001 5.698624e+000 -4.541355e-002 1.319467e+000 3.541962e+000 3.339718e+000 -8.509996e-001 -3.892964e+000 -1.940329e-001 -7.587881e-002 9.755005e-001 8.987100e-001 5.909114e-001 -5.353230e-001 7.562343e-002 -7.256223e-002 -2.329820e-001 -2.887911e-001 1.544574e-001 7.208105e-001 3.252685e-001 -1.059324e+000
<VARIANCE> 25
 3.896272e+001 2.062667e+001 3.018737e+001 3.517028e+001 4.047327e+001 5.334012e+001 4.222966e+001 4.407872e+001 3.773739e+001 3.944718e+001 4.404924e+001 3.524189e+001 1.074365e+000 2.420313e+000 2.617552e+000 2.646785e+000 3.003052e+000 3.229121e+000 2.856514e+000 3.198035e+000 3.182795e+000 2.621366e+000 3.066051e+000 2.323356e+000 2.332287e+000
<GCONST> 1.017702e+002
<TRANSP> 5
 0.000000e+000 1.000000e+000 0.000000e+000 0.000000e+000 0.000000e+000
 0.000000e+000 5.700111e-001 4.299890e-001 0.000000e+000 0.000000e+000
 0.000000e+000 0.000000e+000 5.999148e-001 4.000851e-001 0.000000e+000
 0.000000e+000 0.000000e+000 0.000000e+000 7.531461e-001 2.468539e-001
 0.000000e+000 0.000000e+000 0.000000e+000 0.000000e+000 0.000000e+000
<ENDHMM>
~h "b"
<BEGINHMM>
<NUMSTATES> 5
<STATE> 2
<MEAN> 25
 7.489009e+000 4.640744e+000 3.079295e+000 2.569797e+000 1.772100e+000 2.947394e+000 -1.752429e+000 -2.773188e+000 -8.182189e-001 -4.911895e-001 -1.370747e+000 -3.218592e+000 -3.931138e-002 1.268053e+000 1.480840e+000 1.903215e+000 6.512446e-001 4.176329e-001 7.935181e-001 1.363484e-001 -3.988884e-001 -3.871612e-001 -3.016170e-002 -2.989229e-001 -1.685970e+000
<VARIANCE> 25
 8.688314e+000 1.587802e+001 2.793307e+001 3.177675e+001 2.199824e+001 2.322161e+001 2.666564e+001 2.336823e+001 2.719067e+001 3.125009e+001 2.392990e+001 2.563148e+001 1.063522e+000 2.121795e+000 2.718366e+000 4.139222e+000 2.782132e+000 3.074547e+000 2.793463e+000 2.489528e+000 2.802413e+000 3.059295e+000 2.627978e+000 2.338109e+000 2.181865e+000
<GCONST> 9.556158e+001
<STATE> 3
<MEAN> 25
 6.522680e+000 5.830956e+000 5.149263e+000 4.844105e+000 2.513474e+000 2.838125e+000 -3.612794e-001 -1.818458e+000 -1.356348e+000 -1.021062e+000 -7.982778e-001 -2.610387e+000 -6.620291e-001 -5.588861e-001 1.641387e-001 5.154139e-001 -3.068513e-001 -7.465047e-001 2.635210e-002 2.993923e-001 -2.351051e-001 5.211034e-002 4.012792e-001 4.364017e-001 4.814095e-001
<VARIANCE> 25
 9.990064e+000 1.089307e+001 2.147157e+001 2.184085e+001 1.983085e+001 2.055000e+001 2.323698e+001 2.110662e+001 2.321595e+001 2.795839e+001 1.995368e+001 2.332913e+001 9.431583e-001 1.828282e+000 2.072806e+000 2.834749e+000 2.782460e+000 2.827839e+000 2.693158e+000 2.149693e+000 2.578135e+000 2.585360e+000 2.079965e+000 2.050230e+000 2.377551e+000
<GCONST> 9.195917e+001
<STATE> 4
<MEAN> 25
 4.225218e+000 2.624101e+000 4.197936e+000 4.989124e+000 4.389826e-001 -2.046046e-001 -1.341935e+000 -1.075051e+000 -2.083826e+000 -6.105482e-001 6.950564e-001 -7.965964e-001 -6.542799e-001 -1.952149e+000 -4.136358e-001 -9.977114e-001 -2.202646e+000 -1.707096e+000 -8.408244e-001 6.819839e-002 -7.404543e-001 5.931096e-001 6.123126e-001 5.510325e-001 2.584980e+000
<VARIANCE> 25
 1.581283e+001 1.904963e+001 2.762391e+001 3.200562e+001 3.572320e+001 4.753435e+001 3.141268e+001 2.306059e+001 3.145628e+001 2.690174e+001 2.339576e+001 2.645805e+001 1.391271e+000 2.022315e+000 4.462686e+000 5.762448e+000 5.259989e+000 4.843444e+000 4.397342e+000 4.188544e+000 5.215471e+000 6.162101e+000 3.102215e+000 2.928883e+000 1.985713e+000
<GCONST> 1.024263e+002
<TRANSP> 5
 0.000000e+000 1.000000e+000 0.000000e+000 0.000000e+000 0.000000e+000
 0.000000e+000 5.631362e-001 4.368638e-001 0.000000e+000 0.000000e+000
 0.000000e+000 0.000000e+000 4.762832e-001 5.237168e-001 0.000000e+000
 0.000000e+000 0.000000e+000 0.000000e+000 4.779938e-001 5.220062e-001
 0.000000e+000 0.000000e+000 0.000000e+000 0.000000e+000 0.000000e+000
<ENDHMM>
~h "c"
<BEGINHMM>
<NUMSTATES> 5
<STATE> 2
<MEAN> 25
 -5.182861e+000 5.432894e+000 -2.457078e+000 7.044922e+000 6.131703e-001 1.393885e+000 1.125342e+000 1.500610e+000 3.297358e+000 2.135447e+000 2.056102e+000 1.125643e+000 -2.771543e+000 8.805723e-001 -1.821338e+000 7.540485e-001 -2.576436e-001 7.992906e-001 4.475680e-001 -6.426977e-002 2.750460e-001 -6.514617e-002 8.928968e-001 3.624792e-001 -1.620207e-001
<VARIANCE> 25
 3.155170e+001 2.427774e+001 3.596586e+001 2.325281e+001 3.428038e+001 3.225821e+001 2.988994e+001 2.919392e+001 3.450702e+001 2.803270e+001 2.748002e+001 1.892333e+001 2.015094e+000 2.823161e+000 3.641100e+000 2.511226e+000 2.962078e+000 3.710036e+000 3.138291e+000 3.257279e+000 3.226648e+000 2.914598e+000 2.835102e+000 2.045794e+000 3.459246e+000
<GCONST> 1.001385e+002
<STATE> 3
<MEAN> 25
 -1.573778e+001 8.579561e+000 -1.008846e+001 8.081773e+000 2.251327e-001 1.204242e+000 3.384919e+000 6.675532e-003 3.293647e+000 -1.162594e-001 2.570154e+000 3.251770e+000 -1.461636e+000 -2.235808e-001 -7.540794e-001 -4.688519e-001 1.365215e-001 -5.485885e-001 9.074137e-001 -2.692531e-001 -1.342938e-001 -4.838831e-001 1.839032e-001 4.461774e-001 1.164371e+000
<VARIANCE> 25
 1.390003e+001 1.431350e+001 1.909795e+001 2.284492e+001 2.564632e+001 2.737860e+001 2.811803e+001 2.744554e+001 3.558276e+001 2.218599e+001 3.506547e+001 2.165806e+001 2.729234e+000 1.815968e+000 3.466819e+000 1.734092e+000 1.536622e+000 2.284340e+000 2.695820e+000 2.411036e+000 2.162352e+000 1.882715e+000 2.194262e+000 1.658312e+000 7.505304e-001
<GCONST> 9.275539e+001
<STATE> 4
<MEAN> 25
 -1.249100e+001 5.946870e+000 -4.737682e+000 4.490714e+000 -6.915981e-002 -3.680453e+000 5.184226e+000 -1.031510e+000 2.965766e-001 -9.720714e-001 1.139198e+000 3.586148e+000 3.608346e+000 -8.450714e-001 3.195781e+000 -9.367442e-001 -1.290534e+000 -1.946979e+000 -1.259975e+000 -6.154186e-001 -1.289441e+000 -4.796932e-002 -1.292786e+000 -7.535071e-001 9.593012e-001
<VARIANCE> 25
 5.045887e+001 1.132313e+001 3.982410e+001 2.450473e+001 3.236334e+001 3.574161e+001 3.386613e+001 3.203283e+001 3.270058e+001 2.118143e+001 4.164130e+001 2.205691e+001 4.085732e+000 1.949456e+000 3.079398e+000 3.602839e+000 3.276381e+000 3.667954e+000 4.676698e+000 3.239524e+000 3.989904e+000 3.160145e+000 5.230807e+000 2.976268e+000 1.187725e+000
<GCONST> 1.017216e+002
<TRANSP> 5
 0.000000e+000 1.000000e+000 0.000000e+000 0.000000e+000 0.000000e+000
 0.000000e+000 7.638785e-001 2.361215e-001 0.000000e+000 0.000000e+000
 0.000000e+000 0.000000e+000 7.129623e-001 2.870378e-001 0.000000e+000
 0.000000e+000 0.000000e+000 0.000000e+000 7.146932e-001 2.853068e-001
 0.000000e+000 0.000000e+000 0.000000e+000 0.000000e+000 0.000000e+000
<ENDHMM>
~h "d"
<BEGINHMM>
<NUMSTATES> 5
<STATE> 2
<MEAN> 25
 4.406251e+000 2.613763e+000 2.700951e+000 2.252222e+000 2.260976e+000 -1.868679e+000 -3.107838e+000 -5.274318e-001 1.545037e+000 1.096908e+000 -3.531960e+000 -2.763406e+000 1.678925e-001 1.195450e+000 1.313232e+000 1.346591e+000 5.181906e-001 5.548366e-001 4.666981e-001 4.742499e-002 -2.356999e-001 -4.752967e-001 -2.008998e-001 -1.040216e-001 -1.457242e+000
<VARIANCE> 25
 1.744171e+001 2.149727e+001 3.806980e+001 3.509000e+001 3.547573e+001 4.201998e+001 5.019567e+001 2.999621e+001 3.728503e+001 3.274318e+001 3.411080e+001 2.866392e+001 1.762917e+000 2.578794e+000 3.959016e+000 3.585050e+000 3.605712e+000 4.795746e+000 5.244987e+000 3.891777e+000 4.142086e+000 3.206439e+000 3.838576e+000 2.753167e+000 4.336593e+000
<GCONST> 1.041323e+002
<STATE> 3
<MEAN> 25
 4.228945e+000 4.391758e+000 4.490229e+000 4.187842e+000 2.922242e+000 -6.627949e-001 -1.458351e+000 -1.891255e-001 1.027839e+000 7.878142e-002 -3.220991e+000 -2.612328e+000 -5.308005e-001 2.731917e-001 1.197396e-001 2.519947e-001 1.249989e-001 8.078530e-002 1.701989e-001 -8.623162e-002 -1.154538e-001 -2.675285e-001 3.157132e-001 3.797589e-001 8.258089e-002
<VARIANCE> 25
 1.825472e+001 1.609378e+001 2.790151e+001 2.707842e+001 3.291376e+001 3.105349e+001 3.527915e+001 2.729668e+001 2.954227e+001 2.974615e+001 3.077817e+001 2.447242e+001 2.195421e+000 2.583725e+000 3.894472e+000 3.634255e+000 3.261730e+000 4.891373e+000 4.430212e+000 3.656011e+000 3.616130e+000 2.591048e+000 3.008248e+000 2.530229e+000 5.211082e+000
<GCONST> 1.013178e+002
<STATE> 4
<MEAN> 25
 1.307693e+000 3.176211e+000 2.710898e+000 3.193763e+000 3.244543e+000 -1.574802e+000 -1.606178e+000 2.805456e-001 1.140158e+000 -1.812154e-001 -2.086543e+000 -6.028076e-001 -4.836459e-001 -8.465483e-001 -8.723349e-001 -1.012126e+000 -7.015072e-001 -5.907146e-001 -4.430766e-001 -1.316264e-001 1.076054e-001 1.078880e-001 3.198419e-001 4.488675e-001 1.549825e+000
<VARIANCE> 25
 2.703743e+001 2.342953e+001 3.118537e+001 2.888429e+001 3.722200e+001 3.663813e+001 4.134996e+001 3.940109e+001 3.430641e+001 2.745924e+001 3.134995e+001 2.529978e+001 2.126792e+000 3.029422e+000 3.946553e+000 3.643475e+000 3.622620e+000 4.507416e+000 4.754858e+000 4.607884e+000 4.099792e+000 2.966949e+000 3.501731e+000 2.694638e+000 4.001450e+000
<GCONST> 1.038776e+002
<TRANSP> 5
 0.000000e+000 1.000000e+000 0.000000e+000 0.000000e+000 0.000000e+000
 0.000000e+000 3.523023e-001 6.476977e-001 0.000000e+000 0.000000e+000
 0.000000e+000 0.000000e+000 3.404751e-001 6.595249e-001 0.000000e+000
 0.000000e+000 0.000000e+000 0.000000e+000 5.313642e-001 4.686358e-001
 0.000000e+000 0.000000e+000 0.000000e+000 0.000000e+000 0.000000e+000
<ENDHMM>
~h "e"
<BEGINHMM>
<NUMSTATES> 5
<STATE> 2
<MEAN> 25
 2.081035e+000 -4.285173e+000 2.967326e+000 -8.599331e-001 -7.152236e+000 -8.420149e+000 -7.180306e-001 4.356120e+000 -4.579593e-001 -1.484485e+000 -4.267880e-001 6.539822e-001 5.047600e-001 -5.092443e-001 2.709962e-002 -2.050866e-001 -4.157891e-001 -4.681723e-001 -7.405345e-002 6.592571e-001 1.590612e-001 6.589670e-002 -1.150160e-001 -2.944130e-002 3.925086e-001
<VARIANCE> 25
 1.117331e+001 2.284661e+001 2.507617e+001 3.075257e+001 3.654374e+001 2.887674e+001 5.688798e+001 4.033281e+001 4.004145e+001 3.229404e+001 3.170151e+001 2.387259e+001 2.578458e+000 2.399368e+000 2.172659e+000 2.541597e+000 4.042574e+000 3.372513e+000 4.839918e+000 3.964960e+000 3.546916e+000 3.194512e+000 3.176861e+000 2.430943e+000 2.118588e+000
<GCONST> 1.009513e+002
<STATE> 3
<MEAN> 25
 2.145444e+000 -4.142378e+000 3.249513e+000 -6.235949e-001 -6.999917e+000 -7.934782e+000 -1.860984e-001 4.356507e+000 -1.336443e-001 -9.461300e-001 -4.326546e-001 4.538754e-001 2.483391e-001 8.130150e-001 7.246426e-002 6.334155e-001 6.954095e-001 7.287113e-001 -9.561515e-002 -5.877793e-001 1.518594e-001 1.601360e-001 -1.073736e-001 -1.400065e-001 -9.904965e-001
<VARIANCE> 25
 1.086230e+001 2.279140e+001 2.641257e+001 3.238338e+001 3.853910e+001 3.064580e+001 6.169452e+001 4.443628e+001 4.475594e+001 3.391525e+001 3.287487e+001 2.649551e+001 9.831785e-001 1.948401e+000 2.011721e+000 2.333282e+000 2.956016e+000 2.870917e+000 3.652373e+000 3.084975e+000 2.949654e+000 2.681133e+000 2.472830e+000 2.125858e+000 1.810942e+000
<GCONST> 9.837331e+001
<STATE> 4
<MEAN> 25
 9.864570e-001 -1.044843e+000 3.366684e+000 2.367800e+000 -2.609429e+000 -4.129546e+000 3.244188e-001 2.503087e+000 4.991049e-001 -5.839242e-001 2.157574e-001 9.525858e-001 -8.462527e-002 1.099793e+000 4.328239e-002 7.652462e-001 1.043309e+000 1.286912e+000 7.932324e-002 -8.507233e-001 1.782153e-002 2.568311e-001 1.820111e-001 -1.534541e-001 -1.422502e+000
<VARIANCE> 25
 2.481418e+001 2.455961e+001 2.751896e+001 3.039089e+001 4.717448e+001 3.843707e+001 4.717024e+001 3.871408e+001 3.889801e+001 3.173467e+001 3.632202e+001 2.923577e+001 1.543105e+000 2.580653e+000 2.187556e+000 2.884731e+000 3.190627e+000 3.391591e+000 3.978899e+000 3.871951e+000 3.266811e+000 2.958677e+000 2.931531e+000 2.275653e+000 2.165393e+000
<GCONST> 1.014668e+002
<TRANSP> 5
 0.000000e+000 1.000000e+000 0.000000e+000 0.000000e+000 0.000000e+000
 0.000000e+000 3.952067e-001 6.047933e-001 0.000000e+000 0.000000e+000
 0.000000e+000 0.000000e+000 4.345788e-001 5.654212e-001 0.000000e+000
 0.000000e+000 0.000000e+000 0.000000e+000 5.602912e-001 4.397088e-001
 0.000000e+000 0.000000e+000 0.000000e+000 0.000000e+000 0.000000e+000
<ENDHMM>
~h "f"
<BEGINHMM>
<NUMSTATES> 5
<STATE> 2
<MEAN> 25
 -9.211699e+000 1.847793e+000 -2.967028e+000 6.765726e+000 5.193477e+000 2.756436e+000 -4.225604e-001 3.093345e+000 1.032366e+000 3.154677e+000 1.734456e+000 3.517254e+000 -7.689429e-001 -5.043433e-001 -8.683636e-001 1.025229e-001 -2.320792e-001 3.935606e-001 -9.574389e-002 -5.823849e-001 1.785640e-002 -2.648982e-001 6.984929e-001 2.331502e-001 2.375247e-001
<VARIANCE> 25
 2.750610e+001 1.348779e+001 2.101947e+001 1.929100e+001 2.995804e+001 2.372702e+001 2.608879e+001 1.600278e+001 2.135927e+001 2.142546e+001 2.123485e+001 2.178448e+001 8.000809e+000 1.813568e+000 3.016095e+000 2.418693e+000 3.195176e+000 4.763405e+000 2.895445e+000 2.361796e+000 2.372933e+000 2.188785e+000 3.264254e+000 2.623782e+000 1.960812e+000
<GCONST> 9.650747e+001
<STATE> 3
<MEAN> 25
 -6.501602e+000 -2.495743e-001 -6.687831e+000 7.071755e+000 2.196184e+000 2.633908e+000 -2.652582e-001 -1.552874e+000 1.276198e+000 9.683338e-001 3.996612e+000 7.698081e-001 2.168485e+000 -5.164008e-001 -7.353276e-001 -3.231858e-001 -1.614820e+000 -4.855370e-001 -6.564142e-001 -1.477346e+000 2.562384e-002 -3.794254e-001 -9.692184e-002 -1.626109e+000 1.287739e+000
<VARIANCE> 25
 7.117439e+001 1.908405e+001 2.380411e+001 1.444980e+001 2.194604e+001 1.852992e+001 1.736256e+001 4.302805e+001 1.646865e+001 8.356097e+000 2.848350e+001 2.529167e+001 5.941995e+000 3.539303e+000 1.973169e+000 1.449759e+000 5.113700e+000 1.655540e+000 2.290501e+000 2.291327e+000 1.881168e+000 1.266511e+000 4.315922e+000 1.876554e+000 1.574540e+000
<GCONST> 9.443468e+001
<STATE> 4
<MEAN> 25
 4.093589e-001 -1.713412e-001 -8.018890e+000 5.240072e+000 -1.462967e+000 1.369245e+000 -2.659263e+000 -4.628441e+000 8.278036e-001 -4.445022e-001 1.886594e+000 -4.306395e+000 3.084525e+000 -3.455730e-001 -2.256464e-001 -9.855658e-001 -1.648158e+000 -8.894622e-001 -5.746075e-001 -5.579873e-001 3.896347e-001 -7.095798e-001 1.339645e-001 -9.992499e-001 1.112143e+000
<VARIANCE> 25
 4.424428e+001 1.537214e+001 2.496081e+001 2.305168e+001 3.292273e+001 2.109195e+001 3.559851e+001 4.653013e+001 1.619348e+001 2.227448e+001 4.574977e+001 2.053036e+001 4.515662e+000 5.722145e+000 1.010489e+000 4.885013e+000 4.371746e+000 2.193487e+000 3.022141e+000 4.130552e+000 2.864788e+000 4.241594e+000 3.539918e+000 3.361545e+000 1.476387e+000
<GCONST> 1.005099e+002
<TRANSP> 5
 0.000000e+000 1.000000e+000 0.000000e+000 0.000000e+000 0.000000e+000
 0.000000e+000 8.344485e-001 1.655515e-001 0.000000e+000 0.000000e+000
 0.000000e+000 0.000000e+000 5.654420e-001 4.345581e-001 0.000000e+000
 0.000000e+000 0.000000e+000 0.000000e+000 5.067716e-001 4.932285e-001
 0.000000e+000 0.000000e+000 0.000000e+000 0.000000e+000 0.000000e+000
<ENDHMM>
~h "g"
<BEGINHMM>
<NUMSTATES> 5
<STATE> 2
<MEAN> 25
 6.734769e+000 6.764450e+000 6.228346e-001 -4.030826e+000 -5.298261e+000 2.410269e+000 6.083198e-001 6.316816e-001 -3.655691e+000 -3.808714e+000 -1.658725e-001 -2.297989e+000 5.689054e-002 2.414658e-001 7.786734e-001 1.459169e+000 6.481622e-001 -2.471255e-001 3.910775e-001 3.879862e-001 5.939929e-001 -2.250852e-001 -5.769336e-001 -3.424886e-001 -1.032973e+000
<VARIANCE> 25
 1.241640e+001 1.682077e+001 3.282101e+001 7.562024e+001 4.965118e+001 3.480634e+001 3.767827e+001 3.784916e+001 4.974590e+001 4.952236e+001 4.241339e+001 3.650277e+001 9.779570e-001 1.324685e+000 2.723392e+000 5.461364e+000 4.093748e+000 3.529512e+000 2.980082e+000 4.036241e+000 4.611293e+000 4.251930e+000 4.139251e+000 3.406675e+000 1.717762e+000
<GCONST> 1.032566e+002
<STATE> 3
<MEAN> 25
 6.460829e+000 6.374516e+000 2.031456e+000 -1.498180e-001 -2.324267e+000 2.177047e+000 1.318124e+000 2.477835e-001 -2.767622e+000 -3.226376e+000 -6.636860e-002 -1.676639e+000 -5.532302e-001 -4.826432e-001 -2.850320e-001 6.758363e-001 9.248208e-001 1.130090e-001 4.204133e-002 -3.938630e-001 4.988391e-002 1.893132e-001 5.582588e-001 5.363758e-001 3.830338e-002
<VARIANCE> 25
 1.080824e+001 1.547975e+001 2.834804e+001 5.915659e+001 3.631621e+001 3.432172e+001 3.430396e+001 3.026355e+001 3.997098e+001 3.790814e+001 3.928055e+001 3.252375e+001 1.069932e+000 1.445858e+000 3.247434e+000 6.120300e+000 4.402443e+000 3.544692e+000 3.329898e+000 3.909570e+000 4.979398e+000 3.974398e+000 4.575449e+000 3.067852e+000 2.341516e+000
<GCONST> 1.022582e+002
<STATE> 4
<MEAN> 25
 4.790185e+000 4.019062e+000 -3.492493e-001 -8.410786e-001 -8.531278e-001 2.940221e+000 2.284427e-001 -2.057091e+000 -3.953546e+000 -1.945950e+000 3.547429e+000 3.145712e-001 -6.578473e-001 -1.258361e+000 -1.090258e+000 -7.096927e-001 1.665468e-001 -1.439991e-001 -6.419424e-001 -5.816993e-001 1.508466e-001 1.113318e+000 9.516959e-001 3.817384e-001 1.387162e+000
<VARIANCE> 25
 1.290847e+001 2.273737e+001 3.695488e+001 7.135738e+001 4.716347e+001 4.573111e+001 4.369985e+001 4.495339e+001 4.964150e+001 4.592630e+001 6.603406e+001 3.588416e+001 1.272878e+000 2.005557e+000 4.004890e+000 5.946294e+000 4.985246e+000 4.862631e+000 5.679510e+000 4.527195e+000 6.364801e+000 5.221043e+000 5.907370e+000 3.896644e+000 1.976694e+000
<GCONST> 1.081317e+002
<TRANSP> 5
 0.000000e+000 1.000000e+000 0.000000e+000 0.000000e+000 0.000000e+000
 0.000000e+000 4.967062e-001 5.032938e-001 0.000000e+000 0.000000e+000
 0.000000e+000 0.000000e+000 4.337684e-001 5.662316e-001 0.000000e+000
 0.000000e+000 0.000000e+000 0.000000e+000 4.834581e-001 5.165419e-001
 0.000000e+000 0.000000e+000 0.000000e+000 0.000000e+000 0.000000e+000
<ENDHMM>
~h "h"
<BEGINHMM>
<NUMSTATES> 5
<STATE> 2
<MEAN> 25
 -1.141569e+000 5.699418e+000 2.032577e+000 8.316689e-001 2.995095e+000 3.582801e+000 6.108594e+000 1.787534e+000 -6.342468e-001 9.072577e-001 5.604972e-001 1.828032e+000 -1.605572e+000 -1.193516e+000 -1.462684e+000 9.169784e-001 3.196251e+000 7.520962e-001 7.137815e-001 2.683102e-001 2.018266e-001 8.572980e-001 4.126635e-001 1.117715e+000 -4.571818e-001
<VARIANCE> 25
 4.695898e+001 2.898103e+001 5.014157e+001 4.852139e+001 5.900974e+001 4.064484e+001 3.616110e+001 4.087920e+001 4.898328e+001 3.247739e+001 2.775295e+001 2.744124e+001 2.623517e+000 2.347867e+000 2.638359e+000 3.779716e+000 8.984816e+000 3.524594e+000 4.137241e+000 5.280519e+000 5.235692e+000 3.633256e+000 3.390024e+000 3.221678e+000 1.037026e+000
<GCONST> 1.060782e+002
<STATE> 3
<MEAN> 25
 -4.352523e+000 3.601804e-001 -3.205075e+000 1.052703e+000 8.250658e+000 4.557310e+000 5.291643e+000 1.589077e+000 -1.208081e+000 2.158817e+000 7.284791e-001 3.324903e+000 -5.033691e-001 -1.125355e+000 -1.174559e+000 -1.650518e-001 1.023737e+000 -8.574679e-002 -6.678709e-001 -3.816708e-001 2.012680e-001 5.739562e-001 -2.696213e-002 -2.333620e-001 2.978173e-001
<VARIANCE> 25
 3.605786e+001 3.291712e+001 5.732922e+001 3.790865e+001 5.197989e+001 5.908535e+001 4.296845e+001 4.489809e+001 4.392668e+001 3.007122e+001 3.725388e+001 2.567511e+001 2.889588e+000 2.549317e+000 3.324095e+000 2.634380e+000 6.128034e+000 3.145632e+000 3.955069e+000 4.246253e+000 4.300598e+000 3.852379e+000 2.832378e+000 2.990281e+000 1.227203e+000
<GCONST> 1.054495e+002
<STATE> 4
<MEAN> 25
 -2.335136e+000 -1.300581e+000 -5.567880e+000 -4.152895e-002 9.966078e+000 3.015472e+000 2.486290e+000 -1.849313e-001 9.781595e-002 3.956521e+000 -5.872498e-001 -1.164483e+000 1.225778e+000 -8.883823e-002 4.282174e-001 -1.424150e-001 -1.384573e+000 -1.367957e+000 -4.977416e-001 -1.888048e-001 9.077555e-001 -5.057456e-001 -9.548597e-001 -1.252796e+000 7.941862e-001
<VARIANCE> 25
 3.408847e+001 2.959640e+001 5.460491e+001 3.608249e+001 5.576110e+001 5.281851e+001 5.903265e+001 5.014769e+001 3.601709e+001 3.842028e+001 5.265910e+001 4.294806e+001 3.422201e+000 2.949829e+000 4.117536e+000 3.252645e+000 4.885376e+000 5.131135e+000 4.944796e+000 4.682949e+000 5.492610e+000 4.484666e+000 4.652602e+000 4.365784e+000 1.574017e+000
<GCONST> 1.093264e+002
<TRANSP> 5
 0.000000e+000 1.000000e+000 0.000000e+000 0.000000e+000 0.000000e+000
 0.000000e+000 5.577157e-001 4.422843e-001 0.000000e+000 0.000000e+000
 0.000000e+000 0.000000e+000 5.554637e-001 4.445363e-001 0.000000e+000
 0.000000e+000 0.000000e+000 0.000000e+000 6.405175e-001 3.594825e-001
 0.000000e+000 0.000000e+000 0.000000e+000 0.000000e+000 0.000000e+000
<ENDHMM>
~h "i"
<BEGINHMM>
<NUMSTATES> 5
<STATE> 2
<MEAN> 25
 7.321458e-001 1.229265e+000 8.313799e+000 8.918641e-001 -8.022149e+000 -4.219323e+000 -1.488914e+000 -2.033739e+000 -5.587347e+000 -5.355641e-003 5.107361e-001 -7.525331e-001 2.384032e-001 -6.942265e-002 1.572064e+000 -8.002427e-001 -1.937862e+000 -2.733533e-001 -4.212475e-001 -3.012387e-001 -1.093608e+000 3.791295e-001 1.466690e-001 -4.110468e-001 9.593253e-001
<VARIANCE> 25
 1.510725e+001 2.430849e+001 2.754776e+001 3.936335e+001 4.457823e+001 3.823204e+001 3.799175e+001 3.954536e+001 3.435476e+001 3.781415e+001 3.333676e+001 2.768878e+001 3.184314e+000 2.182017e+000 2.590651e+000 3.647674e+000 4.708263e+000 3.453489e+000 3.910933e+000 3.810708e+000 3.517431e+000 4.049548e+000 4.032056e+000 2.591063e+000 1.817753e+000
<GCONST> 1.028696e+002
<STATE> 3
<MEAN> 25
 4.547275e-001 1.230748e+000 1.065335e+001 -1.361332e+000 -1.081471e+001 -2.983412e+000 -2.022520e+000 -2.848369e+000 -6.514688e+000 1.469406e+000 2.391399e-001 -1.900663e+000 9.399604e-002 1.875674e-001 1.519131e-001 2.804159e-002 4.848451e-002 2.855930e-001 6.880896e-002 -2.852407e-002 9.393717e-002 2.201404e-001 -7.426332e-002 -4.985211e-002 -2.492782e-001
<VARIANCE> 25
 1.162146e+001 1.873703e+001 2.482191e+001 4.863330e+001 4.028939e+001 3.890271e+001 3.592104e+001 3.719320e+001 3.222277e+001 4.751648e+001 4.221394e+001 3.141256e+001 1.055904e+000 1.517374e+000 1.709740e+000 2.570614e+000 3.310825e+000 2.544616e+000 2.506262e+000 2.441371e+000 2.443433e+000 2.458735e+000 2.228877e+000 1.655632e+000 1.481341e+000
<GCONST> 9.689070e+001
<STATE> 4
<MEAN> 25
 7.466648e-001 2.290650e+000 8.919017e+000 1.808367e+000 -6.834564e+000 -2.163344e+000 -6.766211e-001 -1.888274e+000 -4.423337e+000 9.401063e-001 7.376646e-001 -5.578949e-001 2.799427e-002 3.538416e-001 -8.803692e-001 7.377067e-001 1.437640e+000 3.741756e-001 2.801537e-001 2.384277e-001 8.576859e-001 -1.448767e-001 5.474754e-002 2.847573e-001 -1.029584e+000
<VARIANCE> 25
 1.640365e+001 2.154471e+001 2.733606e+001 4.388709e+001 5.226447e+001 3.972289e+001 3.607583e+001 3.927320e+001 3.380920e+001 3.443612e+001 3.253411e+001 2.675413e+001 1.496858e+000 1.971459e+000 2.202501e+000 3.022213e+000 3.935486e+000 3.452989e+000 3.356592e+000 3.112775e+000 2.951162e+000 3.197824e+000 2.986951e+000 2.146144e+000 2.000986e+000
<GCONST> 1.003573e+002
<TRANSP> 5
 0.000000e+000 1.000000e+000 0.000000e+000 0.000000e+000 0.000000e+000
 0.000000e+000 5.100228e-001 4.899772e-001 0.000000e+000 0.000000e+000
 0.000000e+000 0.000000e+000 5.563366e-001 4.436634e-001 0.000000e+000
 0.000000e+000 0.000000e+000 0.000000e+000 6.410902e-001 3.589099e-001
 0.000000e+000 0.000000e+000 0.000000e+000 0.000000e+000 0.000000e+000
<ENDHMM>
~h "j"
<BEGINHMM>
<NUMSTATES> 5
<STATE> 2
<MEAN> 25
 1.112267e+000 3.501434e-001 8.148912e+000 -1.275261e+000 -7.267813e+000 -3.334871e+000 -1.141488e+000 -7.500321e-001 -4.078585e+000 1.530941e-001 3.168510e-001 -5.419241e-001 -2.531941e-001 -5.223897e-001 8.685526e-001 -7.014406e-001 -1.425610e+000 -6.319991e-001 -5.362962e-002 4.286054e-001 -3.038918e-001 2.652861e-001 3.534138e-001 2.477860e-001 9.230632e-001
<VARIANCE> 25
 1.347329e+001 3.022001e+001 3.789856e+001 4.604986e+001 4.701474e+001 4.114763e+001 4.394809e+001 4.673604e+001 3.656432e+001 4.355555e+001 3.295961e+001 2.721124e+001 1.869439e+000 2.277149e+000 2.599618e+000 2.988519e+000 3.354248e+000 2.924973e+000 3.791544e+000 3.370862e+000 3.061458e+000 3.154048e+000 2.692930e+000 2.014917e+000 1.511516e+000
<GCONST> 1.014900e+002
<STATE> 3
<MEAN> 25
 4.743727e-001 -1.511117e+000 8.647176e+000 -3.179025e+000 -1.001452e+001 -4.762809e+000 -3.188434e-001 1.898201e-001 -4.141374e+000 1.615693e+000 1.343024e+000 -1.416084e-001 -1.359227e-002 -6.667079e-001 -4.398955e-001 6.088697e-002 -3.132923e-001 -6.745931e-001 3.098034e-001 8.580385e-001 3.088899e-001 1.559199e-002 2.703637e-001 1.704004e-001 3.853069e-001
<VARIANCE> 25
 1.011431e+001 2.342164e+001 3.192058e+001 4.632147e+001 3.851025e+001 3.659533e+001 4.947709e+001 4.519200e+001 3.699216e+001 4.998112e+001 3.430098e+001 2.624746e+001 6.051447e-001 1.710628e+000 1.958389e+000 1.776094e+000 2.222998e+000 2.230486e+000 3.016371e+000 2.816677e+000 2.429006e+000 2.266452e+000 1.957663e+000 1.528706e+000 7.577558e-001
<GCONST> 9.554804e+001
<STATE> 4
<MEAN> 25
 6.430016e-001 -3.338052e+000 5.860418e+000 -1.578065e+000 -8.594095e+000 -6.345757e+000 3.030652e-001 3.373067e+000 -2.699208e+000 4.128773e-001 1.366589e+000 2.478345e-001 3.077995e-001 -3.148006e-001 -1.352400e+000 4.643394e-001 9.884595e-001 -3.892612e-001 -2.170427e-001 6.589519e-001 7.748513e-001 -4.168939e-001 -3.156086e-001 3.723593e-002 -6.305846e-002
<VARIANCE> 25
 1.197347e+001 2.143488e+001 2.875347e+001 4.560104e+001 4.727525e+001 3.329753e+001 7.018052e+001 4.190419e+001 3.743357e+001 4.404157e+001 3.252442e+001 2.549502e+001 5.303455e-001 1.652089e+000 2.771535e+000 1.844349e+000 2.618992e+000 2.463917e+000 3.506706e+000 3.499254e+000 2.836982e+000 2.889979e+000 2.396391e+000 1.913923e+000 7.670856e-001
<GCONST> 9.738249e+001
<TRANSP> 5
 0.000000e+000 1.000000e+000 0.000000e+000 0.000000e+000 0.000000e+000
 0.000000e+000 4.907289e-001 5.092710e-001 0.000000e+000 0.000000e+000
 0.000000e+000 0.000000e+000 4.886893e-001 5.113106e-001 0.000000e+000
 0.000000e+000 0.000000e+000 0.000000e+000 5.377946e-001 4.622055e-001
 0.000000e+000 0.000000e+000 0.000000e+000 0.000000e+000 0.000000e+000
<ENDHMM>
~h "k"
<BEGINHMM>
<NUMSTATES> 5
<STATE> 2
<MEAN> 25
 -2.825780e+000 -9.329206e-001 3.672018e-003 4.671568e+000 4.205174e+000 1.796170e+000 1.955448e+000 3.418717e+000 2.358586e+000 2.231128e+000 2.532987e+000 2.208186e+000 -8.313206e-001 -6.011973e-001 -7.338077e-001 -2.606186e-002 3.525348e-001 2.917668e-001 5.435067e-002 2.373577e-001 2.444055e-001 2.894014e-001 2.825231e-001 4.832528e-001 -5.051039e-001
<VARIANCE> 25
 2.496096e+001 1.647996e+001 2.751129e+001 2.650145e+001 3.480305e+001 3.630232e+001 3.163913e+001 3.398743e+001 2.875033e+001 3.163416e+001 3.221455e+001 2.613471e+001 2.507199e+000 2.195501e+000 4.430837e+000 3.291124e+000 4.059459e+000 5.003127e+000 3.499758e+000 3.394111e+000 3.347634e+000 3.194928e+000 3.673714e+000 2.636495e+000 4.868660e+000
<GCONST> 1.023233e+002
<STATE> 3
<MEAN> 25
 -5.489838e+000 -3.123858e+000 -4.143247e+000 2.053658e+000 5.686316e+000 1.750121e+000 1.336089e+000 3.249454e+000 1.363273e+000 3.074834e+000 1.479459e+000 2.868460e+000 -6.004065e-001 -2.229833e-001 -1.104313e+000 -8.612139e-001 3.801832e-001 -4.304981e-002 -9.514248e-002 -2.293650e-001 -5.081043e-001 -9.985527e-002 -4.208816e-001 3.619611e-002 1.183699e+000
<VARIANCE> 25
 2.376662e+001 1.825118e+001 4.816541e+001 3.519918e+001 4.312186e+001 4.495413e+001 3.809104e+001 3.929955e+001 3.583704e+001 3.200655e+001 3.478965e+001 2.256659e+001 3.104673e+000 2.257491e+000 5.675036e+000 3.367517e+000 4.319565e+000 4.203759e+000 3.619455e+000 3.578476e+000 3.570202e+000 3.007812e+000 3.256418e+000 2.613423e+000 3.391914e+000
<GCONST> 1.041410e+002
<STATE> 4
<MEAN> 25
 -4.622100e+000 -5.808350e-001 -4.676398e+000 -3.037118e-001 5.065380e+000 1.633976e+000 1.095298e+000 1.236468e+000 -1.028986e+000 2.052652e+000 1.681086e-001 1.401290e+000 1.919646e+000 1.233010e+000 1.253625e+000 -8.769581e-001 -1.370606e+000 -5.050502e-001 -4.953060e-001 -1.166427e+000 -1.100230e+000 -7.750997e-001 -5.093381e-001 -9.823951e-001 1.465020e+000
<VARIANCE> 25
 3.689505e+001 2.686167e+001 6.541626e+001 4.100727e+001 4.440850e+001 5.215960e+001 4.227758e+001 4.145247e+001 4.166890e+001 3.518996e+001 4.265049e+001 2.468895e+001 4.137384e+000 2.663716e+000 5.678972e+000 4.195824e+000 4.996689e+000 4.032536e+000 4.877046e+000 4.087550e+000 4.217567e+000 4.039311e+000 5.510117e+000 3.144235e+000 1.974192e+000
<GCONST> 1.081406e+002
<TRANSP> 5
 0.000000e+000 1.000000e+000 0.000000e+000 0.000000e+000 0.000000e+000
 0.000000e+000 6.841311e-001 3.158689e-001 0.000000e+000 0.000000e+000
 0.000000e+000 0.000000e+000 6.006487e-001 3.993513e-001 0.000000e+000
 0.000000e+000 0.000000e+000 0.000000e+000 6.024669e-001 3.975331e-001
 0.000000e+000 0.000000e+000 0.000000e+000 0.000000e+000 0.000000e+000
<ENDHMM>
~h "l"
<BEGINHMM>
<NUMSTATES> 5
<STATE> 2
<MEAN> 25
 5.823932e+000 -2.266125e+000 -4.155755e+000 -5.952718e+000 -1.005270e+000 4.344200e+000 -8.419271e-001 -6.719695e+000 -6.214543e-001 3.335109e+000 8.500755e-001 -8.550478e-001 9.092390e-001 -4.473649e-001 -8.335757e-001 -2.083937e+000 -7.315478e-002 1.288312e+000 -8.978271e-002 -1.239909e+000 -2.131604e-001 9.008869e-001 -1.075448e-001 -3.068626e-001 7.990571e-001
<VARIANCE> 25
 1.656807e+001 2.881997e+001 3.618295e+001 5.937753e+001 6.105733e+001 5.840344e+001 6.537182e+001 5.794061e+001 5.622512e+001 4.211790e+001 4.636886e+001 3.621086e+001 2.407537e+000 3.119375e+000 3.628714e+000 5.709233e+000 5.791281e+000 4.921626e+000 5.276203e+000 6.448797e+000 6.662301e+000 4.482366e+000 5.015578e+000 3.872280e+000 2.859911e+000
<GCONST> 1.107406e+002
<STATE> 3
<MEAN> 25
 6.459664e+000 -3.521661e+000 -6.314021e+000 -1.013503e+001 1.430631e-001 7.404243e+000 3.143235e-001 -7.025474e+000 -6.872360e-001 3.921846e+000 -3.073433e-002 -1.553966e+000 7.218561e-004 -2.101661e-001 -3.794205e-001 -5.165340e-001 5.098094e-001 2.729276e-001 1.640055e-001 2.794239e-001 -8.354145e-002 -8.992255e-002 -3.233005e-001 -1.974242e-001 1.559365e-001
<VARIANCE> 25
 1.272264e+001 2.292024e+001 4.112623e+001 6.485130e+001 6.911947e+001 5.635358e+001 7.422845e+001 5.941041e+001 6.095880e+001 4.406428e+001 4.276267e+001 3.431418e+001 9.321935e-001 2.315476e+000 2.752121e+000 3.510270e+000 6.090760e+000 3.837273e+000 3.825527e+000 4.324559e+000 4.666992e+000 3.478526e+000 3.608351e+000 3.522534e+000 1.147478e+000
<GCONST> 1.058194e+002
<STATE> 4
<MEAN> 25
 5.858525e+000 -3.766187e+000 -6.952014e+000 -9.414316e+000 2.566421e+000 6.966119e+000 -2.656397e-001 -5.263284e+000 -7.757903e-001 2.613369e+000 -1.292307e+000 -2.377404e+000 -1.587942e-001 1.847091e-001 4.580070e-001 7.086509e-001 -7.514139e-002 -9.047428e-001 -6.963886e-002 7.133923e-001 -1.593563e-001 -4.030344e-001 -1.631782e-001 4.930466e-002 -1.808033e-001
<VARIANCE> 25
 1.302764e+001 2.691187e+001 4.416768e+001 6.028966e+001 7.373087e+001 6.115656e+001 7.037120e+001 4.814553e+001 6.464677e+001 4.777742e+001 4.706531e+001 3.753450e+001 7.356262e-001 1.551373e+000 2.514064e+000 3.397096e+000 4.832117e+000 4.006556e+000 3.295180e+000 4.162361e+000 4.073239e+000 3.802020e+000 3.207579e+000 2.511788e+000 9.666478e-001
<GCONST> 1.043991e+002
<TRANSP> 5
 0.000000e+000 1.000000e+000 0.000000e+000 0.000000e+000 0.000000e+000
 0.000000e+000 5.215341e-001 4.784659e-001 0.000000e+000 0.000000e+000
 0.000000e+000 0.000000e+000 4.975738e-001 5.024263e-001 0.000000e+000
 0.000000e+000 0.000000e+000 0.000000e+000 6.477364e-001 3.522637e-001
 0.000000e+000 0.000000e+000 0.000000e+000 0.000000e+000 0.000000e+000
<ENDHMM>
~h "m"
<BEGINHMM>
<NUMSTATES> 5
<STATE> 2
<MEAN> 25
 7.124309e+000 1.221618e+000 2.016207e+000 1.578280e+000 -1.802338e+000 1.546861e+000 -1.410697e+000 -5.237316e+000 -6.506250e+000 4.124881e-001 9.514268e-001 -4.172462e+000 2.641805e-001 7.725453e-001 1.069411e+000 8.776232e-001 9.268476e-002 5.013317e-001 2.274507e-001 -1.415051e+000 -1.307642e+000 2.073293e-001 5.699736e-001 -5.572495e-001 -8.074110e-001
<VARIANCE> 25
 8.551355e+000 1.647644e+001 2.186263e+001 2.792371e+001 2.846220e+001 3.119468e+001 3.458305e+001 4.226256e+001 3.622509e+001 2.854767e+001 4.066470e+001 2.393776e+001 7.848337e-001 1.679799e+000 2.402361e+000 2.354240e+000 2.837973e+000 2.893564e+000 3.016547e+000 3.985608e+000 4.158769e+000 3.425533e+000 3.097798e+000 2.488218e+000 9.683660e-001
<GCONST> 9.647547e+001
<STATE> 3
<MEAN> 25
 7.143879e+000 2.123055e+000 3.554574e+000 2.449013e+000 -1.830363e+000 2.242456e+000 -9.629920e-001 -6.225995e+000 -7.180926e+000 1.642829e-001 1.357445e+000 -3.759719e+000 -1.524453e-001 4.529790e-002 2.401665e-001 9.112448e-002 -2.587314e-003 3.779421e-002 1.239375e-001 1.837356e-001 2.765596e-001 -1.725103e-001 -4.850935e-002 3.552677e-001 -1.097959e-001
<VARIANCE> 25
 7.359068e+000 1.335236e+001 1.704556e+001 2.493111e+001 2.642124e+001 2.917340e+001 3.503957e+001 3.844854e+001 3.163269e+001 3.295227e+001 4.072179e+001 2.238790e+001 5.113688e-001 1.100107e+000 1.402320e+000 1.673747e+000 1.921591e+000 1.730449e+000 1.870291e+000 2.605242e+000 2.255433e+000 2.287122e+000 2.069851e+000 1.762768e+000 8.344026e-001
<GCONST> 9.002137e+001
<STATE> 4
<MEAN> 25
 5.877738e+000 1.247216e+000 3.131714e+000 1.752958e+000 -1.806068e+000 2.059001e+000 -5.388472e-001 -4.184060e+000 -4.739265e+000 -4.760377e-001 9.445422e-001 -2.241615e+000 -6.205644e-001 -5.987007e-001 -4.373969e-001 -8.621424e-001 -1.548495e-001 -2.452580e-001 1.019089e-001 1.470997e+000 1.342329e+000 -3.500758e-001 -4.662204e-001 7.715988e-001 5.884405e-001
<VARIANCE> 25
 1.315946e+001 1.857976e+001 2.647144e+001 3.474118e+001 3.565667e+001 3.457686e+001 3.747420e+001 4.571762e+001 3.869684e+001 3.370528e+001 3.634963e+001 2.292682e+001 9.370427e-001 1.595606e+000 3.931126e+000 3.057960e+000 3.792905e+000 3.182656e+000 2.930092e+000 3.640001e+000 3.769933e+000 3.329900e+000 2.707026e+000 2.209275e+000 1.423278e+000
<GCONST> 9.915054e+001
<TRANSP> 5
 0.000000e+000 1.000000e+000 0.000000e+000 0.000000e+000 0.000000e+000
 0.000000e+000 5.294008e-001 4.705992e-001 0.000000e+000 0.000000e+000
 0.000000e+000 0.000000e+000 5.667830e-001 4.332170e-001 0.000000e+000
 0.000000e+000 0.000000e+000 0.000000e+000 5.424545e-001 4.575455e-001
 0.000000e+000 0.000000e+000 0.000000e+000 0.000000e+000 0.000000e+000
<ENDHMM>
~h "n"
<BEGINHMM>
<NUMSTATES> 5
<STATE> 2
<MEAN> 25
 5.045220e+000 8.039130e-001 2.618614e+000 1.530950e+000 -2.202566e+000 3.649234e-001 -5.207858e-001 -3.688797e+000 -2.574089e+000 -6.720733e-001 -3.281865e+000 -1.258981e+000 5.772252e-001 3.902475e-001 5.068691e-001 1.921985e-001 -5.313419e-001 1.942149e-001 7.038955e-002 -1.122712e+000 -4.893857e-001 2.978408e-002 -3.159752e-001 1.074530e-002 -2.478800e-001
<VARIANCE> 25
 1.885194e+001 1.881419e+001 2.514915e+001 2.496038e+001 3.510759e+001 3.264518e+001 3.667499e+001 4.194546e+001 3.310056e+001 3.138857e+001 3.865139e+001 2.311287e+001 1.266066e+000 1.648226e+000 2.640659e+000 2.059150e+000 2.931259e+000 2.970473e+000 3.077348e+000 4.556332e+000 3.698339e+000 2.843289e+000 3.221146e+000 2.194436e+000 1.658411e+000
<GCONST> 9.843185e+001
<STATE> 3
<MEAN> 25
 6.015720e+000 1.103051e+000 3.237193e+000 1.340454e+000 -3.207965e+000 4.575080e-001 -5.213312e-001 -5.156159e+000 -2.893290e+000 -5.092578e-001 -3.700765e+000 -1.156265e+000 -6.053216e-002 -2.739747e-001 -3.021108e-001 -1.975423e-001 6.722011e-002 -2.346748e-001 -1.165643e-001 2.670958e-001 1.979111e-001 -2.459854e-003 -6.712756e-002 5.128640e-002 4.497842e-001
<VARIANCE> 25
 1.288900e+001 1.708086e+001 2.337007e+001 2.322222e+001 2.993817e+001 2.955334e+001 3.398981e+001 3.990460e+001 3.033979e+001 3.010515e+001 3.741020e+001 2.386273e+001 8.425788e-001 1.485874e+000 2.023504e+000 1.675516e+000 2.388496e+000 2.636555e+000 2.496247e+000 3.896332e+000 3.159245e+000 2.481551e+000 2.549060e+000 1.722072e+000 1.279114e+000
<GCONST> 9.459239e+001
<STATE> 4
<MEAN> 25
 2.933445e+000 -8.328333e-001 1.304257e+000 1.154706e+000 -5.216531e-001 -4.855067e-001 -5.511928e-001 -1.695448e+000 -1.040307e+000 -7.928470e-001 -3.007360e+000 -5.408098e-001 -5.127650e-001 -6.551428e-001 -8.513342e-001 -5.930532e-001 6.482090e-001 -3.650154e-001 -2.167075e-001 1.396978e+000 5.750624e-001 -1.868848e-001 1.374352e-001 1.189479e-002 8.466684e-001
<VARIANCE> 25
 3.117044e+001 2.032962e+001 2.681773e+001 2.607851e+001 4.360458e+001 3.502595e+001 3.881222e+001 5.056798e+001 3.652802e+001 3.109842e+001 4.114706e+001 2.593491e+001 9.684604e-001 1.803791e+000 2.902901e+000 2.204510e+000 3.404134e+000 3.668507e+000 3.187201e+000 5.566701e+000 3.962519e+000 3.161474e+000 2.960355e+000 2.036814e+000 1.339197e+000
<GCONST> 1.003014e+002
<TRANSP> 5
 0.000000e+000 1.000000e+000 0.000000e+000 0.000000e+000 0.000000e+000
 0.000000e+000 4.374239e-001 5.625760e-001 0.000000e+000 0.000000e+000
 0.000000e+000 0.000000e+000 4.259619e-001 5.740380e-001 0.000000e+000
 0.000000e+000 0.000000e+000 0.000000e+000 5.730821e-001 4.269179e-001
 0.000000e+000 0.000000e+000 0.000000e+000 0.000000e+000 0.000000e+000
<ENDHMM>
~h "o"
<BEGINHMM>
<NUMSTATES> 5
<STATE> 2
<MEAN> 25
 5.894355e+000 5.074377e-001 -5.517298e+000 -9.845123e+000 -1.268791e+000 5.718289e+000 -2.233613e+000 -2.677787e+000 -1.416416e+000 1.052978e-002 1.855545e+000 -6.456961e-001 8.261415e-001 9.340481e-002 -6.932237e-001 -2.345118e+000 -6.429029e-001 1.311549e+000 4.061150e-002 -4.097560e-001 -2.274230e-001 -1.114340e-001 7.075572e-001 -2.570038e-003 8.082560e-001
<VARIANCE> 25
 1.507809e+001 2.671904e+001 2.725360e+001 6.331482e+001 6.126739e+001 4.748078e+001 6.023399e+001 3.660782e+001 4.986679e+001 4.982592e+001 4.940794e+001 2.778152e+001 2.136344e+000 1.918728e+000 2.863120e+000 5.338410e+000 5.205170e+000 4.115642e+000 4.496464e+000 4.271661e+000 4.393319e+000 4.483081e+000 4.137706e+000 2.625115e+000 2.001776e+000
<GCONST> 1.063323e+002
<STATE> 3
<MEAN> 25
 6.618823e+000 7.140153e-001 -6.341461e+000 -1.450962e+001 -2.207573e+000 8.925591e+000 -6.478313e-001 -3.230066e+000 -1.943015e+000 -9.526381e-001 3.211012e+000 4.806551e-004 3.705119e-002 4.048315e-002 1.088887e-001 1.154281e-001 3.025856e-001 4.739656e-002 -8.419504e-002 -2.574555e-001 -8.789849e-002 3.762926e-001 1.551961e-001 -1.254240e-001 -7.719940e-002
<VARIANCE> 25
 9.954309e+000 1.909832e+001 2.532163e+001 6.163609e+001 5.513934e+001 4.768715e+001 5.915416e+001 3.829973e+001 4.601412e+001 5.770275e+001 5.025358e+001 3.004397e+001 6.564431e-001 1.691537e+000 1.736204e+000 3.679083e+000 3.266029e+000 2.808697e+000 3.742336e+000 2.827829e+000 3.488353e+000 3.943281e+000 3.198029e+000 2.360343e+000 1.159873e+000
<GCONST> 1.006772e+002
<STATE> 4
<MEAN> 25
 5.854487e+000 2.029527e-001 -4.580720e+000 -8.070774e+000 1.507937e+000 5.124745e+000 -3.360202e+000 -3.577430e+000 -9.871113e-001 2.948968e+000 2.201424e+000 -1.732390e+000 -4.745712e-001 3.258739e-001 1.384667e+000 2.650044e+000 6.694854e-001 -1.529625e+000 -1.105502e-001 5.834357e-001 4.076609e-001 2.715671e-001 -8.117905e-001 -1.861713e-001 -9.848210e-001
<VARIANCE> 25
 1.221344e+001 2.256256e+001 2.992021e+001 6.601911e+001 4.302801e+001 5.223869e+001 6.225159e+001 3.951384e+001 4.481612e+001 5.257875e+001 5.513072e+001 3.593821e+001 1.358757e+000 2.441588e+000 2.647721e+000 4.556177e+000 4.643555e+000 4.292474e+000 4.798499e+000 3.974508e+000 4.695956e+000 5.235493e+000 4.680299e+000 3.258742e+000 2.039689e+000
<GCONST> 1.063057e+002
<TRANSP> 5
 0.000000e+000 1.000000e+000 0.000000e+000 0.000000e+000 0.000000e+000
 0.000000e+000 5.507464e-001 4.492536e-001 0.000000e+000 0.000000e+000
 0.000000e+000 0.000000e+000 5.871064e-001 4.128936e-001 0.000000e+000
 0.000000e+000 0.000000e+000 0.000000e+000 6.219062e-001 3.780939e-001
 0.000000e+000 0.000000e+000 0.000000e+000 0.000000e+000 0.000000e+000
<ENDHMM>
~h "p"
<BEGINHMM>
<NUMSTATES> 5
<STATE> 2
<MEAN> 25
 -6.561657e-001 6.299723e-001 2.394245e+000 4.167448e+000 3.728662e+000 3.027733e+000 2.250616e+000 2.170781e+000 2.035809e+000 8.570704e-001 3.081395e+000 1.413185e+000 -8.477189e-001 -3.978875e-001 -7.060422e-002 3.366368e-001 1.927404e-002 -7.405855e-002 1.247410e-001 2.875060e-001 4.284504e-001 2.443380e-001 4.554439e-001 3.345277e-001 -9.525869e-001
<VARIANCE> 25
 2.739149e+001 1.857831e+001 2.858417e+001 2.549329e+001 2.706352e+001 2.611832e+001 2.450988e+001 2.594856e+001 2.351243e+001 2.538789e+001 2.823523e+001 2.152435e+001 1.421478e+000 1.542539e+000 2.622905e+000 2.724928e+000 2.295683e+000 2.498235e+000 2.316180e+000 2.507473e+000 2.353588e+000 2.187359e+000 2.414197e+000 1.795820e+000 2.398291e+000
<GCONST> 9.482587e+001
<STATE> 3
<MEAN> 25
 -2.611738e+000 -8.217055e-001 7.609416e-001 3.457526e+000 2.334444e+000 1.903854e+000 1.597023e+000 1.803510e+000 2.132333e+000 1.291062e+000 3.193075e+000 1.694384e+000 -3.206682e-001 -3.024986e-001 -6.660545e-001 -2.962435e-001 -1.190187e-001 -3.910808e-001 -2.450518e-001 -1.775974e-001 -9.880579e-002 -2.011106e-001 -3.020349e-001 -6.133177e-002 7.306532e-001
<VARIANCE> 25
 1.254480e+001 1.053432e+001 1.934559e+001 2.094177e+001 2.146821e+001 2.339976e+001 2.199239e+001 2.076540e+001 2.301548e+001 2.119964e+001 2.537215e+001 1.867673e+001 1.579530e+000 1.245968e+000 2.047389e+000 1.973510e+000 1.902098e+000 2.293339e+000 2.128369e+000 2.152945e+000 2.116608e+000 2.084518e+000 2.072528e+000 1.699006e+000 2.778257e+000
<GCONST> 9.036301e+001
<STATE> 4
<MEAN> 25
 -1.055527e+000 -1.401581e-001 -2.063111e+000 1.824716e+000 2.277759e+000 1.071872e+000 7.247206e-001 4.344061e-001 1.131765e+000 3.399751e-001 1.025873e+000 6.038755e-001 1.860930e+000 2.778785e-001 -8.359851e-001 -1.712267e+000 -9.186939e-001 -1.975977e-001 -4.116542e-001 -6.107922e-001 -5.557141e-001 -6.117777e-001 -8.041202e-001 -6.636667e-001 2.849995e+000
<VARIANCE> 25
 2.550385e+001 1.670436e+001 2.483741e+001 3.496331e+001 2.806028e+001 3.057571e+001 2.579886e+001 2.431937e+001 2.814027e+001 2.524603e+001 3.120730e+001 2.076996e+001 3.616550e+000 3.353723e+000 3.803091e+000 7.906726e+000 4.996951e+000 4.805430e+000 4.401152e+000 3.657992e+000 4.571348e+000 3.426772e+000 4.117301e+000 2.786430e+000 3.281160e+000
<GCONST> 1.032403e+002
<TRANSP> 5
 0.000000e+000 1.000000e+000 0.000000e+000 0.000000e+000 0.000000e+000
 0.000000e+000 7.580734e-001 2.419266e-001 0.000000e+000 0.000000e+000
 0.000000e+000 0.000000e+000 7.306619e-001 2.693381e-001 0.000000e+000
 0.000000e+000 0.000000e+000 0.000000e+000 5.895054e-001 4.104946e-001
 0.000000e+000 0.000000e+000 0.000000e+000 0.000000e+000 0.000000e+000
<ENDHMM>
~h "r"
<BEGINHMM>
<NUMSTATES> 5
<STATE> 2
<MEAN> 25
 3.114238e+000 -2.662749e+000 -1.734025e+000 3.990815e+000 -2.355608e+000 -5.443305e+000 -2.261929e+000 -2.342523e-001 3.123441e+000 6.780607e-001 -1.729655e+000 -6.524064e-001 1.114193e+000 -1.124647e+000 3.234460e-001 5.506053e-001 -1.429095e+000 -7.516311e-001 -5.714067e-001 4.785558e-002 3.813378e-001 -4.941001e-002 -4.601096e-001 -6.115181e-003 5.871178e-001
<VARIANCE> 25
 1.871241e+001 2.065109e+001 3.814761e+001 3.684402e+001 4.024547e+001 3.639204e+001 4.209504e+001 4.368447e+001 3.637992e+001 3.417462e+001 3.712666e+001 3.024778e+001 2.484137e+000 2.474083e+000 3.439244e+000 5.982748e+000 4.039502e+000 4.517614e+000 4.121456e+000 4.871936e+000 4.251112e+000 4.449533e+000 4.077708e+000 2.941634e+000 2.875620e+000
<GCONST> 1.053320e+002
<STATE> 3
<MEAN> 25
 4.536374e+000 -5.140073e+000 -1.027779e+000 4.720581e+000 -4.778581e+000 -5.551730e+000 -3.046546e+000 4.078169e-001 3.720971e+000 6.376190e-001 -2.159124e+000 -5.053871e-001 5.802249e-001 -1.197497e+000 2.243480e-001 -1.429137e-001 -9.245325e-001 1.634456e-001 -1.338678e-001 4.270684e-001 -3.085880e-002 3.797395e-003 -1.539304e-001 -5.103014e-002 3.190843e-001
<VARIANCE> 25
 1.513750e+001 2.289764e+001 3.676725e+001 3.503551e+001 4.390133e+001 3.378231e+001 3.925851e+001 4.596786e+001 3.946515e+001 3.594158e+001 3.667739e+001 2.793583e+001 1.383253e+000 2.562904e+000 3.111964e+000 4.544140e+000 4.006335e+000 3.530095e+000 3.626873e+000 4.262531e+000 4.067820e+000 4.164559e+000 3.617128e+000 2.779704e+000 1.862324e+000
<GCONST> 1.030072e+002
<STATE> 4
<MEAN> 25
 5.121789e+000 -7.210379e+000 -1.121057e+000 3.113208e+000 -5.437599e+000 -4.503928e+000 -2.912001e+000 1.594111e+000 3.084214e+000 5.573893e-001 -2.506018e+000 -1.063940e+000 1.173058e-001 -3.482819e-001 -1.281277e-002 -1.016490e+000 2.753063e-001 5.640836e-001 3.873516e-001 2.825367e-001 -6.903542e-001 6.670228e-002 -1.969406e-002 -3.268195e-001 1.735423e-001
<VARIANCE> 25
 1.645526e+001 2.963884e+001 4.326377e+001 3.644425e+001 4.455275e+001 3.690736e+001 4.624977e+001 5.333947e+001 4.956248e+001 4.245454e+001 4.642455e+001 2.966401e+001 1.163002e+000 2.933738e+000 2.666380e+000 3.653301e+000 4.617201e+000 3.377272e+000 3.337551e+000 4.098092e+000 4.017305e+000 3.848099e+000 3.584941e+000 2.737875e+000 1.675563e+000
<GCONST> 1.039995e+002
<TRANSP> 5
 0.000000e+000 1.000000e+000 0.000000e+000 0.000000e+000 0.000000e+000
 0.000000e+000 3.518977e-001 6.481022e-001 0.000000e+000 0.000000e+000
 0.000000e+000 0.000000e+000 3.392119e-001 6.607882e-001 0.000000e+000
 0.000000e+000 0.000000e+000 0.000000e+000 4.085906e-001 5.914094e-001
 0.000000e+000 0.000000e+000 0.000000e+000 0.000000e+000 0.000000e+000
<ENDHMM>
~h "s"
<BEGINHMM>
<NUMSTATES> 5
<STATE> 2
<MEAN> 25
 -7.345465e+000 9.473520e+000 -1.327580e+000 6.760275e+000 5.439391e+000 -1.272546e+000 3.191622e+000 1.821666e+000 1.574903e+000 5.681388e-001 4.217966e-002 1.752017e+000 -4.137568e+000 1.686507e+000 -1.437886e+000 1.814057e+000 1.300460e+000 1.096056e+000 1.425164e+000 9.922608e-001 5.050981e-001 -7.108374e-002 1.116300e+000 1.163559e+000 -5.238499e-001
<VARIANCE> 25
 4.185056e+001 2.348577e+001 2.741783e+001 3.161177e+001 5.509370e+001 3.672074e+001 4.461981e+001 3.795622e+001 3.172967e+001 3.491870e+001 3.191910e+001 2.355791e+001 2.078274e+000 3.808429e+000 3.137955e+000 4.338477e+000 4.553480e+000 4.803203e+000 4.522883e+000 4.719969e+000 3.562076e+000 3.244840e+000 4.402045e+000 2.859998e+000 9.794508e-001
<GCONST> 1.040676e+002
<STATE> 3
<MEAN> 25
 -1.690940e+001 8.915676e+000 -8.023779e+000 7.644810e+000 4.091953e+000 6.358830e-001 3.637808e+000 2.053045e+000 2.420110e+000 4.345546e-001 2.698577e+000 4.120924e+000 -7.009593e-001 -5.709167e-001 -6.742468e-001 -2.603309e-001 -4.905206e-001 4.132635e-002 -3.794890e-001 -2.196432e-001 -2.745905e-002 -4.700994e-002 1.036963e-001 2.184809e-002 -4.628744e-001
<VARIANCE> 25
 1.219219e+001 1.992172e+001 2.286532e+001 3.227451e+001 3.763572e+001 3.270239e+001 3.682002e+001 3.111123e+001 3.073331e+001 2.422157e+001 2.934113e+001 1.927294e+001 2.252121e+000 1.477865e+000 2.220173e+000 1.519511e+000 2.285176e+000 2.146242e+000 2.495390e+000 2.389811e+000 2.086506e+000 2.164159e+000 1.940346e+000 1.704063e+000 9.659085e-001
<GCONST> 9.361572e+001
<STATE> 4
<MEAN> 25
 -1.259574e+001 4.970912e+000 -5.196743e+000 5.343349e+000 2.522938e+000 -8.200644e-002 1.449703e+000 9.848989e-001 1.109820e+000 7.762702e-001 1.514178e+000 2.411947e+000 2.808546e+000 -9.716809e-001 1.432844e+000 -8.707241e-001 -8.662474e-001 -5.570278e-001 -8.572166e-001 -6.750614e-001 -6.089567e-001 7.136455e-002 -4.923839e-001 -7.341177e-001 -5.931680e-003
<VARIANCE> 25
 3.860699e+001 2.015758e+001 2.809730e+001 3.139368e+001 3.962969e+001 3.853730e+001 4.394488e+001 3.156386e+001 3.099833e+001 2.663089e+001 3.445045e+001 2.133719e+001 4.850507e+000 2.347148e+000 2.954437e+000 2.774902e+000 3.247775e+000 3.940753e+000 3.936038e+000 3.350568e+000 3.273735e+000 2.636447e+000 3.402053e+000 2.334177e+000 2.620601e+000
<GCONST> 1.021240e+002
<TRANSP> 5
 0.000000e+000 1.000000e+000 0.000000e+000 0.000000e+000 0.000000e+000
 0.000000e+000 6.466669e-001 3.533330e-001 0.000000e+000 0.000000e+000
 0.000000e+000 0.000000e+000 7.726650e-001 2.273350e-001 0.000000e+000
 0.000000e+000 0.000000e+000 0.000000e+000 7.338990e-001 2.661010e-001
 0.000000e+000 0.000000e+000 0.000000e+000 0.000000e+000 0.000000e+000
<ENDHMM>
~h "t"
<BEGINHMM>
<NUMSTATES> 5
<STATE> 2
<MEAN> 25
 -9.344177e-001 2.296652e+000 3.146897e+000 5.260924e+000 1.429359e+000 6.069373e-001 1.507989e+000 1.651818e+000 2.379820e+000 1.813195e+000 1.977934e+000 1.249477e+000 -7.009047e-001 -4.887016e-001 2.609872e-004 1.204895e-001 2.802916e-001 7.571000e-001 5.152296e-001 3.214063e-001 1.976758e-001 2.647001e-001 7.860625e-001 3.503526e-001 -1.440338e+000
<VARIANCE> 25
 2.029500e+001 1.772909e+001 3.054477e+001 2.501716e+001 3.032511e+001 3.075456e+001 3.073828e+001 2.620381e+001 2.801307e+001 2.664133e+001 3.107945e+001 2.072491e+001 1.875595e+000 2.211466e+000 3.301726e+000 2.831100e+000 2.975387e+000 3.746035e+000 3.724835e+000 2.575938e+000 2.680986e+000 2.620972e+000 3.191501e+000 2.156956e+000 3.944991e+000
<GCONST> 9.866508e+001
<STATE> 3
<MEAN> 25
 -4.729373e+000 -5.924280e-001 1.086062e+000 3.728919e+000 2.493154e+000 7.663811e-001 2.363516e+000 2.577796e+000 2.006210e+000 1.000004e+000 3.383084e+000 2.596378e+000 -7.775798e-001 -2.710722e-001 -7.154135e-001 -4.995340e-001 2.222876e-001 -3.075352e-001 3.152395e-002 -1.892756e-001 -1.622688e-001 -2.552666e-001 -1.023601e-001 1.345795e-001 7.308671e-001
<VARIANCE> 25
 2.070366e+001 1.464957e+001 2.438279e+001 2.263942e+001 2.628658e+001 2.534670e+001 2.627906e+001 2.932036e+001 2.539665e+001 2.727994e+001 2.877612e+001 1.946752e+001 2.403898e+000 1.419213e+000 2.648602e+000 2.096556e+000 2.307604e+000 2.612698e+000 2.758993e+000 2.565261e+000 2.295449e+000 2.352103e+000 2.260646e+000 1.965748e+000 3.165449e+000
<GCONST> 9.501814e+001
<STATE> 4
<MEAN> 25
 -6.299013e+000 3.836172e-001 -1.516231e+000 1.411203e+000 2.877043e+000 -1.648221e+000 1.107546e+000 8.601750e-001 5.890871e-001 2.253788e-001 7.287220e-001 2.015014e+000 1.114168e+000 1.012508e-001 -5.627363e-002 -7.578986e-001 -6.698562e-001 -9.979486e-001 -8.171495e-001 -6.988078e-001 -4.981726e-001 -3.296704e-001 -9.340398e-001 -7.020679e-001 2.294174e+000
<VARIANCE> 25
 2.949812e+001 2.251623e+001 2.798229e+001 2.775276e+001 3.669672e+001 3.356987e+001 3.685448e+001 4.062712e+001 3.024001e+001 2.809262e+001 3.576142e+001 2.065917e+001 6.000082e+000 2.656944e+000 4.960778e+000 3.496418e+000 4.511822e+000 4.665677e+000 4.874022e+000 4.628916e+000 4.973691e+000 3.485880e+000 4.900022e+000 3.102466e+000 3.588717e+000
<GCONST> 1.055154e+002
<TRANSP> 5
 0.000000e+000 1.000000e+000 0.000000e+000 0.000000e+000 0.000000e+000
 0.000000e+000 6.166720e-001 3.833280e-001 0.000000e+000 0.000000e+000
 0.000000e+000 0.000000e+000 6.949505e-001 3.050494e-001 0.000000e+000
 0.000000e+000 0.000000e+000 0.000000e+000 6.368922e-001 3.631077e-001
 0.000000e+000 0.000000e+000 0.000000e+000 0.000000e+000 0.000000e+000
<ENDHMM>
~h "u"
<BEGINHMM>
<NUMSTATES> 5
<STATE> 2
<MEAN> 25
 5.073511e+000 3.366986e+000 -2.779464e+000 -3.627409e+000 -2.060571e+000 1.644042e+000 -5.558277e+000 -4.894074e+000 -3.061623e+000 2.302826e-001 2.042172e+000 -4.592686e-001 1.361990e+000 1.111194e+000 -7.055185e-001 -2.068172e+000 -9.056674e-001 1.379500e+000 1.184371e-001 -1.224820e+000 -1.067446e+000 -3.477805e-001 7.004864e-001 2.646697e-001 1.836196e-001
<VARIANCE> 25
 1.697059e+001 2.342769e+001 2.621381e+001 5.576251e+001 4.904831e+001 4.518519e+001 6.182475e+001 5.109780e+001 4.168728e+001 5.219827e+001 5.070536e+001 2.903417e+001 3.106900e+000 2.021549e+000 2.926708e+000 4.102288e+000 6.513847e+000 4.740565e+000 5.789228e+000 5.561116e+000 4.670469e+000 5.224187e+000 4.678498e+000 3.078922e+000 1.507652e+000
<GCONST> 1.074585e+002
<STATE> 3
<MEAN> 25
 6.947248e+000 5.456775e+000 -3.109118e+000 -8.288349e+000 -5.082290e+000 4.790436e+000 -2.934519e+000 -5.524449e+000 -4.913318e+000 -2.052894e+000 2.586784e+000 9.782452e-001 8.696495e-002 2.449366e-001 2.151315e-001 -1.041229e-001 1.937270e-002 3.004107e-001 2.746960e-001 7.136900e-002 -2.368398e-003 -9.933044e-002 -1.396093e-001 5.751317e-002 -1.516039e-001
<VARIANCE> 25
 1.007738e+001 1.911127e+001 2.354061e+001 4.512466e+001 4.841188e+001 3.723701e+001 6.387159e+001 5.085879e+001 4.144592e+001 6.092145e+001 5.056469e+001 2.958166e+001 7.938355e-001 1.549546e+000 1.633625e+000 3.687786e+000 3.996739e+000 2.816939e+000 4.802940e+000 3.955844e+000 3.335945e+000 4.741708e+000 3.902894e+000 2.563469e+000 1.052855e+000
<GCONST> 1.013872e+002
<STATE> 4
<MEAN> 25
 5.789863e+000 4.644251e+000 -1.296681e+000 -4.015080e+000 -1.670076e+000 3.387688e+000 -3.755203e+000 -4.654697e+000 -2.931326e+000 1.162865e-001 1.720372e+000 2.826602e-002 -7.162098e-001 -1.131087e-001 9.675382e-001 1.925306e+000 9.910843e-001 -7.415704e-001 3.791848e-001 8.624018e-001 8.972397e-001 3.739173e-001 -6.692063e-001 -3.226816e-001 -6.697258e-001
<VARIANCE> 25
 1.596691e+001 2.217032e+001 2.915825e+001 5.446432e+001 5.498768e+001 3.594925e+001 7.138522e+001 4.671906e+001 3.959116e+001 5.200906e+001 4.394936e+001 2.890467e+001 1.622248e+000 1.948171e+000 2.392443e+000 4.483291e+000 4.467675e+000 3.521212e+000 5.355309e+000 4.759917e+000 3.740341e+000 4.957490e+000 4.411853e+000 2.863107e+000 1.704460e+000
<GCONST> 1.051719e+002
<TRANSP> 5
 0.000000e+000 1.000000e+000 0.000000e+000 0.000000e+000 0.000000e+000
 0.000000e+000 5.517094e-001 4.482907e-001 0.000000e+000 0.000000e+000
 0.000000e+000 0.000000e+000 5.778450e-001 4.221550e-001 0.000000e+000
 0.000000e+000 0.000000e+000 0.000000e+000 6.097742e-001 3.902259e-001
 0.000000e+000 0.000000e+000 0.000000e+000 0.000000e+000 0.000000e+000
<ENDHMM>
~h "v"
<BEGINHMM>
<NUMSTATES> 5
<STATE> 2
<MEAN> 25
 5.379833e+000 -6.572200e-001 -7.704439e-001 1.369927e+000 2.427710e-001 -1.351159e-001 -3.951819e+000 -1.549429e+000 3.523410e-002 2.244794e+000 5.619701e-001 -1.892982e+000 4.180058e-001 1.856511e-001 1.812059e-001 5.662130e-001 9.596977e-002 1.681387e-002 -3.006951e-001 -3.838272e-001 -2.217127e-002 2.058825e-001 1.005371e-001 -2.204451e-001 -4.667237e-001
<VARIANCE> 25
 1.676338e+001 2.828599e+001 3.371531e+001 4.368930e+001 3.127801e+001 5.014489e+001 4.136751e+001 3.702182e+001 2.830041e+001 3.130841e+001 3.008357e+001 2.497029e+001 1.648995e+000 2.801929e+000 3.146337e+000 4.826838e+000 3.926497e+000 4.610530e+000 3.601360e+000 3.896819e+000 3.499224e+000 3.201527e+000 3.125127e+000 2.323959e+000 2.228509e+000
<GCONST> 1.024925e+002
<STATE> 3
<MEAN> 25
 5.557381e+000 -6.243939e-001 -3.660581e-001 1.580028e+000 9.583040e-002 -3.318510e-001 -3.596953e+000 -1.732834e+000 -1.706970e-002 2.282977e+000 6.376898e-001 -1.828096e+000 -2.954015e-002 -3.721355e-001 2.827906e-001 -1.951330e-001 -5.298641e-001 -3.927272e-001 3.443964e-001 2.018968e-001 -9.738466e-002 -7.068882e-002 -3.592839e-002 1.109680e-001 3.158656e-001
<VARIANCE> 25
 1.426353e+001 2.586809e+001 3.475403e+001 4.275399e+001 2.968550e+001 4.918814e+001 4.010398e+001 3.433481e+001 2.834739e+001 3.074037e+001 2.784329e+001 2.552909e+001 1.013205e+000 2.489984e+000 2.864086e+000 4.414303e+000 3.072047e+000 4.279153e+000 3.244879e+000 3.516174e+000 3.144091e+000 2.745527e+000 2.750667e+000 2.093101e+000 1.984328e+000
<GCONST> 1.000762e+002
<STATE> 4
<MEAN> 25
 3.793304e+000 -1.422508e+000 2.254644e-001 1.420388e+000 -4.198565e-001 -9.202759e-001 -1.550224e+000 -3.098032e-001 3.397648e-001 1.832521e+000 1.033249e+000 -9.389772e-001 -2.772630e-001 -5.685676e-001 2.759328e-001 -6.112018e-001 -7.772382e-001 -4.591052e-001 5.493405e-001 3.985543e-001 -1.539621e-001 -1.453984e-001 -1.714436e-001 1.643088e-001 7.435505e-001
<VARIANCE> 25
 2.633563e+001 2.592143e+001 3.818245e+001 5.117418e+001 3.518514e+001 5.926950e+001 4.493617e+001 3.720765e+001 3.113309e+001 2.961613e+001 3.053023e+001 2.694272e+001 8.708357e-001 1.989588e+000 2.958288e+000 3.754016e+000 3.152327e+000 3.359576e+000 3.100552e+000 3.029669e+000 3.203447e+000 2.500980e+000 2.532271e+000 2.014524e+000 1.704754e+000
<GCONST> 1.004549e+002
<TRANSP> 5
 0.000000e+000 1.000000e+000 0.000000e+000 0.000000e+000 0.000000e+000
 0.000000e+000 2.085931e-001 7.914069e-001 0.000000e+000 0.000000e+000
 0.000000e+000 0.000000e+000 2.031359e-001 7.968641e-001 0.000000e+000
 0.000000e+000 0.000000e+000 0.000000e+000 3.514591e-001 6.485409e-001
 0.000000e+000 0.000000e+000 0.000000e+000 0.000000e+000 0.000000e+000
<ENDHMM>
~h "z"
<BEGINHMM>
<NUMSTATES> 5
<STATE> 2
<MEAN> 25
 -2.048916e+000 1.087406e+001 -3.054934e+000 5.947229e+000 2.833115e+000 -4.674994e+000 -2.630150e+000 -2.894652e+000 2.364176e+000 1.548135e+000 -2.459564e+000 9.554874e-001 -2.315053e+000 2.840128e+000 -4.862818e-001 2.386418e+000 7.082952e-001 5.227072e-001 1.316021e+000 7.484905e-002 5.765820e-001 -6.681841e-001 6.895658e-001 5.307736e-001 -7.657397e-001
<VARIANCE> 25
 2.706806e+001 4.017814e+001 2.600380e+001 4.032644e+001 4.240909e+001 3.492195e+001 3.891756e+001 3.350980e+001 3.609043e+001 4.678203e+001 3.013623e+001 1.925396e+001 2.148160e+000 3.787837e+000 1.921258e+000 2.937371e+000 2.697902e+000 4.046702e+000 3.933866e+000 4.557725e+000 3.592494e+000 3.218930e+000 3.461726e+000 2.514898e+000 7.504516e-001
<GCONST> 1.015911e+002
<STATE> 3
<MEAN> 25
 -9.206303e+000 1.412094e+001 -3.949218e+000 1.086344e+001 3.828977e+000 -9.071304e-001 1.068640e+000 -5.891080e-001 3.169593e+000 -1.039647e-001 8.666800e-001 2.360038e+000 -3.440942e-001 -8.233635e-001 -2.394676e-001 -2.113594e-001 -8.802914e-002 3.785278e-001 -8.876584e-003 3.733854e-001 2.083677e-001 9.770004e-002 1.695158e-001 1.000615e-001 -1.107873e-001
<VARIANCE> 25
 2.845214e+001 2.846781e+001 1.986664e+001 2.863952e+001 3.714391e+001 3.321554e+001 3.463107e+001 3.537544e+001 2.891121e+001 3.884953e+001 2.532631e+001 1.857072e+001 3.831302e+000 3.210074e+000 1.598609e+000 2.638988e+000 1.891063e+000 3.806393e+000 2.888397e+000 2.645276e+000 2.556513e+000 2.051025e+000 2.276330e+000 1.741503e+000 1.291352e+000
<GCONST> 9.764001e+001
<STATE> 4
<MEAN> 25
 -3.466244e+000 6.504509e+000 -4.545941e+000 4.905087e+000 2.295713e+000 -2.851535e+000 -1.957151e+000 -3.922494e-001 4.757828e+000 1.355292e+000 -1.757134e+000 1.031243e+000 2.430022e+000 -3.243631e+000 1.081270e-001 -2.479468e+000 -4.567901e-001 -4.661041e-001 -5.588446e-001 4.601990e-001 1.345565e-001 3.648271e-001 -1.219464e+000 -8.041900e-001 1.012251e+000
<VARIANCE> 25
 4.354401e+001 4.849487e+001 2.543216e+001 4.047122e+001 3.529262e+001 4.197747e+001 3.932184e+001 3.695914e+001 3.853556e+001 3.634357e+001 3.358529e+001 2.353803e+001 3.304445e+000 4.268435e+000 2.446770e+000 3.796698e+000 3.284556e+000 5.543139e+000 5.491730e+000 4.850666e+000 4.486521e+000 3.050555e+000 4.006131e+000 2.867151e+000 2.200075e+000
<GCONST> 1.059441e+002
<TRANSP> 5
 0.000000e+000 1.000000e+000 0.000000e+000 0.000000e+000 0.000000e+000
 0.000000e+000 7.052966e-001 2.947034e-001 0.000000e+000 0.000000e+000
 0.000000e+000 0.000000e+000 6.446090e-001 3.553910e-001 0.000000e+000
 0.000000e+000 0.000000e+000 0.000000e+000 6.724907e-001 3.275093e-001
 0.000000e+000 0.000000e+000 0.000000e+000 0.000000e+000 0.000000e+000
<ENDHMM>
~h "cc"
<BEGINHMM>
<NUMSTATES> 5
<STATE> 2
<MEAN> 25
 -7.238913e+000 3.079487e+000 4.834440e+000 1.582987e+000 2.329669e+000 1.187725e+000 -7.534494e-001 1.668904e+000 3.047377e+000 7.344212e-001 3.659398e+000 1.524401e+000 -3.570008e+000 4.819255e-001 -2.866168e-001 -1.055953e+000 7.895167e-001 1.046314e+000 4.345700e-001 -1.960460e-001 7.076966e-001 -5.276035e-002 1.220557e+000 4.538783e-001 3.842265e-001
<VARIANCE> 25
 6.213409e+001 2.927601e+001 2.376688e+001 3.000360e+001 2.925132e+001 3.799714e+001 3.239739e+001 3.291238e+001 3.705599e+001 3.460457e+001 3.076572e+001 2.496993e+001 3.944074e+000 3.951946e+000 2.899026e+000 3.845551e+000 3.470086e+000 3.431610e+000 4.105996e+000 3.480465e+000 3.659284e+000 4.779621e+000 3.110741e+000 2.041795e+000 6.543666e+000
<GCONST> 1.046918e+002
<STATE> 3
<MEAN> 25
 -2.058462e+001 4.722485e+000 3.729243e+000 -2.400276e+000 3.110684e+000 2.590438e+000 1.542345e+000 2.843272e-001 4.599981e+000 -1.672153e+000 6.655576e+000 2.865765e+000 -1.209764e+000 -2.654914e-001 2.115872e-002 -7.125663e-002 -4.526022e-001 -5.406038e-001 8.698787e-001 -1.713523e-002 -1.720090e-001 -9.548073e-001 5.529924e-002 5.749878e-002 1.050165e+000
<VARIANCE> 25
 2.921169e+001 2.803695e+001 1.958171e+001 1.735953e+001 2.136693e+001 3.147121e+001 3.727458e+001 3.641558e+001 2.944029e+001 2.781468e+001 4.073649e+001 1.933579e+001 8.212206e+000 2.525983e+000 1.897081e+000 2.113173e+000 2.353462e+000 2.795096e+000 2.835063e+000 2.893138e+000 2.500570e+000 2.498625e+000 2.290928e+000 1.752577e+000 1.888024e+000
<GCONST> 9.785175e+001
<STATE> 4
<MEAN> 25
 -1.221095e+001 1.904895e+000 5.258854e+000 6.507751e-001 -1.063839e+000 -3.097028e+000 1.933476e+000 2.847330e-001 8.343061e-001 -4.391618e+000 3.122805e+000 1.300011e+000 4.901804e+000 -7.901018e-001 3.258027e-001 6.550474e-001 -1.857343e+000 -2.097397e+000 -1.580338e+000 -8.468516e-002 -1.077452e+000 -2.537169e-001 -1.363614e+000 -6.890199e-001 4.253991e-001
<VARIANCE> 25
 8.297133e+001 2.058060e+001 1.952699e+001 1.910154e+001 2.869786e+001 4.277541e+001 3.827554e+001 2.876255e+001 3.057126e+001 2.806752e+001 4.110817e+001 2.019220e+001 4.922308e+000 2.356370e+000 2.203518e+000 2.206227e+000 3.447593e+000 3.108828e+000 4.429067e+000 3.290932e+000 3.587470e+000 3.031299e+000 4.629227e+000 2.183764e+000 1.046523e+000
<GCONST> 1.007331e+002
<TRANSP> 5
 0.000000e+000 1.000000e+000 0.000000e+000 0.000000e+000 0.000000e+000
 0.000000e+000 7.310331e-001 2.689669e-001 0.000000e+000 0.000000e+000
 0.000000e+000 0.000000e+000 6.614343e-001 3.385656e-001 0.000000e+000
 0.000000e+000 0.000000e+000 0.000000e+000 7.255912e-001 2.744088e-001
 0.000000e+000 0.000000e+000 0.000000e+000 0.000000e+000 0.000000e+000
<ENDHMM>
~h "dz"
<BEGINHMM>
<NUMSTATES> 5
<STATE> 2
<MEAN> 25
 3.427142e+000 4.895565e+000 5.524162e+000 4.339028e+000 -1.123197e+000 9.368083e-001 -2.387286e+000 1.823598e-001 3.952025e-001 -5.463239e+000 -4.530783e+000 2.629527e-001 -2.270366e+000 1.537477e+000 1.010629e+000 1.250856e+000 1.118049e+000 1.448122e+000 1.759842e+000 -1.246691e+000 4.886498e-001 -8.434141e-002 8.573410e-001 -1.691063e-001 -6.615452e-001
<VARIANCE> 25
 2.418186e+001 2.595057e+001 2.125161e+001 2.767759e+001 2.232825e+001 3.114116e+001 3.675520e+001 3.509403e+001 3.940211e+001 2.205481e+001 3.254591e+001 1.899101e+001 5.649988e+000 2.789265e+000 1.376038e+000 4.694271e+000 2.404848e+000 3.228881e+000 3.134554e+000 3.695287e+000 5.234550e+000 4.525331e+000 4.857764e+000 2.244905e+000 4.279179e+000
<GCONST> 1.017966e+002
<STATE> 3
<MEAN> 25
 -8.512645e+000 6.441809e+000 7.050653e+000 5.821047e+000 1.907270e-001 2.610395e+000 2.148874e+000 -3.259135e+000 4.191319e+000 -5.147746e+000 -8.047627e-002 7.848871e-001 -1.755399e+000 -3.543963e-001 -5.257317e-001 -1.018819e-001 -2.024783e-001 -1.419124e+000 -5.256223e-001 -9.159551e-001 1.083879e+000 -3.323061e-002 5.337663e-001 2.727892e-001 1.598602e+000
<VARIANCE> 25
 5.470156e+001 2.568208e+001 1.560202e+001 2.556461e+001 2.565624e+001 3.576477e+001 4.002161e+001 2.140696e+001 2.741128e+001 2.903899e+001 2.479133e+001 2.599989e+001 1.191600e+001 2.910678e+000 2.097895e+000 3.179104e+000 2.080928e+000 4.588904e+000 5.974744e+000 2.410198e+000 3.002819e+000 2.490721e+000 3.082525e+000 2.119024e+000 1.693504e+000
<GCONST> 1.006894e+002
<STATE> 4
<MEAN> 25
 -1.758666e+000 2.079043e+000 2.775527e+000 4.440020e+000 -2.308348e+000 -5.185441e+000 -5.868945e+000 -5.139172e+000 5.794372e+000 -3.919756e+000 -1.495422e+000 6.713916e-001 3.408266e+000 -2.398442e+000 -1.322277e+000 -1.240651e+000 -7.259057e-001 -6.897979e-001 -3.006941e+000 -2.332530e-001 1.136321e-002 1.463934e+000 4.851691e-002 -3.719367e-001 5.204327e-001
<VARIANCE> 25
 3.963571e+001 2.537553e+001 2.701991e+001 2.510098e+001 2.425050e+001 3.391144e+001 4.681849e+001 3.285912e+001 2.185826e+001 1.865162e+001 1.499034e+001 2.734560e+001 3.978683e+000 1.510896e+000 1.416851e+000 1.978440e+000 2.453388e+000 5.440652e+000 4.334846e+000 4.233903e+000 2.291980e+000 4.115670e+000 4.242786e+000 2.194022e+000 5.535286e-001
<GCONST> 9.766640e+001
<TRANSP> 5
 0.000000e+000 1.000000e+000 0.000000e+000 0.000000e+000 0.000000e+000
 0.000000e+000 6.590742e-001 3.409258e-001 0.000000e+000 0.000000e+000
 0.000000e+000 0.000000e+000 6.602349e-001 3.397651e-001 0.000000e+000
 0.000000e+000 0.000000e+000 0.000000e+000 6.590599e-001 3.409400e-001
 0.000000e+000 0.000000e+000 0.000000e+000 0.000000e+000 0.000000e+000
<ENDHMM>
~h "sil"
<BEGINHMM>
<NUMSTATES> 5
<STATE> 2
<MEAN> 25
 -4.529865e+000 -2.449934e+000 8.746642e-001 4.273559e+000 3.626642e+000 1.936840e+000 3.122355e+000 2.828964e+000 1.399166e+000 -3.749128e-001 2.435778e+000 1.631451e+000 -2.864924e-003 -8.667687e-003 1.802521e-002 1.794286e-002 -4.825746e-002 -9.875885e-003 -1.789051e-002 -6.923237e-002 -2.523993e-002 2.106467e-003 4.250038e-002 2.631394e-002 -7.603463e-002
<VARIANCE> 25
 1.277890e+001 9.453518e+000 1.688613e+001 1.939912e+001 2.258354e+001 2.402864e+001 2.231825e+001 2.702793e+001 2.129875e+001 2.088434e+001 2.991089e+001 1.674113e+001 2.448421e-001 3.976525e-001 6.507239e-001 8.306268e-001 1.151033e+000 1.262407e+000 1.507299e+000 1.587420e+000 1.500063e+000 1.529157e+000 1.419423e+000 1.306807e+000 1.639162e-001
<GCONST> 7.948652e+001
<STATE> 3
<MEAN> 25
 -5.032526e+000 -2.679660e+000 7.229495e-001 3.664983e+000 4.741467e+000 1.347394e+000 3.515197e+000 2.863642e+000 1.281811e+000 -6.980046e-001 2.071212e+000 2.491851e+000 1.108491e-001 1.321773e-001 1.055339e-002 -4.292671e-003 -3.799241e-003 9.028691e-002 7.624830e-002 -1.203338e-001 -4.442824e-002 6.100859e-002 4.963951e-002 -2.524987e-002 -1.273459e-001
<VARIANCE> 25
 1.256283e+001 1.084950e+001 1.554436e+001 1.619645e+001 2.403161e+001 2.303516e+001 2.198750e+001 2.741690e+001 2.690071e+001 2.212668e+001 3.109196e+001 1.702169e+001 8.000259e-001 6.871839e-001 1.075315e+000 1.055975e+000 1.725897e+000 1.673275e+000 1.775787e+000 2.175568e+000 1.977203e+000 1.898801e+000 1.790181e+000 1.492105e+000 7.969059e-001
<GCONST> 8.578795e+001
<STATE> 4
<MEAN> 25
 -8.721687e+000 9.893201e-001 -5.406933e-001 3.219795e+000 2.409567e+000 5.715120e+000 5.185542e+000 1.492872e+000 1.642920e+000 1.329163e-001 1.185993e+000 3.976538e+000 1.109312e-002 4.528984e-002 6.332166e-002 1.455021e-002 -5.434534e-002 -1.103661e-001 -3.841752e-002 1.677178e-002 -2.293524e-002 -3.115807e-002 -1.743941e-002 -3.711073e-002 9.804863e-002
<VARIANCE> 25
 6.773297e+001 3.277544e+001 2.363884e+001 2.242801e+001 2.928696e+001 7.388725e+001 2.418447e+001 2.503527e+001 2.306450e+001 2.061113e+001 3.123193e+001 2.354442e+001 8.393942e-001 9.270046e-001 1.046488e+000 1.138016e+000 1.504421e+000 1.591371e+000 1.855182e+000 1.881230e+000 1.927900e+000 1.618718e+000 1.541323e+000 1.241919e+000 7.305658e-001
<GCONST> 9.029571e+001
<TRANSP> 5
 0.000000e+000 1.000000e+000 0.000000e+000 0.000000e+000 0.000000e+000
 0.000000e+000 9.250798e-001 7.492022e-002 0.000000e+000 0.000000e+000
 0.000000e+000 0.000000e+000 8.499197e-001 1.500803e-001 0.000000e+000
 0.000000e+000 0.000000e+000 0.000000e+000 8.603280e-001 1.396720e-001
 0.000000e+000 0.000000e+000 0.000000e+000 0.000000e+000 0.000000e+000
<ENDHMM>
~h "sp"
<BEGINHMM>
<NUMSTATES> 3
<STATE> 2
<MEAN> 25
 -5.032526e+000 -2.679660e+000 7.229495e-001 3.664983e+000 4.741467e+000 1.347394e+000 3.515197e+000 2.863642e+000 1.281811e+000 -6.980046e-001 2.071212e+000 2.491851e+000 1.108491e-001 1.321773e-001 1.055339e-002 -4.292671e-003 -3.799241e-003 9.028691e-002 7.624830e-002 -1.203338e-001 -4.442824e-002 6.100859e-002 4.963951e-002 -2.524987e-002 -1.273459e-001
<VARIANCE> 25
 1.256283e+001 1.084950e+001 1.554436e+001 1.619645e+001 2.403161e+001 2.303516e+001 2.198750e+001 2.741690e+001 2.690071e+001 2.212668e+001 3.109196e+001 1.702169e+001 8.000259e-001 6.871839e-001 1.075315e+000 1.055975e+000 1.725897e+000 1.673275e+000 1.775787e+000 2.175568e+000 1.977203e+000 1.898801e+000 1.790181e+000 1.492105e+000 7.969059e-001
<GCONST> 8.578795e+001
<TRANSP> 3
0.0 1.0 0.0
0.0 0.9 0.1
0.0 0.0 0.0
<ENDHMM>
