~o
<STREAMINFO> 1 25
<VECSIZE> 25<NULLD><MFCC_D_N_Z_0><DIAGC>
~h "proto"
<BEGINHMM>
<NUMSTATES> 5
<STATE> 2
<MEAN> 25
 -2.451176e-008 -1.450069e-008 -8.350959e-009 -3.318010e-008 2.492540e-008 -4.100035e-009 4.118766e-008 1.672728e-008 -1.972751e-008 -1.623104e-008 -9.325237e-009 -1.208678e-008 1.278637e-003 5.451203e-004 3.036853e-004 3.571261e-004 2.779482e-004 -2.384843e-004 2.877193e-004 -1.199947e-003 -4.953510e-004 1.056578e-003 2.958156e-004 -7.747572e-004 -1.170953e-003
<VARIANCE> 25
 5.978041e+001 4.075527e+001 5.344437e+001 5.985472e+001 6.226976e+001 5.348510e+001 4.846768e+001 4.768425e+001 4.652553e+001 3.882906e+001 4.668937e+001 3.120427e+001 3.336300e+000 2.697285e+000 3.159485e+000 4.022838e+000 4.134845e+000 3.837146e+000 3.742485e+000 3.897323e+000 3.622202e+000 3.258839e+000 3.478787e+000 2.484367e+000 2.717694e+000
<GCONST> 1.082640e+002
<STATE> 3
<MEAN> 25
 -2.451176e-008 -1.450069e-008 -8.350959e-009 -3.318010e-008 2.492540e-008 -4.100035e-009 4.118766e-008 1.672728e-008 -1.972751e-008 -1.623104e-008 -9.325237e-009 -1.208678e-008 1.278637e-003 5.451203e-004 3.036853e-004 3.571261e-004 2.779482e-004 -2.384843e-004 2.877193e-004 -1.199947e-003 -4.953510e-004 1.056578e-003 2.958156e-004 -7.747572e-004 -1.170953e-003
<VARIANCE> 25
 5.978041e+001 4.075527e+001 5.344437e+001 5.985472e+001 6.226976e+001 5.348510e+001 4.846768e+001 4.768425e+001 4.652553e+001 3.882906e+001 4.668937e+001 3.120427e+001 3.336300e+000 2.697285e+000 3.159485e+000 4.022838e+000 4.134845e+000 3.837146e+000 3.742485e+000 3.897323e+000 3.622202e+000 3.258839e+000 3.478787e+000 2.484367e+000 2.717694e+000
<GCONST> 1.082640e+002
<STATE> 4
<MEAN> 25
 -2.451176e-008 -1.450069e-008 -8.350959e-009 -3.318010e-008 2.492540e-008 -4.100035e-009 4.118766e-008 1.672728e-008 -1.972751e-008 -1.623104e-008 -9.325237e-009 -1.208678e-008 1.278637e-003 5.451203e-004 3.036853e-004 3.571261e-004 2.779482e-004 -2.384843e-004 2.877193e-004 -1.199947e-003 -4.953510e-004 1.056578e-003 2.958156e-004 -7.747572e-004 -1.170953e-003
<VARIANCE> 25
 5.978041e+001 4.075527e+001 5.344437e+001 5.985472e+001 6.226976e+001 5.348510e+001 4.846768e+001 4.768425e+001 4.652553e+001 3.882906e+001 4.668937e+001 3.120427e+001 3.336300e+000 2.697285e+000 3.159485e+000 4.022838e+000 4.134845e+000 3.837146e+000 3.742485e+000 3.897323e+000 3.622202e+000 3.258839e+000 3.478787e+000 2.484367e+000 2.717694e+000
<GCONST> 1.082640e+002
<TRANSP> 5
 0.000000e+000 1.000000e+000 0.000000e+000 0.000000e+000 0.000000e+000
 0.000000e+000 6.000000e-001 4.000000e-001 0.000000e+000 0.000000e+000
 0.000000e+000 0.000000e+000 6.000000e-001 4.000000e-001 0.000000e+000
 0.000000e+000 0.000000e+000 0.000000e+000 7.000000e-001 3.000000e-001
 0.000000e+000 0.000000e+000 0.000000e+000 0.000000e+000 0.000000e+000
<ENDHMM>
